svm_type c_svc
kernel_type rbf
gamma 0.015625
nr_class 17
total_sv 292
rho 0.462573 0.221116 0.024286 0.130445 0.0319448 -0.0825529 -0.0571709 0.0871219 -0.044186 0.287857 -0.0229155 -0.208467 -0.402067 -0.0144932 -0.320366 -0.126483 -0.379641 -0.541492 -0.51281 -0.619314 -0.406144 -0.57351 -0.388322 -0.464301 -0.270684 -0.26294 -0.754661 -0.638796 -0.663363 -0.714548 -0.455625 -0.209613 -0.0673096 -0.18374 -0.155728 -0.209979 -0.020869 -0.0686686 0.0166112 -0.0812999 -0.392062 -0.474169 -0.187371 -0.561501 -0.218035 0.100069 -0.105269 -0.00776943 -0.0300149 0.219333 -0.0372828 0.161023 0.00983869 -0.260901 -0.419431 -0.00930667 -0.376216 -0.150148 -0.0943801 -0.142442 -0.272875 -0.0271336 -0.11114 0.137833 -0.0811374 -0.745764 -0.831337 -0.179441 -0.410261 -0.341204 -0.0636722 -0.0862897 0.133746 -0.059906 0.163278 0.0788543 -0.240232 -0.36423 -0.0266468 -0.332074 -0.142059 -0.0118609 0.158994 0.054603 0.298056 -0.0236233 -0.232762 -0.33484 -0.0271928 -0.290649 -0.143317 0.137431 0.0478027 0.179641 0.0605258 -0.0844104 -0.315862 0.0559111 -0.312755 -0.110044 -0.0801214 0.130974 -0.019413 -0.298283 -0.437203 -0.117072 -0.410638 -0.186856 0.219929 0.0282687 -0.184742 -0.380152 0.0317307 -0.237007 -0.133105 -0.147468 -0.370288 -0.528953 -0.194492 -0.461652 -0.416617 -0.225282 -0.409894 -0.0705133 -0.336664 -0.160267 -0.232744 0.208254 -0.128814 -0.0322949 0.411941 0.0457134 0.110677 -0.480559 -0.179156 0.159332
label 0 1 2 3 4 5 6 7 8 9 10 11 20 21 22 23 24
nr_sv 10 30 20 19 25 20 17 23 23 14 20 16 9 9 19 8 10
SV
1 1 1 1 1 0.9242959456326515 1 1 1 1 1 1 1 1 1 1 1:-1 2:-1 3:-1 4:-1 5:-1 6:-1 7:-1 8:-1 9:-1 10:-1 11:-0.875 13:-0.25 15:-0.5 16:-1 17:-1 18:-1 19:0.125 20:-0.875 21:-0.75 22:-1 23:-0.25 25:-1 26:-1 27:0.375 28:-1 29:-1 30:-1 31:-1 32:0.666667 33:-1 34:-1 35:0.25 36:-1 37:-1 38:-1 39:-1 40:0.5 41:-1 42:-1 43:-0.25 44:-0.25 45:-1 46:-1 47:0.125 48:-0.5 49:-1 50:-1 51:-1 52:-0.5 53:-0.125 54:-0.125 55:-0.75 56:-1 57:0.333333 58:-1 59:-1 60:-1 61:-1 62:-1 63:-1 64:-1 
1 1 1 1 1 1 0.8970879142833637 1 0.808660917252352 1 1 0.8079166432922168 0.5515722652202357 0.6199240150323524 0.4968261014375619 0.6414320156097827 1:-1 2:-1 3:-0.5 4:0.833333 5:0.666667 6:-1 7:-1 8:-1 9:-1 10:-0.625 11:0.5 12:0.25 13:0.25 14:0.375 15:-0.25 16:-1 17:-1 18:0.5 19:-0.5 20:-1 21:-1 22:-0.875 23:0.5 24:0.4 25:-0.454545 26:0.625 27:-1 28:-1 29:-1 30:-1 31:0.25 32:0.333333 33:0.166667 34:0.125 35:-1 36:-1 37:-1 38:-0.625 39:1 40:-0.666667 41:0.454545 42:0.125 43:-1 44:-1 45:-0.875 46:0.625 47:-0.25 48:-1 49:0.4 50:0.75 51:-0.875 52:-0.5 53:0.75 54:-0.375 55:-1 56:-1 57:-1 58:0.333333 59:1 60:0.5 61:-0.666667 62:-1 63:-1 64:-1 
1 0.6647758799882851 0.348986965886622 1 1 1 0.436655978449374 0.6699465992113856 0.6286212551966854 1 0.6194424719363272 0.2178203620552532 0.3047105408288078 0.4440799790490556 0.4000165290400103 0.2091085590429257 1:-1 2:-1 3:-1 4:-0.833333 5:0.666667 6:0.666667 7:-0.333333 8:-1 9:-1 10:-0.875 11:0.375 12:0.75 13:-0.625 14:-0.5 15:0.625 16:-0.272727 17:-1 18:0.5 20:-1 21:-1 22:-1 23:-0.5 24:1 25:0.0909091 26:0.375 27:-1 28:-1 29:-1 30:-1 31:-0.5 32:0.666667 33:0.833333 34:-0.5 35:-1 36:-1 37:-1 38:-1 39:0.25 41:0.818182 42:-0.375 43:-1 44:-1 45:-1 46:-0.25 47:0.625 48:-1 49:-0.4 50:0.5 51:-0.375 52:-0.375 53:0.25 54:0.625 55:-0.875 56:-1 57:-1 58:-0.5 59:0.5 60:0.5 62:-1 63:-1 64:-1 
0 0 0 0 0 0 0 0 0 0.5358505505208651 0 0 0 0 0 0 1:-1 2:-1 3:-0.833333 4:0.333333 5:0.333333 6:0.166667 7:-0.833333 8:-1 9:-1 10:-0.625 11:0.875 12:0.75 15:0.625 16:-0.818182 17:-0.8 18:0.75 19:-0.625 20:-1 21:-1 22:-1 24:0.6 25:0.272727 26:0.125 27:-1 28:-1 29:-1 30:-1 31:-0.5 32:0.333333 33:0.333333 34:-0.5 35:-1 36:-1 37:-1 38:-1 41:0.272727 43:-1 44:-1 45:-1 46:-0.375 47:0.75 48:-0.833333 49:-0.8 50:0.625 51:0.25 53:0.5 54:0.75 55:-0.625 56:-1 57:-1 58:-0.833333 59:0.166667 60:0.333333 62:-0.833333 63:-1 64:-1 
0.7244211976621294 0.02412355711652341 0 0.1795461234317495 0 0.1821496411993415 0 0 0 1 0 0 0 0 0 0.2049395067745219 1:-1 2:-1 3:-0.666667 4:0.333333 6:-0.833333 7:-1 8:-1 9:-1 10:-0.875 11:0.75 12:0.625 13:0.5 14:0.875 15:-0.625 16:-1 17:-1 18:0.625 19:0.25 20:-0.875 21:-1 22:-0.5 23:0.75 24:-0.6 25:0.0909091 26:0.375 27:-1 28:-1 29:-1 30:-1 32:0.333333 33:0.333333 34:-0.375 35:-1 36:-1 37:-1 38:-1 39:-0.375 40:0.333333 41:0.272727 42:0.25 43:-1 44:-1 45:-1 46:-0.75 47:0.625 48:-0.333333 49:-0.8 50:0.625 51:0.75 52:0.5 53:0.5 54:1 55:0.125 56:-1 57:-1 58:-1 59:-0.333333 60:0.333333 61:0.166667 62:-0.666667 63:-1 64:-1 
1 1 1 1 1 1 0.686083998907704 0.8444562395087971 0.9974770844747283 1 1 1 0.6479369090063422 1 0.6356821790468251 1 1:-1 2:-1 3:-0.166667 5:-1 6:-1 7:-1 8:-1 9:-1 10:0.25 11:0.75 12:0.875 13:0.5 14:-0.625 15:-1 16:-1 17:0.2 18:0.5 19:-0.875 20:-1 21:-0.25 22:0.75 23:-0.625 24:-1 25:0.454545 26:-0.375 27:-1 28:-1 29:-1 30:-0.625 31:0.875 32:-0.833333 33:0.166667 35:-1 36:-1 37:-1 38:-1 39:0.25 40:0.166667 41:-0.818182 42:0.625 43:-0.125 44:-1 45:-1 46:-1 47:-0.25 48:0.333333 49:-1 50:-0.875 51:0.5 52:0.75 53:0.25 54:0.25 55:0.875 56:-0.272727 57:-1 58:-1 59:-1 60:-0.5 61:0.166667 62:0.166667 63:-0.666667 64:-1 
0 0 0 0 0 0 0 0 0 0 0 0 0 0 0 0.1822105810261346 1:-1 2:-1 3:-0.5 4:0.166667 5:0.333333 6:-0.166667 7:-1 8:-1 9:-1 10:0.25 11:0.75 12:0.125 14:0.5 15:0.25 16:-1 17:0.2 18:0.5 19:-0.875 20:-1 21:-1 22:-1 23:0.375 24:0.2 25:0.454545 26:-0.25 27:-1 28:-1 29:-1 30:-1 31:-0.5 32:0.333333 33:0.333333 34:-0.125 35:-1 36:-1 37:-1 38:-1 40:0.166667 41:-0.636364 42:0.75 43:-0.625 44:-1 45:-1 46:-0.875 47:0.75 48:-0.666667 49:-1 50:-0.25 51:0.75 52:0.25 53:0.25 54:0.875 55:-0.25 56:-1 57:-1 58:-1 59:-0.833333 62:-0.666667 63:-1 64:-1 
0 0 0 0 0.4556621228020024 0 0 0 0 0 0.1269511363995174 0 0 0 0 0 1:-1 2:-0.833333 3:0.333333 4:0.333333 5:0.333333 7:-1 8:-1 9:-0.777778 10:0.625 11:0.5 12:-0.375 13:-0.5 14:0.25 15:0.25 16:-1 17:0.2 19:-1 20:-1 21:-1 22:-1 23:0.25 24:0.2 25:0.636364 26:-0.5 27:-1 28:-1 29:-1 30:-1 31:-0.5 32:0.5 33:0.5 34:-0.5 35:-1 36:-1 37:-1 38:-1 39:-0.5 40:0.666667 41:0.0909091 43:-1 44:-1 45:-1 46:-1 47:0.375 49:-1 50:0.25 51:0.25 52:-0.5 53:-0.375 54:0.5 55:0.25 56:-1 57:-1 58:-1 60:0.333333 61:0.333333 62:-0.333333 63:-1 64:-1 
0 0.7313924710080844 1 0.1816565459556186 0.8529033302541648 1 0.5008964353609272 1 1 0.215633358598368 0 0 0 0 0.06503162202758754 0 1:-1 2:-1 3:0.166667 4:0.5 5:1 6:0.166667 7:-1 8:-1 9:-1 10:0.25 11:0.125 12:-0.375 13:-0.5 15:0.25 16:-1 18:0.25 19:-1 20:-1 21:-1 22:-1 23:0.5 24:-0.2 25:0.636364 26:-0.5 27:-1 28:-1 29:-1 30:-1 31:-0.375 32:0.333333 33:0.666667 34:-0.5 35:-1 36:-1 37:-1 38:-1 39:-0.5 40:0.833333 41:-0.272727 42:0.375 43:-1 44:-1 45:-1 46:-1 48:0.166667 49:-1 50:0.25 51:0.375 52:-0.5 53:-0.5 54:0.25 55:0.5 56:-0.818182 57:-1 58:-1 59:-0.333333 60:0.333333 61:0.333333 62:-0.166667 63:-1 64:-1 
1 0.8825536498515541 0.3493227220898428 1 0.218943433763441 1 0.4800385621304126 0.8228433658446647 0.5872688056720525 0.9284132068954292 0.6390622892652283 0.09802520644071504 0.2501171703526432 0.3464981668545175 0.1922204670817909 0.03468999021111389 1:-1 2:-0.833333 4:0.666667 5:0.5 6:-0.666667 7:-1 8:-1 9:-0.777778 10:0.625 11:0.25 12:-0.5 13:-0.25 14:0.5 15:-0.25 16:-1 17:0.8 18:-0.375 19:-1 20:-1 21:-1 22:-0.875 23:0.5 24:-0.6 25:1 26:-0.5 27:-1 28:-1 29:-1 30:-1 31:-0.375 32:0.333333 33:0.166667 35:-1 36:-1 37:-1 38:-1 39:-0.5 40:1 41:-0.818182 42:0.75 43:-0.875 44:-1 45:-1 46:-1 47:-0.125 48:0.166667 49:-1 50:-0.625 51:0.625 52:-0.25 53:-0.5 55:0.625 56:-0.818182 57:-1 58:-1 59:-0.833333 60:0.166667 61:0.333333 62:0.166667 63:-0.833333 64:-1 
-0.7157668837848085 1 1 1 0.99611885830349 0.9428354971394458 1 0.9410233658031432 1 0.9831390902113593 0.5591785017153789 0 0.3699083969527139 0.5658022660266473 0.4880923750715213 0 1:-1 2:-1 3:-1 4:-1 5:-0.333333 6:0.833333 7:0.833333 8:-1 9:-1 10:-0.25 11:0.125 12:0.5 13:0.125 14:0.75 15:0.875 16:-1 17:-1 18:-0.625 19:-0.875 20:-1 21:-1 22:1 23:0.25 24:-1 25:-1 26:-1 27:-1 28:-1 29:-0.875 30:1 32:-1 33:-1 34:-1 35:-1 36:-1 37:-1 38:1 39:0.25 40:-1 41:-1 42:-1 43:-1 44:-1 45:-1 46:0.875 47:0.5 48:-1 49:-1 50:-1 51:-1 52:-1 53:-1 54:0.875 55:0.625 56:-1 57:-1 58:-1 59:-1 60:-1 61:-0.666667 62:1 63:0.666667 64:-1 
-0.3303700253265803 0.3652443196460444 0.05982656522415355 1 0.2939772180864797 0 0.9563473880451103 0.2608810284909064 0.5122218000684287 0.1797738135099967 0.2080220156285913 0.6114095456361965 0.44439212565603 0.5238001289762025 0.3448310510736679 1 1:-1 2:-1 3:-1 4:-1 5:-1 6:0.166667 7:0.666667 8:-1 9:-1 10:-1 11:-1 12:-0.25 13:0.75 14:0.75 15:1 16:-1 17:-1 18:0.25 19:0.75 20:0.375 21:-0.5 22:0.625 23:0.625 24:-1 25:-1 26:-0.75 27:-0.875 28:-1 29:-0.875 30:1 31:0.125 32:-1 33:-1 34:-1 35:-1 36:-1 37:-0.5 38:1 39:-0.375 40:-1 41:-1 42:-1 43:-1 44:-1 46:1 47:-0.75 48:-1 49:-1 50:-1 51:-1 52:-1 53:0.625 54:0.75 55:-1 56:-1 57:-1 58:-1 59:-1 60:-1 61:0.166667 63:-1 64:-1 
-0.02856346506872049 0.4771296694163956 0.6909225079662468 0.2638060836505656 0.1732046699101498 0 1 0.5499717183909562 0.5073798039206923 0.08829262781989093 0 0.309578178613892 0.1874062920420151 1 0.9118601420994568 0.4347791603763832 1:-1 2:-1 3:-1 4:-1 5:-0.333333 6:0.833333 7:0.666667 8:-1 9:-1 10:-0.625 12:0.625 13:0.875 14:1 15:0.5 16:-1 17:-1 18:-0.25 19:-0.25 20:-0.75 21:0.5 22:1 23:-0.5 24:-1 25:-1 26:-1 27:-1 28:-0.5 29:1 30:0.25 31:-1 32:-1 33:-1 34:-1 35:-1 36:0.5 37:1 38:-0.75 39:-1 40:-1 41:-1 42:-1 43:-0.625 44:1 45:0.25 46:-1 47:-1 48:-1 49:-1 50:-1 52:1 53:-0.375 54:-1 55:-1 56:-1 57:-1 58:-1 59:-0.5 60:0.833333 62:-1 63:-1 64:-1 
-0 0 0 0 0 0 0 0 0 0 0 0 0 0.09899279821694941 0 0 1:-1 2:-1 3:-1 4:-1 6:1 7:0.333333 8:-1 9:-1 10:-1 11:-0.875 12:0.375 13:1 14:1 15:1 16:-1 17:-1 18:-0.125 19:0.75 20:0.75 21:-0.5 22:1 23:0.625 24:-1 25:-1 26:-0.625 27:-0.625 28:-1 29:-0.5 30:1 31:0.25 32:-1 33:-1 34:-1 35:-1 36:-1 37:0.125 38:1 39:-0.25 40:-1 41:-1 42:-1 43:-1 44:-1 45:0.5 46:1 47:-0.5 48:-1 49:-1 50:-1 51:-1 52:-1 53:0.25 54:1 55:-0.375 56:-1 57:-1 58:-1 59:-1 60:-1 61:-0.833333 62:0.5 63:0.5 64:-1 
-0 0.552446534744257 0 0 0 0 0 0.1539018366998619 0 0 0 0 0 0 0 0 1:-1 2:-1 3:-0.333333 4:0.833333 5:0.166667 6:-1 7:-1 8:-1 9:-0.555556 10:0.75 11:0.5 12:0.375 13:0.5 14:-1 15:-1 16:-1 17:-1 18:-1 19:-1 20:0.25 21:0.5 22:-1 23:-1 24:-1 25:-1 26:-1 27:-1 28:0.5 29:0.125 30:-1 31:-1 32:-1 33:-1 34:-1 35:-1 36:0.5 38:-1 39:-1 40:-1 41:-1 42:-1 43:-1 44:0.625 46:-1 47:-1 48:-1 49:-0.8 51:-0.375 52:1 53:0.25 54:-0.5 55:-0.5 56:-0.818182 57:-0.777778 58:-0.166667 59:0.333333 60:0.666667 61:0.333333 62:0.333333 64:-0.75 
-0 0 0 0.8012276694554262 0 0 0 0 0 0.7053026733028515 0 0.5028481715748413 0 0 0 0.001054076859329087 1:-1 2:-1 3:-1 4:0.5 5:0.5 6:-1 7:-1 8:-1 9:-1 10:-0.875 11:0.375 12:0.625 13:1 14:-1 15:-1 16:-1 17:-0.6 18:0.625 19:0.125 20:-0.5 21:1 22:-1 23:-1 24:-1 25:-0.818182 26:-0.625 27:-1 28:-0.5 29:1 30:-1 31:-1 32:-1 33:-1 34:-1 35:-1 36:-0.5 37:1 38:-1 39:-1 40:-1 41:-1 42:-1 43:-1 44:-0.5 45:1 46:-1 47:-1 48:-1 49:-1 50:-1 51:-1 52:-0.125 53:1 54:-0.5 55:-0.625 56:-1 57:-1 58:-1 59:-0.166667 60:0.5 61:0.333333 62:0.333333 63:0.833333 64:-0.5 
-0 0 0 0 0 0.1366049919605816 0 0 0 0 0 0 0 0.6974918498115408 0 0.3500785209832587 1:-1 2:-1 3:-1 4:-1 6:1 7:-0.666667 8:-1 9:-1 10:-1 11:-0.875 12:0.375 13:1 14:0.875 15:-1 16:-1 17:-0.8 18:0.25 19:0.875 20:0.125 21:1 22:0.25 23:-1 24:-1 25:-1 26:-0.5 27:-1 28:-0.125 29:1 30:-0.5 31:-1 32:-1 33:-1 34:-1 35:-1 36:0.75 37:0.625 38:-1 39:-1 40:-1 41:-1 42:-1 43:-0.625 44:1 45:-0.125 46:-1 47:-1 48:-1 49:-1 50:-0.625 51:-0.375 52:1 53:-0.375 54:-1 55:-1 56:-1 57:-0.555556 58:0.333333 59:0.333333 60:0.333333 61:0.333333 62:0.666667 63:0.833333 64:-0.5 
-0.5245567319400959 0.2367951534891039 0.5701116501570709 0.8578346447597601 0.4835586001921617 0.2770679811904712 0 0.2500124523874732 1 0.7989781260127099 0.09314858521829743 0 0 0 0 0.6697730484074224 1:-1 2:-1 3:-1 4:-1 5:-0.333333 6:0.833333 7:0.666667 8:-1 9:-1 10:-1 11:-0.875 12:0.125 13:1 14:0.875 15:1 16:-1 17:-1 19:0.875 20:0.5 21:-0.625 22:0.5 23:1 24:-1 25:-1 26:-0.5 27:-0.625 28:-1 29:-1 30:0.5 31:1 32:-1 33:-1 34:-1 35:-1 36:-1 37:-1 38:0.75 39:0.75 40:-1 41:-1 42:-1 43:-1 44:-1 45:-0.75 46:1 47:0.375 48:-1 49:-1 50:-1 51:-1 52:-1 53:-0.5 54:1 56:-1 57:-1 58:-1 59:-1 60:-1 61:-0.833333 62:0.833333 63:0.666667 64:-1 
-0 0 0 0.3192377375410199 0 0.1666076732889715 0.2199017128169292 0 0 0 0 0.312362059385678 0 0 0 0.1223058682392727 1:-1 2:-1 3:-1 4:-1 5:-0.666667 6:0.666667 7:0.833333 8:-1 9:-1 10:-1 11:-0.75 13:0.875 14:1 15:0.875 16:-1 17:-1 18:0.25 19:0.75 21:-0.125 22:1 24:-1 25:-1 26:-1 27:-1 28:-1 29:0.625 30:0.875 31:-0.875 32:-1 33:-1 34:-1 35:-1 36:-0.375 37:1 38:0.25 39:-1 40:-1 41:-1 42:-1 43:-1 44:0.25 45:1 46:-0.5 47:-1 48:-1 49:-1 50:-1 51:-1 52:0.875 53:1 54:-1 55:-1 56:-1 57:-1 58:-1 59:-1 60:0.166667 61:1 62:-0.166667 63:-1 64:-1 
-0.1090070589926735 1 1 0.4892460014572029 1 0.2948232830099523 0.8987397112599779 1 0.5328352444945226 0 0.7368080669688309 0.2703431384244788 0.07368315315146801 0.4152825721149926 0.06377497602148818 0.0531560081091246 1:-1 2:-1 3:-0.333333 4:0.833333 5:0.5 6:-1 7:-1 8:-1 9:-0.333333 10:0.5 11:-0.125 12:-0.375 13:1 14:-1 15:-1 16:-1 17:-1 18:-1 19:-1 20:-0.5 21:0.875 22:-1 23:-1 24:-1 25:-1 26:-1 27:-1 28:-0.5 29:0.875 30:-1 31:-1 32:-1 33:-1 34:-1 35:-1 36:-0.5 37:1 38:-0.875 39:-1 40:-1 41:-1 42:-1 43:-1 44:-0.875 45:1 46:-0.5 47:-1 48:-1 49:-1 50:-1 51:-1 52:-0.75 53:1 54:-0.5 55:-1 56:-1 57:-0.555556 58:1 59:1 60:1 61:1 62:0.5 63:0.666667 64:-0.25 
-0.3631848382702504 1 1 0.6959329396812116 0.7113746194522892 0.3975425534492448 0.9907228716785683 0.4753053424550255 0.4619026486028911 1 0.4030887424281572 0 0.04847329723718769 0.4433329816946146 0 0 1:-1 2:-1 3:-1 5:0.833333 6:0.333333 7:-1 8:-1 9:-1 11:0.5 12:0.125 13:0.625 14:0.5 15:-1 16:-1 17:-1 18:-1 19:-1 20:-1 21:0.5 22:0.125 23:-1 24:-1 25:-1 26:-1 27:-1 28:-1 29:0.5 30:0.5 31:-1 32:-1 33:-1 34:-1 35:-1 36:-1 37:0.5 38:0.5 39:-1 40:-1 41:-1 42:-1 43:-1 44:-1 45:0.75 46:0.125 47:-1 48:-1 49:-0.6 50:0.5 51:1 52:1 53:1 54:1 55:0.625 56:-0.636364 57:-1 58:-1 59:-1 60:-1 61:-1 62:-1 63:-1 64:-1 
-0 0.07587587262653095 0.05733894474558697 0 0.3954436740542718 0.04118321166053775 0 0.3261718195523839 0 0 0.09173239359913525 0 0 0 0 0 1:-1 2:-1 3:-1 4:-1 5:0.333333 6:0.833333 7:-1 8:-1 9:-1 10:-1 11:-0.5 12:0.625 13:0.75 14:0.75 15:-1 16:-1 17:-1 18:-0.375 19:0.375 20:-0.5 21:0.5 22:0.125 23:-1 24:-1 25:-1 26:-1 27:-1 28:-1 29:1 30:-0.125 31:-1 32:-1 33:-1 34:-1 35:-1 36:-1 37:1 38:-0.375 39:-1 40:-1 41:-1 42:-1 43:-1 44:-0.75 45:1 46:-0.5 47:-1 48:-1 49:-1 50:-1 51:-1 52:0.375 53:1 54:-1 55:-1 56:-1 57:-0.555556 58:1 59:1 60:1 61:0.833333 62:0.666667 63:0.833333 64:-0.5 
-0 0 0 0 0.2873383316502545 0 0 0 0 0 0.2618223923348184 0 0 0 0 0 1:-1 2:-1 3:-1 5:-0.166667 6:-1 7:-1 8:-1 9:-1 10:-1 11:-0.25 12:1 14:-1 15:-1 16:-1 17:-1 18:-0.625 19:0.75 20:0.125 22:-1 23:-1 24:-1 25:-1 26:-1 27:-1 28:0.125 30:-1 31:-1 32:-1 33:-1 34:-1 35:-1 36:0.5 37:-0.375 38:-1 39:-1 40:-1 41:-1 42:-1 43:-1 44:0.875 45:-0.625 46:-1 47:-1 48:-1 49:-0.8 50:-0.5 51:-0.25 52:1 53:-0.125 56:-0.272727 57:0.111111 58:1 59:1 60:0.333333 61:0.333333 62:0.333333 63:-0.333333 64:-0.5 
-0 0 0 0 0 0.1661154687519246 0 0 0 0 0 0 0 0 0 0 1:-1 2:-1 3:-1 5:0.166667 6:-1 7:-1 8:-1 9:-1 10:-1 11:-0.5 12:1 13:0.5 14:-1 15:-1 16:-1 17:-1 19:0.875 20:0.375 21:0.25 22:-1 23:-1 24:-1 25:-1 26:-0.75 27:-0.875 28:0.125 30:-1 31:-1 32:-1 33:-1 34:-1 35:-1 36:0.5 38:-1 39:-1 40:-1 41:-1 42:-1 43:-1 44:0.5 45:-0.125 46:-1 47:-1 48:-1 49:-0.6 52:0.875 53:-0.125 54:-0.5 55:-0.25 56:-0.454545 57:-0.333333 58:0.333333 59:0.333333 60:0.5 61:0.666667 62:1 63:0.333333 64:-0.25 
-0 0 0 0.1191556652495425 0 0.01469643833851668 0 0 0 0.4155002666831495 0 0.5890926393507115 0.341294447189942 1 0.3978587982638604 0.4618933592652869 1:-1 2:-1 3:-1 4:-1 5:0.5 6:-0.166667 7:-1 8:-1 9:-1 10:-1 11:-0.75 12:0.375 13:1 14:-0.625 15:-1 16:-1 17:-1 18:-0.875 19:0.5 20:0.125 21:1 22:-1 23:-1 24:-1 25:-1 26:-1 27:-1 29:0.5 30:-1 31:-1 32:-1 33:-1 34:-1 35:-1 36:0.125 37:0.5 38:-1 39:-1 40:-1 41:-1 42:-0.875 43:-1 44:0.625 45:-0.125 46:-1 47:-1 48:-1 49:-0.2 50:0.5 51:0.5 52:0.5 53:0.5 54:0.5 55:0.5 56:-0.636364 57:-1 58:-1 59:-1 60:-1 61:-1 62:-1 63:-1 64:-1 
-1 0.3191933949262812 0.867806214476013 1 1 1 1 1 1 1 0.5666237850222646 0.6654111310048875 0.5179912092243031 1 0.6359880524963968 1 1:-1 2:-1 3:-0.166667 4:0.5 5:-1 6:-1 7:-1 8:-1 9:-1 10:-0.25 11:1 12:0.75 13:-1 14:-1 15:-1 16:-1 17:-0.4 18:0.875 19:0.125 20:0.5 21:-1 22:-1 23:-1 24:-1 25:-1 26:-1 29:-1 30:-1 31:-1 32:-1 33:-1 34:-1 37:-1 38:-1 39:-1 40:-1 41:-0.636364 42:-0.5 43:0.375 44:0.5 45:0.375 46:0.5 47:0.5 48:-0.166667 49:-0.2 52:-0.5 53:-0.5 54:-1 55:-1 56:-1 57:-1 58:-1 59:-1 60:-1 61:-1 62:-1 63:-1 64:-1 
-0.1604904261798004 0.7751581799861111 0 0 0 0 0.07017510341409761 0 0.05906904626571332 0.0500342019498569 0 0.4705668693238919 0 0 0 0.07747713394062367 1:-1 2:-1 3:-0.666667 4:0.833333 5:-0.166667 6:-1 7:-1 8:-1 9:-0.777778 10:0.25 11:0.625 12:0.75 13:-0.125 14:-1 15:-1 16:-1 17:-1 18:-0.625 19:-1 20:0.875 21:-0.625 22:-1 23:-1 24:-1 25:-1 26:-1 27:-0.75 28:1 29:-1 30:-1 31:-1 32:-1 33:-1 34:-1 35:-0.5 36:1 37:-1 38:-1 39:-1 40:-1 41:-1 42:-0.5 43:-0.375 44:1 45:-0.5 46:-1 47:-1 48:-1 49:-0.2 50:0.5 51:0.125 52:0.5 53:0.5 54:0.5 55:0.625 56:-0.454545 57:-1 58:-1 59:-1 60:-1 61:-1 62:-1 63:-1 64:-1 
-0 0 0 0 0 0 0 0 0.06639514068200503 0 0 0 0 0 0 0 1:-1 2:-1 3:-0.166667 4:0.5 5:-1 6:-1 7:-1 8:-1 9:-1 10:-0.5 11:0.875 12:1 13:-1 14:-1 15:-1 16:-1 17:-0.4 18:0.875 19:-0.375 20:1 21:-1 22:-1 23:-1 24:-1 25:-0.454545 26:-0.375 27:-1 28:1 29:-1 30:-1 31:-1 32:-1 33:-1 34:-1 35:-1 36:1 37:-0.625 38:-1 39:-1 40:-1 41:-1 42:-1 43:-1 44:0.625 45:-0.5 46:-1 47:-1 48:-1 49:-1 50:-0.75 51:-0.5 52:0.625 53:-0.125 54:-0.5 55:-0.5 56:-0.636364 57:-1 58:-0.333333 59:0.333333 60:0.5 61:0.333333 62:0.333333 63:0.333333 64:-0.25 
-0 0 0 0 0 0 0 0 0 0.7147242579450016 0 0 0 0 0 0 1:-1 2:-1 3:-1 5:0.666667 6:-1 7:-1 8:-1 9:-1 10:-0.875 11:0.375 12:0.75 13:1 14:-1 15:-1 16:-1 17:-0.2 18:0.875 20:-0.375 21:0.875 22:-1 23:-1 24:-1 25:-0.818182 26:-0.75 27:-1 29:0.5 30:-1 31:-1 32:-1 33:-1 34:-1 35:-1 37:0.5 38:-1 39:-1 40:-1 41:-1 42:-1 43:-1 45:0.5 46:-1 47:-1 48:-1 49:-1 50:-0.375 52:0.5 53:0.75 56:-0.454545 57:-1 58:-0.666667 59:-0.333333 60:0.166667 61:0.333333 62:-0.333333 63:-0.333333 64:-0.75 
-0 0 0 0.09181934197200876 0 0 0 0 0 0 0 0.2971639674340014 0 0 0 0 1:-1 2:-1 3:-0.833333 4:0.333333 5:-1 6:-1 7:-1 8:-1 9:-1 10:-1 11:0.375 12:1 13:-1 14:-1 15:-1 16:-1 17:-1 18:-0.125 19:0.5 20:1 21:-1 22:-1 23:-1 24:-1 25:-1 26:0.5 27:-0.875 28:1 29:-1 30:-1 31:-1 32:-1 33:-1 34:-1 35:-1 36:1 37:-1 38:-1 39:-1 40:-1 41:-1 42:-1 43:-1 44:0.875 45:-0.75 46:-1 47:-1 48:-1 49:-0.6 50:-0.25 52:1 53:0.5 54:0.25 56:-0.272727 57:-0.111111 58:0.333333 59:-0.166667 60:-0.333333 61:-0.333333 62:-0.333333 63:-0.333333 64:-0.5 
-1 1 0.1053239119722378 1 0.8632660712242792 1 0 0.4825750715108592 0.5722846799928238 1 1 0.01288888201773773 0.6590624830580321 0 0.1908230920977153 0 1:-1 2:-1 3:-0.833333 4:0.166667 5:-1 6:-1 7:-1 8:-1 9:-1 10:-1 11:0.5 12:0.5 13:-1 14:-1 15:-1 16:-1 17:-1 18:0.25 19:0.5 20:0.5 21:-1 22:-1 23:-1 24:-1 25:0.454545 26:0.25 27:-0.5 28:0.5 29:-1 30:-1 31:-1 32:-1 33:-0.666667 34:-1 35:-0.5 36:0.125 37:-1 38:-1 39:-1 40:-1 41:-1 42:-1 43:-0.5 45:-1 46:-1 47:-1 48:-1 49:-0.8 50:-0.5 51:-0.125 52:0.5 53:-0.5 54:-0.5 55:-0.5 56:-0.636364 57:-0.111111 58:0.333333 59:0.333333 60:0.333333 61:0.333333 62:0.333333 63:0.333333 64:0.25 
-0.1959537853409498 1 0 0 0.9466945079898202 0.6178050912383425 0 0.7668065834045721 0 0.131547652737676 1 0 0 0.5608435336667431 0.08455631449142424 0.3668636296238063 1:-1 2:-1 3:-0.166667 5:-1 6:-1 7:-1 8:-1 9:-1 10:-0.625 11:0.875 12:0.5 13:-1 14:-1 15:-1 16:-1 17:-1 18:0.625 19:0.875 20:0.5 21:-1 22:-1 23:-1 24:-1 25:-1 26:-1 28:0.5 29:-1 30:-1 31:-1 32:-1 33:-1 34:-1 35:0.25 36:0.5 37:-1 38:-1 39:-1 40:-1 41:-1 42:-1 43:0.5 44:0.125 45:-1 46:-1 47:-1 48:-1 49:-0.2 50:0.875 51:0.875 52:0.75 53:0.5 54:0.5 55:0.25 56:-0.454545 57:-1 58:-0.333333 60:-0.166667 61:-0.333333 62:-0.333333 63:-0.333333 64:-0.75 
-0 1 0 0.1940505044087679 0 0 0.1096463244839187 0 0 1 0 0.01134687184777787 0.05248269275226919 1 0.0953071930985241 0.2028833863072677 1:-1 2:-1 4:0.833333 5:-1 6:-1 7:-1 8:-1 9:-0.777778 10:0.375 11:0.75 12:1 13:-0.75 14:-1 15:-1 16:-1 17:-0.8 18:-0.5 19:-1 20:1 21:-0.5 22:-1 23:-1 24:-1 25:-1 26:-1 27:-1 28:1 29:-0.5 30:-1 31:-1 32:-1 33:-1 34:-1 35:-1 36:1 37:-0.5 38:-1 39:-1 40:-1 41:-0.818182 42:-0.5 43:-0.25 44:1 45:-0.875 46:-1 47:-1 48:-1 49:-0.2 50:0.5 51:0.5 52:0.5 53:0.5 54:0.5 55:0.5 56:-0.272727 57:-1 58:-1 59:-1 60:-1 61:-1 62:-1 63:-1 64:-1 
-0.7074281357114222 1 0.09280244762446317 0.2941401520844234 0.1500103191175937 0.2116147322939387 0 0.05669577249713541 0.370245089594744 1 0.09803590962352446 0 0 0 0.08479576976529107 0.3173521241074929 1:-1 2:-1 3:-1 4:-0.166667 5:1 6:-0.666667 7:-1 8:-1 9:-1 10:-0.625 11:0.5 12:0.125 13:0.625 14:-0.5 15:-1 16:-1 17:-0.2 18:0.375 19:-0.625 20:-1 21:1 22:-0.625 23:-1 24:-1 25:-1 26:-1 27:-1 28:-0.75 29:1 30:-1 31:-1 32:-1 33:-1 34:-1 35:-1 36:-0.375 37:0.5 38:-1 39:-1 40:-1 41:-1 42:-1 43:-1 45:0.25 46:-1 47:-1 48:-1 49:-0.6 50:0.625 51:1 52:0.75 53:0.625 54:0.5 55:0.5 56:-0.272727 57:-1 58:-1 59:-1 60:-1 61:-1 62:-1 63:-1 64:-1 
-0 1 0.199653912110363 0 0 0 0.2390590149330372 0.02301026752293277 0 0 0 0.09571011886575057 0 0.1015028822091841 0.4142938959028439 0 1:-1 2:-1 3:-0.333333 4:0.666667 5:-1 6:-1 7:-1 8:-1 9:-1 11:0.5 12:1 13:-1 14:-1 15:-1 16:-1 17:-1 18:-1 19:-1 20:1 21:-1 22:-1 23:-1 24:-1 25:-1 26:-1 27:-0.625 28:0.875 29:-1 30:-1 31:-1 32:-1 33:-1 34:-1 35:-0.5 36:0.5 37:-1 38:-1 39:-1 40:-1 41:-1 42:-1 43:-0.5 44:0.5 45:-1 46:-1 47:-1 48:-1 49:-0.8 50:-0.5 51:-0.125 52:0.625 53:-0.5 54:-0.5 55:-0.5 56:-0.818182 57:0.111111 58:0.666667 59:0.333333 60:0.333333 61:0.333333 62:0.333333 63:0.5 
-0.5890998470468279 0.2427211324849745 0.02943406138593506 0.2018982002712996 0 0.7969732092495772 0.09630676298546625 0 0 0.1040527592003498 0.07573930684912646 0.5049117723802248 0.2814114973892993 0 0 0 1:-1 2:-1 3:-1 4:-0.666667 5:0.833333 6:-1 7:-1 8:-1 9:-1 10:-1 11:-0.875 12:0.75 13:1 14:-1 15:-1 16:-1 17:-0.6 18:-1 19:-1 20:-1 21:1 22:-1 23:-1 24:-1 25:-0.818182 26:-1 27:-1 28:-1 29:0.875 30:-1 31:-1 32:-1 33:-1 34:-1 35:-1 36:-1 37:0.5 38:-1 39:-1 40:-1 41:-1 42:-1 43:-1 44:-1 45:0.5 46:-1 47:-1 48:-1 49:-1 50:-1 51:-1 52:-0.125 53:0.625 54:-0.5 55:-0.5 56:-0.636364 57:-1 58:-1 59:0.833333 60:1 61:0.833333 62:0.333333 63:0.333333 64:0.5 
-0 0.1581849319293839 0 0 0 0 0 0 0 0 0 0 0 0 0 0 1:-1 2:-1 3:-0.5 4:0.833333 5:-0.666667 6:-1 7:-1 8:-1 9:-1 10:-0.75 11:0.625 12:1 13:-0.5 14:-1 15:-1 16:-1 17:-1 18:-1 19:-1 20:0.5 21:-0.5 22:-1 23:-1 24:-1 25:-1 26:-1 27:-1 28:0.75 29:-0.5 30:-1 31:-1 32:-1 33:-1 34:-1 35:-1 36:1 37:-0.75 38:-1 39:-1 40:-1 41:-1 42:-1 43:-1 44:1 45:-1 46:-1 47:-1 48:-1 49:-1 50:-0.5 51:-0.125 52:0.875 53:-0.5 54:-0.5 55:-0.5 56:-0.636364 57:0.333333 58:1 59:0.833333 60:0.333333 61:0.333333 62:0.333333 63:0.333333 64:0.25 
-0 0 0.8686821028961148 0 0.142067021869209 0 0.06580167909186523 0.1902967832738398 0 0 0 0.434616004727121 0 0 0 0 1:-1 2:-1 3:-0.333333 4:0.833333 5:-0.666667 6:-1 7:-1 8:-1 9:-1 10:-0.625 11:0.375 12:1 13:-0.5 14:-1 15:-1 16:-1 17:-1 18:-1 19:-1 20:1 21:-0.5 22:-1 23:-1 24:-1 25:-1 26:-1 27:-1 28:1 29:-0.625 30:-1 31:-1 32:-1 33:-1 34:-1 35:-1 36:1 37:-1 38:-1 39:-1 40:-1 41:-1 42:-1 43:-1 44:1 45:-1 46:-1 47:-1 48:-1 49:-1 50:-0.5 51:-0.5 52:1 53:-0.375 56:-0.454545 57:0.111111 58:1 59:0.333333 60:0.333333 61:0.166667 62:-0.333333 63:-0.333333 64:-0.5 
-0 0.6865598161636241 0 0 0 0 0 0 0 0.434422917969377 0 0 0 0 0.1734560169378688 0 1:-1 2:-1 3:-1 4:-0.166667 5:0.833333 6:-1 7:-1 8:-1 9:-1 10:-1 11:0.125 12:0.75 13:1 14:-1 15:-1 16:-1 17:-1 18:-1 19:-1 20:-1 21:1 22:-1 23:-1 24:-1 25:-1 26:-1 27:-1 28:-1 29:1 30:-1 31:-1 32:-1 33:-1 34:-1 35:-1 36:-0.5 37:0.75 38:-1 39:-1 40:-1 41:-1 42:-1 43:-1 44:-0.25 45:0.5 46:-1 47:-1 48:-1 49:-0.8 50:-0.5 51:-0.5 52:0.25 53:0.25 54:-0.5 55:-0.875 56:-1 57:-0.111111 58:0.833333 59:0.333333 60:0.333333 61:0.333333 62:0.833333 63:1 64:0.5 
-0 0 0 0 0 0 0 0.2318440224795815 0 0 0 0 0 0 0 0 1:-1 2:-1 3:-0.166667 4:0.833333 5:0.833333 6:-1 7:-1 8:-1 9:-1 10:0.375 11:0.5 12:0.5 13:1 14:-1 15:-1 16:-1 17:-1 18:-1 19:-1 20:-0.375 21:1 22:-0.75 23:-1 24:-1 25:-1 26:-1 27:-1 28:-0.25 29:1 30:-1 31:-1 32:-1 33:-1 34:-1 35:-1 36:0.25 37:0.625 38:-1 39:-1 40:-1 41:-1 42:-1 43:-1 44:0.625 45:0.125 46:-1 47:-1 48:-1 49:-1 50:-1 51:-1 52:1 54:-1 55:-1 56:-1 57:-0.333333 58:1 59:1 60:1 61:1 62:1 63:1 
-0.2923527793514154 -0.4293888625888337 1 0.1002360291204825 1 0 1 0.366845422866391 0.3671456205588151 0.5760616822034173 0.3348462834867877 0.01519567885316655 0.01347261478046764 0 0 0.03736058933402642 1:-1 2:-0.333333 3:0.666667 4:1 5:1 6:0.333333 7:-0.833333 8:-1 9:-0.111111 10:0.625 11:-0.25 12:-0.875 13:-1 15:0.5 16:-1 17:-1 18:-1 19:-1 20:-1 21:-1 22:-1 23:1 24:-1 25:-1 26:-1 27:-1 28:-1 29:-1 30:-0.375 31:0.75 32:-1 33:-1 34:-1 35:-1 36:-1 37:-0.625 38:0.75 39:-0.625 40:-1 41:-1 42:-1 43:-0.875 45:0.75 46:-0.625 47:-1 48:-1 49:-1 50:-0.25 51:0.75 52:1 53:0.5 54:0.375 55:-0.125 56:-0.636364 57:0.111111 58:0.666667 59:-0.166667 60:-0.666667 61:-1 62:-0.833333 
-0 -1 0.4167827356350665 0 0 0 0.8428771089483669 0 0 0.3423286236181808 0 0 0 0 0 0 1:-1 2:-0.333333 3:0.5 4:1 5:0.666667 6:-0.5 7:-1 8:-1 9:-1 10:0.625 11:-0.25 12:-0.5 13:-0.375 14:0.875 15:-0.75 16:-1 17:-1 18:-1 19:-1 20:-1 21:-1 22:0.5 23:-0.5 24:-1 25:-1 26:-1 27:-1 28:-1 29:-0.75 30:0.75 31:-0.75 32:-1 33:-1 34:-1 35:-1 36:-1 37:0.5 39:-1 40:-1 41:-1 42:-1 43:-0.5 44:0.5 45:0.125 46:-1 47:-1 48:-1 49:-0.4 50:0.5 51:1 52:0.75 53:0.75 54:0.5 56:-0.818182 57:-0.555556 58:-0.333333 59:-1 60:-1 61:-1 62:-0.833333 63:0.166667 64:0.25 
-0 -0 0.01207102440801933 0 0 0 0 0 0 0 0 0 0 0 0 0 1:-1 2:-0.333333 3:0.5 4:1 5:0.833333 6:-0.166667 7:-1 8:-1 9:0.555556 10:0.625 11:-0.25 12:-0.75 13:-0.625 14:0.5 15:-0.375 16:-1 17:-0.8 18:-0.875 19:-1 20:-1 21:-1 22:-0.5 23:0.5 24:-1 25:-1 26:-1 27:-1 28:-1 29:-1 30:-0.25 31:0.25 32:-1 33:-1 34:-1 35:-1 36:-1 37:-0.625 38:0.625 39:-0.875 40:-1 41:-1 42:-1 43:-0.875 45:0.625 46:-0.75 47:-1 48:-1 49:-0.8 51:0.875 52:0.875 55:-0.25 56:-0.636364 57:0.111111 58:0.666667 60:-0.333333 61:-0.333333 62:-0.333333 63:0.333333 
-0.7381856672948487 -1 0 0.7343919732806429 0.05255171229790978 0.430811031330244 0 0 1 1 0 0.4003794421413369 0.2077566517167439 0.2036801769626194 0 0.5495396964160191 1:-1 2:-1 3:-0.166667 4:0.5 5:1 6:0.666667 7:-0.166667 8:-1 9:-0.111111 10:0.75 11:0.5 12:-0.25 13:-0.5 14:-0.5 15:0.75 16:-0.454545 17:-0.8 18:-0.625 19:-1 20:-1 21:-1 22:-1 23:0.625 24:-0.2 25:-1 26:-1 27:-1 28:-1 29:-1 30:-0.25 31:0.75 32:-1 33:-1 34:-1 35:-1 36:-1 37:-0.125 38:0.875 39:-0.625 40:-1 41:-1 42:-1 43:-0.375 44:0.625 45:0.25 46:-0.875 47:-1 48:-1 49:-1 50:0.75 51:1 52:0.75 53:0.5 54:0.125 55:-0.375 56:-0.818182 57:-1 58:-1 59:-1 60:-1 61:-1 62:-0.333333 63:0.333333 64:0.25 
-0.7977619390063747 -1 1 0.7950151871912964 1 1 1 1 0.7212171440136638 0.3902862033590934 1 0.4470871990684311 0.522714741942572 0.1921783623888787 0.8225515426335744 0.1987210854846225 1:-1 2:-0.333333 3:0.666667 4:0.5 5:0.333333 6:0.666667 7:-0.166667 8:-1 9:-1 10:-0.625 11:-0.875 12:-1 13:-1 14:-1 15:0.375 16:0.0909091 17:-1 18:-1 19:-1 20:-1 21:-1 22:-1 23:0.125 24:0.4 25:-1 26:-1 27:-1 28:-1 29:-1 30:-0.625 31:0.5 32:-0.833333 33:-1 34:-1 35:-1 36:-1 37:-0.125 38:0.25 39:-0.875 40:-1 41:-1 42:-1 43:-0.75 44:0.375 45:-0.125 46:-1 47:-1 48:-1 49:-0.8 51:0.25 52:-0.875 53:-1 54:-1 55:-1 56:-1 57:0.111111 58:1 59:0.833333 60:0.833333 61:0.333333 62:0.333333 63:0.333333 64:-0.5 
-0.7965729230872464 -1 1 0.575067155355932 1 0.6971665753200611 0.7282806360986004 1 0.3429485494877521 0.8524200888661982 0.7605847541476641 0.4880952170596051 0.3260366887079866 0.8397162217429093 0.9737869139404496 0.3981401730266553 1:-1 2:-0.833333 3:0.166667 4:1 5:0.5 6:-0.666667 7:-1 8:-1 9:-1 10:-0.875 12:-0.5 13:-0.25 14:0.75 15:-1 16:-1 17:-1 18:-1 19:-1 20:-1 21:-0.625 22:0.75 23:-1 24:-1 25:-1 26:-1 27:-1 28:-0.625 29:0.75 30:-0.625 31:-1 32:-1 33:-1 34:-1 35:-0.25 36:0.75 37:-0.625 38:-1 39:-1 40:-1 41:-1 42:0.125 43:0.625 44:-0.875 45:-1 46:-1 47:-1 48:-1 49:0.8 50:0.875 52:0.25 53:0.5 54:1 55:0.75 56:0.272727 57:-0.333333 58:0.333333 59:0.333333 60:-0.166667 61:-0.666667 62:-1 63:-1 64:-1 
-0 -1 0.1377102026733094 0 0.8087145888394758 0.1298182603727165 0 0.4031286022069534 0 0 1 0 0 0.5777587164979692 0.07027111078365124 0 1:-0.142857 2:0.333333 3:-0.166667 4:-1 5:-1 6:-1 7:-1 8:-1 9:-0.333333 11:0.375 12:0.75 13:-0.75 14:-1 15:-1 16:-1 17:-1 18:-1 19:-1 20:0.125 22:-1 23:-1 24:-1 25:-1 26:-1 27:-0.875 28:0.625 29:-0.25 30:-1 31:-1 32:-1 33:-1 34:-0.875 35:0.625 36:0.25 37:-1 38:-1 39:-1 40:-1 41:-0.818182 42:0.625 43:0.25 44:-1 45:-1 46:-1 47:-1 48:-1 49:0.6 50:0.75 54:0.5 55:0.5 56:0.0909091 57:-0.777778 58:0.333333 59:0.333333 60:0.333333 61:0.333333 62:0.166667 63:-0.333333 64:-0.5 
-0 -0.8731100137001616 0.1084547941238255 0 0 0.2300596310587342 0 0.677010405032723 0 0 0.02390907496875021 0 0 0 0 0 1:-1 2:0.333333 3:0.333333 4:-0.333333 5:-1 6:-1 7:-1 8:-1 9:-1 12:0.5 14:-1 15:-1 16:-1 17:-1 18:-1 19:-1 20:-0.75 21:0.5 22:-1 23:-1 24:-1 25:-1 26:-1 27:-0.75 28:0.625 29:-0.25 30:-1 31:-1 32:-1 33:-1 34:-0.625 35:0.875 36:-0.25 37:-1 38:-1 39:-1 40:-1 41:-0.454545 42:0.75 43:-0.375 44:-1 45:-1 46:-1 47:-1 48:-1 49:1 50:0.5 56:-0.0909091 57:-0.777778 58:0.166667 59:0.333333 60:0.333333 61:0.333333 62:0.333333 63:0.333333 64:0.25 
-0.4318325546176909 -1 0 0.0245495642053575 0.3962194785325639 1 0 0.2971034814734234 0.06916055268457635 0.5718620830411868 1 0 0 0.1069132500508223 0 0.2735329637909155 1:-0.428571 2:0.166667 3:-0.666667 4:-1 5:-1 6:-1 7:-1 8:-1 9:-0.555556 10:0.375 11:1 13:-1 14:-1 15:-1 16:-1 17:-1 18:-1 19:-0.75 20:0.75 21:-0.625 22:-1 23:-1 24:-1 25:-1 26:-1 27:-0.625 28:0.875 29:-0.75 30:-1 31:-1 32:-1 33:-1 34:-0.5 35:0.875 36:-0.25 37:-1 38:-1 39:-1 40:-1 41:-0.272727 42:0.875 43:-0.25 44:-1 45:-1 46:-1 47:-1 48:-1 49:0.4 50:0.875 51:0.5 52:0.5 53:0.5 54:0.5 55:0.5 56:-0.0909091 57:-1 58:-0.333333 59:-0.333333 60:0.166667 61:0.333333 62:0.333333 63:0.333333 64:-0.5 
-0.6965065139157921 -1 0.2304131602410267 1 0 0.3738698927819433 0 0 0.1585437705927935 1 0 1 0.6907564198628153 1 0.6095633475800377 0.533347764550017 1:-1 2:0.333333 3:-0.166667 4:-1 5:-1 6:-1 7:-1 8:-1 9:-1 10:-0.375 11:0.375 12:0.75 13:-0.625 14:-1 15:-1 16:-1 17:-1 18:-1 19:-1 20:-0.375 21:0.5 22:-1 23:-1 24:-1 25:-1 26:-1 27:-0.875 28:0.625 29:0.125 30:-1 31:-1 32:-1 33:-1 34:-0.375 35:0.875 36:-0.125 37:-1 38:-1 39:-1 40:-1 41:-0.0909091 42:0.875 43:-0.625 44:-1 45:-1 46:-1 47:-1 48:-1 50:0.875 51:0.75 52:0.5 53:0.5 54:0.125 55:-0.125 56:-0.636364 57:-1 58:-1 59:-0.833333 60:-0.333333 61:-0.333333 63:0.333333 
-0.6924034539307734 -1 1 1 0.8926171514584484 0.7060164080369903 1 0.7999485520631116 0.7855865955987819 0.8668112705447967 0.7006647708514484 0.853952163085493 0.5792493023549661 0.6495882650263289 0.3584153156494354 0.4213310904701024 1:-0.714286 2:0.333333 3:1 4:0.333333 5:-1 6:-1 7:-1 8:-1 9:1 10:-0.625 11:-1 12:-0.125 13:-0.5 14:-1 15:-1 16:-1 18:-1 19:-1 20:-0.25 21:-0.375 22:-1 23:-1 24:-1 25:-1 26:-1 27:-1 28:0.375 29:-0.875 30:-1 31:-1 32:-1 33:-1 34:-1 35:-0.75 36:0.125 37:-1 38:-1 39:-1 40:-1 41:-1 42:-1 44:-0.75 45:-1 46:-1 47:-1 48:-1 49:-1 50:-1 51:0.25 52:-0.5 53:-1 54:-0.875 55:-0.5 56:-0.636364 57:-1 58:-1 59:-0.833333 60:0.666667 61:1 62:0.5 63:0.333333 64:0.25 
-0 -0.1941568575022344 0.2047385104488632 0 0.2029449094598082 0 0 1 0 0 0 0 0 0 0 0 1:-1 2:-0.333333 3:0.5 4:1 5:0.833333 6:-0.5 7:-1 8:-1 9:0.555556 10:0.375 11:-0.375 12:-1 13:-0.125 14:0.5 15:-1 16:-1 17:-1 18:-1 19:-1 20:-1 21:0.375 23:-1 24:-1 25:-1 26:-1 27:-1 28:-0.25 29:0.625 30:-1 31:-1 32:-1 33:-1 34:-1 35:-0.125 36:0.625 37:-0.875 38:-1 39:-1 40:-1 41:-1 42:0.25 43:0.25 44:-1 45:-1 46:-1 47:-1 48:-1 49:0.4 50:0.75 51:-0.5 52:-0.5 53:-0.5 54:-0.5 55:-0.5 56:-1 57:-0.777778 58:0.333333 59:0.333333 60:0.333333 61:0.333333 62:0.333333 63:0.833333 64:0.25 
-0 -0 0.4984042412908144 0 0 0 0.4925999010739242 0 0 0 0 0 0 0.2618580321032849 0.2680572733948642 0 1:-0.714286 2:0.333333 3:1 4:1 5:0.666667 6:-0.5 7:-1 8:-1 9:0.555556 10:-0.125 11:-1 12:-1 13:-0.375 14:0.5 15:-1 16:-1 17:-1 18:-1 19:-1 20:-1 23:-1 24:-1 25:-1 26:-1 27:-1 28:-0.25 29:0.625 30:-0.875 31:-1 32:-1 33:-1 34:-1 35:-0.25 36:0.625 37:-0.875 38:-1 39:-1 40:-1 41:-1 42:-0.25 43:0.5 44:-0.875 45:-1 46:-1 47:-1 48:-1 49:-1 50:0.375 51:0.25 52:-0.125 53:-0.5 54:-0.625 55:-1 56:-1 57:-1 58:-1 59:-0.5 60:-0.333333 61:0.166667 62:0.333333 63:0.833333 64:0.5 
-0.1206943333178606 -0 0.689158627585192 0.0217755396587165 0 0 0.7324476363451953 0.9812526889221275 0.6766830762802311 0.08890576598191885 0 0 0 0.1981232117597046 0.1604624616863896 0.01662197914943658 1:-1 3:0.333333 4:0.833333 5:1 6:0.333333 7:-0.333333 8:-1 9:-0.555556 10:0.125 11:-0.125 12:-0.5 13:-0.5 14:-0.125 15:1 16:-0.454545 17:-1 18:-1 19:-1 20:-1 21:-1 22:-0.25 23:1 24:-0.4 25:-1 26:-1 27:-1 28:-0.875 29:0.125 30:0.75 31:-0.5 32:-1 33:-1 34:-1 35:-0.125 36:0.875 37:0.125 38:-0.875 39:-1 40:-1 41:-0.636364 42:0.75 43:0.375 44:-0.75 45:-1 46:-1 47:-1 48:-1 49:-0.6 50:0.375 51:0.875 52:0.875 53:0.5 54:0.125 55:-0.375 56:-1 57:-1 58:-1 59:-1 60:-1 61:-0.333333 62:0.166667 63:0.333333 64:-0.5 
-0 -0.2072921272014009 0.5552935180258564 0 0.2052034797113253 0.1653309654147411 1 1 0.2961536621799243 0 0 0 0 0.2505621044015673 0.02914099692487004 0 1:-1 2:-0.166667 3:0.333333 4:0.833333 5:1 6:0.833333 8:-1 9:0.111111 10:0.5 12:-0.5 13:-0.5 14:-0.5 15:0.75 16:0.272727 17:-1 18:-1 19:-1 20:-1 21:-1 22:-0.25 23:1 24:-0.2 25:-1 26:-1 27:-1 28:-1 29:-0.25 30:0.875 31:-0.375 32:-1 33:-1 34:-1 35:-0.875 36:0.375 37:0.625 38:-0.625 39:-1 40:-1 41:-1 42:-0.625 43:0.75 44:0.25 45:-0.875 46:-1 47:-1 48:-1 49:-1 50:0.875 51:0.25 52:-0.5 53:-0.5 54:-0.5 55:-0.875 56:-1 57:-1 58:-0.166667 59:0.333333 60:0.333333 61:0.333333 62:0.5 63:0.833333 64:-1 
-0 -0 0 0 0 0 0.3911640165663043 0 0.09468046798893343 0 0 0 0.1072879036808471 0 0.004687820729248234 0 1:-1 2:-0.666667 3:0.333333 4:0.833333 5:1 6:0.833333 7:-0.5 8:-1 9:0.333333 10:0.5 11:-0.375 12:-1 13:-1 14:-0.375 15:0.375 16:-1 17:-0.8 18:-1 19:-1 20:-1 21:-1 22:-0.25 23:0.25 24:-1 25:-1 26:-1 27:-1 28:-1 29:-0.625 30:0.625 31:-0.75 32:-1 33:-1 34:-1 35:-1 36:-0.125 37:0.5 38:-0.875 39:-1 40:-1 41:-1 42:-0.875 43:0.25 44:0.125 45:-1 46:-1 47:-1 48:-1 49:-1 50:0.5 51:0.75 52:0.25 53:0.5 55:-0.375 56:-1 57:-1 58:-1 59:-1 60:-1 61:-1 62:-0.333333 63:0.5 64:0.5 
-0 -0 0.13525168906513 0 0 0 0.4091193346509157 0 0.2818333941058011 0 0 0 0 0 0 0 1:-1 2:-0.5 3:0.5 4:1 5:1 6:0.833333 7:-0.166667 8:-1 9:-0.555556 10:0.75 11:-0.375 12:-1 13:-1 14:-0.875 15:0.75 16:-0.272727 17:-1 18:-1 19:-1 20:-1 21:-1 22:-1 23:0.5 24:0.4 25:-1 26:-1 27:-1 28:-1 29:-1 30:-0.875 31:0.875 32:-0.5 33:-1 34:-1 35:-1 36:-1 37:-0.75 38:0.625 39:-0.25 40:-1 41:-1 42:-1 43:-0.75 44:0.25 45:0.5 46:-0.625 47:-1 48:-1 49:-0.6 50:0.25 51:1 52:0.5 54:-0.5 55:-1 56:-1 57:-0.555556 58:-0.333333 59:-0.333333 60:-0.666667 61:-0.333333 62:0.166667 63:1 
-0 -1 0 0.4849844876245792 0 0 0.09509275691920634 0 0 0.7388848044975924 0.08207725346531497 0.4064120039863197 0.04863382767341457 0.7201306878196057 0 0.3597406976509639 1:-1 2:-0.333333 3:0.333333 4:0.333333 5:0.166667 6:-0.833333 7:-1 8:-1 9:-0.111111 10:0.875 11:0.125 12:-0.375 13:0.25 14:0.5 15:-1 16:-1 17:-1 18:-0.75 19:-1 20:-1 21:-0.875 22:1 23:-0.875 24:-1 25:-1 26:-1 27:-1 28:-1 29:-0.375 30:0.875 31:-1 32:-1 33:-1 34:-1 35:-1 36:-0.875 37:0.625 39:-1 40:-1 41:-1 42:-1 43:-0.5 44:0.75 45:0.25 46:-1 47:-1 48:-1 49:-1 50:0.125 51:1 52:0.875 53:0.5 54:0.25 55:-0.25 56:-0.818182 57:-1 59:-0.333333 60:-0.666667 61:-0.5 62:-0.166667 63:0.333333 
-0.01350262939755995 -0.185361144420076 0 0 0 0 0 0.4733036250848589 0 0 0 0 0 0 0 0 1:-1 2:-0.666667 3:0.166667 4:0.666667 5:1 6:0.5 7:-0.666667 8:-1 9:0.111111 10:0.875 11:-0.125 12:-0.5 13:-1 14:-0.375 15:0.75 16:-0.454545 17:-1 18:-1 19:-1 20:-1 21:-1 22:-1 23:0.25 24:0.6 25:-1 26:-1 27:-1 28:-1 29:-1 30:-0.625 31:0.75 32:-0.666667 33:-1 34:-1 35:-1 36:-1 37:-0.375 38:0.75 39:-0.625 40:-1 41:-1 42:-1 43:-0.875 44:0.25 45:0.5 46:-0.875 47:-1 48:-1 49:-0.8 51:0.875 52:0.75 53:-0.375 54:-0.5 55:-0.625 56:-1 57:-0.555556 58:0.333333 59:0.333333 60:0.333333 61:0.333333 62:0.333333 63:1 64:-0.5 
-0.723032764044885 -1 0.3215761093961755 0.5302471586699525 0.8227449166632775 0.8594659423898113 0 0.4222992865837685 0.5202692126418508 1 0.5267617804148259 0 0.1445034133613166 0.7755516143670244 0.803069468471886 0.3252227904636234 1:-1 2:-1 3:-0.666667 4:0.333333 5:0.5 6:-0.166667 7:-1 8:-1 9:-1 11:0.5 12:-0.375 13:-0.5 14:0.75 15:-0.625 16:-1 17:-1 18:0.375 19:-1 20:-1 21:-1 22:0.625 23:-0.625 24:-1 25:-1 26:-1 27:-1 28:-1 29:-0.25 30:0.25 31:-1 32:-1 33:-1 34:-1 35:-1 36:-0.25 37:0.375 38:-0.875 39:-1 40:-1 41:-1 42:-0.875 43:0.375 44:0.125 45:-1 46:-1 47:-1 48:-1 49:-0.2 50:0.875 51:0.5 56:-0.636364 57:-0.555556 59:-0.333333 60:-0.333333 61:-0.333333 62:-0.333333 
-0 -0.3954999039886555 -0.3049628961611526 0.3297664044332672 1 0.4389057167766968 1 0.6103644808733674 0.371024569896688 0.04994565737038738 0.2207105292775932 0.07398439448762864 0 0.1688758891145946 0 0.02718236491642231 1:-1 2:0.333333 3:1 4:1 5:1 6:0.833333 7:-0.166667 8:-1 9:-1 10:-1 11:-1 12:-1 13:-1 14:-0.125 15:0.25 16:-1 17:-1 18:-1 19:-1 20:-0.5 21:0.25 22:-0.25 23:-1 24:-1 25:-1 26:-0.875 27:0.5 28:0.375 29:-0.625 30:-1 31:-1 32:-1 33:-1 34:-0.875 38:0.25 39:0.5 40:-0.166667 41:-1 42:-1 43:-1 44:-1 45:-0.625 46:0.25 47:0.375 48:-0.5 49:-1 50:-0.625 51:0.125 52:0.375 53:-0.125 54:-0.75 55:-1 56:-1 57:0.111111 58:0.5 59:-0.5 60:-1 61:-1 62:-1 63:-1 64:-1 
-0.3795763842756791 -0.439807833769827 -0.2906069066918838 0.1818880843459806 0.482901703778268 0 1 0 0 0.1531501093124544 0.08514535422390988 0.1297254528964399 0 0.07006561223095038 0 0.1366619708420433 1:-0.714286 2:1 3:1 4:1 5:0.5 6:-0.333333 7:-1 8:-1 9:-1 10:-1 11:-1 12:-1 13:-0.625 14:0.875 15:-0.875 16:-1 17:-1 18:-1 19:-1 21:0.375 22:-0.625 23:-1 24:-1 25:-1 26:-1 27:0.25 28:0.625 30:-0.125 31:-0.625 32:-1 33:-1 34:-1 35:-1 36:-1 37:-0.5 38:-0.375 39:0.5 40:0.166667 41:-1 42:-1 43:-1 44:-1 45:-0.375 46:0.25 47:0.375 48:-0.5 49:-1 50:-0.375 51:0.25 52:0.5 53:-0.125 54:-0.75 55:-1 56:-1 57:0.333333 58:0.166667 59:-0.833333 60:-1 61:-1 62:-1 63:-1 64:-1 
-0.435808176573961 -1 -0.8959462961178329 1 0 0.1957444996055307 0.2981195097364272 0.6713152517779532 1 1 0.227177439479252 1 1 1 0.7525813267756207 0.6756471158112033 1:-1 2:-1 3:0.333333 4:1 5:0.833333 7:-1 8:-1 9:-1 10:-1 11:-1 12:-1 13:-0.75 14:0.75 15:-0.625 16:-1 17:-1 18:-1 19:-1 20:-0.5 21:0.5 22:-0.25 23:-1 24:-1 25:-1 26:-0.875 27:0.5 28:1 29:0.625 30:0.5 31:0.375 32:-0.5 33:-1 34:-0.875 35:-0.5 36:-0.625 37:-1 38:-0.875 39:0.375 40:0.166667 41:-1 42:-1 43:-1 44:-0.625 45:0.125 46:0.625 47:-0.375 48:-1 49:-1 50:-0.25 51:0.5 52:0.25 53:-0.625 54:-1 55:-1 56:-1 57:0.333333 58:0.166667 59:-0.833333 60:-1 61:-1 62:-1 63:-1 64:-1 
-1 -1 -0.9811956718024795 1 1 1 0.9709734392201698 1 1 1 1 0.88399260971349 0.5977392925983915 1 1 0.8817903088687091 1:-1 2:-1 3:-0.666667 4:0.333333 5:1 6:1 7:-0.166667 8:-1 9:-1 11:0.375 12:-0.5 13:-1 14:-0.625 15:0.75 16:-1 17:-1 18:-0.625 19:-0.875 20:-1 21:-0.5 22:0.5 23:-0.625 24:-1 25:-1 26:-1 27:-0.875 28:0.25 29:0.625 30:-0.375 31:-0.625 32:-1 33:-1 34:-1 35:0.5 36:0.375 39:0.375 40:0.5 41:-1 42:-1 43:-1 44:-1 45:-0.75 46:-0.125 47:0.5 48:-0.5 49:-1 50:-0.625 51:0.125 52:0.5 53:0.125 54:-0.375 55:-1 56:-1 57:0.555556 58:0.333333 59:-0.5 60:-1 61:-1 62:-1 63:-1 64:-1 
-0 -0.2499021246250265 -0.5350354859195725 0 0 0 1 0 0 0.2171740027345396 0 0 0 0.4656439716323903 0.5028258322208962 0 1:-1 2:0.5 3:1 4:1 5:0.333333 7:-0.833333 8:-1 9:-1 10:-0.5 11:-1 12:-1 13:-0.5 14:-0.125 15:0.875 16:-1 17:-1 18:-1 19:-1 20:-1 21:-0.75 22:0.5 24:-1 25:-1 26:-1 27:-1 28:0.125 29:0.75 30:-0.5 31:-1 32:-1 33:-1 34:-1 35:-1 36:-0.125 38:0.25 39:0.625 40:-0.166667 41:-1 42:-1 43:-1 44:-0.875 45:-0.25 46:0.375 47:0.5 48:-0.5 49:-1 50:-0.25 51:0.375 52:0.625 53:-0.125 54:-0.75 55:-1 56:-1 57:0.111111 58:0.333333 59:-0.666667 60:-1 61:-1 62:-1 63:-1 64:-1 
-0.1809989148646248 -0.4822743695389625 -0.1668949235678127 0.1596649823171731 1 0.2625134540438175 0 1 0.9530671849021074 0 0.4497650019949475 0 0 0.03931152899582867 0 0 1:-1 2:-0.833333 3:0.166667 4:0.833333 5:1 6:0.833333 7:-0.5 8:-1 9:0.333333 10:0.75 11:-0.125 12:-0.75 13:-1 14:-0.375 15:0.5 16:-1 17:-0.6 18:-0.75 19:-1 20:-1 21:-0.5 22:0.625 23:-0.25 24:-1 25:-1 26:-1 27:-1 28:0.375 29:1 30:0.75 32:-1 33:-1 34:-1 35:-1 36:-1 37:-1 38:-1 39:0.375 40:0.333333 41:-1 42:-1 43:-1 44:-1 45:-1 46:-1 48:0.5 49:-0.8 50:-0.5 51:-0.875 52:-1 53:-1 54:-0.375 55:0.75 56:-0.636364 57:-0.777778 58:0.166667 59:0.833333 60:1 61:1 62:0.5 63:-0.833333 64:-1 
-0 -0 -0 0 0.87985259050182 0 0 1 0 0 0 0 0 0 0 0 1:-1 2:-0.5 3:0.5 4:1 5:1 6:0.666667 7:-0.5 8:-1 9:-0.555556 10:0.25 11:-0.5 12:-1 13:-1 14:-0.5 15:0.875 16:-1 17:-1 18:-1 19:-1 20:-1 21:-0.5 22:0.625 23:-0.25 24:-1 25:-1 26:-1 27:-0.5 28:0.75 29:0.5 30:0.625 31:0.25 32:-0.833333 33:-1 34:-1 35:-1 36:-1 37:-1 38:-1 40:0.5 41:-1 42:-1 43:-1 44:-1 45:-1 46:-1 47:-0.125 48:0.5 49:0.2 50:-0.375 51:-0.75 52:-1 53:-1 54:-0.375 55:0.75 56:-0.636364 57:-0.555556 58:0.333333 59:0.833333 60:1 61:1 62:0.5 63:-0.833333 64:-1 
-0 -0 -0 0 1 0 0 1 0 0 0.1248497394536501 0 0 0 0 0 1:-1 2:0.166667 3:1 4:1 5:1 6:0.833333 8:-1 9:-1 10:-0.625 11:-0.75 12:-1 13:-1 14:-0.75 15:0.375 16:0.272727 17:-1 18:-1 19:-1 20:-1 21:-0.75 22:0.125 23:0.75 24:-0.4 25:-1 26:-1 27:0.375 28:0.75 29:1 30:0.625 31:-0.875 32:-1 33:-1 34:-1 35:-1 36:-1 37:-0.75 38:-0.25 39:0.75 40:-0.666667 41:-1 42:-1 43:-1 44:-1 45:-1 46:-1 47:0.375 48:0.333333 49:-0.2 50:-0.25 51:-0.75 52:-1 53:-0.375 54:0.375 55:0.5 56:-0.818182 57:-0.555556 58:0.166667 59:1 60:1 61:0.333333 62:-0.5 63:-1 64:-1 
-0.1391415344999433 -0.1693869913660921 -0.2697939095892746 0.220506403829765 0.9316189353137149 0 1 0 1 0.01319447511561542 0 0 0 0.02437625378354531 0 0.1554473127749023 1:-0.714286 2:0.166667 3:0.833333 4:1 5:1 6:0.666667 8:-1 9:-0.111111 10:-0.25 11:-0.75 12:-1 13:-1 14:-0.625 15:0.5 16:0.454545 17:-1 18:-1 19:-0.875 20:-0.5 21:-0.125 22:0.5 23:0.125 24:-0.8 25:-1 26:-1 27:-0.25 30:0.5 31:0.125 32:-1 33:-1 34:-1 35:-1 36:-1 37:-1 38:-1 39:0.75 40:-0.5 41:-1 42:-1 43:-1 44:-1 45:-1 46:-0.875 47:0.875 48:-0.666667 49:-1 50:-0.75 51:-0.625 52:-1 53:-0.5 54:0.625 55:-0.25 56:-1 57:-1 58:-0.833333 59:0.666667 60:1 61:0.5 62:-0.666667 63:-1 64:-1 
-0.3581297525800142 -1 -1 0.5429373851060159 0.1207195319918969 0.9312761659816776 0.3324998781314178 1 1 0.6404904774437888 0.3889733536194872 0.1432474239482677 0.1115177608426659 0.4663567546757348 0 0.04477025895333629 1:-1 3:0.333333 4:0.833333 5:0.833333 6:0.166667 7:-0.833333 8:-1 9:0.111111 10:0.25 11:-0.25 12:-0.5 13:-0.5 15:0.875 16:-1 17:-1 18:-1 19:-1 20:-1 21:-1 22:-0.125 23:0.75 24:-1 25:-1 26:-1 27:-0.375 28:0.25 29:0.75 30:0.625 31:-0.875 32:-1 33:-1 34:-1 35:-0.625 36:-0.5 37:-0.125 38:0.5 39:0.5 40:-0.833333 41:-1 42:-1 43:-1 44:-1 45:-1 46:-1 47:0.625 48:0.166667 49:-1 50:0.25 51:-0.125 52:-0.5 53:-0.5 54:-0.25 55:0.75 56:-0.454545 57:-1 58:-0.666667 59:0.166667 60:0.333333 61:0.333333 62:0.333333 63:-0.666667 64:-1 
-0 -0 -0 0 1 0 0 0.387851670413487 0 0 0.727319769479836 0 0 0.1208744540558515 0 0 1:0.142857 2:1 3:1 4:0.666667 6:-1 7:-1 8:-1 9:-0.777778 10:-0.875 11:-1 12:-0.5 14:0.625 15:-0.875 16:-1 17:-1 18:-1 19:-1 20:-0.875 21:-0.25 22:0.625 23:-0.875 24:-1 25:-1 26:-1 27:-0.375 28:0.75 29:1 30:0.375 31:-0.75 32:-1 33:-1 34:-1 35:-1 36:-1 37:-1 38:-0.375 39:0.75 40:-0.5 41:-1 42:-1 43:-1 44:-1 45:-1 46:-1 47:0.125 48:0.333333 49:-0.8 50:-0.25 51:-0.875 52:-1 53:-0.5 54:0.125 55:0.625 56:-0.818182 57:-1 58:0.166667 59:0.833333 60:1 61:0.333333 62:-0.166667 63:-1 64:-1 
-0 -0 -0 0 0.4573339005172354 0 0 0 0 0 0 0 0 0 0 0 1:-1 2:0.333333 3:1 4:1 5:0.666667 7:-1 8:-1 9:-1 10:-1 11:-1 12:-1 13:-0.625 14:0.125 15:0.375 16:-1 17:-1 18:-1 19:-0.75 21:0.25 22:0.625 23:-0.375 24:-1 25:-1 26:-1 27:-0.75 28:-0.25 29:0.125 30:0.625 31:-0.125 32:-1 33:-1 34:-1 35:-1 36:-1 37:-1 38:-0.875 39:0.625 40:-0.166667 41:-1 42:-1 43:-1 44:-1 45:-1 46:-1 47:0.125 48:0.333333 49:0.2 50:-0.125 51:-0.75 52:-1 53:-0.625 55:0.625 56:-0.818182 57:-0.777778 58:0.166667 59:0.833333 60:1 61:0.5 63:-1 64:-1 
-0.7751219777387569 -0.4684065452116283 -1 0.05544978815160766 0.1180211045263648 0.6369699153131638 0.9288852036098306 1 0 0.3406836154989167 0 0 0 0 0.5346600755817331 0 1:-1 2:-0.333333 3:1 4:1 5:1 6:0.166667 7:-0.666667 8:-1 9:-1 10:-0.875 11:-0.875 12:-1 13:-1 14:-0.375 15:0.5 16:-0.636364 17:-1 18:-1 19:-1 20:-0.375 22:0.375 23:0.25 24:-0.8 25:-1 26:-1 27:-1 28:-0.75 30:0.5 31:-0.375 32:-1 33:-1 34:-1 35:-1 36:-1 37:-1 38:-1 39:0.375 40:-0.166667 41:-1 42:-1 43:-1 44:-1 45:-1 46:-1 47:-0.5 48:0.5 50:-0.125 51:-0.875 52:-1 53:-1 54:-0.625 55:0.5 56:-0.454545 57:-1 59:0.666667 60:1 61:1 62:0.333333 63:-0.666667 64:-1 
-0.8351808978397286 -1 -1 1 1 1 1 1 0.3929091431848508 1 1 1 0.7774107049079934 1 0.630540271878162 0.8336113393322292 1:0.428571 2:1 3:1 4:0.5 5:-0.666667 6:-1 7:-1 8:-1 9:-1 10:-1 11:-1 12:-0.625 13:0.375 14:0.125 15:-1 16:-1 17:-1 18:-1 19:-0.25 20:-0.5 21:-0.375 22:0.875 23:-1 24:-1 25:-1 26:-1 27:-0.5 29:0.625 30:0.25 31:-0.875 32:-1 33:-1 34:-1 35:-1 36:-1 37:-1 38:-0.375 39:0.5 40:-0.833333 41:-1 42:-1 43:-1 44:-1 45:-1 46:-1 47:-0.125 48:0.5 49:-1 50:-0.5 51:-0.125 52:-1 53:-1 54:-0.875 55:0.25 56:0.454545 57:-1 58:-1 59:0.166667 60:1 61:1 62:0.666667 64:-1 
-0.08692087125300521 -0.3131801114652099 -0 0 0.2515804092654386 0 0 0 0 0 0 0 0 0.004286011918228658 0 0 1:-1 2:-0.666667 3:0.833333 4:1 5:0.5 7:-1 8:-1 9:-1 10:-0.875 11:-0.125 12:-0.25 14:0.625 15:0.125 16:-1 17:-1 18:-1 19:-1 20:-0.875 21:-0.125 22:0.875 24:-1 25:-1 26:-0.375 27:0.25 28:0.875 29:1 30:0.875 31:0.25 32:-0.833333 33:-1 36:-0.25 37:-0.75 38:-1 39:0.625 40:0.333333 41:-1 42:-1 43:-1 44:-1 45:-1 46:-0.125 47:1 48:-0.333333 49:-0.8 50:-0.5 51:-0.375 52:0.125 53:0.75 54:0.5 55:-0.5 56:-1 57:-0.111111 58:1 59:0.5 61:-0.666667 62:-1 63:-1 64:-1 
-0.1105381528720826 -0 -0 0 0 0 0 0 0.2562100378888789 0 0 0 0 0 0 0 1:-0.714286 3:0.666667 4:1 5:1 6:0.166667 7:-0.833333 8:-1 9:-0.111111 10:0.25 11:-0.375 12:-0.5 13:-0.5 14:0.375 15:0.375 16:-1 17:-1 18:-1 19:-1 20:-1 21:-0.25 22:0.875 23:-0.125 24:-1 25:-1 26:-0.375 27:0.25 28:0.875 29:0.75 30:0.625 31:0.75 32:-0.5 33:-0.666667 34:0.25 35:-0.25 36:-0.875 37:-1 38:-1 39:0.75 40:0.166667 41:-1 42:-1 43:-1 44:-1 45:-0.5 46:0.5 47:0.375 48:-0.833333 49:-1 50:-0.5 51:-0.125 52:0.625 53:0.5 54:-0.5 55:-1 56:-1 57:0.111111 58:0.833333 59:0.166667 60:-0.666667 61:-1 62:-1 63:-1 64:-1 
-0 -0 -0 0 0 0 0 0 0 0 0.005303491443327594 0 0 0 0 0 1:-0.714286 2:0.166667 3:1 4:1 5:1 6:0.166667 7:-1 8:-1 9:-0.111111 10:0.125 11:-0.5 12:-1 13:-0.625 14:0.5 15:-0.125 16:-1 17:-1 18:-1 19:-1 20:-1 21:-0.25 22:0.75 23:-0.625 24:-1 25:-1 26:-0.75 28:0.75 29:1 30:1 31:0.375 32:-0.5 33:-0.833333 34:0.5 35:-0.125 36:-0.875 37:-1 38:-1 39:0.375 40:0.333333 41:-1 42:-1 43:-1 44:-1 45:-0.75 46:0.25 47:0.625 48:-0.833333 49:-1 50:-0.5 51:-0.25 52:0.375 53:0.75 54:-0.25 55:-1 56:-1 57:0.111111 58:1 59:0.333333 60:-0.5 61:-1 62:-1 63:-1 64:-1 
-0.3076651213499533 -0 -0 0.5912418982251174 0 0.03105111287961624 0 0.7301245904853375 0.4179052888924643 0.1859094611690292 0 0.476145986217826 0.4825447328238695 0.02618785845715166 0 0.2096913862645152 1:-1 2:-0.333333 3:0.833333 4:1 5:0.833333 6:0.333333 7:-0.666667 8:-1 9:-1 10:-0.875 11:-0.5 12:-0.875 13:-0.625 14:-0.25 15:0.875 16:-0.636364 17:-1 18:-1 19:-1 20:-1 21:-0.5 22:0.5 23:0.5 24:-0.8 25:-1 26:-0.875 27:-0.25 28:0.625 29:1 30:0.875 31:-0.125 32:-0.833333 33:-0.166667 34:0.875 35:0.25 36:-0.375 37:-0.5 38:-0.5 39:0.75 40:0.166667 41:-1 42:-0.875 43:-1 44:-1 45:-0.875 47:0.875 48:-0.5 49:-1 50:-0.75 51:-0.375 52:0.125 53:0.875 54:0.25 55:-0.875 56:-1 57:-1 58:0.333333 59:0.666667 61:-0.833333 62:-1 63:-1 64:-1 
-0.0892279041287156 -0.0234444385927831 -0.8654185230432703 0 0.3665174751854408 0 0.589062536652573 0.2959515624353648 0 0 0.1994723922948841 0 0 0 0 0 1:-1 2:-0.5 3:1 4:1 5:1 6:0.333333 7:-0.666667 8:-1 9:-1 10:-0.875 11:-0.625 12:-1 13:-1 14:-0.5 15:0.75 16:-0.454545 17:-1 18:-1 19:-1 20:-1 21:-1 22:-0.5 23:0.75 24:-0.6 25:-1 26:-1 27:-1 28:-0.375 29:0.625 30:1 31:0.25 32:-1 33:-1 34:-1 35:0.25 36:0.375 37:-0.25 38:-0.5 39:0.375 40:0.166667 41:-1 42:-1 43:-1 44:-1 45:-1 46:-0.5 47:0.625 48:-0.166667 49:-1 50:-0.625 51:-0.375 52:0.125 53:0.75 54:0.375 55:-0.5 56:-1 57:0.111111 58:1 59:0.333333 60:-0.166667 61:-0.833333 62:-1 63:-1 64:-1 
-0 -0 -0 -0 0 0 0.6283923174400767 0 0 0.003959568521777772 0 0 0 0 0 0.02947846160356557 1:-1 2:-1 3:-0.5 5:-1 6:-0.5 7:-1 8:-1 9:-1 10:-1 11:0.625 12:-0.375 13:-1 14:0.875 15:-1 16:-1 17:-1 19:0.375 20:-1 21:-1 22:0.875 23:-1 24:-1 25:-0.636364 26:0.875 27:-0.875 28:-1 29:-0.5 30:0.5 31:-1 32:-1 33:0.333333 34:1 35:0.75 36:0.5 37:0.75 38:0.875 39:0.625 41:-1 42:-1 43:-1 44:-1 46:-0.125 47:-1 48:-1 49:-1 50:-1 51:-1 52:-1 53:0.5 54:-0.5 55:-1 56:-1 57:-1 58:-1 59:-1 60:-1 61:0.166667 62:-0.833333 63:-1 64:-1 
-0 -0 -0 -0 0 0 0 0 0 0 0 0 0.6356604369748593 0 0.07648351162261438 0.3868060100086375 1:-1 2:-1 3:-1 4:-1 5:-1 6:-0.166667 7:-0.666667 8:-1 9:-1 10:-0.5 11:0.125 12:-1 13:-1 14:0.5 15:-0.75 16:-1 17:-1 18:0.75 19:-0.625 20:-1 21:-1 22:0.875 23:-1 24:-1 25:0.0909091 26:0.25 27:-0.5 28:-0.5 29:-0.375 30:0.5 31:-1 32:-1 34:0.5 35:0.5 36:0.5 37:0.75 38:0.75 39:0.875 40:0.166667 41:-1 42:-1 43:-1 44:-1 46:-0.375 47:-1 48:-1 49:-1 50:-1 51:-1 52:-1 53:0.5 54:-0.625 55:-1 56:-1 57:-1 58:-1 59:-1 60:-1 62:-1 63:-1 64:-1 
-0.2553609019641941 -0 -0 -0.2515367219872427 0 0 0 0.8274987998967663 1 0.1607671779915021 0.3710210723050332 0 0 0.291232139240538 0 0.3000234452437078 1:-1 2:-1 3:0.5 4:-0.666667 5:-1 6:-1 8:-1 9:-1 10:-0.5 11:0.875 12:-0.875 13:-1 14:-0.625 15:0.875 16:-1 17:-1 18:0.625 19:-0.375 20:-1 21:-1 22:-0.125 23:0.375 24:-1 25:0.0909091 26:0.5 27:-0.625 28:-0.5 29:-1 30:0.25 31:-0.25 32:-0.666667 34:0.5 35:0.5 36:0.5 37:0.5 38:1 39:0.5 41:-1 42:-1 43:-1 44:-1 45:-1 46:1 47:-1 48:-1 49:-1 50:-1 51:-1 52:-1 53:-0.625 54:0.5 55:-1 56:-1 57:-1 58:-1 59:-1 60:-1 61:-1 62:0.333333 63:-1 64:-1 
-0.590706696918918 -1 -0.7215340052038035 -0.9025802560935639 0.8799791507894228 0.6993942593615989 1 0.5712211962951177 0.3048208887443898 0.4921760293325146 0 0.9751918951207301 0 1 0.5867709554512286 0.3838583059663231 1:-1 2:-0.833333 3:-0.5 4:-1 5:-1 6:0.5 7:-0.5 8:-1 9:-1 11:-0.125 12:-1 13:-0.625 14:0.75 15:-1 16:-1 17:-0.6 18:0.75 19:-0.875 20:-1 21:-0.125 22:0.125 23:-1 24:-1 25:0.454545 26:0.125 27:-0.5 28:-0.5 29:0.5 30:-0.125 31:-0.375 32:-0.166667 33:-0.666667 37:1 40:-0.5 41:-1 42:-1 43:-1 44:-0.875 45:0.625 46:-1 47:-1 48:-1 49:-1 50:-1 51:-1 52:-0.5 53:0.5 54:-1 55:-1 56:-1 57:-1 58:-1 59:-1 60:-0.5 61:0.333333 62:-1 63:-1 64:-1 
-0.1792065365726431 -0.3673422181432608 -0 -0 0 0.1112620655828288 0 0 0.2061524715970133 0.5722843402387927 0 0.47454763840227 1 0 0.1626987900138307 0 1:-1 2:-0.666667 3:-0.833333 4:-1 5:-0.666667 6:0.333333 7:-1 8:-1 9:-1 10:0.125 11:-0.25 12:-1 13:-0.375 15:-1 16:-1 17:-0.6 18:0.5 19:-1 20:-1 22:-0.125 23:-1 24:-1 25:1 27:-0.5 28:-0.5 29:0.25 30:-0.125 32:-0.166667 33:-0.5 37:0.75 38:-0.25 39:-0.5 40:-0.666667 41:-1 42:-1 43:-1 44:-1 45:0.5 46:-1 47:-1 48:-1 49:-1 50:-1 51:-1 52:-1 53:0.5 54:-1 55:-1 56:-1 57:-1 58:-1 59:-1 60:-1 61:0.666667 62:-1 63:-1 64:-1 
-0.02509735692548008 -0 -0.3649059013464172 -0.1999692954434501 0.2967177657956659 0 1 0.3265340867317803 1 0 0.8072319732476844 0 0 0 0.1480005940963566 0 1:-1 2:-0.333333 3:-0.833333 4:-1 5:-1 6:0.5 7:-1 8:-1 9:-1 10:0.25 11:-0.625 12:-1 13:-1 14:0.75 15:-1 16:-1 17:-0.4 18:0.5 19:-1 20:-1 21:-1 22:0.5 23:-1 24:-1 25:0.818182 26:-0.125 27:-0.5 28:-0.5 29:-0.125 30:0.5 31:-0.5 32:-0.166667 33:-0.833333 34:-0.125 37:0.5 38:0.5 40:-0.666667 41:-1 42:-1 43:-1 44:-1 46:-0.5 47:-1 48:-1 49:-1 50:-1 51:-1 52:-1 53:0.5 54:-0.5 55:-1 56:-1 57:-1 58:-1 59:-1 60:-1 61:0.5 62:-1 63:-1 64:-1 
-0 -0 -0 -0 0 0 0 0 0 0 0 0 0 0.4611773523675601 0 0.05623293655188814 1:-1 2:-1 4:-0.5 5:-1 6:-0.333333 7:-1 8:-1 9:-1 10:-0.875 11:0.875 12:-0.75 13:-1 14:1 15:-0.875 16:-1 17:-1 18:0.375 20:-1 21:-0.75 22:0.625 23:-1 24:-1 25:-0.0909091 26:0.875 27:-0.125 29:0.25 30:0.75 32:-0.333333 33:-0.166667 34:0.375 36:-0.5 37:-0.125 38:0.25 39:-0.5 40:-0.666667 41:-1 42:-1 43:-1 44:-1 47:-1 48:-1 49:-1 50:-1 51:-1 52:-1 55:-1 56:-1 57:-1 58:-1 59:-1 60:-1 61:-0.333333 62:-0.5 63:-1 64:-1 
-0.004374387916145093 -0.8792418605649096 -0 -0.5943551308613498 0 0 0.1423798742079175 0.5429083917479818 0.1919549568948245 0.1945865007055309 0 1 1 0.1040882379634826 0 0 1:-1 2:-1 3:-1 4:0.333333 5:-0.666667 6:-0.5 7:-0.833333 8:-1 9:-1 10:-1 11:-0.25 12:0.5 13:-1 14:0.25 15:-0.5 16:-1 17:-1 18:-0.375 19:0.625 20:-0.875 21:-1 22:0.5 23:-0.75 24:-1 25:-0.454545 26:0.75 27:0.125 29:0.5 30:1 31:0.5 33:-0.166667 34:0.125 35:-0.375 36:-0.5 37:-0.625 38:0.5 39:-1 40:-1 41:-1 42:-1 43:-1 44:-1 45:-0.5 46:0.125 47:-1 48:-1 49:-1 50:-1 51:-1 52:-1 53:-0.125 55:-1 56:-1 57:-1 58:-1 59:-1 60:-1 61:-0.333333 62:-0.166667 63:-1 64:-1 
-0.3532813360552043 -0.1543480334467941 -0.08683342467116402 -0.1540671664751019 0.2294423427258311 0 0 0 0.2827728498597815 0.6508044786695533 0.01201629307944168 0 0 0.03806490095003284 0 0 1:-1 2:-1 4:-0.666667 5:-1 7:-1 8:-1 9:-1 10:-0.75 11:0.625 12:-1 13:-1 14:1 15:-1 16:-1 17:-0.8 18:0.625 19:-0.5 20:-1 21:-1 22:0.625 23:-1 24:-1 25:0.636364 26:0.625 30:0.75 33:-0.666667 34:-0.5 35:-0.5 36:-0.5 37:-0.25 38:0.625 39:-0.5 40:-0.666667 41:-1 42:-1 43:-1 44:-1 45:-0.5 46:0.5 47:-1 48:-1 49:-1 50:-1 51:-1 52:-1 53:-0.5 54:0.5 55:-1 56:-1 57:-1 58:-1 59:-1 60:-1 61:-0.833333 62:0.333333 63:-1 64:-1 
-0 -0 -0 -0 0 0.6343896862972224 0 0 0 0 0.02498512114246614 0 0 0 0 0 1:-1 2:-1 3:-0.5 4:-1 5:-1 6:0.333333 7:-0.666667 8:-1 9:-1 10:-0.875 11:0.625 12:-1 13:-1 14:0.5 15:-1 16:-1 17:-1 18:0.375 19:-0.375 20:-1 21:-1 22:0.5 23:-1 24:-1 25:-0.0909091 26:0.375 27:-1 28:-1 29:-1 30:0.875 31:-1 32:-0.666667 33:0.333333 34:0.5 35:0.5 36:0.5 37:0.5 38:0.875 39:0.5 41:-1 42:-1 43:-1 44:-1 45:-1 46:0.5 47:-1 48:-1 49:-1 50:-1 51:-1 52:-1 53:-0.75 54:0.5 55:-1 56:-1 57:-1 58:-1 59:-1 60:-1 61:-0.666667 63:-1 64:-1 
-0.857497068033639 -0 -0.3571582009084911 -0.1313926293136868 0 0.326752789162137 0 0.3976936573932332 1 0.5534941835749699 0.1172694817102187 0 0.6055974435408313 0 0 0 1:-1 2:-1 3:-0.166667 5:-1 6:-1 7:-1 8:-1 9:-1 10:-1 11:0.5 12:-0.625 13:-1 14:-1 15:-1 16:-1 17:-1 19:-0.125 20:-1 21:-1 22:-1 23:-0.5 24:0.6 25:-0.0909091 26:0.25 27:-1 28:-1 29:-0.75 31:0.875 32:0.166667 34:0.5 35:0.25 36:0.25 37:0.125 38:-0.5 39:0.5 40:-0.5 41:-1 42:-1 43:-1 44:-1 45:-1 46:-0.875 47:0.75 48:-1 49:-1 50:-1 51:-1 52:-1 53:-1 54:-0.375 55:0.125 56:-1 57:-1 58:-1 59:-1 60:-1 61:-1 62:-0.166667 63:-0.166667 64:-1 
-0 -0 -0 -0 0 0 0 0 0 0 0 0.546625400567467 0.4553686772320367 0 0 0.08614498575174873 1:-1 2:-1 3:-0.666667 4:0.333333 5:-1 6:-1 7:-1 8:-1 9:-1 10:-1 11:-0.25 12:0.375 13:-1 14:-1 15:-1 16:-1 17:-1 18:-1 19:0.625 20:-0.5 21:-1 22:-1 23:-0.875 24:-0.6 25:-1 26:0.25 27:-0.125 28:-1 29:-1 30:-0.625 31:0.625 32:0.333333 33:0.166667 34:0.875 35:0.125 36:0.5 37:0.5 38:0.25 39:1 40:-0.5 41:-0.818182 42:-0.5 43:-0.625 44:-1 45:-1 46:-0.625 47:0.75 48:-1 49:-1 50:-1 51:-1 52:-1 53:-1 54:-0.125 55:0.125 56:-1 57:-1 58:-1 59:-1 60:-1 61:-1 62:-0.166667 63:-0.166667 64:-1 
-1 -1 -1 -0.8718813082605577 0.8341049740734501 1 0.6340088588785843 0.8774650523868037 0.4371914411327455 1 1 0.4847249050061899 0 1 0.5946329292406709 1 1:-1 2:-1 3:-1 4:0.5 5:-1 6:-1 7:-1 8:-1 9:-1 10:-1 11:-0.625 12:0.625 13:-1 14:-1 15:-1 16:-1 17:-1 18:-1 19:0.5 20:-0.375 21:-1 22:-1 23:-1 24:-1 25:-1 26:0.25 27:0.25 28:-1 29:-1 30:-1 31:-0.375 33:-0.166667 34:0.375 35:-1 36:-1 37:-0.875 38:-0.375 39:0.875 41:-0.272727 42:0.5 43:0.5 44:0.5 45:0.5 46:0.25 47:0.875 48:-1 49:-1 50:-1 51:-1 52:-1 53:-1 54:-0.25 55:0.25 56:-1 57:-1 58:-1 59:-1 60:-1 61:-1 62:-0.333333 63:-0.5 64:-1 
-0 -0 -0 -0.1042499286489669 0.8270035060389795 0.1649213855876558 0 0 0 0 0.5505068562306866 0 0 0 0 0 1:-1 2:-1 3:0.333333 4:-0.166667 5:-1 6:-1 7:-1 8:-1 9:-1 10:-1 11:0.625 12:-0.25 13:-1 14:-1 15:-1 16:-1 17:-1 18:-0.375 19:0.625 20:-1 21:-1 22:-1 23:-1 24:-1 25:-0.454545 26:0.75 27:-0.625 28:-1 29:-1 30:-0.75 31:0.625 32:0.166667 33:-0.333333 34:0.5 35:0.5 36:0.5 37:0.5 38:0.25 39:0.875 41:-1 42:-1 43:-1 44:-1 45:-1 46:-0.75 47:1 48:-0.833333 49:-1 50:-1 51:-1 52:-1 53:-1 54:-0.5 55:0.5 56:-1 57:-1 58:-1 59:-1 60:-1 61:-1 62:-0.666667 63:0.333333 64:-1 
-0.1164052111220497 -0 -0 -0 0 0 0 0 0 0 0 0 0 0 0 0 1:-1 2:-1 3:-0.833333 4:0.833333 5:-1 6:-1 7:-1 8:-1 9:-1 10:-1 11:-0.125 12:0.25 13:-1 14:-1 15:-1 16:-1 17:-1 18:-0.5 19:0.5 20:-0.875 21:-1 22:-1 23:-0.875 24:-0.6 25:-0.0909091 26:0.625 27:-0.875 28:-1 29:-1 30:-1 31:0.25 32:0.666667 34:0.375 38:0.125 39:1 40:-0.333333 41:-1 42:-1 43:-1 44:-1 45:-1 46:-0.625 47:0.625 48:-1 49:-1 50:-1 51:-1 52:-1 53:-1 54:0.25 55:-0.25 56:-1 57:-1 58:-1 59:-1 60:-1 61:-1 62:0.666667 63:-1 64:-1 
-0.9389905517491252 -0.5322417368403587 -0.4658204396750072 -0.1882862644488964 0.3973303283459839 0.6699954084103711 0.1233775451786636 0.3237543845973746 0.9448922150172443 1 0.3118429550370221 0.554081604092123 0.9106765175790853 0 0.3017148588856527 0.207958207357869 1:-1 2:-1 3:-1 4:-0.166667 5:-0.166667 6:-1 7:-1 8:-1 9:-1 10:-1 11:-0.625 12:0.75 13:-0.75 14:-1 15:-1 16:-1 17:-1 18:-0.125 19:0.5 20:-0.625 21:-1 22:-1 23:-0.875 24:-0.6 25:0.272727 26:0.5 27:-0.75 28:-1 29:-0.5 30:-0.375 31:0.625 32:0.666667 33:-0.666667 39:-0.25 40:0.333333 41:-1 42:-1 43:-1 44:-1 45:-1 46:-1 47:-0.5 48:0.333333 49:-1 50:-1 51:-1 52:-1 53:-1 54:-1 55:-0.5 56:0.454545 57:-1 58:-1 59:-1 60:-1 61:-1 62:-1 63:-0.666667 64:0.25 
-0.0559352239381896 -1 -0.341541244990168 -0.528285759381095 0.8056889999494399 0.4025115387644669 1 0 1 0.7758024096566305 0 0 0 0 0 0 1:-1 2:-1 3:-0.333333 4:0.333333 5:-1 6:-0.166667 7:0.166667 8:-1 9:-1 10:-1 12:0.125 13:-1 14:-0.5 15:0.375 16:-1 17:-1 18:-0.25 19:0.25 20:-1 21:-1 22:-0.125 24:-1 25:-0.0909091 26:0.375 27:-1 28:-1 29:-1 31:-0.125 32:-1 33:-0.333333 34:0.5 35:0.25 38:0.875 39:0.375 40:-0.166667 41:-1 42:-1 43:-1 44:-1 45:-1 46:0.5 47:-0.625 48:-1 49:-1 50:-1 51:-1 52:-1 53:-1 54:0.75 55:-1 56:-1 57:-1 58:-1 59:-1 60:-1 61:-1 62:0.333333 63:-0.666667 64:-1 
-0.2050514172182182 -0.0296652167533516 -0.04346075374249514 -0 0 0 0.08546600481322021 0 0 0 0 0 0 0 0 0 1:-1 2:-1 3:-0.166667 5:-1 6:-0.833333 7:-0.5 8:-1 9:-1 10:-1 11:0.125 12:-0.125 13:-1 14:-0.5 15:0.5 16:-1 17:-1 18:-0.25 19:0.25 20:-1 21:-1 22:-0.5 23:0.5 24:-1 25:-0.0909091 26:0.5 27:-1 28:-1 29:-1 31:0.125 32:-0.666667 33:-0.5 35:0.5 36:0.25 38:0.75 39:0.25 40:-0.333333 41:-1 42:-1 43:-1 44:-1 45:-1 46:0.875 47:-1 48:-1 49:-1 50:-1 51:-1 52:-1 53:-0.75 54:0.625 55:-1 56:-1 57:-1 58:-1 59:-1 60:-1 61:-0.833333 62:0.666667 63:-1 64:-1 
-0 -1 -0 -0 0.03682791523193207 0 0 0 0.03996612152167092 0 0.01380427311736919 0 0 0.7916764456106098 0 0.5287770679926617 1:-1 2:-1 3:-0.833333 4:-0.666667 5:-1 7:-0.166667 8:-1 9:-1 10:-1 11:0.25 12:-0.125 13:-1 14:0.25 15:-0.125 16:-1 17:-1 18:-0.5 19:0.625 20:-0.875 21:-1 22:0.5 23:-0.5 24:-1 25:-0.454545 26:0.75 27:-0.375 28:-0.5 29:-0.5 30:0.625 31:0.25 32:-0.5 33:-0.5 37:-0.375 38:0.625 39:-0.125 40:-0.666667 41:-1 42:-1 43:-1 44:-1 45:-1 46:0.75 47:-0.5 48:-1 49:-1 50:-1 51:-1 52:-1 53:-1 54:1 55:-1 56:-1 57:-1 58:-1 59:-1 60:-1 61:-0.666667 62:0.5 63:-1 64:-1 
-0.07808351721082893 -0 -0.4795153465158992 -0 0 0 0.05117879586686203 0 0 0 0 0 0.3436575308519635 0.01932045454010679 0.906617000826675 0 1:-1 2:-1 3:-0.166667 4:-0.5 5:-1 6:-0.666667 7:-0.333333 8:-1 9:-1 10:-1 11:0.25 12:-0.625 13:-1 14:-0.5 16:-1 17:-1 18:-0.625 19:0.375 20:-1 21:-1 22:-0.25 23:-0.125 24:-1 25:-0.454545 26:0.625 27:-0.375 28:-0.5 29:-0.5 30:0.25 31:-0.125 32:-0.166667 36:-0.375 37:-0.5 38:0.625 39:-0.5 40:-0.666667 41:-1 42:-1 43:-1 44:-1 45:-1 46:0.625 47:-1 48:-1 49:-1 50:-1 51:-1 52:-1 53:-1 54:0.625 55:-1 56:-1 57:-1 58:-1 59:-1 60:-1 61:-0.666667 62:0.333333 63:-1 64:-1 
-0.1060862368535794 -0.2558117697664106 -0 -0.1375753240896503 0.4872719529065599 0.7950780418968756 0.2067545063852115 0.02509396190380069 0 0 0.03329122381368029 0.7772119283666144 0.6380148123450649 0 0 0.06074694491987327 1:-1 2:-1 3:-1 4:-1 5:0.833333 6:-1 7:-1 8:-1 9:-1 10:-1 11:-1 12:-0.125 13:0.375 14:-1 15:-1 16:-1 17:-1 18:-1 19:-0.125 20:0.375 21:-0.875 22:-1 23:-1 24:-1 25:-0.818182 26:0.5 28:-1 29:-1 30:-0.75 31:0.375 33:-0.166667 34:0.375 35:0.5 36:0.5 37:0.25 38:0.5 39:0.875 40:-0.833333 41:-1 42:-1 43:-1 44:-1 45:-1 46:0.5 47:-0.25 48:-1 49:-1 50:-1 51:-1 52:-1 53:-0.75 54:0.75 55:-1 56:-1 57:-1 58:-1 59:-1 60:-1 61:-0.666667 62:0.333333 63:-1 64:-1 
-0 -1 -0.346453069524007 -0 0 0 0 0.001538606385361177 0 0.547741639245166 0 0.6353818525024914 0 1 0.2251368145721477 0.8521784532105998 1:0.714286 3:-1 4:-0.833333 5:-0.666667 6:-1 7:-1 8:-1 9:-0.777778 10:0.5 11:-1 12:-0.25 13:0.625 14:-1 15:-1 16:-1 17:-1 18:1 19:-1 20:-0.5 21:1 22:-1 23:-1 24:-1 25:-1 26:0.25 27:-0.25 28:-0.875 29:1 30:-1 31:-0.625 32:-0.666667 33:-1 34:-0.75 35:0.75 36:-0.125 37:1 38:0.75 39:0.5 40:-0.333333 41:-1 42:-1 43:-0.75 45:0.75 46:-0.25 47:-1 48:-1 49:-1 50:-1 51:-1 52:-1 53:-0.125 54:0.375 55:-1 56:-1 57:-1 58:-1 59:-1 60:-1 61:-0.666667 62:0.833333 63:-1 64:-1 
-0.3279144665769727 -0.9558215944800391 -0.8525477719563732 -0.827122619159789 0.6479164293426234 0 1 1 1 0.5284779441722183 0.3528023006945244 0.352290892826003 0.3257648777808532 0.4823692670852615 0.2429084376692288 0.2025907155873236 1:0.428571 2:-0.166667 3:-1 4:0.333333 5:0.333333 6:-1 7:-1 8:-1 9:0.777778 11:-1 12:-0.875 13:1 14:-1 15:-1 16:-1 17:0.4 18:0.25 19:-1 20:-1 21:1 22:-0.625 23:-1 24:-1 25:-0.454545 26:0.75 27:-0.5 28:-0.375 29:0.75 30:0.625 31:0.5 33:-1 34:-0.375 35:0.375 37:0.625 38:-0.5 39:-1 40:-1 41:-1 42:-1 43:-1 44:-1 45:0.5 47:-1 48:-1 49:-1 50:-1 51:-1 52:-1 53:0.25 54:0.125 55:-1 56:-1 57:-1 58:-1 59:-1 60:-1 61:-0.333333 62:0.333333 63:-1 64:-1 
-0.2271936021469237 -0.1394216355010851 -0.2064969365731341 -0 0.2826934903105819 0.8133838788818928 0.06410146094538329 0.381356621702212 0 0.3450414000954746 0.449974818241449 1 0 0 0 0.2066764768701573 1:-0.428571 2:0.833333 3:-1 4:-0.333333 5:0.333333 6:-1 7:-1 8:-1 9:0.111111 10:0.5 11:-1 13:0.25 14:-1 15:-1 16:-1 17:0.6 18:0.5 19:-1 20:-0.5 21:0.625 22:-1 23:-1 24:-1 25:0.272727 26:0.75 27:-1 28:-0.5 29:1 30:-0.75 31:-0.25 32:-0.333333 33:-0.833333 34:0.875 35:0.375 36:0.5 37:1 38:0.375 39:-0.25 40:-0.666667 41:-1 42:-0.875 43:-0.5 44:-0.875 45:1 46:-0.5 47:-1 48:-1 49:-1 50:-1 51:-1 52:-1 53:1 54:-0.375 55:-1 56:-1 57:-1 58:-1 59:-1 60:-1 61:0.833333 62:-0.333333 63:-1 64:-1 
-0.040018158185257 -0.01445487503501866 -0 -0.1901525422455761 0.2258333535018427 0.02788312971094249 0.4487154855708326 0 0 0 0.6615634354870954 0 0 0 0 0 1:0.714286 3:-1 4:-0.833333 5:-0.666667 6:-1 7:-1 8:-1 9:-0.777778 10:0.5 11:-1 12:-0.5 13:0.75 14:-1 15:-1 16:-1 17:-1 18:1 19:-1 20:-0.875 21:1 22:-1 23:-1 24:-1 25:-1 26:0.375 27:-0.25 28:-1 29:1 30:-1 31:-0.875 32:-0.666667 33:-1 34:-0.5 35:0.875 36:-0.375 37:1 38:0.5 39:0.75 41:-1 42:-1 43:-0.625 45:0.75 46:-0.25 47:-1 48:-1 49:-1 50:-1 51:-1 52:-1 53:0.125 54:0.25 55:-1 56:-1 57:-1 58:-1 59:-1 60:-1 61:-0.333333 62:0.333333 63:-1 64:-1 
-0.2758375179991722 -0.3470643559574086 -0 -0 -0.1813850927064654 0 0 0 0 0 0.3886187866995138 0.6819121570502469 0.6124590825863154 0.01107630414854807 0.09028146886414001 0.002245813130024641 1:-1 2:-1 3:-0.5 5:0.5 6:0.666667 7:-0.666667 8:-1 9:-1 10:-1 11:0.5 12:-0.125 13:-0.875 14:-1 15:-1 16:-1 17:-1 18:-1 19:0.75 20:-0.625 21:-1 22:-1 23:-1 24:-1 25:-1 26:-0.625 27:1 28:0.375 29:0.5 31:-0.75 32:-1 33:-1 34:-0.875 35:-0.625 36:-1 37:-1 38:-0.5 39:0.625 40:-0.166667 41:-1 42:-1 43:-1 44:-1 45:-1 46:-1 47:0.375 48:0.166667 49:-1 50:-1 51:-1 52:-0.625 53:0.125 54:0.5 55:-0.375 56:-1 57:0.111111 58:0.666667 59:0.833333 60:0.166667 61:-0.5 62:-1 63:-1 64:-1 
-0 -0 -0 -1 -0 0 0 0 0 0 0 0 0 0 0 0 1:-1 2:-1 3:0.333333 4:0.833333 5:1 6:0.5 7:-1 8:-1 9:-1 10:-1 11:0.625 12:-0.5 13:-1 14:-1 15:-1 16:-1 17:-1 18:-1 19:0.625 20:-0.625 21:-1 22:-1 23:-1 24:-1 25:-1 26:-1 27:0.875 28:0.25 29:0.375 30:0.25 31:-0.5 32:-1 33:-1 34:-1 35:-1 36:-1 37:-1 38:-0.5 39:0.625 40:-0.166667 41:-1 42:-1 43:-1 44:-1 45:-1 46:-1 47:0.125 48:0.166667 49:-0.8 50:-0.875 51:-1 52:-0.625 53:-0.25 54:0.5 55:0.125 56:-1 57:-0.111111 58:1 59:1 60:0.5 62:-0.833333 63:-1 64:-1 
-0 -0 -0.06959098165921533 -1 -0 0 0 0.7119111427211973 0.09947525918790233 0 0 0 0 0 0 0 1:-1 2:-0.666667 3:1 4:1 5:1 6:0.666667 7:-1 8:-1 9:-1 10:-1 11:1 12:-1 13:-1 14:-1 15:-1 16:-1 17:-1 18:-0.875 19:0.625 20:-1 21:-1 22:-1 23:-1 24:-1 25:-1 26:-0.5 27:0.875 28:0.5 29:0.5 31:-0.875 32:-1 33:-1 34:-1 35:-1 36:-1 37:-1 38:-0.5 39:0.75 40:-0.5 41:-1 42:-1 43:-1 44:-1 45:-1 46:-1 47:-0.25 48:0.333333 49:-1 50:-1 51:-1 52:-1 53:-0.75 54:-0.25 55:0.5 56:-0.454545 57:-0.111111 58:0.666667 59:1 60:0.833333 61:0.333333 62:-0.333333 63:-1 64:-1 
-0.6277295366113562 -1 -1 -0.4163980607041187 -0.8003802039065237 0.2190147052323289 1 1 0.479196020413221 1 0.5117084351498288 0.5146472513407757 0.2229576227283344 1 0.8012158919863556 0.5413353132495261 1:-0.714286 2:-0.5 3:-0.333333 4:0.166667 5:0.333333 6:0.333333 7:1 8:0.5 9:0.111111 10:0.875 11:0.125 13:-0.5 14:-0.5 15:-0.625 16:-1 17:-0.2 18:0.875 19:0.5 20:0.125 21:-0.875 22:-1 23:-1 24:-1 25:-0.818182 26:-0.5 27:-1 28:-0.25 29:0.75 30:-0.625 31:-1 32:-1 33:-1 34:-1 35:-1 36:-1 37:-0.625 38:0.5 39:-1 40:-1 41:-1 42:-1 43:-1 44:-1 45:-1 46:1 47:-1 48:-1 50:-0.25 51:-1 52:-0.625 53:0.375 54:0.125 55:-1 56:-1 57:-0.777778 58:0.666667 59:1 60:0.5 61:-0.333333 62:-1 63:-1 64:-1 
-1 -0.9700093902557169 -1 -1 -0.466747073562826 0.003156420098817993 0.05882823315697448 0.9588861209416908 0.2055736992213096 0.2362439195235188 0.5506217915786401 0 0.1724080137697997 0.4075574320627036 0 0.3420998503856111 1:-1 2:-0.166667 3:0.5 4:0.333333 5:0.333333 6:0.333333 7:-0.5 8:-1 9:-1 11:0.625 12:-0.5 13:-0.5 14:-0.125 15:-0.625 16:-1 17:-1 18:-0.125 19:0.625 21:0.25 22:-0.125 23:-0.875 24:-1 25:-1 26:-0.625 28:-0.5 29:-0.5 30:0.125 31:0.875 32:-0.666667 33:-1 34:-1 35:-1 36:-1 37:-1 38:-1 39:0.125 40:0.333333 41:-1 42:-1 43:-1 44:-1 45:-1 46:-1 47:0.5 48:-0.166667 49:0.2 50:0.5 51:-0.375 52:-0.5 53:-0.25 54:0.5 56:-1 57:-1 58:-0.333333 59:0.5 60:0.833333 61:0.333333 62:-0.666667 63:-1 64:-1 
-1 -1 -1 -1 -0.7132792773744855 1 1 1 0.830550522291004 1 0 0.531387499577227 0.1180280923843526 0.5720765980837672 0.6251982958525602 0.569213508209503 1:-1 2:-1 4:0.333333 5:0.5 6:1 7:0.666667 8:-1 9:-1 10:-0.875 11:0.75 12:0.125 13:-0.5 14:-0.5 15:-0.625 16:-1 17:-1 18:-1 19:0.625 20:0.75 21:0.625 22:0.25 23:-0.75 24:-1 25:-1 26:-1 27:-0.75 28:-1 29:-0.875 30:-0.125 31:0.75 32:-0.666667 33:-1 34:-1 35:-1 36:-1 37:-1 38:-1 39:-0.125 40:0.333333 41:-1 42:-1 43:-1 44:-1 45:-1 46:-1 47:0.125 48:0.166667 49:0.4 50:0.25 51:-0.375 52:-0.5 53:-0.5 54:0.125 55:0.625 56:-0.818182 57:-1 58:-0.166667 59:0.333333 60:1 61:0.333333 63:-1 64:-1 
-0 -0 -0.3397666030053825 -1 -0 0 0.3386920368213711 1 0 0 0 0 0 0 0 0 1:-0.428571 2:1 3:1 4:0.666667 5:1 6:1 7:-0.666667 8:-1 9:-1 10:1 11:-0.5 12:-0.5 13:-0.5 14:-0.5 15:-1 16:-1 17:0.2 18:0.875 20:-0.125 21:-0.625 22:-1 23:-1 24:-1 25:-0.818182 26:-0.5 27:-0.5 29:0.5 30:0.5 31:-0.625 32:-1 33:-1 34:-1 35:-1 36:-1 37:-1 38:-0.5 39:0.75 40:-0.5 41:-1 42:-1 43:-1 44:-1 45:-1 46:-1 47:0.25 48:0.333333 49:-0.2 50:-0.25 51:-0.625 52:-1 53:-0.625 54:-0.25 55:0.75 56:-0.454545 57:-0.777778 58:0.166667 59:0.833333 60:1 61:0.666667 62:0.166667 63:-0.666667 64:-1 
-0 -0 -0 -0.3479252269350389 -0 0.3811865749691323 0 0.001502402078881054 0 0 0 0 0 0 0 0 1:-0.714286 2:-0.166667 3:0.333333 4:0.333333 5:0.333333 6:1 7:1 8:0.25 9:0.111111 10:0.75 11:-0.5 12:-0.5 13:-0.75 14:-1 15:-1 16:-1 17:0.4 18:0.625 19:-0.5 20:-0.875 21:-1 22:-1 23:-1 24:-1 25:0.272727 26:0.25 28:0.375 29:0.625 30:0.25 31:-0.625 32:-1 33:-1 34:-1 35:-1 36:-1 37:-1 38:-0.5 39:0.625 40:-0.333333 41:-1 42:-1 43:-1 44:-1 45:-1 46:-1 47:0.125 48:0.333333 49:-1 50:-0.25 51:-0.875 52:-1 53:-0.875 54:-0.125 55:0.625 56:-0.818182 57:-1 58:-0.166667 59:0.833333 60:1 61:0.833333 63:-1 64:-1 
-0 -0 -0 -0.6011787745374886 -0 0 0 0 0 0 0.2080840524569216 0 0 0 0 0 1:-0.714286 2:0.166667 3:0.333333 4:0.333333 5:0.5 6:1 7:0.5 8:-1 9:-0.111111 10:1 11:-0.5 12:-0.5 13:-0.5 14:-0.875 15:-1 16:-1 18:0.875 19:-0.5 20:-0.5 21:-0.75 22:-1 23:-1 24:-1 25:0.0909091 26:0.375 29:0.625 30:0.625 31:-0.5 32:-1 33:-1 34:-1 35:-1 36:-1 37:-1 38:-0.75 39:0.75 40:-0.166667 41:-1 42:-1 43:-1 44:-1 45:-1 46:-1 47:0.375 48:0.333333 49:-1 51:-0.375 52:-0.5 53:-0.375 54:0.5 55:0.5 56:-0.818182 57:-1 58:-0.333333 59:0.666667 60:1 61:0.5 62:-0.333333 63:-1 64:-1 
-0.3568551685801191 -1 -1 -0.9020092874953349 -1 0.5770147052712362 1 0.6589460836438764 0 0.748978540313603 1 0.4734544191412314 0.5394323710929047 0.9245709039125533 0.6775889340524728 0.2533538402076519 1:-1 2:-0.5 3:0.833333 4:0.333333 5:0.5 6:-0.333333 7:-1 8:-1 9:-1 10:-0.625 11:0.5 12:-1 13:-1 14:-1 15:-1 16:-1 17:-1 18:-0.875 19:0.5 20:-1 21:-1 22:-1 23:-1 24:-1 25:-1 26:-0.5 27:0.25 28:-0.75 29:-0.5 30:-0.75 31:-1 32:-1 33:-1 34:-0.75 35:0.375 38:0.125 39:0.375 40:-0.833333 41:-1 42:-1 43:-1 44:-1 45:-1 46:-1 47:-0.25 48:0.333333 49:-1 50:-1 51:-0.875 52:-0.5 53:-0.125 54:0.25 55:0.25 56:-0.818182 57:-0.111111 58:0.833333 59:0.333333 61:-0.333333 62:-1 63:-1 64:-1 
-0 -0 -0 -0.2975121386492358 -0 0 0 0.3739606435968028 0 0 0.377045605079319 0 0 0 0 0 1:-1 3:0.333333 4:1 5:1 6:-0.166667 7:-1 8:-1 9:-1 10:0.125 12:-1 13:-1 14:-1 15:-1 16:-1 17:-1 18:0.125 20:-1 21:-1 22:-1 23:-1 24:-1 25:-1 26:0.75 27:0.625 28:0.5 29:0.5 30:0.375 31:-0.5 32:-1 33:-1 34:-0.5 35:-1 36:-1 37:-1 38:-0.75 39:0.875 40:-0.333333 41:-1 42:-1 43:-1 44:-1 45:-1 46:-1 47:0.125 48:0.333333 49:-1 50:-1 51:-1 52:-1 53:-0.75 55:0.625 56:-0.818182 57:0.111111 58:1 59:0.666667 60:1 61:0.333333 62:-0.166667 63:-1 64:-1 
-0 -0 -0 -0 -0 0 0 0 1 0 0 0 0.2916503365966813 0 0.08818074212835619 0 1:-1 2:-0.166667 3:0.333333 4:0.333333 5:0.5 6:0.666667 7:0.333333 8:-0.25 9:-0.555556 10:1 11:-0.75 12:-1 13:-1 14:-1 15:-1 16:-1 17:-0.2 18:0.875 19:-1 20:-1 21:-1 22:-1 23:-1 24:-1 25:0.272727 26:0.875 27:0.375 29:0.375 30:0.375 31:-0.5 32:-1 33:-1 34:-1 35:-1 36:-1 37:-1 38:-0.75 39:0.75 40:-0.166667 41:-1 42:-1 43:-1 44:-1 45:-1 46:-1 47:0.25 48:0.333333 49:-1 50:-1 51:-1 52:-1 53:-0.625 54:0.25 55:0.5 56:-0.818182 57:-0.333333 58:0.333333 59:0.333333 60:0.833333 61:0.166667 62:-0.666667 63:-1 64:-1 
-0.002269209568868427 -0 -0 -0 -0 1 0 0 0 0 0.1656279527391441 0 0 0 0 0 1:-1 2:0.166667 3:0.5 4:1 5:1 6:0.333333 8:-1 9:-1 10:0.125 11:-0.125 12:-1 13:-1 14:-1 15:-1 16:-1 17:-1 18:0.625 19:-0.625 20:-1 21:-1 22:-1 23:-1 24:-1 25:-0.272727 26:0.5 27:-0.625 28:-0.5 29:-0.5 30:-0.75 31:-1 32:-1 34:0.5 36:-0.375 37:-0.25 38:0.25 39:0.5 40:-0.833333 41:-1 42:-1 43:-1 44:-1 45:-1 46:-1 47:0.125 48:0.333333 49:-1 50:-1 51:-1 52:-1 53:-0.5 54:0.125 55:0.625 56:-0.454545 57:-0.111111 58:1 59:1 60:0.5 61:0.166667 62:-0.5 63:-1 64:-1 
-0.972429851853114 -0.2735335512464993 -0.9619385496061633 -0.9940759463614565 -0.8221559590637988 0.3495052790501726 0.3751870768733494 1 0.4981610124649656 0.7108480288106015 1 0.3697863891898122 0.3500745905678666 0.195763788150023 0.03441037425405182 0.2588939356075125 1:-0.428571 2:0.333333 3:0.833333 4:1 5:1 6:-0.5 7:-1 8:-1 9:0.777778 10:0.5 11:-1 12:-1 13:-1 14:-1 15:-1 16:-1 17:0.6 18:0.5 19:-1 20:-1 21:-1 22:-1 23:-1 24:-1 25:0.454545 26:0.625 27:-0.125 30:-0.625 31:-1 32:-1 33:-0.166667 34:0.375 35:-0.375 36:-0.5 37:-0.375 38:0.375 39:0.5 40:-0.833333 41:-1 42:-1 43:-1 44:-1 45:-1 46:-1 47:0.625 48:0.333333 49:-1 50:-1 51:-1 52:-0.75 53:-0.375 54:0.25 55:0.75 56:-0.454545 57:-0.555556 58:1 59:1 60:0.333333 61:0.166667 62:-0.5 63:-1 64:-1 
-0 -0 -0 -0.4354272463108795 -0 0 0 0 0 0 0 0 0 0 0 0 1:-1 2:0.333333 3:1 4:1 5:1 6:0.333333 7:-1 8:-1 9:-1 12:-1 13:-1 14:-1 15:-1 16:-1 17:-1 20:-1 21:-1 22:-1 23:-1 24:-1 25:-1 26:0.5 27:0.5 28:0.5 29:0.5 30:-0.125 31:-0.875 32:-1 33:-1 34:-0.25 35:-0.375 36:-1 37:-0.875 38:-0.125 39:0.875 40:-0.666667 41:-1 42:-1 43:-1 44:-1 45:-1 46:-1 47:0.5 48:0.333333 49:-1 50:-1 51:-0.875 52:-0.5 53:-0.125 54:0.5 55:0.25 56:-0.818182 57:-0.111111 58:1 59:0.666667 60:0.333333 61:-0.166667 62:-0.833333 63:-1 64:-1 
-0.2190388723297027 -0.7631947308126807 -0.006825912319285921 -0 -0.03353501330748242 0.9567447440840533 0 1 0.4153751512905878 0.2749878573421796 0.9049246602159284 0 0 0 0 0.100813412961686 1:-1 2:-0.833333 3:-0.333333 4:0.333333 5:0.666667 6:0.833333 7:-1 8:-1 9:0.777778 10:0.875 11:0.125 13:-0.5 14:-0.625 15:-1 16:-1 17:0.6 18:0.75 21:-0.375 22:-1 23:-1 24:-1 25:-0.272727 26:0.375 27:-0.125 28:-0.125 29:0.5 30:0.625 31:-0.625 32:-1 33:-1 34:-1 35:-1 36:-1 37:-1 38:-0.25 39:0.875 40:-0.666667 41:-1 42:-1 43:-1 44:-1 45:-1 46:-1 47:0.25 48:0.333333 49:-0.6 50:-0.25 51:-0.5 52:-0.5 53:-0.5 54:0.125 55:0.75 56:-0.272727 57:-0.777778 58:0.333333 59:0.666667 60:0.333333 61:0.333333 62:0.166667 63:-0.666667 64:-1 
-0 -0 -0 -0 -0 0 0 0 0 0 0.2373487118444555 0 0 0 0 0 1:-1 2:-0.166667 3:-0.333333 5:0.333333 6:0.833333 7:1 8:-0.25 9:-1 10:0.5 11:0.25 12:-0.5 13:-0.5 14:-0.875 15:-1 16:-1 17:-1 18:0.5 19:0.5 20:0.5 21:0.125 22:-0.5 23:-1 24:-1 25:-1 26:-0.25 27:-0.625 28:-1 29:-0.5 30:0.25 31:0.25 32:-1 33:-1 34:-1 35:-1 36:-1 37:-1 38:-1 40:0.333333 41:-1 42:-1 43:-1 44:-1 45:-1 46:-1 47:-0.375 48:0.666667 49:0.4 50:-0.25 51:-0.625 52:-0.875 53:-0.5 54:0.125 55:0.5 56:-0.818182 57:-0.555556 58:0.5 59:1 60:1 61:0.5 63:-1 64:-1 
-0 -0.7727195812917185 -0.1599195287473079 -0.2718602916100369 -0 0.3359400573813322 0.1804601471206078 0.6689714373284218 0.3200261152010949 0 0 0 0 0.1102059647855997 0 0 1:-1 2:-1 3:-0.166667 4:0.333333 5:0.333333 6:1 7:1 8:0.25 9:-1 10:0.25 11:1 12:-0.25 13:-0.5 14:-0.5 15:-0.5 16:-0.636364 17:-1 19:0.625 20:-0.5 21:-1 22:-1 23:-1 24:-1 25:-1 26:-0.125 27:0.375 28:0.5 29:0.875 30:-0.125 31:-1 32:-1 33:-1 34:-1 35:-1 36:-1 37:-0.75 38:0.625 39:-0.25 40:-1 41:-1 42:-1 43:-1 44:-1 45:-1 46:0.25 48:-1 51:-0.5 52:-0.25 53:0.5 54:0.625 55:-0.875 56:-1 57:-0.777778 58:0.333333 59:1 60:0.333333 61:-0.166667 62:-1 63:-1 64:-1 
-0.07334872987727531 -0.3165322822859749 -0.01353639302544408 -0.1188039800586471 -0.981108733886829 0.7681633017975822 1 0.5372280207230814 0.7648485914279384 0.01614415613445953 0 0.4102926066084519 0.08909430834669151 0.02389780329050665 0 0.1162171651676944 1:-1 2:-0.166667 3:0.333333 4:0.666667 5:1 6:1 7:0.166667 8:-1 9:0.333333 10:1 11:-0.25 12:-0.5 13:-0.625 14:-1 15:-1 16:-1 17:-1 18:0.375 19:0.25 20:-1 21:-1 22:-1 23:-1 24:-1 25:-1 27:0.625 28:-0.875 29:-1 30:-1 31:-1 32:-1 33:-1 34:-0.5 35:0.125 36:0.5 37:0.5 38:0.625 39:0.375 40:-0.833333 41:-1 42:-1 43:-1 44:-1 45:-1 46:-0.875 47:0.75 49:-1 50:-1 51:-1 52:-0.875 54:0.75 56:-1 57:-1 58:-1 59:-1 60:0.833333 61:0.333333 62:-0.666667 63:-1 64:-1 
-1 -1 -0.8294182686000099 -0.2233546984179426 -0.9522188552039025 1 0.4976887097787555 0.8204816084070034 1 0.9474246633910931 1 0.3065715063026193 0.3536684997073476 0.598804985682309 0.560431644064937 0.7448071237521481 1:-1 2:-1 3:-1 4:-0.5 5:0.5 6:0.833333 7:1 8:-1 9:-1 10:-0.25 11:0.375 12:-0.25 13:-0.875 14:-0.875 15:-0.625 16:-1 18:0.75 19:-0.875 20:-1 21:-1 22:-1 23:-1 24:-1 25:-1 26:-0.25 27:0.5 28:-1 29:-1 30:-1 31:-1 32:-1 33:-1 34:-1 35:1 39:-0.375 40:-1 41:-1 42:-1 44:-0.5 45:-1 46:-0.625 47:0.625 48:0.166667 49:-1 50:-1 51:-1 52:-0.625 53:0.125 54:0.625 55:-0.25 56:-1 57:-1 58:-0.333333 59:0.833333 60:0.333333 61:-0.5 62:-1 63:-1 64:-1 
-0.2304426312266517 -0.7458419534784986 -0.7651233243543724 -0.2043269944121906 -0.4025059121036518 -0.2663312409193094 0.3853575077333334 0.1708076274833454 0.1520218422447632 0.7469568736316434 0.9282702084943055 0.3078120403352546 0 0.5570681296967701 0.1765546981002563 0.5268781916501102 1:-1 2:-1 3:-1 4:-1 5:-0.833333 6:0.166667 7:1 9:-1 10:-1 11:-0.875 13:0.125 14:-0.625 15:-1 16:-1 17:-1 18:-0.875 19:0.5 20:-0.5 21:-1 22:-1 23:-1 24:-1 25:-1 26:0.625 27:-0.625 28:-1 29:-1 30:-1 31:-1 32:-1 34:0.75 35:0.5 36:0.5 37:0.5 38:0.25 39:-0.5 40:-1 41:0.454545 42:1 43:1 44:1 45:1 46:1 47:1 48:-0.166667 49:-0.2 50:1 51:1 52:1 53:1 54:1 55:1 56:-0.0909091 57:-1 58:-0.333333 59:0.666667 60:1 61:1 62:0.333333 63:-0.666667 64:-1 
-1 -1 -1 -0.8510263762543943 -1 -1 1 1 0.9636039861008763 1 1 1 0.9866334730255773 1 1 0.7698409008571359 1:-1 2:-1 3:-1 4:-1 5:-0.666667 6:0.5 7:0.666667 9:-1 10:-1 11:-1 13:0.375 14:-0.75 15:-1 16:-1 17:-1 18:-1 19:0.25 20:-0.125 21:-1 22:-1 23:-1 24:-1 25:-1 26:0.25 27:-0.125 28:-1 29:-1 30:-1 31:-1 32:-1 33:-0.5 34:0.75 35:0.25 37:0.25 39:-0.875 40:-1 41:0.454545 42:0.125 43:-0.625 44:-1 45:-1 46:0.375 47:-0.125 48:-1 49:0.2 50:0.5 51:-1 52:-1 53:-0.875 54:0.625 55:-0.375 56:-1 57:-1 59:0.833333 60:0.333333 61:0.666667 62:-0.666667 63:-1 64:-1 
-0.6027693972747696 -1 -0.6172744711452851 -0.9320021457298727 -0.7220172906231774 -1 0.4518915644729956 1 0.7357325941827272 1 0.607429217271988 0.3596477534670669 0.7142122027039772 0.1907309991040488 0.2121294380714306 0.05000366400253465 1:-1 2:-1 3:-1 4:-0.333333 5:0.833333 6:0.333333 7:-1 8:-1 9:-1 10:-1 11:0.25 12:-0.125 13:-1 14:-1 15:-1 16:-1 17:-1 18:0.25 19:-0.25 20:-1 21:-1 22:-1 23:-1 24:-1 25:-0.272727 26:0.75 29:-0.25 30:-0.75 31:-1 32:-1 33:0.5 34:-0.25 35:-1 36:-1 37:-0.5 38:0.25 39:0.25 40:-0.833333 41:0.818182 42:-0.5 43:-1 44:-1 45:-1 46:-1 47:-0.125 48:0.666667 49:-0.4 50:0.5 51:-0.75 52:-1 53:-1 54:-1 55:0.125 56:0.454545 57:-1 58:-0.666667 59:0.5 60:0.5 61:0.333333 62:0.666667 63:-0.333333 64:-1 
-0 -0.261186463789216 -0.5426317790987445 -0.02873043497757712 -0.635458636449268 -0.2065482442144363 0.03292103332020849 0.6408021969426223 0 0 0.7826554822738635 0 0 0.2243583560685699 0.2130711038938711 0 1:-1 2:-1 3:-1 4:-1 5:-0.833333 6:0.333333 7:0.5 8:-1 9:-1 10:-1 11:-1 12:-0.375 13:0.5 14:-0.5 15:-1 16:-1 17:-1 18:-1 19:0.25 20:0.25 21:-1 22:-1 23:-1 24:-1 25:-1 26:0.25 27:0.125 28:-1 29:-1 30:-1 31:-1 32:-1 33:-0.333333 34:0.875 35:-0.125 38:-0.375 39:-0.875 40:-1 41:0.454545 42:0.375 43:-0.625 44:-1 45:-0.75 46:-0.25 47:0.75 48:-0.333333 50:0.75 51:-0.875 52:-1 53:-1 54:-0.875 55:0.625 56:0.0909091 57:-1 58:-0.333333 59:0.833333 60:0.333333 61:0.5 62:0.666667 63:-0.333333 64:-1 
-0 -0 -0 -0 -0 -0 0 0.1928653013144091 0.3097845436104042 0 0 0 0 0 0 0 1:-1 2:-1 3:-0.833333 4:0.166667 5:0.833333 6:0.833333 7:-0.166667 8:-1 9:-1 10:-0.625 11:0.625 12:-0.25 13:-0.75 14:-0.5 15:0.125 16:-1 17:-0.6 18:0.625 19:-0.875 20:-1 21:-1 22:-1 23:-1 24:-1 25:0.454545 26:-0.25 27:-1 28:-1 29:-1 30:-1 31:-1 32:-1 33:0.333333 34:-0.25 35:-0.25 36:0.25 37:0.5 38:0.375 39:-0.25 40:-1 41:-0.0909091 42:1 43:-0.25 44:-0.625 45:-1 46:-0.625 47:0.375 48:0.333333 49:-1 50:0.25 51:0.5 52:-0.375 53:-0.875 54:-0.625 55:0.375 56:-0.0909091 57:-1 58:-1 59:-0.333333 60:0.5 61:1 62:0.666667 63:-0.333333 64:-1 
-0 -0 -0 -0 -0 -0.7454488487406533 0.3947811750626679 0 0.1654193047482412 0 0 0 0 0 0 0 1:-1 2:-1 3:-0.833333 4:0.333333 5:1 6:1 8:-1 9:-1 10:-0.375 11:0.375 12:-0.5 13:-1 14:-0.875 15:-0.625 16:-1 17:-0.6 18:0.5 19:-1 20:-1 21:-1 22:-1 23:-1 24:-1 25:0.454545 26:-0.375 27:-1 28:-1 29:-1 30:-1 31:-1 32:-1 33:0.833333 34:-0.5 35:-0.375 36:0.375 37:0.5 38:0.375 39:0.25 40:-0.833333 41:0.0909091 42:0.5 43:0.25 44:-1 45:-1 46:-1 47:-0.25 48:0.666667 49:-1 50:0.25 51:-0.125 52:-1 53:-1 54:-0.75 55:0.5 56:-0.454545 57:-1 58:-1 60:0.833333 61:0.666667 62:0.5 63:-0.833333 64:-1 
-0 -0 -0.03786079149258596 -0 -0 -0 0 0.6351475103340711 0 0 0.04347039844207524 0 0 0 0 0 1:-1 2:-1 3:-0.666667 4:0.5 5:1 6:-0.666667 7:-1 8:-1 9:-1 10:-0.25 11:0.375 12:-0.625 13:-1 14:-1 15:-1 16:-1 17:-0.2 18:0.375 19:-1 20:-1 21:-1 22:-1 23:-1 24:-1 25:0.454545 26:-0.5 27:-1 28:-1 29:-1 30:-1 31:-1 32:-1 33:0.333333 34:0.125 35:0.5 36:0.5 37:0.5 38:0.625 40:-1 41:-0.272727 42:0.625 43:-1 44:-1 45:-1 46:-1 47:0.25 48:0.333333 49:-1 50:0.25 51:0.375 52:-0.625 53:-1 54:-1 56:0.454545 57:-1 58:-1 59:-0.333333 60:0.5 61:1 62:0.833333 64:-1 
-0 -0.3119171974855004 -0 -0 -0 -0 0 0 0 0.3539284918830532 0 0 0 0 0 0 1:-1 2:-1 3:-1 4:-1 5:-0.333333 6:0.666667 7:0.333333 8:-1 9:-1 10:-1 11:-0.75 12:0.375 13:0.5 14:-0.5 15:-1 16:-1 17:-1 18:-0.625 19:0.75 20:-0.375 21:-1 22:-1 23:-1 24:-1 25:-0.636364 26:0.875 27:-0.625 28:-1 29:-1 30:-1 31:-1 32:-1 33:0.333333 34:0.125 35:-0.625 38:-0.5 39:-1 40:-1 41:0.454545 42:0.125 43:0.125 44:-0.5 45:-0.5 47:0.625 48:-0.5 49:-0.8 50:0.625 51:-0.125 52:-0.875 53:-1 54:-1 55:0.375 56:0.454545 57:-1 58:-1 60:0.833333 61:0.833333 62:1 63:0.333333 64:-0.75 
-0.48304356364074 -0.05662325908706527 -0 -0 -0.7701344400601663 -0.01554839220609485 0 0 0.2317397785596706 0.1062987115483041 0.08154679273665932 0.1013891534025004 0.3565655172315321 0 0 0.1175512686948506 1:-1 2:-1 3:-1 4:-0.166667 5:0.666667 6:0.333333 7:-1 8:-1 9:-1 10:-0.75 11:0.5 12:0.25 13:-0.625 14:-1 15:-1 16:-1 17:-0.8 18:0.75 19:-0.25 20:-1 21:-1 22:-1 23:-1 24:-1 25:0.272727 26:0.25 27:-0.75 28:-0.125 31:-0.5 32:-1 33:0.333333 34:0.75 35:0.75 36:-0.25 37:-0.5 38:-0.5 39:0.5 40:-0.166667 41:0.0909091 42:0.75 43:-1 44:-1 45:-1 46:-1 47:-0.25 48:0.333333 49:-1 50:0.25 51:0.25 52:-0.75 53:-0.875 54:-0.125 55:0.5 56:-0.818182 57:-1 58:-1 60:0.833333 61:0.833333 62:0.166667 63:-1 64:-1 
-1 -1 -1 -0.952195104934819 -1 -1 0.7586537390038792 1 1 1 1 1 0.6702874417304039 0.6265966142156978 0.2521534839327631 0.4023943049217134 1:-1 2:-1 3:-0.666667 4:0.333333 5:1 6:-0.166667 7:-1 8:-1 9:-1 10:0.125 11:0.625 12:-0.25 13:-0.625 14:-0.625 15:-1 16:-1 17:0.2 18:0.5 19:-1 20:-1 21:-1 22:-1 23:-1 24:-1 25:0.454545 27:-1 28:-0.625 29:-0.5 30:-0.75 31:-1 32:-1 34:0.625 35:0.75 36:0.375 38:0.375 39:0.5 40:-0.833333 41:-0.818182 42:0.875 43:-0.625 44:-1 45:-1 46:-1 47:-0.25 48:0.333333 49:-1 50:-0.625 51:0.75 52:-0.25 53:-0.5 54:-0.375 55:0.375 56:-0.0909091 57:-1 58:-1 59:-0.833333 60:0.166667 61:0.833333 62:0.5 63:-0.333333 64:-1 
-1 -0.1856526973714304 -0.629648340614254 -0.2340950851695298 -0 -0.287331478666144 0 0.8095208020735191 0 0.1197793721484988 0.1806889011083248 0 0 0.1780758550468475 0.3371322221240125 0 1:-1 2:-1 3:-1 5:1 6:-0.166667 7:-1 8:-1 9:-1 10:-0.625 11:0.5 12:-0.25 13:-1 14:-1 15:-1 16:-1 17:-0.8 18:0.625 19:-0.625 20:-1 21:-1 22:-1 23:-1 24:-1 25:0.272727 27:-1 28:-0.75 31:-0.25 32:-1 33:1 34:-0.5 35:0.125 36:0.25 37:-0.5 38:-0.625 40:0.5 41:0.636364 42:0.625 43:-0.125 44:-1 45:-1 46:-1 47:-0.375 48:0.666667 49:-0.6 50:0.875 51:-0.375 52:-1 53:-0.875 54:-0.25 55:0.625 56:-0.818182 57:-1 58:-0.666667 59:0.5 60:1 61:1 62:0.166667 63:-0.833333 64:-1 
-0.2781278426729225 -0 -0 -0 -0 -0 0 0 0 0.2389931915346606 0 0 0 0 0 0 1:-1 2:-1 3:-0.666667 4:0.333333 5:1 6:-0.333333 7:-1 8:-1 9:-1 10:-0.25 11:0.625 12:-0.375 13:-0.875 14:-0.75 15:-1 16:-1 17:-0.6 18:0.75 19:-0.875 20:-1 21:-1 22:-1 23:-1 24:-1 25:0.272727 26:0.125 27:-1 28:-0.875 29:-0.5 30:-0.5 31:-0.75 32:-1 33:0.666667 34:-0.5 35:-0.125 36:0.5 39:0.625 40:-0.166667 41:0.272727 42:0.875 43:0.25 44:-1 45:-1 46:-1 47:-0.375 48:0.666667 49:-0.8 50:0.625 51:0.25 52:-0.5 53:-0.5 55:0.5 56:-0.818182 57:-1 58:-1 60:0.666667 61:0.833333 62:0.166667 63:-0.833333 64:-1 
-1 -1 -1 -0.7140241813380838 -0.9185073267748559 -0.7515541316718241 0.6700435063895611 0.4887400481526399 0.6159483287791807 1 0.5651281595070726 0.1533562007884191 0 0.6495220557715871 0.4830617010614076 0.7716937107283477 1:-1 2:-1 3:-0.333333 4:0.666667 5:0.666667 6:-0.833333 7:-1 8:-1 9:-1 10:0.125 11:0.375 12:-0.625 13:-0.75 14:-0.875 15:-1 16:-1 17:-0.2 18:0.5 19:-1 20:-1 21:-1 22:-1 23:-1 24:-1 25:0.818182 26:-0.375 27:-1 28:-1 29:-1 30:-1 31:-1 32:-1 33:0.666667 34:-0.375 35:-1 36:-0.625 39:-0.25 40:-1 41:-0.272727 42:0.5 43:0.25 44:0.375 45:-0.375 46:-0.5 47:0.125 48:0.333333 49:-1 51:0.875 52:-0.25 53:-0.5 54:-0.5 55:0.375 56:0.0909091 57:-1 58:-1 59:-0.666667 60:0.333333 61:0.833333 62:0.666667 63:-0.333333 64:-1 
-0.4699421236111636 -0.3630256784701655 -0 -0 -0 -0 0 0 0 0.7301210042879399 0 0 0 0 0 0.4668832331125412 1:-1 2:-1 3:-1 4:-1 5:-0.5 6:0.5 7:0.5 8:-1 9:-1 10:-1 11:-0.625 12:0.625 13:0.75 14:-0.125 15:-0.75 16:-1 17:-1 18:-0.375 19:0.875 20:-0.25 21:-1 22:-1 23:-1 24:-1 25:-0.818182 26:0.875 27:-0.5 28:-1 29:-1 30:-1 31:-1 32:-1 33:0.166667 34:0.25 35:-0.625 36:-0.5 37:-0.5 38:-0.5 39:-1 40:-1 41:0.454545 42:1 43:0.75 44:0.5 45:0.5 46:0.5 47:0.875 48:-0.166667 50:0.875 52:-0.5 53:-0.5 54:-0.375 55:0.5 56:0.272727 57:-1 58:-0.666667 59:0.333333 60:0.833333 61:1 62:1 63:0.166667 64:-1 
-0.04212002840574553 -0 -0 -0 -0.1969485776448718 -0.3179634514661937 0 0 0 0 0.07255091406274289 0 0 0 0 0 1:-1 2:-1 3:-1 4:-1 6:0.666667 7:0.666667 8:-1 9:-1 10:-1 11:-0.5 12:0.5 13:-0.25 14:-0.875 15:-0.625 16:-1 17:-1 18:-0.25 19:0.25 20:-0.875 21:-1 22:-1 23:-1 24:-1 25:-0.636364 26:0.75 27:-0.75 28:-0.5 29:-0.5 30:-0.5 31:-1 32:-1 33:0.166667 34:0.625 35:0.625 38:0.375 39:0.75 40:-0.5 41:0.272727 42:0.5 43:-0.875 44:-1 45:-1 46:-1 47:0.5 48:0.333333 49:-0.8 50:0.625 51:0.125 52:-0.375 53:-0.125 54:0.5 55:0.625 56:-0.818182 57:-1 58:-0.833333 59:0.166667 60:0.833333 61:0.5 63:-1 64:-1 
-0 -0 -0 -0 -0 -0 0 0 0 0.2671586178540137 1 0 0 0 0 0 1:-1 2:-1 3:-0.666667 4:0.666667 5:0.333333 6:-1 7:-1 8:-1 9:-1 10:-0.25 11:0.625 12:-0.5 13:-1 14:-1 15:-1 16:-1 17:-0.6 18:0.625 19:-0.875 20:-1 21:-1 22:-1 23:-1 24:-1 25:0.454545 26:-0.25 27:-1 28:-0.875 29:-0.5 30:-0.5 31:-0.875 32:-1 33:1 34:-0.5 35:0.125 36:0.625 39:0.625 40:-0.166667 41:0.636364 42:0.875 43:-0.25 44:-1 45:-1 46:-1 47:-0.375 48:1 49:-0.8 50:0.5 51:-0.125 52:-0.5 53:-0.5 54:-0.25 55:0.75 56:-0.454545 57:-1 58:-0.833333 59:0.166667 60:0.666667 61:1 62:0.333333 63:-0.666667 64:-1 
-0 -0.139622881889628 -0 -0.5800605417840354 -0 -1 0 0.9592534448413955 0 0 0.6751932926455573 0.2611064976224306 0 0.1049095500756193 0 0 1:-1 2:-1 3:-1 4:-1 6:0.833333 7:0.333333 8:-1 9:-1 10:-1 11:-0.5 12:0.625 14:-0.5 15:-0.625 16:-1 17:-1 18:-0.25 19:0.625 20:-0.875 21:-1 22:-1 23:-1 24:-1 25:-0.636364 26:0.75 27:-0.125 28:0.375 29:0.25 30:-0.125 31:-0.875 32:-1 33:0.5 34:0.25 35:0.5 36:-0.375 37:-0.375 38:0.25 39:0.75 40:-0.5 41:1 42:-0.5 43:-1 44:-1 45:-1 46:-1 47:-0.25 48:1 49:-0.2 50:0.625 51:-0.25 52:-0.5 53:-0.5 54:0.125 55:0.75 56:-0.0909091 57:-1 58:-0.5 59:0.5 60:1 61:0.666667 62:0.166667 63:-0.666667 64:-1 
-0.3569477229280191 -0.2457095178869211 -0.3939088566286008 -1 -0 -0.9618310490602274 -0.3832323563352877 0.261362614887605 0 0.3155280394640501 0.495081625237163 0.315170312545575 0 0 0 0.2238583470775027 1:0.428571 2:1 3:1 4:0.833333 5:0.5 6:0.5 7:-1 8:-1 9:-1 10:-1 11:-1 12:-1 13:-0.5 14:0.625 15:-1 16:-1 17:-1 18:-1 19:-1 20:-1 21:-0.125 22:0.125 23:-1 24:-1 25:-1 26:-1 27:-1 28:-1 29:0.25 30:-0.25 31:-1 32:-1 33:-1 34:-0.5 35:0.25 37:0.875 38:0.125 40:-0.5 41:-1 42:-1 43:-1 44:-0.375 45:0.5 46:-0.875 47:-0.5 48:-0.833333 49:-1 50:-1 51:-1 52:0.5 53:-0.25 54:-1 55:-1 56:-1 57:-1 58:-1 59:-0.833333 60:0.833333 61:-1 62:-1 63:-1 64:-1 
-0.6696837532957847 -1 -1 -1 -0.2613377129801603 -0.5244778761304858 -0.7147484884208528 1 0.4764783818367412 1 0.5732641451547479 0 0 1 1 0.9657579612886758 1:0.142857 2:1 3:1 4:1 5:1 6:0.666667 7:-0.5 8:-1 9:-1 10:-1 11:-1 12:-1 13:-1 14:0.125 16:-1 17:-1 18:-1 19:-1 20:-1 21:-0.625 22:0.75 23:-0.875 24:-1 25:-1 26:-1 27:-1 28:-1 29:0.625 30:-0.5 31:-1 32:-1 33:-1 34:-1 35:-1 36:0.125 38:-1 39:-1 40:-1 41:-1 42:0.25 43:0.75 44:0.625 48:-0.333333 49:-1 50:-1 51:0.75 52:-0.5 53:-1 54:-1 55:-1 56:-1 57:-1 58:-0.5 59:0.333333 60:-1 61:-1 62:-1 63:-1 64:-1 
-0 -0 -1 -1 -0.4189263083302269 -0.6533577623487034 -0.39128577102157 0.6629420999853238 0.5242276740347074 0.1182740959710421 0.533421728638093 0.5181533866392925 0.612032708250145 0.3546867152832035 1 0 1:-0.142857 2:0.333333 3:0.333333 4:0.5 5:0.666667 6:0.333333 7:0.666667 8:0.25 9:-0.777778 10:-0.5 11:-0.875 12:-1 13:-1 14:-1 15:0.5 16:-0.0909091 17:-1 18:-1 19:-1 20:-1 21:-1 23:0.25 24:-1 25:-1 26:-1 27:-1 28:-1 29:-0.25 30:0.625 31:-1 32:-1 33:-1 34:-1 35:-1 36:-0.5 37:0.625 38:-0.875 39:-1 40:-1 41:-1 42:-1 43:-0.625 44:0.75 45:-0.75 46:-1 47:-1 48:-1 49:-1 50:-0.875 51:0.625 52:-0.5 53:-1 54:-1 55:-1 56:-1 57:-1 58:-0.333333 59:0.5 60:-1 61:-1 62:-1 63:-1 64:-1 
-0.06667499003847532 -0 -0.2243359949653506 -0 -0 -0 -0.02674103489608955 0.03803482445311227 0 0.07577857898784179 0.01671317701859191 0.07415662844200033 0 0 0 0 1:-0.142857 2:0.333333 3:0.333333 4:0.5 5:1 6:0.333333 7:0.833333 9:-0.555556 10:-0.5 11:-0.875 12:-1 13:-1 14:-1 16:0.454545 17:-1 18:-1 19:-1 20:-1 21:-1 22:-1 23:0.75 24:-0.6 25:-1 26:-1 27:-1 28:-1 29:-1 31:0.125 32:-1 33:-1 34:-1 35:-1 36:-1 37:-0.75 38:0.75 39:-0.875 40:-1 41:-1 42:-1 43:-1 44:-1 45:0.5 46:-0.375 47:-1 48:-1 49:-1 50:-1 51:-1 52:-0.125 53:0.375 54:-1 55:-1 56:-1 57:-1 58:-1 59:-1 60:0.5 61:-0.666667 62:-1 63:-1 64:-1 
-0 -0 -0.01890838734503939 -1 -0 -0 -0 0 0 0 0 0 0 0 0 0 1:0.428571 2:0.666667 3:1 4:1 5:1 6:0.666667 7:-0.833333 8:-1 9:-0.555556 10:-0.75 11:-1 12:-1 13:-1 14:0.625 15:-0.75 16:-1 17:-1 18:-1 19:-1 20:-1 21:-0.75 22:0.5 23:-1 24:-1 25:-1 26:-1 27:-0.75 28:-0.375 29:0.5 31:-0.5 32:-0.5 33:-1 34:-1 35:-0.5 36:-0.375 37:0.875 38:-0.5 39:-0.25 40:-0.5 41:-1 42:-1 43:-1 44:-0.625 45:0.25 46:-1 47:-1 48:-1 49:-1 50:-1 51:-1 52:0.125 53:-0.375 54:-1 55:-1 56:-1 57:-1 58:-1 59:-1 60:0.333333 61:-1 62:-1 63:-1 64:-1 
-0 -0 -0.7526182137728521 -0.9184142364777473 -0 -0 -0 0.375934642613178 0.4063480754646128 0 0 0 0 0 0 0 1:0.428571 2:1 3:1 4:1 5:1 6:0.666667 7:0.166667 8:-1 9:-0.777778 10:-0.625 11:-1 12:-1 13:-0.875 14:-0.5 15:0.375 16:0.272727 17:-1 18:-1 19:-1 20:-1 21:-1 22:-1 23:0.5 24:0.2 25:-1 26:-1 27:-1 28:-1 29:-1 30:-0.5 31:0.75 32:-1 33:-1 34:-1 35:-1 36:-1 37:-1 38:0.25 39:-0.25 40:-1 41:-1 42:-1 43:-1 44:-1 45:-1 46:0.875 47:-0.875 48:-1 49:-1 50:-1 51:-1 52:-1 53:-0.375 54:0.625 55:-1 56:-1 57:-1 58:-1 59:-1 60:-1 61:0.166667 62:-0.333333 63:-1 64:-1 
-0 -0 -0.02359159548542298 -0 -0 -0.03282952101525827 -0 0.3340345231967539 0 0 0.6640187376644512 0 0.1021828724464418 0 0 0.1080977037695752 1:-0.142857 2:0.833333 3:1 4:0.333333 5:0.333333 6:0.333333 7:1 8:0.25 9:0.777778 10:-0.25 11:-1 12:-1 13:-1 14:-1 15:-0.375 16:0.818182 18:-0.875 19:-1 20:-1 21:-1 22:-1 23:0.375 24:-0.2 25:-1 26:-1 27:-1 28:-1 29:-1 30:-0.5 31:0.375 32:-1 33:-1 34:-1 35:-1 36:-1 37:-1 38:0.5 39:-0.75 40:-1 41:-1 42:-1 43:-1 44:-1 45:-0.75 46:0.375 47:-1 48:-1 49:-1 50:-1 51:-1 52:-1 53:0.25 54:-0.375 55:-1 56:-1 57:-1 58:-1 59:-1 60:-1 61:0.5 62:-1 63:-1 64:-1 
-0 -0 -0.1572158701520915 -0 -0 -0 -0 0 0 0 0 0 0 0 0 0 1:-0.142857 2:0.333333 3:1 4:1 5:0.5 6:-0.5 7:-1 8:-1 9:-0.555556 10:-0.5 11:-1 12:-1 13:-0.5 14:0.75 15:-1 16:-1 17:-1 18:-1 19:-1 20:-1 21:-1 22:1 23:-1 24:-1 25:-1 26:-1 27:-1 28:-1 29:-0.625 30:0.5 31:-1 32:-1 33:-1 34:-1 35:0.125 36:0.5 37:0.875 38:0.625 39:0.5 40:-0.166667 41:-1 42:-1 43:-1 44:-1 45:0.625 46:-0.625 47:-1 48:-1 49:-1 50:-1 51:-1 52:-0.875 53:0.75 54:-1 55:-1 56:-1 57:-1 58:-1 59:-1 60:-0.333333 62:-1 63:-1 64:-1 
-0 -0.1069526982503224 -0 -0 -0.2063117018795251 -0 -0 0 0 0 0 0.1925116261623474 0 0 0 0 1:0.428571 2:1 3:0.333333 4:0.333333 5:0.333333 6:0.166667 7:-1 8:-1 9:-1 10:-0.875 11:-0.75 12:-0.5 13:-0.5 14:0.75 15:-0.75 16:-1 17:-1 18:-1 19:-1 20:-1 21:-0.75 22:0.625 23:-1 24:-1 25:-1 26:-1 27:-0.625 28:-0.5 30:0.375 31:-0.5 32:-0.666667 33:-1 34:-1 35:-0.25 37:0.625 38:0.25 40:-0.5 41:-1 42:-1 43:-1 44:-1 45:0.625 46:-0.875 47:-1 48:-1 49:-1 50:-1 51:-1 52:-0.75 53:0.625 54:-1 55:-1 56:-1 57:-1 58:-1 59:-1 60:-0.333333 61:-0.166667 62:-1 63:-1 64:-1 
-0.3497304353040325 -0.370071917534062 -0.9650480659454062 -0.7548825910407079 -0.6618154483115255 -0 -0 0.8661001858658737 0 0.5254081439962165 0.03129861635151587 0 0 0 0.07284381467573925 0.2069655429497037 1:-0.142857 2:0.333333 3:1 4:1 5:0.5 6:-0.5 7:-1 8:-1 9:-0.555556 10:-0.5 11:-1 12:-1 13:-0.5 14:0.75 15:-1 16:-1 17:-1 18:-1 19:-1 20:-1 21:-1 22:1 23:-1 24:-1 25:-1 26:-1 27:-1 28:-1 29:-0.625 30:0.5 31:-1 32:-1 33:-1 34:-1 35:0.125 36:0.5 37:0.875 38:0.625 39:0.5 40:-0.166667 41:-1 42:-1 43:-1 44:-1 45:0.625 46:-0.625 47:-1 48:-1 49:-1 50:-1 51:-1 52:-0.875 53:0.75 54:-1 55:-1 56:-1 57:-1 58:-1 59:-1 60:-0.333333 62:-1 63:-1 64:-1 
-0 -1 -0 -0.1072437171388397 -1 -0 -0 0 0 0 0 0.8956092225621347 0.7307319080516633 0.7322317307804334 0.5257232821571077 0 1:0.428571 2:1 3:0.333333 4:0.333333 5:0.333333 6:0.166667 7:-1 8:-1 9:-1 10:-0.875 11:-0.75 12:-0.5 13:-0.5 14:0.75 15:-0.75 16:-1 17:-1 18:-1 19:-1 20:-1 21:-0.75 22:0.625 23:-1 24:-1 25:-1 26:-1 27:-0.625 28:-0.5 30:0.375 31:-0.5 32:-0.666667 33:-1 34:-1 35:-0.25 37:0.625 38:0.25 40:-0.5 41:-1 42:-1 43:-1 44:-1 45:0.625 46:-0.875 47:-1 48:-1 49:-1 50:-1 51:-1 52:-0.75 53:0.625 54:-1 55:-1 56:-1 57:-1 58:-1 59:-1 60:-0.333333 61:-0.166667 62:-1 63:-1 64:-1 
-0 -0.08439893630083155 -0.0833598388032817 -0.1417666471052669 -0 -0.4588754840484632 -0.1807290023187163 0 0 0 0 0.5294948120505262 0 0 0 0 1:-0.142857 2:0.333333 3:0.5 4:1 5:1 6:0.833333 7:-1 8:-1 9:-0.555556 10:-0.5 11:-0.875 12:-1 13:-0.625 14:0.5 15:-1 16:-1 17:-1 18:-1 19:-1 20:-1 21:-0.25 22:0.125 23:-1 24:-1 25:-1 26:-1 27:-1 28:-1 29:0.25 30:-0.375 31:-1 32:-1 33:-1 34:-0.875 35:0.125 36:0.375 37:1 38:0.5 39:0.5 40:-0.333333 41:-1 42:-1 43:-1 44:-1 45:0.875 46:-1 47:-1 48:-1 49:-1 50:-1 51:-1 52:-0.75 53:0.5 54:-1 55:-1 56:-1 57:-1 58:-1 59:-1 60:-0.666667 61:0.333333 62:-1 63:-1 64:-1 
-0 -0 -0.3499300326324428 -0 -1 -0 -0 0.6923552925117763 0.3597298914140342 0.1700125409781239 0 0.3451160117593021 0.5090409241131171 0.3476802129413234 0 0 1:0.428571 2:0.333333 3:0.333333 4:0.5 5:1 6:0.833333 7:-1 8:-1 9:-0.555556 10:-0.5 11:-0.5 12:-0.875 13:-1 14:0.625 15:-1 16:-1 17:-1 18:-1 19:-1 20:-1 21:-0.375 22:-0.125 23:-1 24:-1 25:-1 26:-1 27:-1 28:-0.875 29:0.375 30:-0.25 31:-0.5 32:-0.666667 33:-1 34:-0.625 35:0.5 36:0.25 37:0.75 40:-0.166667 41:-1 42:-1 43:-1 44:-0.75 45:0.5 46:-1 47:-1 48:-1 49:-1 50:-1 51:-1 52:-0.5 54:-1 55:-1 56:-1 57:-1 58:-1 59:-1 60:-0.5 61:-0.166667 62:-1 63:-1 64:-1 
-0.5356299533184272 -0.6316534671054775 -0 -0.573408768627044 -1 -0.6592029727160949 -0.7752776720020063 0 0.9211475994048554 0.4339684637286225 0.7183711107137818 0.2229030613353731 0.3469224564600251 0.5820163519162578 0.1123589856122175 0.5331756239957469 1:0.714286 2:0.333333 3:0.333333 4:0.333333 5:0.333333 6:0.833333 7:-0.833333 8:-1 9:-0.555556 10:-0.5 11:-0.5 12:-0.5 13:-0.5 14:0.875 15:-1 16:-1 17:-1 18:-1 19:-1 20:-1 21:-0.875 22:0.5 23:-1 24:-1 25:-1 26:-1 27:-1 28:-1 29:-0.5 30:0.5 31:-1 32:-1 33:-1 35:0.5 36:0.5 37:0.625 38:0.75 39:0.5 40:0.5 41:-1 42:-1 43:-1 44:-1 46:-0.125 47:-0.625 48:-1 49:-1 50:-1 51:-1 52:-1 53:0.125 54:-0.5 55:-1 56:-1 57:-1 58:-1 59:-1 60:-1 61:0.166667 62:-1 63:-1 64:-1 
-0.5125414713827003 -1 -1 -0.8984932674220392 -1 -0.8994196632476073 -0.490198068351318 0.8015715307507757 1 0.9436229782661775 0 0.3423220016028652 0 0.5715418267846015 0.6082771639041392 0.5928424325831628 1:-0.714286 2:-0.166667 3:0.333333 4:0.333333 5:0.5 6:1 7:1 8:0.25 9:-0.111111 11:-0.25 12:-0.5 13:-0.5 14:-0.5 15:0.625 16:0.0909091 17:-1 18:-1 19:-1 20:-1 21:-1 22:-0.75 23:0.75 24:-1 25:-1 26:-1 27:-1 28:-1 29:-1 30:0.125 31:0.125 32:-1 33:-1 34:-1 35:-1 36:-1 37:-1 38:0.75 39:-0.625 40:-1 41:-1 42:-1 43:-1 44:-1 45:-0.5 46:0.75 47:-1 48:-1 49:-1 50:-1 51:-1 52:-1 53:0.25 54:-0.125 55:-1 56:-1 57:-1 58:-1 59:-1 60:-1 61:0.333333 62:-0.666667 63:-1 64:-1 
-0.8717690331906963 -0.8127617299836284 -0 -0 -0.775895561572751 -1 -0.7314361326368051 0 0.243478549900208 0.6670857430748547 0.1557410931894353 0.2367186704981945 0.4274428008792732 0 0.03421320958800311 0 1:0.142857 2:0.333333 3:0.333333 4:0.333333 5:0.833333 6:1 7:1 9:-0.555556 10:-0.5 11:-0.5 12:-0.5 13:-0.625 14:-1 15:-0.375 16:0.454545 17:-1 18:-1 19:-1 20:-1 21:-1 22:-1 23:0.25 24:-0.2 25:-1 26:-1 27:-1 28:-1 29:-1 30:-0.75 31:0.625 32:-1 33:-1 34:-1 35:-1 36:-1 37:-1 39:-0.25 40:-1 41:-1 42:-1 43:-1 44:-1 45:-1 46:0.625 47:-0.875 48:-1 49:-1 50:-1 51:-1 52:-1 53:-0.375 54:0.25 55:-1 56:-1 57:-1 58:-1 59:-1 60:-1 61:-0.166667 62:-0.333333 63:-1 64:-1 
-0.05751838167232183 -0 -0 -0 -0 -0 -0 0 0 0 0 0 0.04484774444917704 0 0 0 1:0.428571 2:1 3:0.666667 4:0.333333 5:0.333333 6:1 7:0.166667 8:-0.75 9:-1 10:-1 11:-1 12:-1 13:-1 14:-1 16:0.272727 17:-1 18:-1 19:-1 20:-1 21:-1 22:-1 23:-0.125 24:0.4 25:-1 26:-1 27:-1 28:-1 29:-1 30:-0.875 31:0.625 32:-0.833333 33:-1 34:-1 35:-1 36:-1 37:-1 39:-0.125 40:-1 41:-1 42:-1 43:-1 44:-1 45:-0.75 46:0.625 47:-1 48:-1 49:-1 50:-1 51:-1 52:-1 53:0.25 54:-0.375 55:-1 56:-1 57:-1 58:-1 59:-1 60:-1 61:0.5 62:-1 63:-1 64:-1 
-0 -0 -0.3263218096813265 -0 -0 -0.2608618751842183 -0 0.1144210056264548 0.8397792029061592 0 0 0 0 0 0 0 1:-0.428571 2:0.166667 3:0.333333 4:0.833333 5:1 6:1 7:0.833333 8:-0.25 9:-0.333333 10:-0.25 11:-0.5 12:-1 13:-1 14:-1 15:-0.125 16:0.454545 17:-1 18:-1 19:-1 20:-1 21:-1 22:-1 23:0.5 24:-0.2 25:-1 26:-1 27:-1 28:-1 29:-1 30:-0.375 31:0.5 32:-1 33:-1 34:-1 35:-1 36:-1 37:-1 38:0.75 39:-0.625 40:-1 41:-1 42:-1 43:-1 44:-1 45:-0.375 46:0.5 47:-1 48:-1 49:-1 50:-1 51:-1 52:-1 53:0.75 54:-0.5 55:-1 56:-1 57:-1 58:-1 59:-1 60:-0.5 61:0.5 62:-1 63:-1 64:-1 
-0.1602427703707005 -0 -0 -0.6087661647877011 -0 -0 -0 0 0.4419990674381949 0 0 0 0 0 0 0 1:-0.142857 2:0.333333 3:0.666667 4:1 5:1 6:1 7:0.833333 8:-0.25 9:-0.555556 10:-0.5 11:-0.75 12:-1 13:-1 14:-1 16:0.454545 17:-1 18:-1 19:-1 20:-1 21:-1 22:-1 23:0.25 24:0.2 25:-1 26:-1 27:-1 28:-1 29:-1 30:-0.875 31:0.75 32:-0.833333 33:-1 34:-1 35:-1 36:-1 37:-1 39:0.25 40:-1 41:-1 42:-1 43:-1 44:-1 45:-0.875 46:0.75 47:-0.875 48:-1 49:-1 50:-1 51:-1 52:-1 53:0.25 54:-0.125 55:-1 56:-1 57:-1 58:-1 59:-1 60:-1 61:0.833333 62:-1 63:-1 64:-1 
-0.01513124706542297 -1 -0 -0 -0 -0 -0 0 0.0346010400863118 0.1998623874660776 0 0.01937181954625929 0 0.08831774869380825 0.1719070788410903 0.1639252949667505 1:0.142857 2:0.333333 3:0.333333 4:0.333333 5:0.5 6:1 7:1 8:1 9:-0.111111 13:-0.5 14:-0.5 15:0.875 16:0.0909091 17:-1 18:-1 19:-1 20:-1 21:-1 22:0.125 23:0.25 24:-1 25:-1 26:-1 27:-1 28:-1 29:-0.25 30:0.625 31:-0.875 32:-1 33:-1 34:-1 35:-1 36:-0.625 37:0.75 38:-0.75 39:-1 40:-1 41:-1 42:-1 43:-1 44:0.5 45:-0.125 46:-1 47:-1 48:-1 49:-1 50:-1 51:-0.625 52:0.625 53:-1 54:-1 55:-1 56:-1 57:-1 58:-1 59:-0.666667 60:-0.166667 61:-1 62:-1 63:-1 64:-1 
-0.4048931305652007 -0.3951523016477279 -0.9431358782461178 -0.04372174218105102 -0.06008811621256296 -0 -0 0 0 0.3999588292306842 0 0.02001230075254774 0 0.6792961656304699 0 0.05998605571757382 1:0.428571 2:0.666667 3:0.333333 4:0.333333 5:0.333333 6:0.333333 7:0.333333 8:-0.5 9:-0.777778 10:-0.5 11:-0.5 12:-0.5 13:-0.5 14:-0.5 15:0.75 16:0.272727 17:-1 18:-1 19:-1 20:-1 21:-1 22:-0.125 23:0.625 24:-1 25:-1 26:-1 27:-1 28:-1 29:-0.25 30:0.625 31:-0.875 32:-1 33:-1 34:-1 35:-1 36:-0.5 37:0.75 38:-0.875 39:-1 40:-1 41:-1 42:-1 43:-0.75 44:0.75 45:-0.625 46:-1 47:-1 48:-1 49:-1 50:-1 51:0.5 52:-0.25 53:-1 54:-1 55:-1 56:-1 57:-1 58:-1 59:0.666667 60:-1 61:-1 62:-1 63:-1 64:-1 
-0 -0 -0.0506922910310736 -0.07284343257002149 -0 -0 -0 0 0 0 0 0 0 0 0 0 1:0.142857 2:0.666667 3:1 4:1 5:1 6:0.833333 7:0.333333 8:-0.75 9:-1 10:-1 11:-1 12:-1 13:-1 14:-1 15:0.125 16:0.454545 17:-1 18:-1 19:-1 20:-1 21:-1 22:-0.25 23:0.625 24:-0.8 25:-1 26:-1 27:-1 28:-1 29:-0.25 30:0.625 31:-0.875 32:-1 33:-1 34:-1 35:-1 36:-0.625 37:0.625 38:-0.875 39:-1 40:-1 41:-1 42:-1 43:-0.625 44:0.75 45:-0.625 46:-1 47:-1 48:-1 49:-1 50:-1 51:0.625 52:-0.5 53:-1 54:-1 55:-1 56:-1 57:-1 58:-0.5 59:0.333333 60:-1 61:-1 62:-1 63:-1 64:-1 
