svm_type c_svc
kernel_type rbf
gamma 0.015625
nr_class 10
total_sv 336
rho -0.118282 0.2383 -0.0338081 0.162544 0.347403 -0.000538505 0.0793427 0.0253275 -0.241686 0.483939 -0.0543646 0.217815 0.501195 0.0770932 0.193759 -0.0420864 -0.408404 -0.288711 -0.0649923 0.0980784 -0.417414 -0.0775226 -0.514616 -0.42364 0.247346 0.166597 0.0073277 0.22964 0.218921 -0.329995 0.161475 -0.215644 -0.0972954 -0.246832 -0.61885 -0.498802 -0.143888 -0.429647 -0.627296 0.119344 0.0749809 -0.184746 -0.203179 -0.395701 -0.348796
label 0 1 2 3 4 5 6 7 8 9
nr_sv 22 34 33 42 37 43 33 36 42 14
SV
0.4807921402244978 0.4082692086247475 0.4915741632703284 1 1 1 1 0 0.4866085239757281 1:-1 2:-1 3:0.25 4:0.875 5:0.75 6:-0.625 7:-1 8:-1 9:-1 10:-0.25 11:0.25 12:-0.875 13:-0.75 14:0.5 15:-0.75 16:-1 17:-1 18:0.375 19:-0.75 20:-1 21:-1 22:-0.5 23:0.25 24:-1 25:-1 26:0.75 27:-1 28:-1 29:-1 30:-1 31:0.75 32:-1 33:-1 34:0.625 35:-1 36:-1 37:-1 38:-1 39:1 40:-1 41:-1 42:0.25 43:-0.5 44:-1 45:-1 46:-1 47:0.625 48:-1 49:-1 50:-0.75 51:0.5 52:-0.875 53:-1 54:-0.125 56:-1 57:-1 58:-1 59:-0.625 60:0.625 61:0.625 62:0.125 63:-1 64:-1 
1 1 1 1 1 1 1 1 1 1:-1 2:-1 3:-0.875 4:0.5 5:0.375 6:-0.5 7:-1 8:-1 9:-1 10:-1 11:0.25 12:1 13:1 14:0.875 15:-0.875 16:-1 17:-1 18:-1 19:0.75 20:0.875 21:0.25 22:1 23:-0.5 24:-1 25:-1 26:-1 27:1 28:0.375 30:1 31:-0.5 32:-1 33:-1 34:-0.5 35:1 37:0.25 38:1 39:-0.875 40:-1 41:-1 42:-0.5 43:1 44:0.125 45:0.875 46:0.625 47:-1 48:-1 49:-1 50:-0.875 51:1 52:1 53:1 54:-0.375 55:-1 56:-1 57:-1 58:-1 59:-0.125 60:0.5 61:-0.25 62:-1 63:-1 64:-1 
0 0.4523050962470668 0.206259074042684 0 0.7079436998840923 0 0.08783714362312316 0.695681698773932 0 1:-1 2:-0.5 3:0.25 4:0.5 5:0.375 6:-0.375 7:-1 8:-1 9:-1 10:0.875 11:1 12:1 13:1 14:1 15:0.25 16:-1 17:-0.833333 18:1 19:1 20:1 21:1 22:1 23:1 24:-0.714286 25:-0.333333 26:1 27:1 28:-0.25 29:-0.75 30:1 31:1 32:-0.125 33:-0.142857 34:1 35:1 36:-0.875 37:-0.375 38:1 39:1 40:-0.5 41:-0.6 42:1 43:1 44:0.625 45:1 46:1 47:0.875 48:-0.846154 49:-1 50:0.5 51:1 52:1 53:1 54:1 55:-0.25 56:-1 57:-1 58:-0.875 60:0.5 62:-0.875 63:-1 64:-1 
0.9130397763355736 0.8767579243375629 0 0.2974132413389372 0.608298980447516 0.5233908833396472 0.2232019572410184 1 0.1110738621942993 1:-1 2:-0.875 3:0.25 4:0.875 5:0.125 6:-0.75 7:-1 8:-1 9:-1 10:0.375 11:-0.25 12:-0.875 13:-0.375 14:0.625 15:-0.25 16:-1 17:-0.666667 18:0.625 19:-1 20:-1 21:-1 22:-0.875 23:0.75 24:-1 25:-0.466667 27:-1 28:-1 29:-1 30:-1 31:0.25 32:-0.5 33:-0.571429 34:0.25 35:-1 36:-1 37:-1 38:-1 40:-0.5 41:-1 42:0.625 43:-0.875 44:-1 45:-1 46:-1 47:0.375 48:-0.538462 49:-1 50:-0.375 51:0.625 52:-0.875 53:-1 55:0.5 56:-1 57:-1 58:-1 59:-0.25 60:0.875 61:0.75 63:-1 64:-1 
0.2255898876776571 0.8822979159703771 0.0412592967578173 0.1873028257789279 0 0.3250766837017278 0.5996556293171552 0.1135698819748125 0.3163297424092243 1:-1 2:-0.625 3:0.375 4:0.5 5:0.125 6:-0.5 7:-1 8:-1 9:-0.538462 10:0.875 11:0.375 12:0.375 13:0.25 14:1 15:0.25 16:-1 17:0.833333 18:0.25 19:-1 20:-1 21:-1 22:-0.625 23:0.875 24:-0.142857 25:1 26:-0.5 27:-1 28:-1 29:-1 30:-1 31:-0.125 32:0.625 33:0.714286 35:-1 36:-1 37:-1 38:-1 39:-0.5 40:1 41:-0.333333 42:0.875 43:-0.625 44:-1 45:-1 46:-1 47:-0.125 48:1 49:-1 50:-0.25 51:1 52:0.25 53:-0.125 54:0.125 55:0.875 56:-0.285714 57:-1 58:-1 59:-0.5 60:0.375 61:0.5 62:0.5 63:-0.375 64:-1 
0 0.08681467661775479 0 0 0 0 0 0 0 1:-1 2:-1 3:-0.375 4:0.625 5:0.5 6:-0.5 7:-1 8:-1 9:-1 10:-0.625 11:0.875 13:-0.25 14:0.875 15:-0.25 16:-1 17:-1 18:0.75 19:-0.5 20:-1 21:-1 22:-0.875 23:0.875 24:-0.428571 25:-0.2 26:0.5 27:-1 28:-1 29:-1 30:-1 32:0.125 33:0.285714 35:-1 36:-1 37:-1 38:-1 39:-0.125 40:0.125 41:0.0666667 43:-1 44:-1 45:-1 46:-1 47:0.625 48:-0.0769231 49:-0.733333 50:0.875 51:-0.375 52:-1 53:-0.5 54:0.625 55:0.25 56:-1 57:-1 58:-0.375 59:0.625 60:1 61:0.625 62:-0.25 63:-1 64:-1 
0 0.3563331235674788 0 0 0 0.7691576036048693 0 0 0 1:-1 2:-1 3:-0.25 4:0.75 5:0.125 6:-1 7:-1 8:-1 9:-1 10:-0.375 11:1 12:0.5 13:1 14:0.25 15:-1 16:-1 17:-1 18:0.375 19:0.625 20:-1 21:-0.25 22:1 23:-0.5 24:-1 25:-1 26:0.75 27:0.125 28:-1 29:-1 30:0.625 31:0.375 32:-1 33:-1 34:0.5 35:0.25 36:-1 37:-1 38:0.125 39:0.75 40:-1 41:-1 43:0.875 44:-0.625 45:-1 46:0.125 47:0.5 48:-1 49:-1 50:-0.875 51:0.625 52:0.875 53:0.25 54:0.875 55:0.25 56:-1 57:-1 58:-1 59:-0.875 60:0.25 61:0.5 62:0.25 63:-0.875 64:-1 
0 0.6882003331630328 0.552431274064107 0.7977220321935159 0.3677940028385479 0.9893826198751694 0 1 0.06515188016697646 1:-1 2:-1 3:-0.625 4:0.5 5:0.375 6:-0.875 7:-1 8:-1 9:-1 10:-0.875 11:0.875 12:1 13:1 14:0.75 15:-0.875 16:-1 17:-1 18:-0.375 19:1 20:0.125 21:0.25 22:1 23:-0.125 24:-1 25:-1 27:1 28:-0.5 29:-0.5 30:1 32:-1 33:-1 35:1 36:-0.375 37:-0.25 38:1 39:-0.125 40:-1 41:-1 42:-0.375 43:1 44:0.125 45:0.25 46:1 47:-0.5 48:-1 49:-1 50:-1 51:0.75 52:1 53:1 54:0.75 55:-1 56:-1 57:-1 58:-1 59:-0.625 60:0.375 61:0.375 62:-0.625 63:-1 64:-1 
0 0 0 0 0 0.1006971922183262 0 0 0 1:-1 2:-1 3:-0.375 4:0.625 5:0.875 6:0.25 7:-0.875 8:-1 9:-1 10:-0.75 11:0.875 12:0.875 13:0.25 14:1 15:0.25 16:-1 17:-1 18:0.5 19:0.875 20:-0.625 21:-1 22:0.125 23:1 24:-1 25:-0.733333 26:1 27:-0.25 28:-1 29:-1 30:-0.5 31:1 32:-0.5 33:-0.571429 34:1 35:-0.375 36:-1 37:-1 38:-0.5 39:1 40:-0.5 41:-1 42:0.75 43:0.625 44:-0.875 45:-1 46:-0.125 47:1 48:-1 49:-1 50:-0.5 51:1 52:0.75 53:0.125 54:0.875 55:0.375 56:-1 57:-1 58:-1 59:-0.625 60:0.375 61:0.5 62:0.25 63:-0.875 64:-1 
0.1310710313536803 0.2013506653751836 1 0.2935053071789493 1 1 0.08564889833146962 1 0.8716976248506126 1:-1 2:-1 3:-0.625 4:0.75 5:0.125 6:-0.875 7:-1 8:-1 9:-1 10:-1 11:0.75 12:0.125 13:0.5 14:0.5 15:-1 16:-1 17:-1 18:-0.5 19:0.625 20:-1 21:-1 22:0.875 23:-0.75 24:-1 25:-1 26:-0.125 27:0.375 28:-1 29:-1 30:0.375 31:-0.125 32:-1 33:-1 35:0.25 36:-1 37:-1 38:0.25 40:-1 41:-1 42:-0.5 43:0.625 44:-1 45:-1 46:0.625 47:-0.5 48:-1 49:-1 50:-1 51:0.875 52:-0.375 53:-0.25 54:0.875 55:-1 56:-1 57:-1 58:-1 59:-0.625 60:0.75 61:0.75 62:-0.625 63:-1 64:-1 
0 0 0 0 0 0 0 0.2796321461994162 0 1:-1 2:-0.875 3:0.375 4:0.625 5:-0.125 6:-1 7:-1 8:-1 9:-1 10:-0.125 11:1 12:1 13:1 14:0.25 15:-1 16:-1 17:-1 18:0.375 19:1 20:-0.875 21:0.25 22:1 23:-0.375 24:-1 25:-1 26:0.5 27:0.625 28:-1 29:-0.875 30:1 31:0.25 32:-1 33:-1 34:0.125 35:1 36:-1 37:-1 38:0.5 39:0.5 40:-1 41:-1 42:-0.375 43:1 45:-1 46:0.875 47:0.5 48:-1 49:-1 50:-1 51:0.5 52:1 53:0.625 54:1 55:-0.25 56:-1 57:-1 58:-1 59:-0.875 60:0.125 61:0.5 63:-1 64:-1 
0.3835533086916965 0.7971912062517482 0.8474686881343545 0.788855394900811 1 0.05993389969592371 0.8543524964933865 0.1953982911177803 0.3847152296524921 1:-1 2:-1 3:-0.75 4:0.625 5:0.875 6:0.75 7:-0.625 8:-1 9:-1 10:-1 11:0.75 12:0.375 13:-0.5 15:0.625 16:-1 17:-1 18:-0.25 19:0.75 20:-1 21:-1 22:-0.875 23:1 24:-1 25:-1 26:0.5 27:-0.125 28:-1 29:-1 30:-0.5 31:0.875 32:-1 33:-1 34:1 35:-0.625 36:-1 37:-1 38:0.125 39:0.375 40:-1 41:-1 42:1 43:-0.75 44:-1 45:-0.5 46:1 47:-0.625 48:-1 49:-1 50:0.625 53:0.875 54:-0.25 55:-1 56:-1 57:-1 58:-0.625 59:0.75 60:0.5 61:-0.625 62:-1 63:-1 64:-1 
0 0 0 0 0.7654736679858193 0 0 0.366116202818146 0 1:-1 2:-0.875 3:0.25 4:0.75 5:1 6:0.5 7:-0.375 8:-1 9:-1 10:0.375 11:1 12:-0.125 13:-0.5 14:0.125 15:0.875 16:-0.142857 17:-0.333333 18:1 19:0.125 20:-1 21:-1 22:-1 23:0.125 24:0.714286 25:0.333333 26:0.25 27:-1 28:-1 29:-1 30:-1 32:0.5 33:0.714286 35:-1 36:-1 37:-1 38:-1 39:0.5 40:0.125 41:0.466667 42:0.25 43:-1 44:-1 45:-1 47:0.875 48:-0.692308 49:-0.466667 50:1 52:-0.25 53:0.5 54:0.875 55:-0.625 56:-1 57:-1 58:-0.375 59:0.625 60:0.75 61:0.25 62:-0.75 63:-1 64:-1 
0 0 0.292916560493682 0 0.4437488929485157 0.4763260641568129 0.3591301229083024 0.1676686290059249 0 1:-1 2:-0.5 3:0.375 4:1 5:0.875 6:0.25 7:-0.875 8:-1 9:-0.692308 10:0.875 11:-0.25 12:-0.75 13:-0.625 14:0.125 15:0.625 16:-1 17:0.333333 18:0.125 19:-1 20:-1 21:-1 22:-1 23:0.5 24:-0.142857 25:0.0666667 27:-1 28:-1 29:-1 30:-1 33:0.142857 34:0.125 35:-1 36:-1 37:-1 38:-1 41:-0.733333 42:0.875 43:-0.875 44:-1 45:-1 46:-1 47:0.625 48:-0.0769231 49:-1 50:0.125 51:0.625 52:-0.5 53:-0.625 54:0.625 55:0.25 56:-1 57:-1 58:-1 59:-0.125 60:0.75 61:0.875 63:-1 64:-1 
0.6561102830582911 1 1 1 1 1 1 1 1 1:-1 2:-1 3:-0.625 4:0.375 5:0.5 6:-0.25 7:-1 8:-1 9:-1 10:-0.875 11:0.875 12:1 13:1 14:1 15:-0.75 16:-1 17:-1 18:-0.25 19:1 20:0.25 21:0.125 22:1 23:-0.25 24:-1 25:-1 27:1 28:-0.375 29:-0.375 30:1 32:-1 33:-1 35:1 36:-0.125 37:-0.25 38:1 40:-1 41:-1 42:-0.625 43:1 44:0.5 45:0.5 46:1 47:-0.375 48:-1 49:-1 50:-1 51:0.5 52:1 53:1 54:0.75 55:-1 56:-1 57:-1 58:-1 59:-0.875 60:0.375 61:0.375 62:-0.625 63:-1 64:-1 
0 0.5433307368988218 1 0.04206856168751247 0 0 0 0.2360196445942793 0.03533614197579586 1:-1 2:-0.625 3:0.375 4:1 5:0.25 6:-0.875 7:-1 8:-1 9:-0.692308 10:0.875 11:-0.125 12:-0.875 14:0.625 15:-0.875 16:-1 17:0.166667 18:0.125 19:-1 20:-1 21:-1 22:-0.125 23:0.5 24:-1 25:0.0666667 27:-1 28:-1 29:-1 30:-1 31:0.75 32:-0.5 34:0.125 35:-1 36:-1 37:-1 38:-1 41:-0.733333 42:0.875 43:-0.875 44:-1 45:-1 46:-1 47:0.125 48:0.230769 49:-1 50:0.125 51:0.625 52:-0.625 53:-0.875 54:-0.125 55:0.875 56:-0.714286 57:-1 58:-1 59:-0.125 60:0.75 61:1 62:0.25 63:-0.75 64:-1 
0 0 0.7452955161437996 0 0 0 0 0.3103992179192565 0.1973830107609463 1:-1 2:-1 3:-0.25 4:0.875 5:0.875 7:-1 8:-1 9:-1 10:-0.375 11:1 12:0.625 14:0.5 15:0.25 16:-1 17:-1 18:0.75 19:-0.25 20:-1 21:-1 22:-1 23:0.625 24:-0.142857 25:-0.2 26:0.625 27:-1 28:-1 29:-1 30:-1 33:0.142857 35:-1 36:-1 37:-1 38:-1 39:0.5 40:-0.25 41:0.0666667 42:0.125 43:-1 44:-1 45:-1 47:0.625 48:-1 49:-0.6 50:0.75 51:-0.75 52:-0.625 53:0.375 54:0.625 55:-0.875 56:-1 57:-1 58:-0.125 59:0.875 60:0.75 62:-1 63:-1 64:-1 
0.174076665724311 0.222285127175796 0 0.4189674634917018 0.3945658664670684 0 0.01018138329992806 0 0 1:-1 2:-0.125 3:-0.5 4:-0.5 5:-0.75 6:-1 7:-1 8:-1 9:-0.230769 10:1 11:1 12:1 13:1 14:0.625 15:-0.5 16:-1 17:0.666667 18:1 19:0.375 20:0.5 21:0.875 22:1 23:1 24:-0.571429 25:0.6 26:1 27:-0.5 28:-1 29:-1 30:0.25 31:1 32:0.25 33:0.285714 34:1 36:-1 37:-1 38:-0.5 39:1 40:0.5 41:-0.6 42:1 43:1 44:0.125 46:0.75 47:1 48:0.538462 49:-1 50:-0.125 51:1 52:1 53:1 54:1 55:0.5 56:-0.857143 57:-1 58:-1 59:-0.625 62:-0.625 63:-1 64:-1 
0.9890000160762308 1 0.6995525235498087 1 1 1 1 1 1 1:-1 2:-1 3:-0.25 4:0.875 5:0.5 6:-0.25 7:-1 8:-1 9:-1 10:-1 11:0.875 12:0.25 13:0.125 14:1 15:-0.875 16:-1 17:-1 18:-0.5 19:1 20:-1 21:-1 22:1 23:-0.5 24:-1 25:-1 26:-0.5 27:1 28:-1 29:-1 30:1 31:-0.5 32:-1 33:-1 34:-0.75 35:1 36:-0.75 37:-0.75 38:1 39:-0.875 40:-1 41:-1 42:-1 43:0.75 44:-0.25 45:-0.5 46:0.875 47:-1 48:-1 49:-1 50:-1 51:-0.125 52:0.875 53:0.5 54:0.375 55:-1 56:-1 57:-1 58:-1 59:-1 60:0.125 61:0.875 62:-0.625 63:-1 64:-1 
0.9443014731410136 0.8221390702267686 1 0.8139753528023729 1 0.63145331478356 0.7119424337183018 0.4571695133072664 0.5889643721823439 1:-1 2:-1 3:-0.75 6:-0.25 7:-0.875 8:-1 9:-1 10:-0.625 11:0.875 12:0.25 13:0.125 14:0.625 15:0.875 16:-0.571429 17:-0.666667 18:0.875 19:-0.25 20:-1 21:-1 22:-1 23:-0.125 24:1 25:0.2 26:0.25 27:-1 28:-1 29:-1 30:-1 31:-0.5 32:1 33:1 34:-0.375 35:-1 36:-1 37:-1 38:-1 39:0.375 40:0.25 41:1 42:-0.5 43:-1 44:-1 45:-0.875 46:0.25 47:0.875 48:-0.846154 49:0.2 50:0.75 52:0.375 53:1 54:0.5 55:-0.875 56:-1 57:-1 58:-0.25 61:-0.625 62:-1 63:-1 64:-1 
0 0 0 0 0 0.1088463653332917 0 0 0 1:-1 2:-1 3:-0.875 4:0.25 5:0.875 6:0.75 7:-0.5 8:-1 9:-1 10:-0.875 11:0.625 12:0.875 14:0.5 15:0.625 16:-1 17:-1 19:0.875 20:-0.875 21:-1 22:-0.25 23:1 24:-1 25:-1 26:0.875 28:-1 29:-1 30:-0.5 31:1 32:-0.5 33:-0.428571 34:1 35:-0.5 36:-1 37:-1 38:-0.5 39:1 40:-0.625 41:-0.733333 42:1 43:-0.375 44:-1 45:-1 47:0.875 48:-1 49:-1 50:0.5 51:0.875 52:0.125 53:0.5 54:1 55:-0.25 56:-1 57:-1 58:-0.875 60:0.875 61:0.375 62:-0.5 63:-1 64:-1 
0 0 0.5264913658549001 0 1 1 0 0.3438978472603547 0.4187253954838774 1:-1 2:-1 3:-0.875 4:0.375 5:0.875 6:0.375 7:-0.875 8:-1 9:-1 10:-1 11:0.5 12:0.25 13:-0.5 14:0.375 15:0.125 16:-1 17:-1 18:-0.375 19:0.75 20:-0.875 21:-1 22:-0.5 23:0.5 24:-1 25:-1 26:0.25 28:-1 29:-1 30:-0.375 31:0.5 32:-1 33:-1 34:0.5 35:-0.375 36:-1 37:-1 38:0.25 39:0.125 40:-1 41:-1 42:0.5 43:-0.375 44:-1 45:-0.875 46:0.875 47:-0.625 48:-1 49:-1 51:0.375 52:-0.5 53:0.625 54:0.125 55:-1 56:-1 57:-1 58:-0.875 59:0.375 60:0.875 61:0.125 62:-1 63:-1 64:-1 
-0 0 0.04204105738245113 1 0.4334151676113607 0.7730858326420468 0.1414904575553534 0 0 1:-1 2:-1 3:-1 4:-0.875 5:0.75 6:-1 7:-1 8:-1 9:-1 10:-1 11:-1 12:-0.125 13:0.625 14:-1 15:-1 16:-1 17:-1 18:-1 19:-1 20:0.125 22:-1 23:-1 24:-1 25:-1 26:-1 27:-1 28:0.5 30:-1 31:-1 32:-1 33:-1 34:-1 35:-1 36:0.5 38:-1 39:-1 40:-1 41:-1 42:-1 43:-1 44:0.5 45:-0.375 46:-1 47:-1 48:-1 49:-1 50:-1 51:-1 52:0.625 53:-0.5 54:-1 55:-1 56:-1 57:-1 58:-1 59:-1 60:0.625 61:-0.75 62:-1 63:-1 64:-1 
-0 0 0 0.28394123689198 0 0 0 0 0.1394663016249824 1:-1 2:-1 3:0.125 5:-1 6:-1 7:-1 8:-1 9:-1 10:-0.875 11:1 12:0.5 13:-1 14:-1 15:-1 16:-1 17:-1 18:-0.125 19:1 20:1 21:-1 22:-1 23:-1 24:-1 25:-1 26:-0.875 27:-0.5 28:1 29:-1 30:-1 31:-1 32:-1 33:-1 34:-1 35:-1 36:1 37:-0.5 38:-1 39:-1 40:-1 41:-1 42:-1 43:-1 44:0.625 45:-0.25 46:-1 47:-1 48:-1 49:-1 50:-1 51:-0.625 52:0.625 53:0.5 55:-0.625 56:-1 57:-1 58:-1 59:0.5 60:0.5 61:0.5 62:0.5 63:-0.5 64:-1 
-0.4129326909293795 0.208196622003759 1 1 1 0 1 1 1 1:-1 2:-1 3:-1 4:-0.75 5:0.625 6:-0.125 7:-1 8:-1 9:-1 10:-1 11:-0.625 12:0.875 13:1 14:0.125 15:-1 16:-1 17:-1 18:-1 19:0.125 20:0.625 21:1 23:-1 24:-1 25:-1 26:-1 27:-1 28:-1 29:1 31:-1 32:-1 33:-1 34:-1 35:-1 36:-1 37:1 39:-1 40:-1 41:-1 42:-1 43:-1 44:-1 45:1 47:-1 48:-1 49:-1 50:-1 51:-1 52:-1 53:1 54:0.125 55:-1 56:-1 57:-1 58:-1 59:-1 60:-1 61:0.25 62:-0.375 63:-1 64:-1 
-0 0 0 0.1483997653214036 0 0 1 0 0 1:-1 2:-1 3:-1 4:-0.25 5:0.375 6:-1 7:-1 8:-1 9:-1 10:-1 11:-1 13:0.5 14:-1 15:-1 16:-1 17:-1 18:-1 19:-1 21:0.5 22:-1 23:-1 24:-1 25:-1 26:-1 27:-1 28:0.25 29:0.5 30:-1 31:-1 32:-1 33:-1 34:-1 35:-1 36:0.5 37:0.25 38:-1 39:-1 40:-1 41:-1 42:-1 43:-1 44:0.5 46:-1 47:-1 48:-1 49:-1 50:-1 51:-1 52:0.5 54:-1 55:-1 56:-1 57:-1 58:-1 59:-1 60:0.125 61:-0.25 62:-1 63:-1 64:-1 
-1 1 1 1 1 1 1 1 1 1:-1 2:-1 3:-1 4:-1 5:0.25 6:0.125 7:-1 8:-1 9:-1 10:-1 11:-0.875 12:0.5 13:1 15:-1 16:-1 17:-1 18:-1 19:0.375 20:0.375 21:0.125 23:-1 24:-1 25:-1 26:-1 27:-0.75 28:-1 31:-1 32:-1 33:-1 34:-1 35:-1 36:-1 39:-1 40:-1 41:-1 42:-1 43:-1 44:-1 47:-1 48:-1 49:-1 50:-1 51:-1 52:-1 54:0.125 55:-1 56:-1 57:-1 58:-1 59:-1 60:-1 61:-0.375 62:0.375 63:-1 64:-1 
-0.7786944186467291 0.4032234063572215 0 1 1 0.2049146652026158 1 1 1 1:-1 2:-1 3:-1 4:-1 6:0.875 7:-0.75 8:-1 9:-1 10:-1 11:-0.625 12:0.5 13:1 14:0.875 15:-1 16:-1 17:-1 18:-0.875 19:1 20:0.25 21:0.25 22:0.25 23:-1 24:-1 25:-1 26:-1 27:-1 28:-1 29:0.875 30:-0.375 31:-1 32:-1 33:-1 34:-1 35:-1 36:-0.625 37:0.875 38:-1 39:-1 40:-1 41:-1 42:-1 43:-1 44:0.125 45:0.375 46:-1 47:-1 48:-1 49:-1 50:-1 51:-1 52:0.5 53:-0.125 54:-1 55:-1 56:-1 57:-1 58:-1 59:-1 60:0.25 61:-0.25 62:-1 63:-1 64:-1 
-0 0 0 0 0 0 1 0 0 1:-1 2:-1 3:-1 4:-1 5:0.5 6:0.125 7:-1 8:-1 9:-1 10:-1 11:-0.625 12:0.375 13:1 14:0.375 15:-1 16:-1 17:-1 18:-1 19:0.125 20:0.875 21:1 23:-1 24:-1 25:-1 26:-1 27:-1 28:-0.75 29:1 30:-0.375 31:-1 32:-1 33:-1 34:-1 35:-1 36:-0.5 37:1 38:-0.625 39:-1 40:-1 41:-1 42:-1 43:-1 45:0.875 46:-1 47:-1 48:-1 49:-1 50:-1 51:-1 52:0.375 53:0.5 54:-1 55:-1 56:-1 57:-1 58:-1 59:-1 60:0.25 61:-0.375 62:-1 63:-1 64:-1 
-0 0 0 0.02915283056444481 0.1929718615640242 0 1 0 0.9929552659995458 1:-1 2:-1 3:-1 4:-0.875 5:0.625 6:0.125 7:-1 8:-1 9:-1 10:-1 11:-0.875 12:0.625 13:0.875 14:0.25 15:-1 16:-1 17:-1 18:-1 20:0.25 21:0.125 23:-1 24:-1 25:-1 26:-1 27:-1 28:-1 29:0.5 30:-0.375 31:-1 32:-1 33:-1 34:-1 35:-1 36:-1 37:0.875 38:-0.625 39:-1 40:-1 41:-1 42:-1 43:-1 44:-0.75 45:1 46:-1 47:-1 48:-1 49:-1 50:-1 51:-1 52:-0.5 53:0.5 54:-1 55:-1 56:-1 57:-1 58:-1 59:-1 60:-0.375 61:0.125 62:-1 63:-1 64:-1 
-0 0 0 0 0 0.03740177352213703 0 0 0 1:-1 2:-1 3:-1 4:-1 5:0.625 6:-0.375 7:-1 8:-1 9:-1 10:-1 11:-1 12:-0.125 13:1 14:-0.375 15:-1 16:-1 17:-1 18:-1 19:-0.75 20:1 21:1 22:-1 23:-1 24:-1 25:-1 26:-1 27:-0.75 28:0.75 29:0.625 30:-1 31:-1 32:-1 33:-1 34:-1 35:-1 36:0.5 37:0.375 38:-1 39:-1 40:-1 41:-1 42:-1 43:-1 44:0.5 46:-1 47:-1 48:-1 49:-1 50:-1 51:-0.875 52:0.75 53:0.5 54:-1 55:-1 56:-1 57:-1 58:-1 59:-0.375 60:1 61:0.75 62:-0.75 63:-1 64:-1 
-0 0.5132636775010992 1 0.2138839356169521 1 0.256721762803019 0.1274257826877287 0 0.2443446465704059 1:-1 2:-1 3:-0.375 4:0.25 5:-1 6:-1 7:-1 8:-1 9:-1 10:-1 11:0.625 12:0.5 13:-1 14:-1 15:-1 16:-1 17:-1 18:-1 19:-0.5 20:0.5 21:-1 22:-1 23:-1 24:-1 25:-1 26:-1 27:-0.5 28:0.5 29:-1 30:-1 31:-1 32:-1 33:-1 34:-1 35:-0.875 36:0.5 37:-1 38:-1 39:-1 40:-1 41:-1 42:-1 43:-1 44:0.5 45:-1 46:-1 47:-1 48:-1 49:-1 50:-1 51:-1 52:0.625 53:0.125 54:0.625 55:-0.75 56:-1 57:-1 58:-0.75 59:0.625 60:0.25 61:-0.375 62:-1 63:-1 64:-1 
-0 0.872763137869102 0 0 0 0 1 0 0 1:-1 2:-1 3:-1 4:-0.5 5:0.625 6:-0.875 7:-1 8:-1 9:-1 10:-1 11:-1 13:1 14:-0.625 15:-1 16:-1 17:-1 18:-1 19:-1 21:1 22:-1 23:-1 24:-1 25:-1 26:-1 27:-1 28:0.25 29:1 30:-1 31:-1 32:-1 33:-1 34:-1 35:-1 36:0.5 37:0.75 38:-1 39:-1 40:-1 41:-1 42:-1 43:-1 44:0.75 45:0.5 46:-1 47:-1 48:-1 49:-1 50:-1 51:-0.75 52:1 53:0.25 54:-1 55:-1 56:-1 57:-1 58:-1 59:-1 60:0.375 61:-0.375 62:-1 63:-1 64:-1 
-0.9896831286448866 1 0 1 1 1 0.4319876024617642 1 0.1061063818443908 1:-1 2:-1 3:0.5 4:-0.25 5:-1 6:-1 7:-1 8:-1 9:-1 10:0.125 11:1 13:-1 14:-1 15:-1 16:-1 17:-0.666667 18:1 19:1 20:0.375 21:-1 22:-1 23:-1 24:-1 25:-1 26:-0.625 27:0.625 28:0.5 29:-1 30:-1 31:-1 32:-1 33:-1 34:-1 35:0.5 36:0.875 37:-1 38:-1 39:-1 40:-1 41:-1 42:-1 43:0.125 44:1 45:-1 46:-1 47:-1 48:-1 49:-1 50:0.375 51:0.75 52:1 53:0.625 54:1 55:0.875 56:-0.714286 57:-1 58:0.375 59:0.5 60:0.5 61:0.5 62:0.5 64:-1 
-0 1 0 0 0 0 0 0.2094137718628229 0 1:-1 2:-1 3:-1 5:0.375 6:-1 7:-1 8:-1 9:-1 10:-1 12:1 13:1 14:-1 15:-1 16:-1 17:-1 18:-1 19:0.875 20:0.75 21:1 22:-1 23:-1 24:-1 25:-1 26:-1 27:-1 28:0.5 29:0.625 30:-1 31:-1 32:-1 33:-1 34:-1 35:-1 36:0.5 37:0.5 38:-1 39:-1 40:-1 41:-1 42:-1 43:-1 44:0.5 45:0.5 46:-1 47:-1 48:-1 49:-1 50:-0.5 51:0.5 52:0.875 53:0.875 54:1 55:-0.125 56:-1 57:-1 58:-0.125 59:0.5 60:0.5 61:0.5 63:-0.625 64:-1 
-0.21825146901127 1 0 0 0 0 0.1581693146390325 0 0 1:-1 2:-1 3:-1 4:-0.625 5:0.875 6:-0.875 7:-1 8:-1 9:-1 10:-1 11:-1 12:0.75 13:1 14:-1 15:-1 16:-1 17:-1 18:-1 19:-1 20:-0.75 21:0.625 22:-1 23:-1 24:-1 25:-1 26:-1 27:-1 28:-1 29:0.5 30:-1 31:-1 32:-1 33:-1 34:-1 35:-1 36:-1 37:0.5 38:-1 39:-1 40:-1 41:-1 42:-1 43:-1 44:-0.75 45:0.5 46:-1 47:-1 48:-1 49:-1 50:-1 51:-1 52:-0.5 53:0.5 54:-1 55:-1 56:-1 57:-1 58:-1 59:-1 60:-0.625 61:0.375 62:-1 63:-1 64:-1 
-0 0 0 1 0 0 0 0 0 1:-1 2:-1 3:-1 4:0.375 5:-0.625 6:-1 7:-1 8:-1 9:-1 10:-1 11:-1 12:0.25 14:-1 15:-1 16:-1 17:-1 18:-1 19:-1 22:-1 23:-1 24:-1 25:-1 26:-1 27:-1 30:-1 31:-1 32:-1 33:-1 34:-1 35:-1 36:-0.25 37:0.375 38:-1 39:-1 40:-1 41:-1 42:-1 43:-1 44:-0.5 45:0.5 46:-1 47:-1 48:-1 49:-1 50:-1 51:-1 52:-0.25 53:0.375 54:-1 55:-1 56:-1 57:-1 58:-1 59:-1 60:-0.375 61:0.125 62:-1 63:-1 64:-1 
-0 1 1 0 1 0.5294728034250584 0 1 0.2746015047286289 1:-1 2:-1 3:-0.75 4:0.5 5:0.375 6:-1 7:-1 8:-1 9:-1 10:-1 11:0.25 12:1 13:1 14:-1 15:-1 16:-1 17:-1 18:-1 19:0.75 20:1 21:1 22:-1 23:-1 24:-1 25:-1 26:-1 27:-0.875 29:1 30:-1 31:-1 32:-1 33:-1 34:-1 35:-1 37:1 38:-0.875 39:-1 40:-1 41:-1 42:-1 43:-1 45:1 46:-0.5 47:-1 48:-1 49:-1 50:-0.375 51:0.75 52:1 53:1 54:1 55:-0.25 56:-1 57:-1 58:-0.375 59:0.5 60:0.5 61:0.5 62:0.5 63:-0.5 64:-1 
-0 1 0.8804733725413852 0 0.5688110783415578 0.08611483830148764 0.2799494311082489 0 0 1:-1 2:-1 3:-1 4:-0.875 5:0.625 6:-0.125 7:-1 8:-1 9:-1 10:-1 11:-0.625 12:0.75 13:1 14:-0.25 15:-1 16:-1 17:-1 18:-1 19:-0.375 20:-0.25 21:0.875 22:-0.625 23:-1 24:-1 25:-1 26:-1 27:-1 28:-0.625 29:0.875 30:-1 31:-1 32:-1 33:-1 34:-1 35:-1 36:-0.25 37:0.375 38:-1 39:-1 40:-1 41:-1 42:-1 43:-1 44:0.25 46:-1 47:-1 48:-1 49:-1 50:-0.75 51:-0.5 52:0.625 53:-0.125 55:-0.125 56:-1 57:-1 58:0.875 59:0.625 60:0.5 61:0.5 62:0.5 63:0.25 64:-1 
-0 0 0 0.1464887835877569 0 0 0.8244286295100061 0 0 1:-1 2:-1 3:-1 4:-0.625 5:0.625 6:-1 7:-1 8:-1 9:-1 10:-1 11:-1 12:-0.125 13:0.5 14:-1 15:-1 16:-1 17:-1 18:-1 19:-1 21:0.5 22:-1 23:-1 24:-1 25:-1 26:-1 27:-1 28:0.25 29:0.375 30:-1 31:-1 32:-1 33:-1 34:-1 35:-1 36:0.5 38:-1 39:-1 40:-1 41:-1 42:-1 43:-1 44:0.5 46:-1 47:-1 48:-1 49:-1 50:-1 51:-1 52:1 53:-0.375 54:-1 55:-1 56:-1 57:-1 58:-1 59:-1 60:0.25 61:-0.25 62:-1 63:-1 64:-1 
-0 0.09482635013054083 0.02329421537080031 0 0.2338708197031009 0 0 0 0 1:-1 2:-1 3:-1 4:-0.5 5:0.375 6:-1 7:-1 8:-1 9:-1 10:-1 11:-0.75 12:0.625 13:0.5 14:-1 15:-1 16:-1 17:-1 18:-1 19:-0.375 20:0.25 21:0.75 22:-1 23:-1 24:-1 25:-1 26:-1 27:-1 28:-1 29:1 30:-1 31:-1 32:-1 33:-1 34:-1 35:-1 36:-1 37:1 38:-1 39:-1 40:-1 41:-1 42:-1 43:-1 44:-1 45:1 46:-0.625 47:-1 48:-1 49:-1 50:-1 51:-0.5 52:-0.125 53:1 54:0.625 55:-0.375 56:-1 57:-1 58:-0.125 59:0.625 60:0.25 63:-0.875 64:-1 
-0 0 0.4818233920239147 1 0 0 0 0.9612536712655227 0.6592602603309377 1:-1 2:-1 3:-1 4:-0.875 5:0.625 6:-0.625 7:-1 8:-1 9:-1 10:-1 11:-1 12:-0.25 13:1 14:-0.5 15:-1 16:-1 17:-1 18:-1 19:-1 20:0.625 21:1 22:-0.5 23:-1 24:-1 25:-1 26:-1 27:-0.5 28:1 29:1 30:-0.5 31:-1 32:-1 33:-1 34:-1 35:-1 36:-0.25 37:1 38:-0.5 39:-1 40:-1 41:-1 42:-1 43:-1 44:-0.5 45:1 46:-0.5 47:-1 48:-1 49:-1 50:-1 51:-1 52:-0.5 53:1 54:-0.5 55:-1 56:-1 57:-1 58:-1 59:-1 60:-0.75 61:0.5 62:-0.75 63:-1 64:-1 
-0 0 0 0.7276752666633859 0 0 0 0 0.6108673439314354 1:-1 2:-1 3:-1 4:-0.625 5:0.75 6:-0.75 7:-1 8:-1 9:-1 10:-1 11:-0.75 12:0.875 13:1 14:-0.5 15:-1 16:-1 17:-1 18:-1 19:-0.375 20:0.625 21:1 22:-0.5 23:-1 24:-1 25:-1 26:-1 27:-1 28:-1 29:1 30:-0.5 31:-1 32:-1 33:-1 34:-1 35:-1 36:-1 37:1 38:-0.5 39:-1 40:-1 41:-1 42:-1 43:-1 44:-1 45:1 46:-0.5 47:-1 48:-1 49:-1 50:-1 51:-1 52:-1 53:1 54:-0.25 55:-1 56:-1 57:-1 58:-1 59:-1 60:-1 61:0.375 62:-0.375 63:-1 64:-1 
-0 0 0 0 0 0 0 0.4959628872813989 0 1:-1 2:-1 3:-0.875 4:0.75 5:-0.625 6:-1 7:-1 8:-1 9:-1 10:-1 11:-0.125 12:1 13:-0.5 14:-1 15:-1 16:-1 17:-1 18:-1 19:0.875 20:1 21:-0.5 22:-1 23:-1 24:-1 25:-1 26:-1 27:-0.625 28:1 30:-1 31:-1 32:-1 33:-1 34:-1 35:-1 36:1 38:-1 39:-1 40:-1 41:-1 42:-1 43:-1 44:1 46:-1 47:-1 48:-1 49:-1 50:-1 51:-0.375 52:1 53:0.5 54:0.375 55:-1 56:-1 57:-1 58:-1 60:0.75 61:0.5 62:0.125 63:-1 64:-1 
-0 1 0 0 0 0 0 0 0 1:-1 2:-1 3:-1 4:0.125 5:-0.125 6:-1 7:-1 8:-1 9:-1 10:-1 11:-0.375 12:1 14:-1 15:-1 16:-1 17:-1 18:-1 19:-0.625 20:0.375 22:-1 23:-1 24:-1 25:-1 26:-1 27:-1 28:0.375 30:-1 31:-1 32:-1 33:-1 34:-1 35:-1 36:0.5 37:-0.25 38:-1 39:-1 40:-1 41:-1 42:-1 43:-1 44:0.5 45:-0.5 46:-1 47:-1 48:-1 49:-1 50:-0.875 51:-0.5 52:1 53:-0.125 55:-0.625 56:-1 57:-1 58:-0.125 59:1 60:0.75 61:0.5 62:0.5 63:-0.375 64:-1 
-0 0 0 1 0 0 0.1597500072726262 0 0 1:-1 2:-1 3:-1 4:0.375 5:-0.375 6:-1 7:-1 8:-1 9:-1 10:-1 11:-1 12:0.125 14:-1 15:-1 16:-1 17:-1 18:-1 19:-1 22:-1 23:-1 24:-1 25:-1 26:-1 27:-1 28:0.125 29:0.125 30:-1 31:-1 32:-1 33:-1 34:-1 35:-1 36:-0.125 37:0.5 38:-1 39:-1 40:-1 41:-1 42:-1 43:-1 45:0.5 46:-1 47:-1 48:-1 49:-1 50:-1 51:-1 52:0.375 54:-1 55:-1 56:-1 57:-1 58:-1 59:-1 60:-0.125 61:-0.125 62:-1 63:-1 64:-1 
-0 0.8893083446106206 0 0 0 0 0 0 0 1:-1 2:-1 3:-0.875 4:0.75 5:-1 6:-1 7:-1 8:-1 9:-1 10:-0.875 11:0.625 12:1 13:-1 14:-1 15:-1 16:-1 17:-1 18:-0.875 19:-0.125 20:1 21:-1 22:-1 23:-1 24:-1 25:-1 26:-1 27:-1 28:1 29:-1 30:-1 31:-1 32:-1 33:-1 34:-1 35:-1 36:0.875 37:-0.875 38:-1 39:-1 40:-1 41:-1 42:-1 43:-1 44:0.625 45:-0.625 46:-1 47:-1 48:-1 49:-1 50:-1 51:-0.5 52:0.625 55:-0.125 56:-1 57:-0.636364 58:1 59:0.5 60:0.5 61:0.5 63:0.25 64:-0.777778 
-0 0.1214079944845869 0 3.383212354242642e-05 0 0 1 0 0 1:-1 2:-1 3:-1 4:0.375 5:-0.5 6:-1 7:-1 8:-1 9:-1 10:-1 11:-1 12:0.125 13:0.25 14:-1 15:-1 16:-1 17:-1 18:-1 19:-1 20:-0.375 21:0.5 22:-1 23:-1 24:-1 25:-1 26:-1 27:-1 28:-0.5 29:0.5 30:-1 31:-1 32:-1 33:-1 34:-1 35:-1 36:-0.5 37:0.5 38:-1 39:-1 40:-1 41:-1 42:-1 43:-1 44:-0.5 45:0.5 46:-1 47:-1 48:-1 49:-1 50:-1 51:-1 52:-0.5 53:0.5 54:-1 55:-1 56:-1 57:-1 58:-1 59:-1 60:-0.625 61:0.375 62:-1 63:-1 64:-1 
-0 0 1 1 0.8617148558291942 0.9848243463717452 0.504103119896527 1 0 1:-1 2:-1 3:-1 4:-0.75 5:0.5 6:-0.5 7:-1 8:-1 9:-1 10:-1 11:-1 12:0.25 13:1 15:-1 16:-1 17:-1 18:-1 19:-0.75 20:1 21:1 22:-0.125 23:-1 24:-1 25:-1 26:-1 27:-0.125 28:1 29:1 30:-0.5 31:-1 32:-1 33:-1 34:-1 35:-1 36:0.625 37:1 38:-0.5 39:-1 40:-1 41:-1 42:-1 43:-1 44:0.625 45:1 46:-0.75 47:-1 48:-1 49:-1 50:-1 51:-0.75 52:1 53:0.875 54:-1 55:-1 56:-1 57:-1 58:-1 59:-1 60:0.375 61:-0.25 62:-1 63:-1 64:-1 
-0 0 0.5802600097610069 1 0 0 0 0 0.7984174349694747 1:-1 2:-1 3:-1 4:0.125 5:0.25 6:-1 7:-1 8:-1 9:-1 10:-1 11:-0.75 12:1 13:1 14:-1 15:-1 16:-1 17:-1 18:-1 19:-0.75 20:0.375 21:1 22:-0.75 23:-1 24:-1 25:-1 26:-1 27:-1 28:-1 29:1 30:-0.5 31:-1 32:-1 33:-1 34:-1 35:-1 36:-1 37:1 38:-0.375 39:-1 40:-1 41:-1 42:-1 43:-1 44:-1 45:1 46:-0.125 47:-1 48:-1 49:-1 50:-1 51:-1 52:-1 53:1 54:-0.5 55:-1 56:-1 57:-1 58:-1 59:-1 60:-1 61:0.625 62:-0.625 63:-1 64:-1 
-1 1 1 1 1 1 0.1865568404366901 1 0.711726260680509 1:-1 2:-1 3:-0.375 4:0.625 5:-1 6:-1 7:-1 8:-1 9:-1 10:-1 11:0.625 12:1 13:-0.75 14:-1 15:-1 16:-1 17:-1 19:1 20:1 21:-0.25 22:-1 23:-1 24:-1 25:-1 26:1 27:0.625 28:1 29:0.25 30:-1 31:-1 32:-1 33:-1 34:-0.625 35:-0.875 36:0.625 37:0.5 38:-1 39:-1 40:-1 41:-1 42:-1 43:-0.875 44:0.625 45:0.75 46:0.625 47:0.625 48:-1 49:-1 50:-0.25 51:1 52:1 53:1 54:0.875 55:0.375 56:-1 57:-1 59:0.5 61:-0.5 62:-1 63:-1 64:-1 
-0.2841531981071503 0 0.3926522458929541 1 1 1 0.2850198490284448 0 1 1:-1 2:-1 3:-1 4:-1 5:0.125 6:0.375 7:-1 8:-1 9:-1 10:-1 11:-1 12:0.125 13:1 14:0.125 15:-1 16:-1 17:-1 18:-1 19:-0.375 20:0.75 21:0.125 23:-1 24:-1 25:-1 26:-1 27:-0.25 28:-0.625 29:0.25 31:-1 32:-1 33:-1 34:-1 35:-1 36:-1 37:0.5 38:-0.5 39:-1 40:-1 41:-1 42:-1 43:-1 44:-1 45:0.5 46:-0.5 47:-1 48:-1 49:-1 50:-1 51:-1 52:-1 53:0.625 54:-0.5 55:-1 56:-1 57:-1 58:-1 59:-1 60:-1 61:0.5 62:-0.75 63:-1 64:-1 
-0 0.08785759799121529 0.1771560406950869 0 0 1 0 0 0 1:-1 2:-1 3:-1 4:0.5 5:-0.625 6:-1 7:-1 8:-1 9:-1 10:-1 11:-0.75 12:0.75 13:-0.5 14:-1 15:-1 16:-1 17:-1 18:-1 19:-1 21:-0.125 22:-1 23:-1 24:-1 25:-1 26:-1 27:-1 30:-1 31:-1 32:-1 33:-1 34:-1 35:-1 38:-1 39:-1 40:-1 41:-1 42:-1 43:-1 46:-1 47:-1 48:-1 49:-1 50:-1 51:-1 54:-1 55:-1 56:-1 57:-1 58:-1 59:0.75 60:1 61:1 62:0.75 63:-1 64:-1 
-0.7107754909188199 1 0.6835581904091478 1 1 1 1 1 0.3236435153772804 1:-1 2:-0.5 3:0.75 4:-0.625 5:-1 6:-1 7:-1 8:-1 9:-1 10:0.5 11:1 12:-0.125 13:-1 14:-1 15:-1 16:-1 17:-1 18:0.125 19:0.875 20:0.125 21:-1 22:-1 23:-1 24:-1 25:-1 26:-1 27:0.375 28:0.5 29:-1 30:-1 31:-1 32:-1 33:-1 34:-1 36:0.75 37:-1 38:-1 39:-1 40:-1 41:-1 42:-1 43:-0.25 44:1 45:-1 46:-0.5 47:-0.375 48:-1 49:-1 50:-1 51:0.125 52:1 53:1 54:1 55:0.625 56:-1 57:-1 58:-0.875 59:0.625 60:0.375 61:-0.25 62:-0.75 63:-1 64:-1 
-0 0 0 0.07262580387111553 0 0 0 0 0 1:-1 2:-1 3:-0.875 4:0.25 5:-0.25 6:-1 7:-1 8:-1 9:-1 10:-1 11:0.375 12:1 13:-0.5 14:-1 15:-1 16:-1 17:-1 18:-1 19:-0.875 20:0.25 21:-0.375 22:-1 23:-1 24:-1 25:-1 26:-1 27:-1 30:-1 31:-1 32:-1 33:-1 34:-1 35:-1 38:-1 39:-1 40:-1 41:-1 42:-1 43:-1 46:-1 47:-1 48:-1 49:-1 50:-1 51:-1 53:0.25 54:-0.75 55:-1 56:-1 57:-1 58:-1 59:-1 60:0.75 61:0.5 62:0.125 63:-1 64:-1 
-0.5030441860247165 1 0.4892942477762126 0.01497582726827047 0.8719108643421576 0.05536421488962663 0.780007970285275 1 0.3387612285709509 1:-1 2:-1 3:-0.75 4:0.625 5:-0.5 6:-1 7:-1 8:-1 9:-1 10:-1 11:0.75 12:0.625 13:-0.5 14:-1 15:-1 16:-1 17:-1 18:-1 19:-0.75 20:0.5 21:-0.5 22:-1 23:-1 24:-1 25:-1 26:-1 27:-1 28:0.5 29:-0.5 30:-1 31:-1 32:-1 33:-1 34:-1 35:-1 36:0.5 37:-0.5 38:-1 39:-1 40:-1 41:-1 42:-1 43:-1 44:0.5 45:-0.5 46:-1 47:-1 48:-1 49:-1 50:-1 51:-1 52:0.5 53:-0.625 54:-1 55:-1 56:-1 57:-1 58:-0.125 59:1 60:1 61:1 62:1 63:-0.125 64:-1 
-0 -0.03246807153831407 0.2734529123130924 0.03955033579190258 0.5005510542538856 0 1 0 0 1:-1 2:-0.25 3:0.875 4:0.75 5:-0.25 6:-1 7:-1 8:-1 9:-0.538462 10:0.625 11:-0.875 12:-1 13:0.75 14:-0.875 15:-1 16:-1 17:-0.833333 18:-0.5 19:-1 20:-1 21:0.5 22:-0.75 23:-1 24:-1 25:-1 26:-1 27:-1 28:-0.875 29:0.75 30:-1 31:-1 32:-1 33:-1 34:-1 35:-1 38:-1 39:-1 40:-1 41:-1 42:-1 43:-0.625 44:0.625 45:-1 46:-1 47:-1 48:-1 49:-1 50:-0.625 51:0.875 54:0.375 55:0.625 56:-0.285714 57:-1 58:0.625 59:0.5 61:-0.25 62:-0.5 63:-0.875 64:-1 
-0.6193399367167974 -1 1 1 1 1 0.1296981560614984 0 0.6543307843070449 1:-1 2:-0.5 4:-0.25 5:-1 6:-1 7:-1 8:-1 9:-1 10:0.75 11:0.25 12:0.75 13:-0.125 14:-1 15:-1 16:-1 17:-1 18:-1 19:-0.875 20:0.75 21:-0.125 22:-1 23:-1 24:-1 25:-1 26:-0.875 27:0.625 28:0.5 29:-1 30:-1 31:-1 32:-1 33:-1 34:0.5 35:0.625 36:-0.875 37:-1 38:-1 39:-1 40:-1 41:0.2 42:0.625 43:-0.875 44:-1 45:-1 46:-1 47:-0.875 48:-0.692308 49:1 50:0.625 51:0.25 52:0.5 53:0.5 54:0.875 55:1 56:1 57:-0.636364 61:-0.375 62:-0.5 63:-0.75 64:-1 
-0 -0.5127760544283145 0.3300597446067926 0 0.2483397380234156 0 0 0 0 1:-1 2:-1 3:-0.875 4:0.5 5:0.75 6:-0.75 7:-1 8:-1 9:-1 10:-1 11:0.625 12:0.875 13:1 14:-0.5 15:-1 16:-1 17:-1 18:-1 19:-0.125 20:-0.125 21:1 22:-0.5 23:-1 24:-1 25:-1 26:-1 27:-1 28:0.25 29:0.875 30:-1 31:-1 32:-1 33:-1 34:-1 35:-0.625 36:1 38:-1 39:-0.125 40:-0.75 41:-1 42:-0.875 43:0.75 44:1 45:0.25 46:0.625 47:1 48:-0.384615 49:-0.733333 50:0.875 51:1 52:1 53:0.875 54:0.375 55:-0.375 56:-1 57:-0.272727 58:0.5 59:-0.375 60:-0.625 61:-1 62:-1 63:-1 64:-1 
-0 -1 0 0 0 0 0 0 0 1:-1 2:-0.875 4:0.625 5:-0.375 6:-1 7:-1 8:-1 9:-1 10:0.25 11:1 12:1 13:0.75 14:-1 15:-1 16:-1 17:-1 18:-0.75 19:-0.625 21:1 22:-1 23:-1 24:-1 25:-1 26:-1 27:-1 29:1 30:-1 31:-1 32:-1 33:-1 34:-1 35:-1 36:0.375 37:0.75 38:-1 39:-1 40:-1 41:-1 42:-0.875 44:1 45:0.125 46:-0.75 47:-0.75 48:-1 49:-1 50:0.375 51:1 52:1 53:1 54:1 55:0.5 56:-1 57:-1 59:0.375 60:-0.375 62:0.125 63:-0.75 64:-1 
-1 -1 1 1 1 1 1 1 1 1:-1 2:-1 3:-0.625 4:0.625 5:0.875 6:-0.75 7:-1 8:-1 9:-1 10:-1 11:0.25 12:-0.625 13:0.125 14:-0.5 15:-1 16:-1 17:-1 18:-1 19:-1 20:-1 21:0.75 22:-0.75 23:-1 24:-1 25:-1 26:-1 27:-1 30:-1 31:-1 32:-1 33:-1 34:-1 35:-0.75 36:0.75 37:-0.875 38:-1 39:-1 40:-1 41:-1 42:-1 43:0.25 44:-0.25 45:-1 46:-1 47:-1 48:-1 49:-1 50:-1 51:1 52:-1 53:-1 54:-1 55:-1 56:-1 57:-1 58:-1 59:0.125 60:0.875 61:1 62:0.75 63:-1 64:-1 
-0 -1 1 0 0.3431806376092611 0 1 1 0 1:-1 2:-1 3:0.625 4:0.875 6:-1 7:-1 8:-1 9:-1 10:-0.125 11:0.75 12:-0.125 13:1 14:-0.75 15:-1 16:-1 17:-1 18:-0.875 19:-0.75 20:-0.5 21:1 22:-0.875 23:-1 24:-1 25:-1 26:-1 27:-1 28:0.25 29:0.625 30:-1 31:-1 32:-1 33:-1 34:-1 35:-0.75 36:1 37:-0.25 38:-1 39:-1 40:-1 41:-1 42:-1 43:0.25 44:0.625 45:-1 46:-0.5 47:-0.75 48:-1 49:-1 50:-0.875 51:1 52:0.75 53:0.875 54:1 55:-0.25 56:-1 57:-1 58:-0.875 59:0.625 60:0.25 61:-0.25 62:-0.875 63:-1 64:-1 
-0.6322302190952062 -1 0.0662718586860202 0.970677967459484 1 1 0 1 0.1097062581830133 1:-1 2:-0.625 3:0.5 4:-0.375 5:-1 6:-1 7:-1 8:-1 9:-0.538462 10:0.875 11:1 12:1 13:-0.5 14:-1 15:-1 16:-1 17:0.833333 18:1 19:0.875 20:1 22:-1 23:-1 24:-1 25:-0.333333 26:0.25 28:1 30:-1 31:-1 32:-1 33:-1 34:-1 35:0.375 36:1 37:-0.375 38:-1 39:-0.5 40:-0.875 41:-1 42:-0.5 43:1 44:1 45:0.875 46:1 47:1 48:0.692308 49:-1 50:0.5 51:1 52:1 53:1 54:0.875 55:0.5 56:-0.142857 57:-1 58:-0.375 59:0.375 60:-0.125 61:-0.75 62:-1 63:-1 64:-1 
-0 -0 0 0 0.03946564534598183 0 0 0 0 1:-1 2:-1 3:-0.75 5:-0.125 6:-1 7:-1 8:-1 9:-1 10:-1 11:0.625 12:0.125 13:0.5 14:-0.125 15:-1 16:-1 17:-1 18:-1 19:-1 20:-0.875 21:0.75 22:-0.5 23:-1 24:-1 25:-1 26:-1 27:-1 28:0.25 29:0.25 30:-1 31:-1 32:-1 33:-1 34:-0.875 35:0.5 36:0.25 37:-1 38:-1 39:-1 40:-1 41:-0.866667 42:0.625 44:-1 45:-1 46:-1 47:-1 48:-1 49:0.733333 50:0.875 51:0.5 52:0.5 53:0.875 54:1 55:1 56:0.714286 57:0.272727 58:-0.125 59:-0.5 60:-0.5 61:-0.75 62:-1 63:-0.875 64:-0.555556 
-0 -0 0.7938390402450513 0 0.2548686998031889 0.4063078725021958 0.04379696537335256 0.877684298281186 0 1:-1 2:-1 3:-0.875 4:0.25 5:0.75 6:0.75 7:-0.875 8:-1 9:-1 10:-1 11:-0.875 12:0.125 13:0.25 14:1 15:-0.75 16:-1 17:-1 18:-1 19:-1 20:-0.875 21:0.75 22:0.125 23:-1 24:-1 25:-1 26:-1 27:-0.875 28:0.625 29:0.625 30:-0.875 31:-1 32:-1 33:-1 34:-1 35:0.25 36:0.625 37:-0.875 38:-1 39:-1 40:-1 41:-1 42:0.125 43:0.875 44:-0.625 45:-1 46:-1 47:-1 48:-1 49:-0.733333 50:1 51:0.125 53:0.375 54:0.625 55:0.625 56:-0.714286 57:-0.636364 58:0.625 59:0.875 60:0.5 61:0.125 62:-0.125 63:-0.125 64:-0.777778 
-1 -1 1 0.5312474330328196 1 0.4485802179193997 0.7056767567923169 1 1 1:-1 2:-1 3:-0.625 4:0.375 5:1 7:-1 8:-1 9:-1 10:-0.75 11:0.875 12:0.375 13:-0.375 14:1 15:-0.75 16:-1 17:-1 18:-0.875 19:-0.375 20:-1 21:-1 22:0.75 23:-0.5 24:-1 25:-1 26:-1 27:-1 28:-1 29:-0.875 30:1 31:-0.5 32:-1 33:-1 34:-1 35:-1 36:-1 37:-0.25 38:0.75 39:-1 40:-1 41:-1 42:-1 43:-1 44:-0.625 45:0.875 46:-0.25 47:-1 48:-1 49:-1 50:-0.625 51:0.125 52:0.875 53:1 54:0.5 55:0.375 56:-1 57:-1 58:0.75 59:0.625 60:0.5 63:-0.125 64:-1 
-0 -0.3295636895539822 0.9834517439003778 0 1 0.3600875300738516 0.5145955632916569 1 0.4286851141965863 1:-1 2:-1 3:-1 5:0.625 6:0.75 7:-0.5 8:-1 9:-1 10:-1 11:-0.125 12:1 13:0.375 14:0.75 15:0.5 16:-1 17:-1 18:-1 19:0.875 20:0.375 21:-0.625 22:1 24:-1 25:-1 26:-1 27:-0.625 28:-0.25 29:0.875 30:0.625 31:-0.875 32:-1 33:-1 34:-1 35:-0.25 36:1 37:0.625 38:-0.875 39:-1 40:-1 41:-1 42:-0.25 43:1 44:0.25 45:-0.375 46:-0.5 47:-0.25 48:-1 49:-1 50:0.875 51:1 52:0.875 53:1 54:1 55:0.875 56:-1 57:-1 58:0.375 59:0.5 60:0.125 61:-0.375 62:-0.75 63:-1 64:-1 
-0.2597494868072432 -0.7035408362044937 1 0 0.03360251322560079 0.3329964853811758 1 1 0.6011877751462645 1:-1 2:-1 3:-0.875 4:0.5 5:1 6:-0.25 7:-1 8:-1 9:-1 10:-1 11:-0.25 12:0.625 13:-0.25 14:1 15:-1 16:-1 17:-1 18:-1 19:-1 20:-1 21:-0.875 22:1 23:-1 24:-1 25:-1 26:-1 27:-1 28:-1 29:-0.375 30:0.875 31:-1 32:-1 33:-1 34:-1 35:-1 36:-0.75 37:0.75 39:-1 40:-1 41:-1 42:-1 43:-0.625 44:0.875 45:0.25 46:-1 47:-1 48:-1 49:-1 50:-0.625 51:0.875 52:0.875 54:-0.5 55:-0.875 56:-1 57:-1 58:-0.25 59:0.5 60:0.5 61:0.5 62:0.625 63:-0.125 64:-1 
-0 -1 0 0 0 0 0 0 0 1:-1 2:-1 3:-0.875 4:0.5 5:0.625 6:-0.875 7:-1 8:-1 9:-1 10:-1 11:-0.5 12:-0.25 13:0.5 14:-0.5 15:-1 16:-1 17:-1 18:-1 19:-1 20:-1 21:0.5 22:-0.5 23:-1 24:-1 25:-1 26:-1 27:-1 28:-0.75 29:0.875 30:-1 31:-1 32:-1 33:-1 34:-1 35:-1 36:0.5 37:-0.125 38:-1 39:-1 40:-1 41:-1 42:-1 44:0.5 45:-1 46:-1 47:-1 48:-1 49:-1 50:-0.375 51:0.875 52:-0.375 53:-0.25 55:-0.25 56:-1 57:-1 58:0.375 59:0.75 60:0.5 61:0.375 63:-0.375 64:-1 
-1 -0 0.5711176478467328 0.2489289899392846 0 0.5939868523500865 0 1 0.06013959641146872 1:-1 2:-0.875 3:0.375 4:0.5 5:0.375 6:-0.375 7:-1 8:-1 9:-1 10:-0.5 11:1 12:1 13:1 14:1 15:-0.375 16:-1 17:-1 18:-0.875 20:-0.375 21:0.25 22:1 23:0.375 24:-1 25:-1 26:-0.25 27:0.875 28:1 29:1 30:0.875 31:-0.625 32:-1 33:-1 34:0.5 35:1 36:0.625 37:-0.125 38:-0.875 39:-1 40:-1 41:-1 42:0.5 43:1 44:-0.375 45:-0.75 46:-0.75 47:-0.625 48:-1 49:-1 50:0.875 51:1 52:1 53:1 54:1 55:1 56:-1 57:-1 58:0.375 59:0.25 61:0.5 62:0.5 64:-1 
-0 -0.1139844908900357 0 0 0 0 0 0.02310924720163499 0 1:-1 2:-1 3:0.125 4:0.875 5:-0.25 6:-1 7:-1 8:-1 9:-1 10:-0.25 11:1 12:0.625 13:0.875 14:-1 15:-1 16:-1 17:-1 18:0.75 19:0.25 20:-0.25 21:1 22:-1 23:-1 24:-1 25:-1 26:-0.375 27:-0.875 28:0.25 29:0.75 30:-1 31:-1 32:-1 33:-1 34:-1 35:-0.25 36:1 37:-0.25 38:-1 39:-1 40:-1 41:-1 42:-0.5 43:1 44:0.25 45:-0.5 46:-0.375 47:0.375 48:-1 49:-1 51:1 52:1 53:1 54:1 55:0.5 56:-1 57:-1 58:-0.25 59:0.25 60:-1 61:-0.75 62:-0.5 63:-1 64:-1 
-0.7947889613559872 -0 0 1 0 0.8584674808494301 1 0 0.4514093257893468 1:-1 2:-1 3:-0.25 4:0.875 5:0.5 6:-0.875 7:-1 8:-1 9:-1 10:-0.5 11:1 12:-0.125 13:0.625 14:0.25 15:-1 16:-1 17:-1 18:-0.875 19:-0.75 20:-1 21:-0.25 22:0.875 23:-1 24:-1 25:-1 26:-1 27:-1 28:-1 29:-0.5 30:1 31:-1 32:-1 33:-1 34:-0.25 35:-0.125 36:-0.75 37:0.375 38:0.5 39:-1 40:-1 41:-0.466667 42:1 43:1 44:1 45:1 46:-0.375 47:-1 48:-1 49:-1 51:0.5 52:0.25 53:0.625 54:0.875 56:-0.857143 57:-1 58:-1 59:-1 60:-1 61:-1 62:-0.25 63:0.625 64:-0.333333 
-0.09960924317534274 -0.2564256478899682 0.6708343949956271 1 1 0.9953919044768862 1 1 0.065669125805373 1:-1 2:-1 3:0.125 4:0.75 5:-0.75 6:-1 7:-1 8:-1 9:-1 10:0.5 11:1 12:0.875 13:0.125 14:-1 15:-1 16:-1 17:-1 18:-0.25 19:-0.625 20:0.625 21:0.25 22:-1 23:-1 24:-1 25:-1 26:-1 27:-0.75 28:1 29:-0.125 30:-1 31:-1 32:-1 33:-1 34:-1 35:0.375 36:0.875 37:-0.625 38:0.125 39:0.875 40:-0.625 41:-1 42:-0.25 43:1 44:0.75 45:1 46:0.875 47:0.25 48:-0.846154 49:-0.733333 50:0.875 51:1 52:0.75 53:-0.25 54:-0.875 55:-1 56:-1 57:-0.454545 58:0.5 59:-0.25 60:-1 61:-1 62:-1 63:-1 64:-1 
-0 -0.5447734210012919 0 0 0 0.1261333830369615 0 0 0 1:-1 2:-1 3:-0.75 4:0.5 5:0.5 6:-0.875 7:-1 8:-1 9:-1 10:-1 11:1 12:0.75 13:1 14:-0.5 15:-1 16:-1 17:-1 18:-1 19:-0.875 20:0.375 21:0.75 22:-1 23:-1 24:-1 25:-1 26:-1 27:-0.5 28:1 29:-0.5 30:-1 31:-1 32:-1 33:-1 34:-1 35:0.75 36:0.25 37:-1 38:-1 39:-1 40:-1 41:-1 42:-0.25 43:1 44:0.625 45:-0.25 46:-1 47:-1 48:-1 49:-1 50:0.5 51:0.875 52:0.5 53:1 54:0.625 55:0.875 56:-1 57:-1 58:0.5 59:-0.5 60:-1 61:-0.375 62:0.5 63:-0.375 64:-1 
-0 -0 0.5152949605144906 0 0 0 0.9818472398603776 0 0 1:-1 2:-1 3:-0.25 4:0.625 5:1 6:0.125 7:-1 8:-1 9:-1 10:0.625 11:0.75 12:-0.125 13:0.375 14:0.375 15:-1 16:-1 17:-1 18:-0.625 19:-1 20:-0.75 21:0.875 22:-0.5 23:-1 24:-1 25:-1 26:-1 27:-1 28:0.375 29:0.375 30:-1 31:-1 32:-1 33:-1 34:-1 35:-0.125 36:0.875 37:-0.875 38:-1 39:-0.625 40:-0.75 41:-1 42:-0.25 43:1 45:0.375 46:0.875 47:1 48:0.384615 49:-0.333333 50:1 51:1 52:0.875 53:0.125 54:-0.5 55:-1 56:-1 57:0.818182 58:0.375 59:-0.375 60:-1 61:-1 62:-1 63:-1 64:-1 
-0 -1 0.0615985241759709 0.3810224005118301 0.3166702659312115 0.05541667415892725 0 0 0 1:-1 2:-1 3:-0.25 4:0.875 5:0.75 6:-0.625 7:-1 8:-1 9:-1 10:-1 11:-0.25 12:-0.875 13:-0.25 15:-1 16:-1 17:-1 18:-1 19:-1 20:-1 21:-0.5 23:-1 24:-1 25:-1 26:-1 27:-1 28:-1 29:0.125 30:-0.125 31:-1 32:-1 33:-1 34:-1 35:-1 36:-0.875 37:0.75 38:-0.875 39:-1 40:-1 41:-1 42:-1 43:-0.875 44:0.625 45:-0.25 46:-1 47:-1 48:-1 49:-1 50:-0.5 51:0.625 52:-0.25 53:-1 54:-1 55:-1 56:-1 57:-0.272727 58:1 59:0.625 60:0.5 61:1 62:1 63:1 64:-0.333333 
-0.1223518464212728 -1 0.8004048477591303 1 0.854688431376106 0.3615305623451227 1 1 1 1:-1 2:-1 3:-0.625 4:0.75 5:0.875 6:-0.625 7:-1 8:-1 9:-1 10:-1 11:0.5 12:0.375 13:0.375 15:-1 16:-1 17:-1 18:-1 19:-0.375 20:-0.875 21:0.375 23:-1 24:-1 25:-1 26:-1 27:-1 28:-0.625 29:1 30:-0.75 31:-1 32:-1 33:-1 34:-1 35:-1 36:0.5 37:0.125 38:-1 39:-1 40:-1 41:-1 42:-1 43:-0.5 44:0.875 45:-0.875 46:-1 47:-1 48:-1 49:-1 50:-1 51:0.5 52:0.875 53:-0.25 55:-1 56:-1 57:-1 58:-1 59:0.375 61:0.75 62:0.25 63:-1 64:-1 
-0 -0.3808962364675811 0 0 0.3740225646689829 0 0 0 0 1:-1 2:-0.25 3:0.75 4:0.875 5:-0.25 6:-1 7:-1 8:-1 9:-1 10:0.75 11:-0.125 12:0.25 13:0.375 14:-1 15:-1 16:-1 17:-1 18:-0.375 19:-0.75 20:0.75 21:-0.375 22:-1 23:-1 24:-1 25:-1 26:-1 27:-0.25 28:0.5 29:-1 30:-1 31:-1 32:-1 33:-1 34:-1 35:0.75 36:-0.5 37:-1 38:-1 39:-1 40:-1 41:-1 43:0.5 44:-1 45:-1 46:-1 47:-1 48:-1 49:-0.866667 50:0.875 51:0.375 55:0.375 56:-0.571429 57:-0.272727 58:0.875 59:0.5 60:0.125 64:-0.777778 
-0 -0 0.06011499232209219 0 0 0 0 0 0 1:-1 2:-0.625 3:0.75 4:1 6:-1 7:-1 8:-1 9:-1 10:0.625 11:0.25 12:-0.125 13:1 14:-1 15:-1 16:-1 17:-1 18:-0.75 19:-1 20:0.25 21:0.5 22:-1 23:-1 24:-1 25:-1 26:-1 27:-0.625 28:1 29:-0.5 30:-1 31:-1 32:-1 33:-1 34:-0.875 35:0.625 36:0.125 37:-1 38:-1 39:-1 40:-1 41:-1 42:0.25 43:0.625 44:-0.625 45:-0.125 46:0.375 47:0.5 48:-0.230769 49:-0.333333 50:1 51:0.875 52:1 53:0.625 54:0.125 56:-0.571429 57:0.0909091 58:0.75 60:-0.75 61:-1 62:-1 63:-1 64:-1 
-0.2815910980100934 -0 0.4804611090337391 0 0.5992910908252927 0 0.7678236621821726 0.5112081161320429 0 1:-1 2:-0.625 3:0.375 4:1 5:1 6:0.375 7:-0.875 8:-1 9:-1 10:0.75 11:-0.25 12:-1 13:-1 14:0.375 15:-0.125 16:-1 17:-0.833333 18:-0.25 19:-1 20:-1 21:-1 22:0.25 23:-0.125 24:-1 25:-1 26:-1 27:-1 28:-1 29:-0.5 30:0.875 31:-0.875 32:-1 33:-1 34:-1 35:-1 36:-0.625 37:0.75 38:-0.625 39:-1 40:-1 41:-1 42:-1 43:-0.25 44:0.875 45:-0.625 46:-1 47:-1 48:-1 49:-0.866667 50:0.375 51:0.625 52:-0.75 53:-1 54:-1 55:-1 56:-1 57:0.272727 58:1 59:1 60:1 61:1 62:1 63:1 64:0.555556 
-0.7568897308971307 -0 0.5566171037454123 1 1 0.5430705095499189 1 1 0.6504935079652915 1:-1 2:-1 3:-0.375 4:0.375 5:0.125 6:-0.875 7:-1 8:-1 9:-1 10:-0.875 11:1 12:0.625 13:0.875 14:0.125 15:-1 16:-1 17:-1 18:-0.625 19:0.875 20:-1 21:0.375 22:0.375 23:-1 24:-1 25:-1 26:-1 27:-1 28:-0.25 29:1 30:-0.5 31:-1 32:-1 33:-1 34:-1 35:-0.125 36:1 37:-0.125 38:-0.5 40:-0.125 41:-1 42:0.25 43:1 44:1 45:1 46:1 47:0.75 48:0.384615 49:0.333333 50:1 51:0.75 52:0.125 53:-0.5 54:-1 55:-1 56:-1 57:0.272727 58:-0.25 59:-1 60:-1 61:-1 62:-1 63:-1 64:-1 
-0.8975499358757461 -0 0.5396567614245269 0.5242538833796483 0.9406898870303197 0.2999273812535532 0.4750959166910766 1 0.8067631673797175 1:-1 2:-1 3:-0.25 4:0.5 5:0.5 7:-1 8:-1 9:-1 10:-0.375 11:1 12:1 13:1 14:1 15:-0.25 16:-1 17:-0.833333 18:0.875 19:1 20:0.25 21:0.25 22:1 24:-1 25:-1 26:0.375 27:0.125 28:-0.875 29:0.75 30:1 31:-0.375 32:-1 33:-1 34:-1 36:0.875 37:1 38:0.875 39:-1 40:-1 41:-1 42:0.25 43:1 44:1 45:1 46:1 47:-0.25 48:-1 49:-0.6 50:1 51:1 52:0.625 53:-0.125 54:1 55:1 56:-0.571429 57:-0.818182 58:0.375 60:-1 61:-1 62:-0.375 63:0.375 64:-0.777778 
-0 -0.4397293831346145 0.3226437443740397 0 0.6778401227819968 1 1 1 0.01230304113664853 1:-1 2:-1 3:-1 4:0.125 5:1 6:0.5 7:-1 8:-1 9:-1 10:-1 11:-0.625 12:0.875 13:-0.125 14:1 15:-1 16:-1 17:-1 18:-1 19:-1 20:-0.875 21:0.375 22:0.25 23:-1 24:-1 25:-1 26:-1 27:-1 28:-0.125 29:0.75 30:-0.875 31:-1 32:-1 33:-1 34:-1 35:-0.625 36:1 37:-0.625 38:-1 39:-1 40:-1 41:-1 42:-1 43:0.5 45:-1 46:-1 47:-1 48:-1 49:-1 50:-0.625 51:1 52:0.125 54:0.125 55:-0.75 56:-1 57:-1 58:-0.625 59:0.75 60:0.5 61:0.5 62:0.375 63:-0.75 64:-1 
-0.873174626101519 -0.5559638521405271 0 0 0.8323345488313925 1 0 0.6914683770211856 0 1:-1 2:-0.25 3:0.375 4:0.125 5:-1 6:-1 7:-1 8:-1 9:0.0769231 10:1 11:1 12:1 13:-0.625 14:-1 15:-1 16:-1 17:-0.5 19:0.625 20:1 21:-0.875 22:-1 23:-1 24:-1 25:-1 26:-0.75 27:1 28:0.625 29:-1 30:-1 31:-1 32:-1 33:-1 34:0.25 35:1 36:-0.25 37:-1 38:-1 39:-1 40:-1 41:-0.733333 42:1 43:0.5 44:-1 45:-0.875 46:-0.375 47:0.25 48:-0.538462 49:-0.0666667 50:1 51:1 52:1 53:1 54:1 55:1 57:-0.818182 58:0.25 59:0.5 60:0.5 61:0.375 63:-0.625 64:-1 
-0 -0.3207254476990221 0 0 0 0 0 0 0 1:-1 2:-0.875 3:0.125 4:0.875 5:0.375 6:-1 7:-1 8:-1 9:-1 10:0.375 11:0.625 12:-0.375 13:1 14:-0.625 15:-1 16:-1 17:-1 18:0.5 19:-0.75 20:-1 21:0.625 22:-0.5 23:-1 24:-1 25:-1 26:-1 27:-1 28:-1 29:0.625 30:-0.5 31:-1 32:-1 33:-1 34:-1 35:-1 36:-0.5 37:1 38:-0.75 39:-1 40:-1 41:-1 42:-1 43:-0.75 44:0.625 45:0.125 46:-1 47:-1 48:-1 49:-1 51:0.875 52:0.875 53:0.125 55:-0.125 56:-1 57:-0.636364 58:0.625 59:0.875 60:0.5 61:0.5 62:0.5 63:0.5 64:-0.555556 
-0 -0 0 0 0 0.01953855219091408 0 0.2733977236652756 0 1:-1 2:0.5 3:1 4:0.375 5:-0.75 6:-1 7:-1 8:-1 9:-0.846154 10:0.875 11:0.125 12:0.625 13:0.375 14:-1 15:-1 16:-1 17:-1 18:-0.875 19:-1 20:0.25 21:0.375 22:-1 23:-1 24:-1 25:-1 26:-1 27:-0.25 28:1 29:-0.375 30:-1 31:-1 32:-1 33:-1 34:-0.25 35:1 36:0.125 37:-1 38:-1 39:-1 40:-1 41:-1 42:0.75 44:-1 45:-1 46:-1 48:-0.846154 49:-0.866667 50:1 51:0.625 54:0.375 55:1 56:-0.714286 57:-0.636364 58:0.625 59:0.25 60:0.5 61:0.5 62:0.375 63:-0.5 64:-1 
-0 -0 0 0 0 0.4351269360315398 0 1 0 1:-1 2:-0.875 3:0.125 4:0.875 5:0.75 6:-0.625 7:-1 8:-1 9:-1 10:0.25 11:0.625 12:-0.375 13:0.5 15:-1 16:-1 17:-1 18:1 19:-0.5 20:-1 21:0.375 23:-1 24:-1 25:-1 26:-0.5 27:-1 28:-0.75 29:1 30:-0.5 31:-1 32:-1 33:-1 34:-1 35:-1 36:0.5 37:0.5 38:-1 39:-1 40:-1 41:-1 42:0.5 43:1 44:0.625 45:-0.875 46:-1 47:-0.5 48:-1 49:-1 50:0.25 51:0.625 52:0.875 53:-0.25 54:0.25 55:0.875 56:-1 57:-1 58:-1 59:-1 60:-0.125 61:0.625 62:0.5 63:-0.625 64:-1 
-0 -0 0.1927898382858629 0 0 0 0 0 0 1:-1 2:-1 3:0.125 4:0.625 5:1 6:0.5 7:-0.875 8:-1 9:-1 10:-0.625 11:1 12:0.5 13:0.125 14:1 15:-0.125 16:-1 17:-1 18:-1 19:-0.5 20:-1 21:-1 22:1 23:0.25 24:-1 25:-1 26:-1 27:-1 28:-1 29:-0.25 30:1 31:-0.5 32:-1 33:-1 34:-1 35:-1 36:-0.625 37:0.875 38:0.5 39:-1 40:-1 41:-0.866667 42:0.25 43:0.875 44:1 45:0.625 46:-0.875 47:0.5 48:0.692308 49:0.333333 50:1 51:1 52:0.875 53:1 54:0.625 55:1 56:-0.142857 57:0.454545 58:0.5 59:-0.25 60:-0.875 61:-0.125 62:0.5 63:-0.25 64:-1 
-1 -0 1 0.4904576981534755 1 1 1 0.3105638266930347 0.02697104719000385 1:-1 2:-1 3:-0.875 4:0.25 5:0.75 6:0.875 7:-0.25 8:-1 9:-1 10:-1 11:-0.375 12:0.375 13:-0.25 15:1 16:-1 17:-1 18:-1 19:-1 20:-1 21:-1 22:-0.25 23:0.875 24:-1 25:-1 26:-1 27:-1 28:-1 29:-0.625 30:0.875 32:-1 33:-1 34:-1 35:-1 36:-0.625 37:0.875 38:0.25 39:-1 40:-1 41:-1 42:-0.125 43:0.25 44:0.875 45:0.25 46:-1 47:-0.75 48:-1 49:-1 50:0.875 51:1 52:0.875 53:-0.25 54:0.625 55:0.375 56:-1 57:-1 58:-1 59:-0.875 60:0.25 61:0.875 62:0.375 63:-0.75 64:-1 
-0 -0 -0 0 1 0 0 0.3212708868513776 0 1:-1 2:-0.75 3:0.5 4:0.5 5:0.875 6:0.375 7:-1 8:-1 9:-1 10:-0.75 11:0.5 12:0.875 13:1 14:-0.25 15:-1 16:-1 17:-1 18:-1 19:-0.75 20:0.875 21:0.5 22:-1 23:-1 24:-1 25:-1 26:-1 27:0.125 28:1 29:1 30:0.25 31:-0.875 32:-1 33:-1 34:-1 35:-0.25 36:0.25 37:0.25 38:1 39:-0.125 40:-1 41:-1 42:-1 43:-1 44:-1 45:-0.5 46:1 47:-0.125 48:-1 49:-1 50:-0.375 51:0.5 52:0.375 53:0.875 54:0.75 55:-0.875 56:-1 57:-1 58:-0.625 59:0.75 60:0.875 61:0.25 62:-0.875 63:-1 64:-1 
-0.1055977605303583 -1 -1 1 1 1 1 1 0.9604332173114988 1:-1 2:-1 3:0.5 4:0.625 5:0.75 6:-0.5 7:-1 8:-1 9:-1 10:-1 11:-0.875 12:-1 14:-0.25 15:-1 16:-1 17:-1 18:-1 19:-1 20:-0.5 21:0.625 22:-1 23:-1 24:-1 25:-1 26:-1 27:-0.625 28:0.875 30:-0.625 31:-1 32:-1 33:-1 34:-1 35:-0.5 38:0.625 39:-0.5 40:-1 41:-1 42:-1 43:-1 44:-1 45:-1 46:-0.5 48:-1 49:-1 50:-0.875 51:-1 52:-1 53:-0.625 54:0.5 55:-0.375 56:-1 57:-1 58:-0.25 59:0.75 60:0.75 61:0.375 62:-0.5 63:-1 64:-1 
-0.3645968660916418 -0 -0 0 0 0 0 0 1 1:-1 2:-1 4:0.625 5:0.875 6:-0.25 7:-1 8:-1 9:-1 10:-0.375 11:1 12:0.125 13:0.375 14:1 15:-1 16:-1 17:-1 18:0.125 19:0.125 20:-0.75 21:0.625 22:0.625 23:-1 24:-1 25:-1 26:-1 27:-1 28:-0.625 29:0.625 30:1 31:-0.5 32:-1 33:-1 34:-1 35:-1 36:-1 37:-1 38:0.625 39:0.375 40:-1 41:-1 42:-1 43:-1 44:-1 45:-1 46:0.625 47:0.25 48:-1 49:-1 50:-0.375 51:0.25 53:0.5 54:1 55:-0.5 56:-1 57:-1 58:-0.625 59:0.5 60:0.875 61:0.375 62:-0.5 63:-1 64:-1 
-0 -0 -0 0.7754631481981996 0 0 0.704518009138964 0 0.04361710276835945 1:-1 2:-1 3:-1 4:-0.5 5:0.75 6:0.25 7:-1 8:-1 9:-1 10:-1 11:-1 12:0.375 13:0.25 14:1 15:-0.625 16:-1 17:-1 18:-1 19:-1 20:-1 21:0.25 22:0.875 23:-0.875 24:-1 25:-1 26:-1 27:-1 28:0.5 29:1 30:0.875 31:-0.875 32:-1 33:-1 34:-1 35:-1 36:-0.125 37:-0.5 38:1 39:-0.5 40:-1 41:-1 42:-1 43:-1 44:-1 45:-0.25 46:0.875 47:-0.875 48:-1 49:-1 50:-1 51:-0.125 52:0.5 53:0.875 54:-0.25 55:-1 56:-1 57:-1 58:-0.75 59:0.75 60:0.25 61:-0.75 62:-1 63:-1 64:-1 
-1 -0 -0 0.6591307772554325 0 0 0 1 0.8427798740165247 1:-1 2:-1 3:-0.125 4:0.5 5:0.75 7:-1 8:-1 9:-1 10:-0.625 11:1 12:0.875 13:0.625 14:1 15:-0.625 16:-1 17:-1 18:-1 19:-0.5 20:-0.25 21:0.5 22:1 23:-0.5 24:-1 25:-1 26:-1 27:0.75 28:1 29:1 30:0.75 31:-1 32:-1 33:-1 34:-1 35:-0.375 37:0.5 38:1 39:-0.625 40:-1 41:-1 42:-1 43:-0.125 44:-0.875 45:0.375 46:1 47:-0.625 48:-1 49:-1 50:-0.625 51:1 52:1 53:1 54:0.25 55:-1 56:-1 57:-1 58:-1 59:0.125 60:0.5 61:-0.25 62:-1 63:-1 64:-1 
-0.5685854627017759 -1 -0.4073439413469419 0.03565720205256123 1 0 0.4516789635877453 0 0.3370317230974971 1:-1 2:-1 3:-1 4:0.125 5:0.875 6:-0.75 7:-1 8:-1 9:-1 10:-1 11:-0.25 12:0.25 13:0.75 14:-0.75 15:-1 16:-1 17:-1 18:-1 19:-1 20:-0.5 21:0.75 22:-0.25 23:-1 24:-1 25:-1 26:-1 27:-1 28:-1 29:-0.25 30:0.375 32:-1 33:-1 34:-1 35:-1 36:-1 37:-1 38:-0.25 39:0.25 40:-1 41:-1 42:-1 43:-1 44:-1 45:-0.625 46:0.75 47:-0.75 48:-1 49:-1 50:0.25 51:-0.5 52:-0.5 53:0.875 54:-0.25 55:-1 56:-1 57:-1 58:-0.625 59:0.75 60:0.625 61:-0.5 62:-1 63:-1 64:-1 
-0 -0 -0 0 0 0 0.7853178213827654 0 0.1245932545453288 1:-1 2:-0.75 3:0.25 4:0.75 5:0.875 6:-0.25 7:-1 8:-1 9:-1 10:-0.375 11:0.5 12:0.125 13:1 14:0.25 15:-1 16:-1 17:-1 18:-1 19:-0.75 20:0.75 21:1 22:0.5 23:-0.625 24:-1 25:-1 26:-1 27:-0.5 28:0.5 29:0.5 30:0.75 31:0.5 32:-1 33:-1 34:-1 35:-1 36:-1 37:-0.875 38:0.75 39:0.25 40:-1 41:-1 42:-1 43:-1 44:-0.5 45:0.75 46:0.625 47:-0.875 48:-1 49:-1 50:-0.375 51:0.25 52:1 53:0.375 54:-0.875 55:-1 56:-1 57:-1 58:0.25 59:0.375 60:-0.5 61:-1 62:-1 63:-1 64:-1 
-0 -0.2552336195718654 -0 1 0.5299381160324634 0 1 1 0 1:-1 2:-0.625 3:0.25 4:0.625 5:0.75 6:-0.25 7:-1 8:-1 9:-1 10:-0.125 11:1 12:0.875 13:1 14:0.5 15:-1 16:-1 17:-1 18:-1 19:-0.875 20:0.625 21:1 22:-0.125 23:-1 24:-1 25:-1 26:-1 27:0.75 28:1 29:1 30:0.25 31:-0.875 32:-1 33:-1 34:-1 35:0.375 36:0.5 37:0.625 38:1 40:-1 41:-1 42:-1 43:-1 44:-0.5 45:0.625 46:1 47:-0.25 48:-1 49:-1 50:-1 51:0.5 52:1 53:1 55:-1 56:-1 57:-1 58:-1 59:0.375 60:0.25 61:-0.75 62:-1 63:-1 64:-1 
-0 -0 -0 0 1 0 0 0 0 1:-1 2:-0.25 3:0.5 4:0.5 5:0.625 6:1 8:-1 9:-1 10:-0.75 11:-0.5 12:-0.5 13:0.25 14:0.875 15:-0.625 16:-1 17:-1 18:-1 19:-1 20:-0.125 21:0.875 22:-0.625 23:-1 24:-1 25:-1 26:-1 27:-0.875 28:0.625 29:0.875 30:0.25 31:-1 32:-1 33:-1 34:-1 35:-1 36:-1 37:-0.875 38:0.75 39:-0.25 40:-1 41:-1 42:-1 43:-1 44:-1 45:-1 46:0.5 47:-0.125 48:-1 49:-1 50:-0.375 51:0.125 52:-0.5 53:0.25 54:0.875 55:-0.875 56:-1 57:-1 58:-0.625 59:0.375 60:1 61:0.375 62:-0.75 63:-1 64:-1 
-0 -0.476363563519772 -0 0 0 0 0 1 1 1:-1 2:-1 3:-0.875 4:0.25 5:0.75 6:0.125 7:-1 8:-1 9:-1 10:-1 11:0.75 12:1 13:0.625 14:1 15:-0.5 16:-1 17:-1 18:-1 19:-0.375 20:-0.5 21:0.25 22:1 23:-0.625 24:-1 25:-1 26:-1 27:-0.875 28:0.625 29:1 30:0.375 31:-1 32:-1 33:-1 34:-1 35:-0.75 36:0.75 37:1 38:0.875 39:-0.875 40:-1 41:-1 42:-1 43:-1 44:-1 45:-0.375 46:1 47:-0.5 48:-1 49:-1 50:-0.75 51:0.375 52:0.5 53:0.875 54:1 55:-0.75 56:-1 57:-1 58:-0.75 59:0.5 60:0.5 61:0.25 62:-0.5 63:-1 64:-1 
-0 -0 -0 0 0.8965005076783354 0 0.8458419806036681 0 0.5059249253800846 1:-1 2:-0.75 3:0.125 4:0.5 5:1 6:0.75 7:-0.875 8:-1 9:-1 10:0.125 11:0.25 12:-0.375 13:-0.625 14:0.875 15:-0.5 16:-1 17:-1 18:-1 19:-1 20:-0.5 21:0.75 22:0.25 23:-1 24:-1 25:-1 26:-1 27:-0.375 28:1 29:1 30:0.875 31:-0.25 32:-1 33:-1 34:-1 35:-0.875 36:-0.625 37:-1 38:-0.25 39:0.5 40:-1 41:-1 42:-1 43:-1 44:-0.875 46:0.875 47:-0.375 48:-1 49:-1 50:-0.875 52:0.875 53:0.5 54:-0.625 55:-1 56:-1 57:-1 58:-0.125 59:0.5 60:-0.5 61:-1 62:-1 63:-1 64:-1 
-0 -0 -0.1427841008689822 0 1 0.4357598579296779 0.7293203033265981 1 0 1:-1 2:-0.5 3:0.75 4:0.5 5:0.5 6:0.5 7:-1 8:-1 9:-1 10:-0.5 11:0.75 12:-0.125 13:0.75 14:0.25 15:-1 16:-1 17:-1 18:-1 19:-0.125 20:-0.375 21:0.75 22:-0.875 23:-1 24:-1 25:-1 26:-1 27:-1 28:0.75 29:1 30:0.25 31:-1 32:-1 33:-1 34:-1 35:-1 36:-0.125 37:-0.5 38:0.625 39:-0.25 40:-1 41:-1 42:-0.625 43:0.125 44:-1 45:-1 46:0.625 47:-0.375 48:-1 49:-1 50:-0.5 51:0.75 52:-0.5 53:0.125 54:0.625 55:-1 56:-1 57:-1 58:-1 59:0.125 60:1 61:0.375 62:-0.875 63:-1 64:-1 
-0.5256116496063222 -0.5128289173222438 -0.1837925157112859 0.544141956406094 1 0.551034329910397 0.3418510320108247 0 0 1:-1 2:-1 3:-1 4:-0.875 5:-0.25 8:-0.666667 9:-1 10:-1 11:-1 12:0.125 13:1 14:0.5 15:0.875 16:1 17:-1 18:-1 19:-1 20:-1 21:-0.75 23:0.875 24:0.428571 25:-1 26:-1 27:-1 28:-1 29:0.375 30:1 31:1 32:-0.625 33:-1 34:-1 35:-1 36:-1 37:-0.875 38:-0.5 39:0.5 40:0.5 41:-0.733333 42:-1 43:-1 44:-1 45:-0.875 46:-0.25 47:0.875 48:0.538462 49:0.866667 50:0.625 51:0.5 52:1 53:1 54:1 55:0.125 56:-0.857143 57:-0.272727 60:-0.125 61:-0.5 62:-0.875 63:-1 64:-1 
-0 -0 -0 0 1 0 0 0 0 1:-1 2:-1 3:0.25 4:0.5 5:0.5 6:0.875 8:-1 9:-1 10:-0.875 11:0.5 12:0.5 13:1 14:1 15:0.125 16:-1 17:-1 18:-1 19:-0.875 20:0.625 21:1 22:0.75 23:-0.75 24:-1 25:-1 26:-1 28:1 29:1 30:1 31:1 32:-0.5 33:-1 34:-1 35:-0.875 36:-0.5 37:-1 38:-0.75 39:1 40:-0.125 41:-0.866667 42:-0.375 43:-1 44:-1 45:-0.875 46:0.5 47:0.875 48:-0.692308 49:-0.2 50:1 51:0.25 52:0.25 53:0.875 54:0.875 55:-0.25 56:-1 57:-1 59:0.5 60:0.5 61:0.25 62:-0.75 63:-1 64:-1 
-0 -0.8934971677412601 -0 0 0 0 0 0 0 1:-1 2:-1 3:-0.75 4:0.75 5:0.75 6:-0.625 7:-1 8:-1 9:-1 10:-1 11:-0.75 12:-0.125 13:0.375 14:0.25 15:-1 16:-1 17:-1 18:-1 19:-1 20:-1 21:0.25 22:0.125 23:-1 24:-1 25:-1 26:-1 27:-1 28:-0.125 29:1 30:-0.5 31:-1 32:-1 33:-1 34:-1 35:-1 36:-0.25 37:0.25 38:0.875 39:-0.875 40:-1 41:-1 42:-1 43:-1 44:-1 45:-1 46:0.75 47:-0.5 48:-1 49:-1 50:-0.75 51:0.25 52:-0.5 54:0.875 55:-0.875 56:-1 57:-1 58:-0.875 59:0.25 60:1 61:0.375 62:-0.625 63:-1 64:-1 
-0 -0 -0 0 1 0 0 0 0 1:-1 2:-1 3:-0.375 4:0.75 5:0.75 6:-0.75 7:-1 8:-1 9:-1 10:-1 11:0.875 12:-0.125 13:0.75 14:-0.5 15:-1 16:-1 17:-1 18:-1 19:-1 20:-0.125 21:1 22:-0.625 23:-1 24:-1 25:-1 26:-1 27:-0.625 28:0.875 29:0.375 30:0.75 31:-0.875 32:-1 33:-1 34:-1 35:-1 36:-1 37:-1 38:0.75 39:-0.5 40:-1 41:-1 42:-1 43:-0.75 44:-1 45:-0.875 46:0.875 47:-0.5 48:-1 49:-1 50:-0.375 51:0.75 52:-0.375 53:0.875 54:0.25 55:-1 56:-1 57:-1 58:-1 59:0.125 60:0.875 61:0.125 62:-1 63:-1 64:-1 
-0 -0 -0 0 0 0 0.3252155838092887 0 0 1:-1 2:-0.125 3:0.625 4:1 5:1 6:0.875 7:0.125 8:-1 9:-1 10:0.25 11:-0.25 12:-0.5 13:-0.375 14:0.625 15:0.75 16:-1 17:-1 18:-1 19:-1 20:-0.875 21:0.625 22:0.5 23:-0.75 24:-1 25:-1 26:-1 27:-1 28:-0.625 29:0.875 30:0.875 31:0.375 32:-0.625 33:-1 34:-1 35:-1 36:-1 37:-1 38:-0.5 39:0.25 40:0.5 41:-1 42:-1 43:-1 44:-1 45:-1 46:-1 47:0.25 48:0.692308 49:0.2 50:-0.375 51:-0.5 52:-0.375 54:0.75 55:0.625 56:-0.857143 57:0.454545 58:0.75 59:1 60:0.5 61:0.375 62:-0.25 63:-1 64:-1 
-0 -0.3924438879418041 -0.968833211610779 0.1648667850325128 0 0 0 0 0.3694575502473203 1:-1 2:-1 3:-0.5 4:0.25 5:0.25 6:-0.25 7:-1 8:-1 9:-1 10:-0.25 11:0.875 12:0.125 13:0.125 14:0.75 16:-1 17:-1 18:-1 19:-1 20:-0.875 21:-0.375 22:0.625 24:-1 25:-1 26:-1 27:-1 28:0.125 29:0.875 30:0.875 31:0.75 32:-0.625 33:-1 34:-1 35:-1 36:-1 37:-1 38:-1 40:0.75 41:-1 42:-1 43:-1 44:-1 45:-1 46:-1 47:0.25 48:0.846154 49:0.6 50:0.125 53:0.5 54:0.875 55:0.5 56:-0.571429 57:-0.272727 59:0.125 61:-0.125 62:-0.625 63:-1 64:-1 
-0.3312505820360857 -0.3386533398653456 -0.9817164749229877 0 1 0.1461474690634174 0.1427872616739782 0 0 1:-1 2:-1 3:-0.875 5:0.75 6:1 7:0.125 8:-1 9:-1 10:-1 12:0.875 13:-0.125 14:-0.375 15:1 16:-0.428571 17:-1 18:-1 19:-1 20:-0.875 21:-1 22:-0.25 23:1 24:-0.571429 25:-1 26:-1 27:-1 28:-1 29:0.25 30:1 32:-1 33:-1 34:-1 35:-1 36:-1 37:0.125 38:0.75 39:0.75 40:-0.875 41:-1 42:-1 43:-1 44:-1 45:-1 46:-0.875 47:1 48:-0.384615 49:-0.733333 50:0.5 51:0.25 54:0.375 55:1 56:-0.714286 57:-0.818182 59:0.5 60:0.75 61:0.875 62:0.375 63:-0.5 64:-1 
-0.3957560091860434 -0 -0.6502041315657338 0 0.6829680807102945 0 0 0.9566407781142852 0.0249978083947824 1:-1 2:-0.875 3:0.5 4:1 5:0.625 6:-0.375 7:-1 8:-1 9:-1 10:-0.125 11:0.625 12:-0.875 13:-0.375 14:0.875 15:-0.5 16:-1 17:-1 18:-0.75 20:-1 21:-0.875 22:0.75 23:-0.375 24:-1 25:-1 26:-1 27:-1 28:-0.625 29:1 30:1 31:0.125 32:-1 33:-1 34:-1 35:-1 36:-1 37:-0.625 38:-0.75 39:0.75 40:-0.375 41:-1 42:-1 43:-1 44:-1 45:-1 46:-1 47:0.25 48:0.230769 49:-0.333333 50:-0.125 51:-0.5 52:-0.5 53:-0.25 54:0.5 55:0.75 56:-0.714286 57:-0.454545 58:0.625 59:1 60:0.875 61:0.5 62:-0.125 63:-0.875 64:-1 
-0 -0 -0 0.004505915126452615 0.5609659217577392 0 0 0.457906379484374 0 1:-1 2:-0.5 3:0.75 4:1 5:0.75 6:-0.25 7:-1 8:-1 9:-1 10:-0.625 11:-0.5 12:-1 13:-0.375 14:1 15:-1 16:-1 17:-1 18:-1 19:-1 20:-0.625 21:0.625 22:0.125 23:-1 24:-1 25:-1 26:-0.625 27:0.625 28:1 29:1 31:-0.875 32:-1 33:-1 34:-0.625 35:-0.125 36:-0.5 37:-0.5 38:0.375 39:0.25 40:-1 41:-1 42:-1 43:-1 44:-1 45:-1 47:0.25 48:-1 49:-1 50:-0.375 51:-0.75 52:-0.5 53:0.375 54:0.625 55:-0.75 56:-1 57:-1 58:-0.125 59:1 60:0.625 62:-0.875 63:-1 64:-1 
-0 -0 -0 0 0 0.2649436527137506 0 0.2488576440738019 0 1:-1 2:-1 3:-1 4:-0.625 5:0.625 6:0.75 7:-0.625 8:-1 9:-1 10:-1 11:-0.875 12:0.875 13:0.875 14:1 16:-1 17:-1 18:-1 19:-1 20:0.125 21:-0.125 22:1 23:-0.125 24:-1 25:-1 26:-1 27:-1 28:-1 29:0.875 30:1 31:-0.125 32:-1 33:-1 34:-1 35:-1 36:-1 37:0.375 38:0.75 39:0.875 40:-1 41:-1 42:0.875 44:-1 45:-0.875 46:0.75 47:0.75 48:-1 49:-1 50:0.5 51:1 52:0.5 53:0.75 54:1 55:-0.25 56:-1 57:-1 58:-0.875 59:0.125 60:0.5 61:0.5 62:-0.375 63:-1 64:-1 
-1 -0 -0.7804494939597285 0.5756403591222732 1 1 0 1 0 1:-1 2:-1 3:0.25 4:0.625 5:0.75 6:-0.25 7:-1 8:-1 9:-1 10:-0.125 11:1 12:0.625 13:1 14:1 15:-1 16:-1 17:-1 18:-0.5 19:0.25 20:0.25 21:1 22:0.125 23:-1 24:-1 25:-1 26:-0.375 27:0.75 28:1 29:1 30:-0.125 31:-0.875 32:-1 33:-1 34:0.375 35:1 36:0.5 37:0.75 38:1 39:0.5 40:-1 41:-1 42:-0.875 43:-0.75 44:-1 45:-0.625 46:0.75 47:1 48:-1 49:-1 50:0.625 51:0.875 52:0.875 53:1 54:1 55:-0.25 56:-1 57:-1 58:0.125 59:0.5 60:0.5 62:-0.75 63:-1 64:-1 
-0 -0 -0.3721579756680983 0 0 0 0 1 0 1:-1 2:-1 3:-0.75 4:0.375 5:1 7:-1 8:-1 9:-1 10:-1 11:-0.125 12:0.5 13:0.25 14:0.875 15:-1 16:-1 17:-1 18:-1 19:-1 20:-1 22:0.75 23:-1 24:-1 25:-1 26:-1 27:-1 28:0.375 29:1 30:0.25 31:-1 32:-1 33:-1 34:-1 35:-1 36:-0.25 37:0.125 38:1 39:-0.625 40:-1 41:-1 42:-0.5 43:0.375 44:-1 45:-0.875 46:1 47:-0.375 48:-1 49:-1 50:-0.5 51:1 53:0.75 54:0.75 55:-0.875 56:-1 57:-1 58:-1 59:0.5 60:0.75 61:0.125 62:-0.875 63:-1 64:-1 
-0 -0 -0 0 0 0 0 0 0.2211834766523225 1:-1 2:-1 3:-0.875 4:0.375 5:0.875 6:0.125 7:-1 8:-1 9:-1 10:-1 11:0.625 12:0.5 13:-0.375 14:0.875 15:-0.5 16:-1 17:-1 18:-1 19:-0.75 20:-1 21:-0.875 22:0.75 23:-0.125 24:-1 25:-1 26:-1 27:-1 28:-1 29:0.375 30:1 31:-0.75 32:-1 33:-1 34:-1 35:-1 36:-1 37:-0.625 38:0.625 39:0.125 40:-1 41:-1 42:-1 43:-1 44:-1 45:-1 46:0.125 47:0.5 48:-1 49:-1 50:-0.375 51:-0.375 52:-0.125 53:0.5 54:1 55:-0.5 56:-1 57:-1 59:0.875 60:0.5 61:0.125 62:-0.75 63:-1 64:-1 
-0.1841732780011315 -1 -0 1 1 0 0 0.9631617878721707 0.8212265431601623 1:-1 2:-1 3:-0.125 4:0.875 5:-0.25 6:-1 7:-1 8:-1 9:-1 10:-0.75 11:1 12:1 13:0.5 14:-1 15:-1 16:-1 17:-1 18:-0.75 19:0.625 20:1 21:0.625 22:-0.875 23:-1 24:-1 25:-1 26:-1 27:-0.75 28:0.875 29:1 30:0.625 31:-0.875 32:-1 33:-1 34:-1 35:-1 36:-1 37:-0.375 38:1 39:-0.5 40:-1 41:-1 42:-1 43:-1 44:-0.875 45:0.625 46:0.875 47:-0.875 48:-1 49:-1 50:-0.75 51:0.5 52:0.875 53:1 54:-0.25 55:-1 56:-1 57:-1 58:-0.75 59:0.5 60:0.25 61:-0.625 62:-1 63:-1 64:-1 
-0 -0 -0 0 0.7822581423607984 0 0 0 0.1680018139337656 1:-1 2:-0.75 3:0.5 4:0.625 5:1 6:1 7:1 9:-1 10:-0.75 11:1 12:0.25 13:0.625 14:1 15:0.5 16:-0.571429 17:-1 18:-1 19:-0.625 20:-0.25 21:1 22:0.25 23:-1 24:-1 25:-1 26:-1 27:-1 28:0.875 29:1 30:0.125 31:-1 32:-1 33:-1 34:-1 35:-1 36:-0.75 38:1 39:-0.75 40:-1 41:-0.733333 42:-0.75 43:-1 44:-1 45:-0.375 46:1 47:-0.625 48:-1 49:-0.0666667 50:1 51:0.125 52:0.125 53:0.875 54:0.5 55:-1 56:-1 57:-1 58:-0.125 59:0.625 60:0.625 62:-0.875 63:-1 64:-1 
-1 -1 -1 1 1 0.5262543951050586 1 1 1 1:-1 2:-0.75 3:0.5 4:0.75 5:0.75 6:-1 7:-1 8:-1 9:-1 10:-1 11:-0.125 12:0.875 13:0.625 14:-1 15:-1 16:-1 17:-1 18:-0.875 19:0.625 20:1 21:0.125 22:-0.125 23:-0.875 24:-1 25:-1 26:-0.625 27:0.875 28:0.5 29:0.5 30:0.75 31:0.375 32:-1 33:-1 34:-1 35:-1 36:-1 37:-0.625 38:0.875 40:-1 41:-1 42:-1 43:-1 44:-0.5 45:0.875 46:0.25 47:-1 48:-1 49:-1 50:-0.625 51:0.125 52:0.875 53:-0.25 54:-1 55:-1 56:-1 57:-1 58:0.125 59:0.5 60:-0.625 61:-1 62:-1 63:-1 64:-1 
-0 -0.1947000839505796 -0 0.08478171459329793 0.1594849679566678 0 0 0 0 1:-1 2:-1 3:-1 4:0.25 5:1 6:0.125 7:-1 8:-1 9:-1 10:-1 11:-0.625 12:0.25 13:-0.875 14:0.875 15:-0.625 16:-1 17:-1 18:-1 19:-1 20:-1 21:-0.5 22:0.75 23:-1 24:-1 25:-1 26:-1 27:-1 28:-0.625 29:0.875 30:1 31:0.25 32:-1 33:-1 34:-1 35:-1 36:-0.625 37:-0.5 38:-0.875 39:0.625 40:-0.5 41:-0.866667 42:-0.75 43:-1 44:-1 45:-1 46:-0.875 47:0.875 48:-0.692308 49:-0.6 50:0.75 51:-0.75 52:-0.875 53:-0.25 54:0.875 55:-0.25 56:-1 57:-1 58:-0.125 59:0.875 60:0.875 61:0.25 62:-0.5 63:-1 64:-1 
-0 -0 -0 0 1 0 0 0 0 1:-1 2:-1 3:-0.875 4:0.5 5:1 6:0.5 7:-0.875 8:-1 9:-1 10:-1 11:-0.75 12:-0.375 13:-1 14:0.125 15:-0.5 16:-1 17:-1 18:-1 19:-1 20:-1 21:-0.625 22:0.75 23:-0.75 24:-1 25:-1 26:-1 27:-1 29:1 30:0.5 31:-0.875 32:-1 33:-1 34:-1 35:-1 36:-0.875 37:-0.875 39:0.375 40:-1 41:-1 42:-1 43:-1 44:-1 45:-1 46:-0.25 47:0.25 48:-1 49:-1 50:0.125 51:-0.625 52:-1 53:-0.375 54:0.75 55:-0.75 56:-1 57:-1 58:-0.625 59:0.75 60:1 61:0.25 62:-0.75 63:-1 64:-1 
-0 -1 -1 1 1 0.9412555501464269 1 0.5212779925618191 1 1:-1 2:-1 3:-0.625 4:0.5 5:0.625 6:-0.875 7:-1 8:-1 9:-1 10:-1 12:0.625 13:1 14:-0.75 15:-1 16:-1 17:-1 18:-1 19:-0.875 20:0.75 21:0.75 22:-0.875 23:-1 24:-1 25:-1 26:-1 27:-0.125 28:0.875 29:0.75 30:0.375 31:-1 32:-1 33:-1 34:-1 35:-1 36:-1 37:0.125 38:0.375 39:-1 40:-1 41:-1 42:-1 43:-1 44:-0.875 45:0.75 46:-0.25 47:-1 48:-1 49:-1 50:-1 51:-0.5 52:0.375 53:0.625 54:-1 55:-1 56:-1 57:-1 58:-1 59:0.125 60:0.5 61:-0.625 62:-1 63:-1 64:-1 
-0 -0.6145608274059342 -1 0 0.4842483434502997 0.638794628721605 1 1 0.005696465603568036 1:-1 2:-1 3:-0.625 4:1 5:0.625 6:1 7:0.25 8:-1 9:-1 10:-1 11:-1 12:-0.375 13:0.375 14:1 15:-0.25 16:-1 17:-1 18:-1 19:-1 20:-0.625 21:0.875 22:0.25 23:-1 24:-1 25:-1 26:-1 27:-0.75 28:0.875 29:1 30:-0.625 31:-1 32:-1 33:-1 34:-1 35:-0.625 36:0.125 37:0.375 38:0.375 39:-1 40:-1 41:-1 42:-0.375 43:-0.875 44:-1 46:0.5 47:-1 48:-1 49:-1 50:0.375 51:0.5 52:-0.125 53:0.625 54:0.25 55:-1 56:-1 57:-1 58:-0.875 59:0.375 60:0.875 61:0.25 62:-0.875 63:-1 64:-1 
-0.6200544605428835 -0 -0.2019524851372136 0.4510652743615133 0 0.3511348328112304 0 1 0 1:-1 2:-1 3:-0.625 4:0.75 5:0.875 6:-0.25 7:-1 8:-1 9:-1 10:-1 11:-0.125 12:0.25 13:-0.375 14:0.5 15:-1 16:-1 17:-1 18:-1 19:-0.875 20:-0.75 21:0.25 22:0.375 23:-1 24:-1 25:-1 26:-1 27:-1 29:0.75 30:0.75 32:-1 33:-1 34:-0.75 35:-1 36:-0.875 37:-1 38:-0.75 39:0.875 40:-1 41:-1 42:1 43:-0.875 44:-1 45:-1 46:-0.5 47:0.75 48:-1 49:-1 50:0.25 51:0.25 52:-0.75 53:-0.375 54:0.625 55:-0.375 56:-1 57:-1 58:-0.875 59:0.25 60:1 61:0.625 62:-0.375 63:-1 64:-1 
-0.1733149430600686 -0.06553702326442153 -0 0.6978745256711223 0.9093456863116139 0.4044833072372124 1 1 0 1:-1 3:1 4:1 5:0.625 7:-0.875 8:-1 9:-1 10:-0.875 11:-1 12:-1 13:-0.5 14:0.375 15:0.625 16:-1 17:-1 18:-1 19:-1 20:-1 21:-0.875 23:0.625 24:-1 25:-1 26:-0.875 27:-0.125 28:0.375 29:1 30:0.375 31:-0.875 32:-1 33:-1 34:-0.75 35:0.375 36:0.5 37:0.5 38:0.875 39:0.5 40:-0.875 41:-1 42:-1 43:-1 44:-1 45:-1 46:-1 47:0.75 48:-0.384615 49:-0.866667 50:-0.625 51:-1 52:-0.75 53:-0.25 54:0.5 55:0.5 56:-0.857143 57:-0.454545 58:0.75 59:1 60:0.875 61:0.375 62:-0.25 63:-1 64:-1 
-0 -0 -0.5293748934372083 0 1 0.5623136154342698 0 1 0 1:-1 2:-0.875 3:0.125 4:0.75 5:0.5 6:-0.25 7:-1 8:-1 9:-1 10:0.625 11:1 12:0.75 13:1 14:0.875 15:-1 16:-1 17:-1 18:0.125 19:-0.125 20:0.25 21:1 22:0.125 23:-1 24:-1 25:-1 26:-1 27:0.5 28:1 29:0.875 30:-0.125 31:-0.875 32:-1 33:-1 34:-1 35:0.875 36:1 37:1 38:1 39:0.625 40:-1 41:-1 42:-1 43:-1 44:-1 46:1 47:0.875 48:-1 49:-1 50:0.125 51:1 52:1 53:1 54:0.875 55:-0.25 56:-1 57:-1 58:-0.25 59:0.5 60:0.5 61:-0.125 62:-0.75 63:-1 64:-1 
-0 -0 -0 0 0.3188413904671386 0 0 0 0 1:-1 2:-1 3:-0.125 4:1 5:0.75 6:0.75 7:-0.75 8:-1 9:-1 10:-1 11:-1 12:0.25 13:1 15:-1 16:-1 17:-1 18:-1 19:-1 20:0.5 21:1 22:0.625 23:-0.625 24:-1 25:-1 26:-1 27:-1 28:-0.75 29:-0.5 30:0.125 31:0.5 32:-1 33:-1 34:-1 35:-1 36:-1 37:-1 39:0.375 40:-1 41:-1 42:-1 43:-1 44:-1 45:-0.625 46:0.875 47:-0.5 48:-1 49:-1 50:0.375 51:0.25 53:0.875 54:-0.25 55:-1 56:-1 57:-1 59:0.875 60:0.375 61:-0.5 62:-1 63:-1 64:-1 
-1 -0.006734341269733463 -1 0.08152572074156104 0.8715832899662231 0 0.793601703184814 0.6953304055906807 0.20859500311125 1:-1 3:0.5 4:0.5 5:0.25 8:-0.333333 9:-1 10:0.25 11:1 12:0.5 13:0.5 14:1 15:1 16:0.428571 17:-1 18:-0.625 19:0.375 20:-1 21:-0.25 22:1 23:0.875 24:-0.714286 25:-1 26:-1 27:-1 28:-1 29:-0.375 30:0.5 31:0.875 32:0.5 33:-1 34:-1 35:-1 36:-1 37:-1 38:-1 39:0.375 40:0.75 41:-0.6 42:0.25 43:-1 44:-0.875 45:-0.25 46:0.75 47:1 48:-0.0769231 49:0.866667 50:1 51:0.625 52:1 53:1 54:0.5 55:-0.625 56:-1 57:0.272727 58:0.5 59:0.375 60:-0.125 61:-0.75 62:-1 63:-1 64:-1 
-0 -1 -1 0.1194759584448563 0.5498335330787071 0.3163792849618115 0 1 0 1:-1 2:-1 3:-0.5 4:0.25 5:0.5 6:-0.25 7:-1 8:-1 9:-1 10:-0.625 11:1 12:1 13:1 14:1 15:-1 16:-1 17:-1 18:-1 19:-0.125 20:0.75 21:1 22:0.5 23:-1 24:-1 25:-1 26:-1 27:-0.5 28:1 29:1 30:-0.25 31:-1 32:-1 33:-1 34:-1 35:-1 36:0.25 37:1 38:0.875 39:-0.75 40:-1 41:-1 42:-1 44:0.375 45:0.375 46:1 48:-1 49:-1 50:-0.125 51:1 52:1 53:1 54:1 55:-0.5 56:-1 57:-1 58:-0.625 59:0.5 60:0.5 61:0.125 62:-0.75 63:-1 64:-1 
-0.3493322528177457 -0 -1 0.363503365593954 0.3975683785644034 1 1 1 0.7036554867907513 1:-1 2:-1 3:-0.5 4:0.625 5:1 6:0.625 7:-0.625 8:-1 9:-1 10:-1 11:0.875 12:-0.125 13:-0.5 14:0.25 15:0.375 16:-1 17:-1 18:-1 19:-0.75 20:-1 21:-0.75 22:0.625 23:-0.125 24:-1 25:-1 26:-1 27:-1 29:0.875 30:0.5 31:-1 32:-1 33:-1 34:-1 35:-1 36:0.125 37:0.125 38:0.875 39:-0.25 40:-1 41:-1 43:-0.75 44:-1 45:-1 46:-0.375 47:0.5 48:-1 49:-1 50:0.125 51:0.75 52:-0.375 53:-0.5 54:0.375 55:0.375 56:-1 57:-1 58:-1 59:-0.125 60:0.75 61:0.75 62:0.375 63:-0.875 64:-1 
-0.9476260110342436 -0 -1 0.357688454840535 0 0.6722514200147914 1 1 1 1:-1 2:-1 3:-0.875 4:0.5 5:0.875 6:-0.125 7:-1 8:-1 9:-1 10:-1 11:-0.375 12:0.125 13:-0.375 14:1 15:-1 16:-1 17:-1 18:-1 19:-1 20:-1 21:-0.5 22:0.875 23:-1 24:-1 25:-1 26:-1 27:-1 28:-0.625 29:0.625 30:0.375 31:-1 32:-1 33:-1 34:-1 35:-1 36:-0.375 37:0.25 38:1 39:-0.75 40:-1 41:-1 42:-1 43:-0.5 44:-1 45:-0.75 46:1 47:-0.875 48:-1 49:-1 50:-0.75 51:1 52:-0.375 53:0.25 54:0.375 55:-1 56:-1 57:-1 58:-1 60:0.75 61:0.5 62:-0.875 63:-1 64:-1 
-0.8373491867031814 -0 -0 0 1 0 0 0 0 1:-1 2:-1 3:-1 4:-0.375 5:0.75 6:0.75 7:-0.75 8:-1 9:-1 10:-1 11:-0.625 12:1 13:-0.125 14:0.75 15:-0.125 16:-1 17:-1 18:-1 19:-1 20:-0.75 21:-0.75 22:1 23:-0.625 24:-1 25:-1 26:-1 27:-1 28:-1 29:-0.25 30:1 31:0.625 32:-1 33:-1 34:-1 35:-1 36:-1 37:-1 38:-0.5 39:1 40:-0.875 41:-1 42:0.125 43:-0.75 44:-1 45:-1 46:0.25 47:0.625 48:-1 49:-0.866667 50:1 52:-0.375 53:0.5 54:0.875 55:-0.625 56:-1 57:-1 58:-0.25 59:0.625 60:0.75 61:0.25 62:-0.875 63:-1 64:-1 
-0 -0 -0 0 0.7875037684155376 0 0 0 0 1:-1 2:-1 3:-0.25 4:0.875 5:0.625 6:-0.75 7:-1 8:-1 9:-1 10:-1 11:1 12:0.875 13:1 15:-1 16:-1 17:-1 18:-1 19:-0.25 20:0.875 21:1 22:0.25 23:-1 24:-1 25:-1 26:-1 27:-0.625 28:0.5 29:0.625 30:1 31:0.125 32:-1 33:-1 34:-1 35:-1 36:-1 37:-1 38:0.5 39:0.5 40:-1 41:-1 42:-1 43:-1 44:-1 45:-0.375 46:1 47:0.25 48:-1 49:-1 50:0.375 51:0.625 52:0.75 53:1 54:0.625 55:-0.875 56:-1 57:-1 59:0.5 60:0.5 61:-0.25 62:-1 63:-1 64:-1 
-0.5236976477431778 -0.8051546671253121 -0.8154184232541115 -0.1587498198785798 0.2634767070659158 0.8026154139427808 1 0.9711291716880239 0 1:-1 2:-1 3:-0.625 4:0.375 5:-1 6:-1 7:-1 8:-1 9:-1 10:-1 11:0.5 12:-0.5 13:-1 14:-1 15:-1 16:-1 17:-1 18:-0.5 19:0.5 20:-1 21:-0.75 22:-1 23:-1 24:-1 25:-1 26:0.375 27:-0.375 28:-0.5 29:0.625 30:-0.625 31:-0.5 32:-1 33:-1 35:1 36:1 37:0.625 38:0.5 39:-0.125 40:-1 41:-1 42:-1 43:-1 44:0.875 45:-1 46:-1 47:-1 48:-1 49:-1 50:-1 51:-1 52:1 53:-1 54:-1 55:-1 56:-1 57:-1 58:-1 59:-1 60:0.625 61:-1 62:-1 63:-1 64:-1 
-0 -0 -0 -0 0.3573504112102787 0.7087464308809963 0 0.3299381245833143 0 1:-1 2:-1 3:-1 4:-0.625 5:-0.875 6:0.5 7:-0.375 8:-1 9:-1 10:-1 11:-0.875 12:0.875 13:-0.125 14:1 16:-1 17:-1 18:-1 19:-0.125 20:1 21:-0.75 22:1 24:-1 25:-1 26:-1 27:0.75 28:0.875 29:0.25 30:1 32:-1 33:-1 34:-0.25 35:1 36:0.5 37:0.625 38:1 39:-0.125 40:-1 41:-1 42:-0.625 43:-0.25 44:-1 45:-1 46:1 47:-0.5 48:-1 49:-1 50:-1 51:-1 52:-1 53:-0.5 54:1 55:-0.5 56:-1 57:-1 58:-1 59:-1 60:-1 61:-1 62:0.5 63:-0.75 64:-1 
-0 -1 -0 -0 0 0 0 0 1 1:-1 2:-1 3:-0.875 4:0.625 5:-0.625 6:-1 7:-1 8:-1 9:-1 10:-1 11:-0.25 12:1 13:-0.875 14:-1 15:-1 16:-1 17:-1 18:-1 19:0.625 20:0.625 21:0.25 22:0.125 23:-1 24:-1 25:-1 26:-1 27:0.875 28:1 29:1 30:0.5 31:-1 32:-1 33:-1 34:-1 35:-0.75 36:-0.5 37:0.25 38:0.875 39:-1 40:-1 41:-1 42:-1 43:-1 44:-1 46:1 47:-1 48:-1 49:-1 50:-1 51:-1 52:-1 54:1 55:-1 56:-1 57:-1 58:-1 59:-1 60:-1 61:-0.5 62:0.625 63:-1 64:-1 
-0 -0 -0 -0.7587547275752018 1 0 0.55148353757911 1 1 1:-1 2:-0.875 3:0.25 4:-0.75 5:-0.5 6:0.625 7:-0.75 8:-1 9:-1 10:-0.5 11:1 14:1 15:-0.5 16:-1 17:-1 18:-0.5 19:1 20:0.125 21:0.5 22:1 23:-0.375 24:-1 25:-1 26:-0.75 27:1 28:1 29:1 30:1 31:-0.25 32:-1 33:-1 34:-1 35:-0.75 36:-0.125 37:0.375 38:1 39:-0.5 40:-1 41:-1 42:-1 43:-1 44:-1 46:1 47:-0.625 48:-1 49:-1 50:-1 51:-1 52:-1 53:0.5 54:1 55:-1 56:-1 57:-1 58:-1 59:-1 60:-1 62:0.25 63:-1 64:-1 
-0 -1 -0 -0 0.1658546337646192 0 0 0 0 1:-1 2:-1 3:-1 4:-0.625 5:0.5 6:-1 7:-1 8:-1 9:-1 10:-1 11:-0.875 12:0.625 13:-0.625 14:-1 15:-1 16:-1 17:-1 18:-1 19:0.5 20:-0.375 21:-0.75 22:-1 23:-1 24:-1 25:-1 26:-0.25 27:0.5 28:-0.125 29:0.75 30:-0.25 31:-0.875 32:-1 33:-1 34:-0.625 36:0.25 37:0.75 39:-0.5 40:-1 41:-1 42:-1 43:-1 44:-0.25 46:-1 47:-1 48:-1 49:-1 50:-1 51:-1 52:0.25 53:-0.375 54:-1 55:-1 56:-1 57:-1 58:-1 59:-1 60:0.375 61:-0.875 62:-1 63:-1 64:-1 
-0.6783400875752612 -0 -0.05687692005354619 -0 0.5474070267429285 1 0 0.03437505716774498 0 1:-1 2:-1 3:-0.5 4:0.375 5:-1 6:-1 7:-1 8:-1 9:-1 10:-1 11:0.125 12:0.125 13:-1 14:-1 15:-1 16:-1 17:-1 18:-1 19:0.625 20:-0.375 21:-1 22:-1 23:-1 24:-1 25:-1 26:-0.875 27:1 28:-0.875 29:-0.25 30:-0.375 31:-1 32:-1 33:-1 34:-0.5 35:0.75 36:-0.5 37:0.625 38:0.5 39:-0.875 40:-1 41:-1 42:-0.75 43:0.5 44:0.5 45:1 46:0.5 47:-0.75 48:-1 49:-1 50:-1 51:-1 52:-1 53:1 54:-0.625 55:-1 56:-1 57:-1 58:-1 59:-1 60:-0.875 61:0.5 62:-1 63:-1 64:-1 
-0.7941747689482177 -0 -0.6826102471708116 -0.476216620144232 0.9556882155490635 0.7869028504580308 0.4659213700945259 1 1 1:-1 2:-0.375 3:0.5 4:-0.75 5:-0.375 6:0.5 7:-0.75 8:-1 9:-1 10:0.25 11:1 12:-0.625 14:1 15:-0.125 16:-1 17:-1 18:0.75 19:0.875 20:-0.625 21:0.5 22:1 24:-1 25:-1 26:1 27:1 28:1 29:1 30:1 32:-1 33:-1 34:0.125 35:0.5 36:0.375 37:0.125 38:1 40:-1 41:-1 42:-1 43:-1 44:-1 45:-0.625 46:1 47:0.375 48:-1 49:-1 50:-1 51:-1 52:-1 53:-1 54:1 55:1 56:-1 57:-1 58:-1 59:-1 60:-1 61:-1 63:0.375 64:-1 
-0 -0 -0 -0.3651156628770129 0.5084265347923655 0 0 0 0 1:-1 2:-1 3:-1 4:0.5 5:-0.125 6:-1 7:-1 8:-1 9:-1 10:-1 11:-0.25 12:1 14:-1 15:-1 16:-1 17:-1 18:-1 19:0.75 20:1 21:-0.375 22:-0.5 23:-0.875 24:-1 25:-1 26:-0.375 27:1 28:1 29:1 30:1 31:-0.125 32:-1 33:-1 34:-0.875 37:0.25 38:1 39:-0.375 40:-1 41:-1 42:-1 43:-1 44:-1 45:-0.5 46:1 48:-1 49:-1 50:-1 51:-1 52:-1 53:-0.5 54:1 55:-0.125 56:-1 57:-1 58:-1 59:-1 60:-1 61:-0.75 62:0.5 63:-0.75 64:-1 
-0.1141093857853643 -1 -0.4035113756128287 -1 1 0.926428471339797 1 1 1 1:-1 2:-1 3:-1 4:-0.625 5:0.375 6:-0.375 7:-1 8:-1 9:-1 10:-1 11:-0.625 12:0.625 13:-0.875 14:0.75 15:-1 16:-1 17:-1 18:-1 19:0.5 20:-0.625 21:-0.625 22:0.25 23:-1 24:-1 25:-1 26:-0.625 27:0.75 29:0.5 30:0.375 31:-0.875 32:-1 33:-1 34:-1 35:-0.25 37:1 38:-0.5 39:-0.875 40:-1 41:-1 42:-1 43:-1 44:-0.625 45:0.25 46:-1 47:-1 48:-1 49:-1 50:-1 51:-1 52:0.25 53:-0.375 54:-1 55:-1 56:-1 57:-1 58:-1 59:-1 60:0.5 61:-1 62:-1 63:-1 64:-1 
-0 -0.3557518359692921 -0 -0 0 0 0.4495114298234137 0 0 1:-1 2:-1 3:-1 4:-0.625 5:0.625 6:-1 7:-1 8:-1 9:-1 10:-1 11:-0.875 12:0.75 14:-1 15:-1 16:-1 17:-1 18:-1 19:0.125 21:-0.625 22:-1 23:-1 24:-1 25:-1 26:-0.5 27:0.75 28:-0.5 29:0.875 30:-0.375 31:-0.625 32:-1 33:-1 34:-0.25 35:0.5 36:0.625 37:0.875 38:0.5 39:-0.5 40:-1 41:-1 42:-1 43:-1 44:-0.375 45:0.25 46:-1 47:-1 48:-1 49:-1 50:-1 51:-1 54:-1 55:-1 56:-1 57:-1 58:-1 59:-1 60:-0.125 61:-0.125 62:-1 63:-1 64:-1 
-0 -0 -0 -0 0 0 0 0.321330179705947 1 1:-1 2:-1 3:-1 4:-0.25 5:0.375 6:-1 7:-1 8:-1 9:-1 10:-1 11:-0.875 12:0.875 13:-0.375 14:0.375 15:-0.625 16:-1 17:-1 18:-1 19:0.375 20:0.5 21:-0.625 22:1 23:-0.875 24:-1 25:-1 26:-0.625 27:1 28:-0.125 29:-0.125 30:0.875 31:-1 32:-1 33:-1 34:-1 35:0.25 36:0.5 37:0.875 38:0.875 39:-1 40:-1 41:-1 42:-1 43:-1 44:-1 45:0.125 46:0.25 47:-1 48:-1 49:-1 50:-1 51:-1 52:-1 53:0.5 55:-1 56:-1 57:-1 58:-1 59:-1 60:-1 61:0.125 62:-0.25 63:-1 64:-1 
-0 -1 -0 -1 0 0.2365072499484885 0.5999688327448999 0 0.5242979280704794 1:-1 2:-1 3:-1 4:-1 5:0.625 6:-0.625 7:-1 8:-1 9:-1 10:-1 11:-1 12:-0.375 13:0.75 14:-1 15:-1 16:-1 17:-1 18:-1 19:-1 20:0.625 21:0.875 22:-0.375 23:-1 24:-1 25:-1 26:-1 28:0.875 29:0.625 30:0.125 31:-1 32:-1 33:-1 34:-1 35:0.375 36:0.5 37:0.875 38:0.625 39:-1 40:-1 41:-1 42:-1 43:-1 44:-1 45:0.625 46:-0.5 47:-1 48:-1 49:-1 50:-1 51:-1 52:-1 53:1 54:-0.5 55:-1 56:-1 57:-1 58:-1 59:-1 60:-1 61:0.5 62:-0.625 63:-1 64:-1 
-0.8185859736404414 -0 -1 -0.2349954928967158 1 1 0 0.9906056055171066 0 1:-1 2:-1 3:-1 4:0.375 5:-0.25 6:-1 7:-1 8:-1 9:-1 10:-1 12:1 13:-0.375 14:-1 15:-1 16:-1 17:-1 18:-0.75 19:1 20:0.25 21:-0.25 22:-1 23:-1 24:-1 25:-0.866667 26:0.625 27:0.875 28:0.125 29:1 30:-1 31:-1 32:-1 33:0.285714 34:1 36:0.5 37:1 38:0.5 39:0.625 40:0.25 41:0.6 42:1 43:1 44:1 45:1 46:0.5 47:0.5 48:-0.0769231 49:-0.733333 50:-0.5 51:-0.5 52:0.625 53:0.5 54:-1 55:-1 56:-1 57:-1 58:-1 59:-1 60:0.375 61:-0.375 62:-1 63:-1 64:-1 
-0.3074687473242203 -1 -0.2695614438371058 -0 0.630752456861655 0 1 0 1 1:-1 2:-1 4:-0.75 5:-0.125 6:-0.125 7:-1 8:-1 9:-1 10:-0.875 11:1 12:-0.875 13:0.5 14:-0.5 15:-1 16:-1 17:-1 18:-0.25 19:0.5 20:-0.5 21:0.625 22:-0.125 23:-0.125 24:-1 25:-1 26:0.75 27:0.5 28:0.5 29:1 30:0.625 31:0.125 32:-1 33:-1 34:-1 35:-1 36:-1 37:0.625 38:-1 39:-1 40:-1 41:-1 42:-1 43:-1 44:-1 45:1 46:-1 47:-1 48:-1 49:-1 50:-1 51:-1 52:-1 53:1 54:-1 55:-1 56:-1 57:-1 58:-1 59:-1 60:-1 61:0.75 62:-1 63:-1 64:-1 
-0.6400362752198083 -0 -0.4102396866531074 -0.7699609313786305 0.774997636294415 0 0.2140277132329683 0.4530172247876256 1 1:-1 2:-1 3:0.375 4:-0.625 5:-1 6:-1 7:-1 8:-1 9:-1 10:-0.75 11:0.875 12:-1 13:-1 14:0.375 15:-0.875 16:-1 17:-1 18:-0.5 19:0.5 20:-1 21:-1 22:1 23:-0.5 24:-1 25:-1 26:-0.875 27:0.75 28:0.875 29:0.625 30:1 31:-0.75 32:-1 33:-1 34:-1 35:-1 36:-1 37:-0.75 38:1 39:-1 40:-1 41:-1 42:-1 43:-1 44:-1 45:-1 46:1 47:-1 48:-1 49:-1 50:-1 51:-1 52:-1 53:-0.625 54:0.5 55:-1 56:-1 57:-1 58:-1 59:-1 60:-1 61:-0.625 62:0.375 63:-1 64:-1 
-0.6064400678566386 -1 -0.9550107191192427 -0.3585126817435029 1 0.7085533818086454 0.2829164729521784 0 0.3481516593787479 1:-1 2:-1 3:-1 4:-1 5:-0.375 6:0.375 7:-1 8:-1 9:-1 10:-1 11:-1 12:-0.625 13:0.75 14:-0.625 15:-1 16:-1 17:-1 18:-1 19:-0.875 20:0.625 21:-0.25 22:-1 23:-1 24:-1 25:-1 26:-1 27:0.375 28:0.125 29:-1 30:-1 31:-0.75 32:-1 33:-1 35:0.5 36:-1 37:-1 38:-0.75 39:1 40:-1 41:-0.6 42:1 43:1 44:1 45:1 46:0.75 47:1 48:-0.384615 49:-0.866667 50:-0.625 51:-1 52:-1 53:-1 54:-0.375 55:0.5 56:-1 57:-1 58:-1 59:-1 60:-1 61:-1 62:-0.625 63:0.125 64:-1 
-0 -0 -0 -0.2680747525990259 0.62680176068255 0 0.504362250345108 0 0 1:-1 2:-1 3:-0.75 4:0.75 5:-1 6:-1 7:-1 8:-1 9:-1 10:-1 11:0.5 12:0.125 13:-0.75 14:-1 15:-1 16:-1 17:-1 18:-0.5 19:0.75 22:-1 23:-1 24:-1 25:-0.866667 26:0.75 27:-0.125 28:0.5 29:0.125 30:-0.5 31:-1 32:-1 33:0.571429 34:1 35:1 36:1 37:0.625 38:0.75 39:1 40:0.5 41:-0.733333 42:-0.875 43:-1 44:1 45:-0.75 46:-1 47:-1 48:-1 49:-1 50:-1 51:-0.625 52:0.75 53:-1 54:-1 55:-1 56:-1 57:-1 58:-1 59:-0.625 60:0.375 61:-1 62:-1 63:-1 64:-1 
-0.7917181862703493 -0 -0 -0 0 0 0 0 1 1:-1 2:-1 3:-1 4:-0.625 5:0.625 7:-1 8:-1 9:-1 10:-1 11:-0.625 12:0.875 13:1 14:1 15:-0.5 16:-1 17:-1 18:-0.5 19:0.875 20:1 21:0.625 22:1 23:-0.125 24:-1 25:-1 26:0.5 27:1 28:1 29:1 30:1 31:0.5 32:-1 33:-1 34:-0.5 37:0.25 38:1 39:-0.875 40:-1 41:-1 42:-1 43:-1 44:-1 45:0.5 46:1 47:-1 48:-1 49:-1 50:-1 51:-1 52:-1 53:0.5 54:1 55:-1 56:-1 57:-1 58:-1 59:-1 60:-1 61:-0.375 62:0.375 63:-1 64:-1 
-0 -0.6301592494466925 -0 -1 1 0.0724982273012777 0 0.1168799121331414 1 1:-1 2:-1 3:-1 4:-0.125 5:0.875 6:-0.75 7:-1 8:-1 9:-1 10:-1 11:-0.125 12:0.875 13:1 14:-0.625 15:-1 16:-1 17:-1 18:-0.75 19:0.875 20:-0.25 21:1 22:-1 23:-1 24:-1 25:-1 26:0.375 27:1 28:1 29:1 30:0.625 31:0.375 32:-1 33:-1 34:-0.75 35:-0.875 36:-0.875 37:1 39:-0.75 40:-1 41:-1 42:-1 43:-1 44:-1 45:1 46:-1 47:-1 48:-1 49:-1 50:-1 51:-1 52:-0.5 53:1 54:-1 55:-1 56:-1 57:-1 58:-1 59:-1 60:-0.125 61:0.375 62:-1 63:-1 64:-1 
-0 -0.8932772469565036 -0 -0 0 0 0 0 0 1:-1 2:-1 3:-1 4:-0.25 5:0.875 6:-1 7:-1 8:-1 9:-1 10:-1 11:-0.5 12:1 13:1 14:-1 15:-1 16:-1 17:-1 18:-0.875 19:0.75 20:0.5 21:1 22:-1 23:-1 24:-1 25:-1 26:-0.5 27:1 28:0.25 29:1 30:1 31:-0.625 32:-1 33:-1 34:-0.875 35:0.375 36:0.625 37:1 38:-0.375 39:-1 40:-1 41:-1 42:-1 43:-1 44:-0.5 45:1 46:-1 47:-1 48:-1 49:-1 50:-1 51:-1 52:-0.5 53:0.875 54:-1 55:-1 56:-1 57:-1 58:-1 59:-1 60:-0.5 61:0.375 62:-1 63:-1 64:-1 
-0 -0 -0 -0.03875033674522262 0 0 0 0 0 1:-1 2:-1 3:-1 4:0.75 5:-0.625 6:-1 7:-1 8:-1 9:-1 10:-1 11:-0.5 12:1 13:-0.375 14:-1 15:-1 16:-1 17:-1 18:-1 19:-0.125 20:1 21:0.875 22:0.125 23:-1 24:-1 25:-1 26:-0.75 27:0.625 28:0.875 29:0.875 30:0.625 31:-1 32:-1 33:-1 35:1 36:0.5 37:0.25 38:1 39:-0.75 40:-1 41:-1 42:-1 43:-0.625 44:-1 45:-0.875 46:1 47:-0.25 48:-1 49:-1 50:-1 51:-1 52:-1 53:-1 54:0.875 56:-1 57:-1 58:-1 59:-1 60:-1 61:-1 62:0.25 63:-0.375 64:-1 
-0.4440157194473533 -0 -0 -1 0 1 1 1 0 1:-1 2:-1 3:-1 4:-0.875 5:0.75 6:-0.625 7:-1 8:-1 9:-1 10:-1 11:-1 13:1 14:-0.125 15:-1 16:-1 17:-1 18:-1 19:-0.75 20:1 21:1 22:-0.125 23:-1 24:-1 25:-1 26:-1 27:0.625 28:1 29:1 30:-0.5 31:-0.875 32:-1 33:-1 35:1 36:0.25 37:1 38:0.875 39:0.625 40:-1 41:-1 42:0.625 43:1 44:1 45:0.875 46:0.25 47:-0.5 48:-1 49:-1 50:-0.75 51:-0.5 52:0.75 53:0.25 54:-1 55:-1 56:-1 57:-1 58:-1 59:-1 60:0.375 61:-0.375 62:-1 63:-1 64:-1 
-1 -0 -0 -0 0.0253720258606325 0.6721359180093079 0.4996817367021612 0 0.2097682825360517 1:-1 2:-1 3:-1 4:-0.875 5:-0.125 6:0.5 7:-1 8:-1 9:-1 10:-1 11:-0.875 12:0.625 13:0.5 14:0.5 15:-1 16:-1 17:-1 18:-1 19:0.5 20:0.125 21:-0.5 22:0.5 23:-1 24:-1 25:-1 26:0.125 27:0.375 28:-1 29:-0.5 30:0.625 31:-0.5 32:-0.625 33:-0.285714 34:0.875 36:0.375 37:0.75 38:0.875 39:0.5 40:-0.375 41:-0.0666667 42:0.5 43:0.125 44:-0.375 45:0.25 47:-1 48:-1 49:-1 50:-1 51:-1 52:-1 53:0.125 55:-1 56:-1 57:-1 58:-1 59:-1 60:-1 61:0.375 62:-0.625 63:-1 64:-1 
-0 -0.5979738944802337 -0 -0 0 0 0 0 0.3973453321897734 1:-1 2:-1 3:-1 4:-0.875 5:0.625 6:-0.375 7:-1 8:-1 9:-1 10:-1 11:-1 12:0.25 13:0.875 15:-1 16:-1 17:-1 18:-1 19:0.25 20:0.25 23:-1 24:-1 25:-1 26:0.25 27:0.25 28:-1 31:-1 32:-1 33:-0.285714 34:1 35:0.125 37:0.5 38:0.5 40:-0.625 41:-0.6 45:0.5 46:0.25 48:-0.538462 49:-1 50:-1 51:-1 52:-1 53:0.5 54:-0.5 55:-1 56:-1 57:-1 58:-1 59:-1 60:-1 61:0.375 62:-0.625 63:-1 64:-1 
-0 -0 -0 -0 0.08317751430104012 0.6725519849702318 0 0 0 1:-1 2:-1 3:-1 4:0.75 5:-0.375 6:-1 7:-1 8:-1 9:-1 10:-1 11:-0.75 12:1 13:-0.5 14:-1 15:-1 16:-1 17:-1 18:-1 19:0.25 20:1 21:-0.5 22:-1 23:-1 24:-1 25:-1 26:-0.75 27:0.875 28:0.625 29:-0.5 30:-1 31:-1 32:-1 33:-1 34:0.5 35:0.875 36:0.875 37:0.5 39:0.75 40:-1 41:-1 42:0.125 43:-0.5 44:0.25 45:0.5 47:-0.125 48:-1 49:-1 50:-1 51:-1 52:0.125 53:-0.125 54:-1 55:-1 56:-1 57:-1 58:-1 59:-1 60:0.375 61:-0.625 62:-1 63:-1 64:-1 
-0 -0.03620265582934871 -0 -0 0 0 0 0 0 1:-1 2:-1 3:-1 4:-1 5:0.5 6:-0.625 7:-1 8:-1 9:-1 10:-1 11:-1 12:0.25 13:1 14:-0.5 15:-1 16:-1 17:-1 18:-1 19:0.25 20:0.75 21:0.75 22:-0.5 23:-1 24:-1 25:-1 26:0.25 27:0.625 28:-0.875 29:1 30:-0.5 31:-1 32:-1 33:0.142857 34:1 35:0.625 36:0.5 37:1 38:0.125 40:-0.5 41:-0.733333 42:-0.5 43:-0.5 44:-0.5 45:1 47:0.375 48:-0.384615 49:-1 50:-1 51:-1 52:-0.625 53:1 54:-1 55:-1 56:-1 57:-1 58:-1 59:-1 60:-0.625 61:0.375 62:-1 63:-1 64:-1 
-0 -0.9081638513678923 -0 -0 0 0.016508794082585 0 0 0 1:-1 2:-1 3:-1 4:-0.5 5:0.375 6:-1 7:-1 8:-1 9:-1 10:-1 11:-1 12:0.5 13:-0.25 14:-1 15:-1 16:-1 17:-1 18:-1 19:-0.5 20:0.875 21:-0.375 22:-0.75 23:-1 24:-1 25:-1 26:-1 27:0.5 29:0.5 30:-0.5 31:-1 32:-1 33:-1 34:-0.625 35:0.875 36:-0.5 37:0.625 38:0.25 39:-0.875 40:-1 41:-1 42:-0.375 43:1 44:0.875 45:1 46:0.375 47:-0.375 48:-1 49:-1 50:-1 51:-1 52:-1 53:1 54:-0.875 55:-1 56:-1 57:-1 58:-1 59:-1 60:-1 61:0.625 62:-0.75 63:-1 64:-1 
-0 -0 -0.1448206483847979 -0 0 0.2033238867786042 0.3989290754718458 0 0 1:-1 2:-0.625 3:0.375 4:-1 5:-1 6:-1 7:-1 8:-1 9:-1 10:-0.125 11:0.5 12:-1 13:-0.125 14:-1 15:-1 16:-1 17:-1 19:0.375 20:-1 21:1 22:-1 23:-1 24:-1 25:-1 28:-1 29:1 30:0.25 31:-0.375 32:-1 33:-1 34:0.375 35:0.75 36:0.875 37:1 38:0.625 39:-0.5 40:-1 41:-1 42:-0.375 43:0.125 44:-0.625 45:1 46:-0.5 47:-1 48:-1 49:-1 50:-1 51:-1 52:-1 53:1 54:-0.5 55:-1 56:-1 57:-1 58:-1 59:-1 60:-1 61:0.5 62:-0.75 63:-1 64:-1 
-0 -0.008092038026938864 -0 -0 0 0 0 0 0.4082675682689624 1:-1 2:-1 3:-1 4:0.5 6:-1 7:-1 8:-1 9:-1 10:-1 11:-0.5 12:0.875 13:1 14:-1 15:-1 16:-1 17:-1 18:-1 19:0.625 20:-0.125 21:0.75 22:-0.5 23:-1 24:-1 25:-1 26:-0.25 27:0.75 28:-1 29:0.5 30:-0.5 31:-1 32:-1 33:-1 34:-0.125 35:0.75 36:0.25 37:0.75 38:0.5 39:-0.625 40:-1 41:-1 42:-1 43:-0.5 45:0.5 46:0.75 47:-0.375 48:-1 49:-1 50:-1 51:-1 52:-1 55:-1 56:-1 57:-1 58:-1 59:-1 60:-1 61:-0.125 62:-0.125 63:-1 64:-1 
-0 -0 -0 -0 0 0 0 1 0.5117233441793549 1:-1 2:-1 4:0.25 5:-1 6:-1 7:-1 8:-1 9:-1 10:-1 11:1 12:0.75 13:0.125 14:0.875 15:-0.75 16:-1 17:-1 18:-0.625 19:1 20:0.875 21:1 22:1 23:-0.5 24:-1 25:-1 26:-0.75 27:1 28:1 29:1 30:1 31:-0.625 32:-1 33:-1 34:-1 35:0.125 36:0.625 37:0.875 38:1 39:-1 40:-1 41:-1 42:-1 43:-1 44:-1 45:0.75 46:1 47:-1 48:-1 49:-1 50:-1 51:-1 52:-1 53:0.875 54:1 55:-1 56:-1 57:-1 58:-1 59:-1 60:-1 62:0.375 63:-1 64:-1 
-0 -1 -0.3303533237673854 -0 1 1 0.7943478400247999 0.07676912771326655 0 1:-1 2:-1 3:-1 4:-1 5:-1 6:-1 7:-1 8:-1 9:-1 10:-1 11:-1 12:-0.625 13:-1 14:-1 15:-1 16:-1 17:-1 18:-1 19:-0.75 20:0.5 21:-1 22:-1 23:-1 24:-1 25:-1 26:-1 27:0.125 28:0.375 29:-1 30:-1 31:-1 32:-1 33:-1 34:-1 35:0.375 36:0.75 39:-1 40:-1 41:-1 42:-1 43:-1 44:0.625 45:-0.75 46:-1 47:-1 48:-1 49:-1 50:-1 51:-1 52:0.5 53:-1 54:-1 55:-1 56:-1 57:-1 58:-1 59:-1 60:0.375 61:-1 62:-1 63:-1 64:-1 
-0.1059534055028481 -0 -1 -0.4447975609405343 0.2215663841113662 1 0 0.6550894398447289 0 1:-1 2:-1 3:-1 4:-0.75 5:0.75 6:-1 7:-1 8:-1 9:-1 10:-1 11:-1 13:0.625 14:-1 15:-1 16:-1 17:-1 18:-1 19:-1 20:0.75 21:-0.125 22:-1 23:-1 24:-1 25:-1 26:-1 27:-0.25 28:0.875 29:-0.875 31:-0.75 32:-1 33:-1 34:-0.875 35:0.875 36:0.125 38:1 39:0.625 40:-1 41:-1 42:0.875 43:1 44:0.875 45:0.625 46:1 47:-0.125 48:-1 49:-1 50:-0.375 51:-0.875 52:-1 53:-0.5 54:1 55:-1 56:-1 57:-1 58:-1 59:-1 60:-1 61:-0.75 62:0.75 63:-1 64:-1 
-0.4862685916644801 -0.4024018427066378 -1 -0.9781350895784099 1 0.2924675688975783 1 1 0.005427321794096353 1:-1 2:-1 3:-0.75 4:0.75 5:-0.75 6:-1 7:-1 8:-1 9:-1 10:-1 11:0.5 12:0.5 13:-0.625 14:-1 15:-1 16:-1 17:-1 18:-0.5 19:1 20:-0.125 21:1 22:-0.625 23:-1 24:-1 25:-1 26:0.25 27:1 28:1 29:1 30:1 31:0.375 32:-1 33:-1 34:-0.375 35:-0.375 36:0.875 37:-0.125 38:-0.625 39:-0.75 40:-1 41:-1 42:-1 43:-0.75 44:1 45:-0.75 46:-1 47:-1 48:-1 49:-1 50:-1 51:-0.125 52:0.75 53:-1 54:-1 55:-1 56:-1 57:-1 58:-1 59:-0.25 60:0.125 61:-1 62:-1 63:-1 64:-1 
-0 -1 -0.8408354545373863 -0.06325748108329693 0.2159632696705832 1 1 1 0.2656895788185817 1:-1 2:-1 3:-1 4:-0.5 5:0.875 6:-0.875 7:-1 8:-1 9:-1 10:-1 11:-1 12:0.375 13:1 14:-1 15:-1 16:-1 17:-1 18:-1 19:-0.75 20:1 21:1 22:-1 23:-1 24:-1 25:-1 26:-1 28:0.5 29:0.5 30:-1 31:-1 32:-1 33:-1 34:-0.75 35:0.875 36:0.125 37:0.625 38:-0.5 39:-0.75 40:-1 41:-1 42:0.25 43:0.875 44:0.625 45:0.875 46:0.5 48:-1 49:-1 50:-1 51:-1 52:-0.5 53:0.5 54:-1 55:-1 56:-1 57:-1 58:-1 59:-1 60:-0.625 61:0.375 62:-1 63:-1 64:-1 
-0 -1 -0.3442746862400454 -0 0.4949727305246014 0.09216022845961747 1 0.8438956222615071 0.1712442846810503 1:-1 2:-0.375 4:-1 5:0.625 6:-0.625 7:-1 8:-1 9:-1 11:0.5 12:-1 13:1 14:-0.5 15:-1 16:-1 17:-1 20:-1 21:1 22:-1 23:-1 24:-1 25:-1 26:0.125 27:0.75 28:0.5 29:1 30:0.5 31:-0.125 32:-1 33:-1 34:-0.75 35:-0.5 36:-0.5 37:1 38:-0.5 39:-0.75 40:-1 41:-1 42:-1 43:-1 44:-1 45:1 46:-1 47:-1 48:-1 49:-1 50:-1 51:-1 52:-1 53:1 54:-0.875 55:-1 56:-1 57:-1 58:-1 59:-1 60:-1 61:0.5 62:-0.625 63:-1 64:-1 
-0.329001322394568 -1 -0.9326257796380759 -1 0.07449015694463905 0 1 1 1 1:-1 2:-1 3:-0.25 4:0.625 5:-1 6:-0.625 7:-1 8:-1 9:-1 10:-1 11:0.5 12:0.75 13:-0.125 14:1 15:-0.75 16:-1 17:-1 18:-1 19:1 20:1 21:1 22:1 23:-1 24:-1 25:-1 26:-1 27:0.375 28:0.5 29:0.75 30:1 31:-1 32:-1 33:-1 34:-1 35:-1 36:-1 37:0.375 38:1 39:-1 40:-1 41:-1 42:-1 43:-1 44:-1 45:0.5 46:0.5 47:-1 48:-1 49:-1 50:-1 51:-1 52:-1 53:0.5 54:0.625 55:-1 56:-1 57:-1 58:-1 59:-1 60:-1 63:-1 64:-1 
-0 -0 -0 -0 0 0 0 0 0.1001830272965938 1:-1 2:-1 3:0.625 4:-0.625 5:-1 6:-1 7:-1 8:-1 9:-1 10:-1 11:1 12:-0.5 13:-1 15:-0.375 16:-1 17:-1 18:-0.375 19:1 20:-0.25 21:-0.5 22:1 24:-1 25:-1 27:1 28:1 29:1 30:1 31:-0.5 32:-1 33:-1 34:-0.875 35:-0.5 36:-1 37:-0.25 38:1 39:-0.75 40:-1 41:-1 42:-1 43:-1 44:-1 45:-0.5 46:1 47:-1 48:-1 49:-1 50:-1 51:-1 52:-1 53:-0.125 54:1 55:-1 56:-1 57:-1 58:-1 59:-1 60:-1 61:-0.375 62:0.5 63:-1 64:-1 
-1 -1 -0.8358359479599334 -0 -1 1 1 1 0.5757537941948903 1:-1 2:-1 3:-0.375 4:-0.125 5:0.25 6:0.75 7:-0.625 8:-1 9:-1 10:-1 11:0.75 12:-0.25 13:-0.625 14:-1 15:-1 16:-1 17:-1 18:-0.875 19:0.5 20:-1 21:-1 22:-1 23:-1 24:-1 25:-1 26:-0.5 27:0.125 28:-1 29:-1 30:-1 31:-1 32:-1 33:-1 34:-0.5 35:0.5 36:0.5 37:0.875 38:0.125 39:-1 40:-1 41:-1 42:-1 43:-0.5 44:-0.875 45:-1 46:0.625 47:-1 48:-1 49:-1 50:-1 51:-1 52:-0.875 53:0.375 54:0.125 55:-1 56:-1 57:-1 58:-0.875 59:0.75 60:0.75 61:-0.375 62:-1 63:-1 64:-1 
-0 -0 -0 -0 -0 0 0 0.6658901294388843 0 1:-1 2:-0.25 3:-0.125 4:-0.25 5:0.125 6:0.5 7:0.5 8:-1 9:-1 10:0.5 11:1 12:1 13:0.625 14:0.375 15:-0.375 16:-1 17:-1 18:0.125 19:1 21:-0.75 22:-1 23:-1 24:-1 25:-1 26:-0.625 27:0.375 28:0.875 29:0.875 30:-0.25 31:-1 32:-1 33:-1 34:-1 35:-1 36:-0.875 37:0.25 38:0.875 39:-1 40:-1 41:-1 42:-0.75 43:-1 44:-1 45:-0.375 46:1 47:-0.75 48:-1 49:-1 50:0.5 51:0.625 52:0.125 53:0.875 54:0.5 55:-1 56:-1 57:-1 58:-0.625 59:0.375 60:0.75 61:0.25 62:-0.875 63:-1 64:-1 
-0 -0 -0 -0 -0 0.8858237980173653 0 0.8209513067929891 0 1:-1 2:-1 3:-0.875 4:0.125 5:0.5 6:0.75 7:0.25 8:-1 9:-1 10:-1 11:-0.25 12:0.875 13:0.375 15:-0.5 16:-1 17:-1 18:-1 19:0.375 20:0.5 21:-0.5 22:-1 23:-1 24:-1 25:-1 26:-1 27:0.75 28:1 29:1 30:0.125 31:-1 32:-1 33:-1 34:-1 35:0.625 36:0.125 37:0.125 38:1 39:-1 40:-1 41:-1 42:-1 43:-1 44:-1 45:0.5 46:0.375 47:-1 48:-1 49:-1 50:0.375 51:0.375 52:0.5 53:0.875 54:-0.625 55:-1 56:-1 57:-1 58:-0.25 59:0.875 60:0.375 61:-0.625 62:-1 63:-1 64:-1 
-0 -0 -0.3951613401073398 -0 -0 0.5563902565093275 0.3390348496552991 0 0 1:-1 2:-1 3:-1 4:-0.375 5:0.25 6:0.5 7:0.5 8:0.833333 9:-1 10:-0.875 11:0.875 12:1 13:0.75 14:0.5 16:-0.142857 17:-1 19:1 20:-0.5 21:-1 22:-1 23:-1 24:-1 25:-1 26:0.875 27:1 28:0.75 29:-0.25 30:-1 31:-1 32:-1 33:-1 34:-0.25 36:0.375 37:1 38:-0.75 39:-1 40:-1 41:-1 42:-1 43:-0.75 44:0.625 45:0.875 46:-0.875 47:-1 48:-1 49:0.2 50:0.625 51:1 52:0.75 53:-0.625 54:-1 55:-1 56:-1 57:0.454545 58:0.625 59:-0.25 60:-1 61:-1 62:-1 63:-1 64:-1 
-0.3039610997860803 -0.6982464148373914 -0.9424305682912816 -1 -1 1 0 1 0.1625487539693519 1:-1 2:-1 3:0.5 4:0.625 5:0.5 6:-0.5 7:-1 8:-1 9:-1 10:-0.5 11:1 12:0.75 13:0.5 14:-0.625 15:-1 16:-1 17:-1 18:-0.5 19:1 21:-1 22:-1 23:-1 24:-1 25:-1 26:-0.75 27:1 28:1 29:0.75 30:-0.375 31:-1 32:-1 33:-1 34:-1 35:0.875 36:0.625 37:0.75 38:1 39:-0.75 40:-1 41:-1 42:-1 43:-1 44:-1 45:-0.125 46:1 47:-0.5 48:-1 49:-1 50:-0.75 51:0.875 52:0.625 53:1 54:0.625 55:-1 56:-1 57:-1 58:-0.875 59:0.375 60:0.5 62:-0.875 63:-1 64:-1 
-1 -1 -1 -1 -0.4624794779678613 1 1 1 1 1:-1 2:-1 4:0.625 5:1 6:1 7:-0.75 8:-1 9:-1 10:-0.625 11:1 12:0.375 13:-0.75 14:-1 15:-1 16:-1 17:-1 18:-0.875 20:-0.25 21:0.75 22:-0.875 23:-1 24:-1 25:-1 26:-1 27:-1 28:-1 31:-1 32:-1 33:-1 34:-1 35:-1 36:-1 37:-0.5 38:0.5 39:-1 40:-1 41:-1 42:-0.75 44:-1 45:-0.5 46:0.5 47:-1 48:-1 49:-1 50:-0.875 51:0.75 52:-0.875 53:0.375 54:-0.125 55:-1 56:-1 57:-1 58:-1 59:-0.25 60:0.875 61:0.25 62:-1 63:-1 64:-1 
-0 -1 -0 -1 -0 0 0.7991784670271759 0 0.9246940461259404 1:-1 2:-1 3:-0.75 4:0.25 5:0.5 6:0.75 7:0.375 8:-1 9:-1 10:-1 11:-0.125 12:0.75 14:-0.375 15:-0.75 16:-1 17:-1 18:-1 19:0.5 20:0.625 21:-0.375 22:-1 23:-1 24:-1 25:-1 26:-1 27:-0.125 28:0.125 29:0.875 30:-0.375 31:-1 32:-1 33:-1 34:-1 35:-1 36:-1 37:0.125 38:0.5 39:-1 40:-1 41:-1 42:-1 43:-1 44:-1 45:0.5 46:-0.125 47:-1 48:-1 49:-1 50:-0.375 51:-0.375 52:0.375 53:0.75 54:-0.875 55:-1 56:-1 57:-1 59:0.875 60:0.25 61:-0.75 62:-1 63:-1 64:-1 
-1 -0.5991110126864047 -1 -0.6421619921078586 -1 1 0.9531561623272576 1 0.5407005260892064 1:-1 2:-1 3:-1 4:-1 5:-1 6:-1 7:-0.75 8:-0.833333 9:-1 10:-0.5 11:1 12:1 13:1 14:1 15:1 16:0.857143 17:-0.5 18:0.875 19:0.875 21:0.125 23:0.125 24:-0.285714 25:0.466667 26:1 27:0.75 28:0.25 29:-0.5 30:-1 31:-1 32:-1 33:0.285714 34:1 35:1 36:1 37:1 38:-0.25 39:-1 40:-1 41:-1 42:0.375 43:0.125 44:0.625 45:1 46:0.25 47:-1 48:-1 49:-1 50:0.875 51:1 52:0.875 53:0.25 54:-0.875 55:-1 56:-1 57:-1 58:-1 59:-1 60:-1 61:-1 62:-1 63:-1 64:-1 
-0.4452987367667483 -0 -0 -0 -0.7448381070014169 0 0.1224130809700726 0 0.06341445324821493 1:-1 2:-1 3:-1 4:-1 5:-0.5 7:0.375 8:1 9:-1 10:-0.875 11:0.625 12:0.875 13:0.375 15:-0.375 16:-0.857143 17:-1 18:-0.625 19:0.625 20:-0.875 21:-0.5 22:-0.625 23:-1 24:-1 25:-1 26:-0.5 27:0.875 28:0.5 29:0.5 30:0.625 31:0.25 32:-1 33:-1 34:-1 35:-1 36:-1 37:-1 38:-0.875 39:0.875 40:-1 41:-1 42:-1 43:-1 44:-1 45:-0.5 46:0.625 47:-0.25 48:-1 49:-0.866667 50:-0.5 52:0.625 53:0.625 54:-0.5 55:-1 56:-1 57:1 58:0.375 59:-0.125 60:-0.75 61:-1 62:-1 63:-1 64:-1 
-0 -0 -0 -0 -0 0 0 1 0 1:-1 2:-1 3:0.5 4:0.5 5:0.625 6:1 7:-0.5 8:-1 9:-1 10:-1 11:1 12:-0.125 13:-0.5 14:-0.75 15:-1 16:-1 17:-1 18:-1 19:1 20:-0.5 21:-0.5 22:-0.875 23:-1 24:-1 25:-1 26:-1 27:1 28:1 29:0.625 30:0.75 31:-0.75 32:-1 33:-1 34:-1 35:-0.625 36:-1 37:-1 38:0.125 40:-1 41:-1 42:-0.625 44:-1 45:-1 46:0.5 47:-0.125 48:-1 49:-1 51:0.375 52:-0.5 53:0.375 54:0.625 55:-1 56:-1 57:-1 58:-0.625 59:0.75 60:0.75 62:-1 63:-1 64:-1 
-0.3665245938211252 -0.9628662641289077 -1 -1 -1 0.1338890108867877 0.2921190191046482 0 0 1:-1 2:-1 3:-1 4:-1 5:-0.5 6:-0.75 7:-1 8:-1 9:-1 10:-1 11:-0.875 12:0.625 13:1 14:-0.25 15:-1 16:-1 17:-1 18:-1 19:-0.125 20:0.875 21:-0.375 22:-0.5 23:-0.875 24:-1 25:-1 26:-1 27:-0.125 28:1 29:1 30:1 31:1 32:-0.25 33:-1 34:-1 35:-1 36:-0.625 37:-1 38:-1 39:-0.125 40:0.875 41:-1 42:-1 43:-1 44:-0.75 45:-0.375 46:0.25 47:1 48:-0.0769231 49:0.733333 50:1 51:1 52:1 53:0.875 54:0.25 55:-0.5 56:-1 57:-0.454545 58:-0.5 59:-0.5 60:-0.875 61:-1 62:-1 63:-1 64:-1 
-1 -0.9609640379383909 -1 -1 -0.287824509100778 0.6372547618816717 1 1 1 1:-1 2:-1 3:-1 4:-0.5 5:0.5 6:0.75 7:-0.75 8:-1 9:-1 10:-1 11:-1 13:0.875 15:-1 16:-1 17:-1 18:-1 19:-1 20:0.25 21:1 22:0.875 23:-0.75 24:-1 25:-1 26:-1 27:-1 28:-0.25 29:-0.5 30:0.625 31:-0.125 32:-1 33:-1 34:-1 35:-1 36:-1 37:-1 38:0.5 40:-1 41:-1 42:-1 43:-0.875 44:-1 45:-0.75 46:1 47:-0.625 48:-1 49:-1 50:-0.375 51:1 52:-0.375 53:0.625 54:0.25 55:-1 56:-1 57:-1 58:-0.625 59:0.375 60:0.875 61:0.125 62:-1 63:-1 64:-1 
-0 -0 -0 -1 -0 0 0 0 1 1:-1 2:-1 3:-0.75 5:0.5 6:1 7:-0.25 8:-1 9:-1 10:-1 11:0.875 12:0.875 13:0.375 15:-0.625 16:-1 17:-1 18:-1 19:0.75 20:1 21:0.5 22:-0.625 23:-1 24:-1 25:-1 26:-1 27:0.375 28:0.5 29:0.625 30:0.875 31:-1 32:-1 33:-1 34:-1 35:-1 36:-1 37:-0.75 38:1 39:-0.5 40:-1 41:-1 42:-1 43:-1 44:-1 45:-0.125 46:1 47:-0.75 48:-1 49:-1 50:-0.375 51:0.25 52:0.375 53:1 54:0.125 55:-1 56:-1 57:-1 58:-0.375 59:0.875 60:0.5 61:-0.25 62:-1 63:-1 64:-1 
-1 -1 -1 -0.3484692252338286 -1 1 1 1 0.5470523429118116 1:-1 2:-1 3:-1 4:-1 5:-1 6:-1 7:-0.875 8:-0.833333 9:-1 10:-1 11:-0.125 13:0.5 14:0.75 15:1 16:1 17:-1 19:1 20:1 21:0.5 22:0.25 24:-0.428571 25:-1 26:0.25 27:0.875 28:-0.125 29:-1 30:-1 31:-1 32:-1 33:-1 34:-0.875 35:0.375 36:1 37:-0.25 38:-1 39:-1 40:-1 41:0.6 42:0.375 43:0.125 44:1 46:-1 47:-1 48:-1 49:0.6 50:1 51:1 52:0.25 53:-0.875 54:-1 55:-1 56:-1 57:-1 58:-1 59:-1 60:-1 61:-1 62:-1 63:-1 64:-1 
-0.003797328447164035 -0 -0 -1 -0 0 0 0 0.05582818179739473 1:-1 2:-1 3:-1 4:-1 5:-0.875 6:-0.5 8:0.166667 9:-1 10:-1 11:-0.375 12:0.625 13:1 14:1 15:0.625 16:0.428571 17:-1 18:-1 19:0.875 20:1 21:0.75 22:-0.5 23:-1 24:-1 25:-1 26:-1 27:-0.75 29:0.375 30:1 31:-0.375 32:-1 33:-1 34:-1 35:-1 36:-1 37:-1 38:0.125 39:0.5 40:-1 41:-0.6 42:-0.875 43:-1 44:-1 45:-0.5 46:0.875 48:-1 49:0.866667 50:0.625 51:0.5 52:1 53:1 54:0.125 55:-0.875 56:-1 57:-0.454545 60:-0.25 61:-0.75 62:-1 63:-1 64:-1 
-0 -0 -0 -0.3141200726517536 -0 0 0 0 0 1:-1 2:-1 3:-0.375 4:0.125 5:0.5 6:0.5 7:1 8:0.833333 9:-1 10:-1 11:0.625 12:0.5 14:-0.25 15:-0.5 16:-0.714286 17:-1 18:-1 19:0.5 21:-0.5 22:-0.625 23:-1 24:-1 25:-1 26:-1 27:0.5 28:1 29:1 30:1 31:0.5 32:-0.875 33:-1 34:-1 35:-0.5 36:-0.5 37:-1 38:-0.875 39:0.75 40:-0.125 41:-1 42:-1 43:-1 44:-1 45:-1 46:-0.75 47:0.75 48:0.0769231 49:0.0666667 50:-0.125 51:-0.5 52:-0.25 53:0.25 54:0.875 55:0.25 56:-1 57:0.0909091 58:0.5 59:0.875 60:0.625 61:0.375 62:-0.5 63:-1 64:-1 
-0 -0.6270865647515576 -1 -1 -0.6486531384501038 0.5199083284100577 0.3510632788535967 0.5981232363593522 0.1804602018285428 1:-1 2:-1 3:-0.875 4:0.75 5:1 6:0.5 7:0.125 8:-1 9:-1 10:-1 11:-0.25 12:0.375 13:-0.875 14:-0.5 15:-0.625 16:-1 17:-1 18:-1 20:0.125 21:-0.375 22:-0.625 23:-1 24:-1 25:-1 26:-1 27:-0.25 28:1 29:0.625 30:0.75 31:0.125 32:-1 33:-1 34:-1 35:-0.875 36:-0.625 37:-1 38:-0.875 39:0.875 40:-0.75 41:-1 42:-1 43:-1 44:-1 45:-1 46:-1 47:0.125 48:0.0769231 49:-0.333333 50:0.25 51:-0.625 52:-1 53:-0.875 54:-0.25 55:0.875 56:-0.428571 57:-0.818182 58:0.25 59:0.625 60:1 61:0.875 62:0.375 63:-0.5 64:-1 
-0 -0 -0 -0.3142935069754096 -0 0 0 0 0 1:-1 2:0.25 3:1 4:1 5:1 6:0.75 7:0.5 8:-0.666667 9:-0.384615 10:1 11:-0.5 12:-0.5 13:-0.5 14:-0.25 16:-0.857143 17:-0.333333 18:1 19:-0.875 20:-0.5 21:-0.75 22:-1 23:-1 24:-1 25:-0.466667 26:1 27:1 28:1 29:1 30:0.5 31:-0.75 32:-1 33:-0.714286 34:0.75 35:-0.375 36:-1 37:-0.75 38:0.375 39:0.625 40:-1 41:-1 42:-1 43:-1 44:-1 45:-1 46:-0.5 47:1 48:-1 49:-0.6 50:0.625 51:-0.25 52:-0.375 53:0.125 54:0.875 55:0.5 56:-1 57:-0.818182 58:0.25 59:0.75 60:0.875 61:0.5 62:-0.125 63:-1 64:-1 
-1 -0 -0 -0 -0.7329169446970946 0.7471203949322175 0.4608085709505268 0 0.2923006299623314 1:-1 2:-0.5 3:0.5 4:0.875 5:1 6:1 7:0.375 8:-1 9:-1 11:0.25 12:-0.5 13:-0.5 14:-0.5 15:-1 16:-1 17:-1 18:0.25 19:0.5 20:0.375 21:0.5 22:-0.125 23:-1 24:-1 25:-1 26:0.5 27:0.75 28:-0.125 29:-0.25 30:0.625 31:0.25 32:-1 33:-1 34:0.875 35:-0.75 36:-1 37:-1 38:-0.875 39:1 40:-1 41:-1 42:-1 43:-1 44:-1 45:-1 46:-0.25 47:0.75 48:-1 49:-1 50:-1 51:0.375 52:0.125 53:-0.25 54:0.875 55:-0.375 56:-1 57:-1 58:-1 59:-0.375 60:0.875 61:0.625 62:-0.5 63:-1 64:-1 
-0 -0 -0 -0 -0 0 0 0 0.493361562221588 1:-1 2:-1 3:-0.875 4:-0.5 5:-0.375 7:0.125 8:0.833333 9:-1 10:-1 11:0.125 12:0.875 13:0.5 14:0.375 16:-0.285714 17:-1 18:-1 19:0.875 20:0.625 21:0.5 22:-0.375 23:-1 24:-1 25:-1 26:-1 27:0.625 28:-0.125 29:-0.125 30:0.875 31:-0.75 32:-1 33:-1 34:-1 35:-1 36:-1 37:-1 38:0.5 40:-1 41:-1 42:-1 43:-1 44:-1 45:-0.625 46:0.875 47:-0.5 48:-1 49:1 50:-0.25 51:-0.25 52:0.375 53:1 54:-0.125 55:-1 56:-1 57:0.272727 58:0.5 59:0.5 60:-0.125 61:-0.75 62:-1 63:-1 64:-1 
-0 -0 -0 -0.01417276044839631 -0 1 0 1 0 1:-1 2:-1 3:-0.625 4:0.875 5:0.5 6:1 7:-0.625 8:-1 9:-1 10:-1 11:-0.375 12:0.875 13:-0.5 14:-0.5 15:-1 16:-1 17:-1 18:-1 20:0.5 21:-1 22:-1 23:-1 24:-1 25:-1 26:-1 27:0.25 28:0.75 29:0.5 30:-0.375 31:-1 32:-1 33:-1 34:-1 36:0.5 38:1 39:-0.5 40:-1 41:-1 42:-1 43:-1 44:-1 45:-1 46:0.5 48:-1 49:-1 50:-0.125 51:0.625 52:-0.5 54:1 55:-0.5 56:-1 57:-1 58:-0.875 59:0.375 60:1 61:0.375 62:-0.5 63:-1 64:-1 
-0.357248875624627 -0 -0 -0 -0 0 0 0 0 1:-1 2:-0.875 3:-0.125 4:0.125 5:0.5 6:0.75 7:0.625 8:-1 9:-1 10:0.25 11:1 12:1 13:0.625 14:0.5 16:-1 17:-1 18:0.5 19:0.75 20:-0.125 21:-0.625 22:-1 23:-1 24:-1 25:-1 26:1 27:1 28:1 29:1 30:0.25 31:-1 32:-1 33:-1 34:0.625 35:-0.125 36:-0.625 37:0.125 38:1 39:-0.25 40:-1 41:-1 42:-1 43:-1 44:-1 45:-0.375 46:1 47:-0.125 48:-1 49:-1 50:-0.875 51:0.875 52:0.875 53:1 54:0.625 55:-0.875 56:-1 57:-1 58:-0.75 59:0.5 60:0.375 61:-0.25 62:-0.875 63:-1 64:-1 
-0 -1 -1 -1 -0.1273342682971886 0 1 1 0.4582232104220278 1:-1 2:-1 3:-0.125 4:0.625 5:-0.25 7:-0.75 8:-1 9:-1 10:-1 11:-0.75 12:1 13:0.625 14:0.25 15:-0.875 16:-1 17:-1 18:-1 19:-1 20:0.5 21:-0.375 22:-1 23:-1 24:-1 25:-1 26:-1 27:-1 28:0.5 29:0.75 31:-0.875 32:-1 33:-1 34:-1 35:-1 37:0.125 38:0.625 40:-1 41:-1 42:-1 43:-1 44:-1 45:-1 46:-0.125 47:0.5 48:-1 49:-1 51:-0.125 52:-0.5 53:0.125 54:1 55:-0.375 56:-1 57:-1 58:-0.25 59:0.875 60:0.75 61:0.25 62:-0.75 63:-1 64:-1 
-0.04456550750100848 -0 -0 -1 -0 0 0 0 0 1:-1 2:-1 3:-0.5 4:0.25 5:0.625 6:0.75 7:-0.5 8:-1 9:-1 10:-1 11:0.875 12:0.375 13:-0.25 14:-0.25 15:-0.625 16:-1 17:-1 18:-1 19:1 20:-0.25 22:-0.125 23:-0.875 24:-1 25:-1 26:-1 27:0.625 28:1 29:0.375 30:0.75 31:0.5 32:-1 33:-1 34:-1 35:-0.875 36:-0.75 37:-1 38:-0.75 39:1 40:-1 41:-1 42:-1 43:-1 44:-1 45:-0.75 46:0.375 47:0.75 48:-1 49:-1 50:-0.5 52:0.625 53:1 54:0.375 55:-0.75 56:-1 57:-1 58:0.75 59:0.5 61:-0.75 62:-1 63:-1 64:-1 
-0.1467316400363146 -0 -0.309811105724608 -1 -0 0 0.09923847773365771 1 0.5838769719056486 1:-1 2:-0.75 3:-0.375 4:0.25 5:0.5 6:0.625 7:-1 8:-1 9:-0.692308 10:1 11:1 12:1 13:0.625 14:0.125 15:-1 16:-1 17:-1 18:0.125 19:1 20:0.125 22:-0.125 23:-0.875 24:-1 25:-1 26:-1 27:0.75 28:1 29:1 30:1 31:0.625 32:-1 33:-1 34:-1 35:-0.375 36:0.625 37:-0.625 38:-0.125 39:1 40:-0.5 41:-1 42:-1 43:-1 44:-1 45:-0.75 46:0.625 47:1 48:-0.692308 49:-1 50:-0.5 51:0.625 52:0.75 53:1 54:0.875 55:-0.25 56:-1 57:-1 58:-0.625 59:0.5 60:0.5 61:-0.125 62:-0.75 63:-1 64:-1 
-0 -0 -0.3641556898954981 -1 -0 0.1877215145632958 0.1135463605001284 0.4085494942499099 0 1:-1 2:-1 3:-1 4:-0.5 5:0.75 6:0.5 7:0.5 8:-0.166667 9:-1 10:-1 11:-1 12:-0.375 13:1 16:-0.857143 17:-1 18:-1 19:-1 21:0.625 22:-1 23:-1 24:-1 25:-1 26:-1 27:-1 28:0.75 29:1 30:0.5 31:-0.875 32:-1 33:-1 34:-1 35:-1 36:-0.125 37:-0.5 38:0.625 39:0.375 40:-1 41:-1 42:-1 43:-1 44:-1 45:-1 46:-0.25 47:1 48:-1 49:-0.333333 50:0.75 54:0.75 55:0.5 56:-1 57:-0.818182 59:0.625 60:1 61:0.625 62:0.125 63:-0.875 64:-1 
-0 -1 -0.8425175717361727 -0.3898586612805029 -0.5282345771555933 0 1 0.8402465773473912 0.1809089871612563 1:-1 2:0.375 3:0.5 4:0.5 5:0.5 6:0.5 7:0.5 8:-0.666667 9:-0.846154 10:1 11:0.75 15:-0.125 16:-0.857143 17:-0.333333 18:1 19:0.125 20:-0.25 21:-1 22:-1 23:-1 24:-1 25:-1 27:0.5 28:0.875 29:0.625 30:-1 31:-1 32:-1 33:-1 34:-1 35:-1 36:-0.875 37:1 38:-0.5 39:-1 40:-1 41:-1 42:-1 43:-1 44:-0.25 45:1 46:-0.875 47:-1 48:-1 49:-1 50:-0.875 51:-0.125 52:0.875 54:-1 55:-1 56:-1 57:-1 58:-0.375 59:0.875 61:-1 62:-1 63:-1 64:-1 
-0 -0 -0 -1 -1 0 0.5840674143982579 0 0.9454468499778288 1:-1 2:-0.875 3:0.375 4:0.875 5:1 6:-0.125 7:-1 8:-1 9:-1 10:-0.5 11:0.625 12:-0.75 13:-1 14:-1 15:-1 16:-1 17:-1 18:-0.5 19:0.5 20:-0.5 21:-0.625 22:-1 23:-1 24:-1 25:-1 26:-0.5 27:1 28:0.625 29:0.625 30:0.75 31:-0.75 32:-1 33:-1 34:-1 35:-0.625 36:-1 37:-1 38:0.625 39:-0.5 40:-1 41:-1 42:-1 43:-1 44:-1 45:-0.25 46:0.75 47:-1 48:-1 49:-1 50:-0.875 51:-0.625 53:0.875 54:-0.625 55:-1 56:-1 57:-1 58:-0.625 59:0.875 60:0.25 61:-0.75 62:-1 63:-1 64:-1 
-0.6259295525320679 -0.2389608380975927 -0.4051258738441 -1 -0 0 0 0.4734613896130276 0.3666068242371198 1:-1 2:-1 3:0.625 4:1 5:1 6:0.375 7:-1 8:-1 9:-1 10:-0.75 11:0.75 12:-1 13:-1 14:-0.625 15:-1 16:-1 17:-1 18:-0.5 19:0.625 22:-0.5 23:-1 24:-1 25:-1 26:-0.75 27:0.5 30:0.75 31:-0.125 32:-1 33:-1 34:-1 35:-1 36:-1 37:-1 38:-0.875 39:0.875 40:-1 41:-1 42:-1 43:-1 44:-1 45:-1 46:-0.875 47:1 48:-1 49:-1 50:0.75 51:-0.5 52:-1 53:-0.625 54:0.625 55:0.125 56:-1 57:-1 58:-0.625 59:0.5 60:1 61:0.625 62:-0.25 63:-1 64:-1 
-0 -1 -1 -0 -1 0 1 0.2802362604645122 0 1:-1 2:-1 3:-0.875 4:-0.25 5:-0.375 6:0.125 7:0.75 8:0.166667 9:-1 10:-1 12:1 13:0.75 14:0.25 15:-0.25 16:-0.857143 17:-1 18:-0.875 19:0.875 20:0.5 21:-0.375 22:-1 23:-1 24:-1 25:-1 26:-0.625 27:0.875 28:0.25 29:1 30:-1 31:-1 32:-1 33:-1 34:-1 35:-1 36:-0.625 37:1 38:-1 39:-1 40:-1 41:-1 42:-1 43:-1 44:0.375 45:0.375 46:-1 47:-1 48:-1 49:-0.0666667 50:0.5 51:0.375 52:0.875 53:-0.75 54:-1 55:-1 56:-1 57:-0.454545 58:0.875 59:0.25 60:-0.75 61:-1 62:-1 63:-1 64:-1 
-0.2509624186571309 -0 -0.9349254392238099 -1 -0.4921071571922234 0.7057971382312946 0.8150656272982989 1 0 1:-1 2:0.375 3:1 4:1 5:0.625 7:-1 8:-1 9:-1 10:0.5 11:-0.5 12:-1 13:-0.5 14:-0.75 15:-1 16:-1 17:-1 18:0.5 19:-0.5 20:-1 21:-1 22:-1 23:-1 24:-1 25:-1 26:0.5 27:0.25 30:-0.375 31:-1 32:-1 33:-1 34:-0.625 38:0.5 39:0.5 40:-1 41:-1 42:-1 43:-1 44:-1 45:-1 46:-0.875 47:1 48:-1 49:-1 50:-0.125 51:-0.875 52:-0.875 53:-0.25 54:0.75 56:-1 57:-1 58:0.25 59:0.875 60:0.875 61:0.375 62:-0.5 63:-1 64:-1 
-0 -0 -0 -0 -1 0 0 0 0.02268299370167068 1:-1 2:-1 3:-0.625 5:0.25 6:0.875 7:-0.625 8:-1 9:-1 10:-1 11:0.125 12:0.625 13:-0.125 14:-0.625 15:-1 16:-1 17:-1 18:-1 19:0.25 20:0.375 22:-0.5 23:-1 24:-1 25:-1 26:-1 27:0.875 28:0.75 30:0.875 31:-0.75 32:-1 33:-1 34:-1 35:-0.25 36:-1 37:-1 38:0.5 39:-0.5 40:-1 41:-1 42:-1 43:-1 44:-1 45:-0.625 46:0.875 47:-0.875 48:-1 49:-1 50:-0.875 51:-0.25 52:-0.25 53:0.875 54:-0.25 55:-1 56:-1 57:-1 58:-0.625 59:0.875 60:0.375 61:-0.625 62:-1 63:-1 64:-1 
