svm_type c_svc
kernel_type rbf
gamma 0.015625
nr_class 10
total_sv 507
rho -0.185054 0.028969 0.0266645 0.0261167 0.0289279 0.00863538 0.0104182 0.0262467 -0.733026 0.215189 0.213101 0.212625 0.215184 0.195076 0.19704 0.212686 -0.646279 -0.00241371 -0.00322465 -2.86181e-05 -0.0214539 -0.0205706 -0.00254069 -0.745221 -0.000420092 0.00238244 -0.0190277 -0.0180367 -0.000307331 -0.744376 0.00317901 -0.0184559 -0.0174332 9.80689e-05 -0.744179 -0.0214162 -0.0205304 -0.00250342 -0.745209 0.00177583 0.018592 -0.737108 0.0175807 -0.737939 -0.744223
label 0 1 2 3 4 5 6 7 8 9
nr_sv 55 53 55 55 55 55 55 55 55 14
SV
0.7922915099185102 0.9999927167890419 0.9978964396049732 0.9973439648474237 0.9999888925971494 0.9808212607636025 0.982148634915065 0.9975251651119822 0.2598040777010148 1:0 2:0 3:3 4:12 5:16 6:12 7:1 8:0 9:0 10:3 11:15 12:11 13:4 14:14 15:8 16:0 17:0 18:10 19:11 20:0 21:0 22:8 23:12 24:0 25:0 26:12 27:8 28:0 29:0 30:8 31:12 32:0 33:0 34:12 35:8 36:0 37:0 38:11 39:10 40:0 41:0 42:10 43:11 44:0 45:2 46:16 47:5 48:0 49:0 50:4 51:16 52:7 53:13 54:12 55:0 56:0 57:0 58:0 59:6 60:15 61:12 62:1 63:0 64:0 
0.8068208051560437 1 1 1 1 0.9985338266601099 1 1 0.264526391413495 1:0 2:0 3:6 4:15 5:9 6:4 7:0 8:0 9:0 10:2 11:16 12:15 13:15 14:16 15:5 16:0 17:0 18:9 19:15 20:1 21:0 22:12 23:14 24:0 25:0 26:13 27:11 28:0 29:0 30:8 31:16 32:0 33:0 34:16 35:8 36:0 37:0 38:10 39:14 40:0 41:0 42:16 43:8 44:0 45:3 46:16 47:8 48:0 49:0 50:11 51:14 52:10 53:16 54:13 55:0 56:0 57:0 58:3 59:12 60:14 61:8 62:1 63:0 64:0 
0.8087700080202718 1 1 1 1 1 1 1 0.2652729853818496 1:0 2:0 3:10 4:15 5:14 6:3 7:0 8:0 9:0 10:6 11:10 12:1 13:2 14:12 15:2 16:0 17:0 18:11 19:2 20:0 21:0 22:4 23:10 24:0 25:0 26:14 27:0 28:0 29:0 30:0 31:14 32:0 33:0 34:13 35:0 36:0 37:0 38:0 39:16 40:0 41:0 42:10 43:4 44:0 45:0 46:0 47:13 48:0 49:0 50:2 51:12 52:1 53:0 54:7 55:8 56:0 57:0 58:0 59:3 60:13 61:13 62:9 63:0 64:0 
0.7805346183372361 0.9854532929621984 0.9830192701296592 0.9829871530818067 0.9853653256264138 0.9660910226607837 0.9675385517096422 0.983369239246603 0.25553939792164 1:0 2:0 3:5 4:14 5:7 6:1 7:0 8:0 9:0 10:3 11:16 12:16 13:16 14:13 15:1 16:0 17:0 18:13 19:15 20:3 21:7 22:16 23:10 24:0 25:2 26:16 27:9 28:0 29:0 30:11 31:16 32:1 33:4 34:16 35:8 36:0 37:0 38:8 39:16 40:4 41:2 42:16 43:9 44:0 45:0 46:11 47:16 48:2 49:0 50:12 51:16 52:13 53:13 54:16 55:10 56:0 57:0 58:1 59:10 60:12 61:12 62:8 63:0 64:0 
0.8113216640932822 1 1 1 1 1 1 1 0.2660066605936078 1:1 2:8 3:13 4:15 5:11 6:6 7:0 8:0 9:8 10:16 11:14 12:12 13:15 14:16 15:10 16:0 17:10 18:15 19:1 20:0 21:0 22:7 23:16 24:7 25:12 26:12 27:0 28:0 29:0 30:0 31:13 32:12 33:10 34:16 35:1 36:0 37:0 38:0 39:12 40:12 41:2 42:16 43:13 44:1 45:0 46:6 47:16 48:8 49:0 50:6 51:16 52:15 53:12 54:16 55:13 56:1 57:0 58:0 59:4 60:11 61:12 62:10 63:1 64:0 
0.8145462964134036 1 1 1 1 1 1 1 0.2667262408686275 1:0 2:0 3:1 4:12 5:11 6:4 7:0 8:0 9:0 10:0 11:10 12:16 13:16 14:15 15:1 16:0 17:0 18:0 19:14 20:15 21:10 22:16 23:4 24:0 25:0 26:0 27:16 28:11 29:8 30:16 31:4 32:0 33:0 34:4 35:16 36:8 37:10 38:16 39:1 40:0 41:0 42:4 43:16 44:9 45:15 46:13 47:0 48:0 49:0 50:1 51:16 52:16 53:16 54:5 55:0 56:0 57:0 58:0 59:7 60:12 61:6 62:0 63:0 64:0 
0.8139460631584422 1 1 1 1 1 1 1 0.2669073044559305 1:0 2:4 3:10 4:12 5:11 6:5 7:0 8:0 9:0 10:15 11:16 12:16 13:16 14:16 15:10 16:0 17:1 18:16 19:16 20:16 21:16 22:16 23:16 24:2 25:5 26:16 27:16 28:6 29:2 30:16 31:16 32:7 33:6 34:16 35:16 36:1 37:5 38:16 39:16 40:4 41:3 42:16 43:16 44:13 45:16 46:16 47:15 48:1 49:0 50:12 51:16 52:16 53:16 54:16 55:6 56:0 57:0 58:1 59:8 60:12 61:8 62:1 63:0 64:0 
0.7401592822042209 0.9350663282200375 0.9323943875894507 0.9324901906881043 0.934805194547955 0.9159225636655552 0.9174753928654491 0.9323923272553418 0.2422591313601592 1:0 2:0 3:5 4:14 5:12 6:8 7:0 8:0 9:0 10:3 11:15 12:16 13:14 14:16 15:8 16:0 17:0 18:13 19:14 20:2 21:0 22:13 23:14 24:0 25:0 26:16 27:9 28:0 29:0 30:8 31:16 32:0 33:0 34:16 35:9 36:0 37:0 38:8 39:16 40:0 41:0 42:12 43:14 44:1 45:0 46:11 47:15 48:0 49:0 50:4 51:16 52:14 53:12 54:16 55:10 56:0 57:0 58:0 59:4 60:11 61:12 62:9 63:1 64:0 
0.8029393331023463 1 1 1 1 0.9931933619705734 0.9948476071299756 1 0.2631819968046648 1:0 2:1 3:10 4:15 5:9 6:2 7:0 8:0 9:0 10:11 11:6 12:1 13:5 14:13 15:6 16:0 17:2 18:13 19:0 20:0 21:0 22:1 23:14 24:0 25:4 26:8 27:0 28:0 29:0 30:0 31:10 32:4 33:3 34:10 35:0 36:0 37:0 38:0 39:8 40:4 41:0 42:13 43:1 44:0 45:0 46:0 47:11 48:3 49:0 50:5 51:13 52:1 53:0 54:8 55:12 56:0 57:0 58:0 59:6 60:15 61:14 62:8 63:0 64:0 
0.694808812690825 0.8777620707711119 0.8758377986646173 0.8756314774196186 0.8775308981412224 0.8603691148392338 0.8619083057833548 0.8754513137860828 0.2279987128901835 1:0 2:0 3:3 4:12 5:12 6:2 7:0 8:0 9:0 10:1 11:15 12:16 13:16 14:15 15:3 16:0 17:0 18:8 19:16 20:7 21:5 22:16 23:11 24:0 25:0 26:12 27:15 28:0 29:0 30:12 31:16 32:0 33:0 34:14 35:12 36:0 37:0 38:13 39:14 40:0 41:0 42:12 43:15 44:1 45:6 46:16 47:10 48:0 49:0 50:7 51:16 52:15 53:16 54:15 55:2 56:0 57:0 58:0 59:8 60:12 61:11 62:2 63:0 64:0 
0.8074753916706244 1 1 1 1 0.9991875650486068 1 1 0.2647167781346342 1:0 2:0 3:3 4:12 5:11 6:7 7:0 8:0 9:0 10:6 11:16 12:16 13:16 14:16 15:12 16:0 17:2 18:16 19:16 20:16 21:14 22:16 23:16 24:7 25:7 26:16 27:16 28:2 29:0 30:12 31:16 32:12 33:12 34:16 35:12 36:0 37:1 38:14 39:16 40:11 41:11 42:16 43:15 44:12 45:14 46:16 47:16 48:5 49:2 50:15 51:16 52:16 53:16 54:16 55:6 56:0 57:0 58:2 59:9 60:12 61:9 62:3 63:0 64:0 
0.8148461604072834 1 1 1 1 1 1 1 0.2666877028240779 1:0 2:3 3:11 4:12 5:9 6:4 7:0 8:0 9:3 10:15 11:11 12:11 13:10 14:16 15:10 16:0 17:11 18:10 19:0 20:0 21:0 22:3 23:15 24:6 25:15 26:4 27:0 28:0 29:0 30:0 31:7 32:13 33:12 34:8 35:0 36:0 37:0 38:0 39:4 40:16 41:5 42:15 43:3 44:0 45:0 46:0 47:7 48:13 49:0 50:6 51:16 52:10 53:7 54:9 55:15 56:5 57:0 58:0 59:4 60:11 61:12 62:12 63:5 64:0 
0.7993076944831697 1 1 1 1 0.9887468623178413 0.9905183841406835 1 0.2620235049296665 1:0 2:0 3:9 4:12 5:12 6:6 7:0 8:0 9:0 10:3 11:16 12:16 13:16 14:16 15:5 16:0 17:0 18:10 19:16 20:8 21:7 22:16 23:14 24:0 25:0 26:15 27:16 28:2 29:0 30:14 31:16 32:2 33:2 34:16 35:13 36:0 37:0 38:12 39:16 40:4 41:0 42:15 43:16 44:8 45:5 46:16 47:16 48:0 49:0 50:6 51:16 52:16 53:16 54:16 55:9 56:0 57:0 58:0 59:4 60:11 61:12 62:8 63:0 64:0 
0.8067288863430996 1 1 1 1 0.9985390563954737 0.9999936953365554 1 0.2639369746441477 1:0 2:0 3:5 4:13 5:12 6:4 7:0 8:0 9:0 10:3 11:15 12:8 13:6 14:15 15:6 16:0 17:0 18:14 19:4 20:0 21:0 22:1 23:15 24:4 25:6 26:12 27:0 28:0 29:0 30:0 31:8 32:9 33:9 34:8 35:0 36:0 37:0 38:0 39:7 40:9 41:8 42:8 43:0 44:0 45:0 46:0 47:13 48:6 49:2 50:15 51:5 52:0 53:4 54:13 55:10 56:0 57:0 58:5 59:13 60:16 61:13 62:6 63:0 64:0 
0.7842857222305734 0.99023649470346 0.9877420112721197 0.9872766966233247 0.9902422408012116 0.9708296233738657 0.9725835980464163 0.9878786726786012 0.256705264691281 1:0 2:0 3:9 4:16 5:12 6:2 7:0 8:0 9:0 10:8 11:14 12:5 13:11 14:13 15:1 16:0 17:0 18:14 19:6 20:0 21:2 22:13 23:9 24:0 25:0 26:16 27:2 28:0 29:0 30:5 31:15 32:0 33:0 34:16 35:4 36:0 37:0 38:1 39:16 40:0 41:0 42:11 43:10 44:0 45:0 46:4 47:16 48:0 49:0 50:3 51:16 52:8 53:5 54:13 55:10 56:0 57:0 58:0 59:5 60:13 61:15 62:10 63:1 64:0 
0.5684631324692906 0.7181532040064637 0.7164716916141652 0.7155798604030916 0.7174496388516918 0.703381772380599 0.7050929522366023 0.7156852610681367 0.185856785187674 1:0 2:0 3:1 4:10 5:12 6:5 7:0 8:0 9:0 10:3 11:15 12:16 13:16 14:16 15:5 16:0 17:0 18:11 19:16 20:8 21:4 22:16 23:14 24:0 25:0 26:16 27:14 28:0 29:0 30:12 31:16 32:4 33:2 34:16 35:12 36:0 37:0 38:13 39:16 40:2 41:0 42:16 43:14 44:1 45:6 46:16 47:12 48:0 49:0 50:10 51:16 52:16 53:16 54:15 55:3 56:0 57:0 58:1 59:8 60:12 61:11 62:3 63:0 64:0 
0.7975490551613137 1 1 1 1 0.9861100532754938 0.9882509358922567 1 0.2614456307233651 1:0 2:0 3:9 4:16 5:13 6:6 7:0 8:0 9:0 10:9 11:13 12:6 13:8 14:14 15:8 16:0 17:2 18:16 19:1 20:0 21:0 22:2 23:15 24:2 25:6 26:12 27:0 28:0 29:0 30:0 31:12 32:6 33:8 34:12 35:0 36:0 37:0 38:0 39:12 40:7 41:5 42:13 43:0 44:0 45:0 46:1 47:15 48:3 49:1 50:13 51:10 52:4 53:5 54:13 55:10 56:0 57:0 58:1 59:10 60:16 61:13 62:6 63:0 64:0 
0.7388232661792141 0.9333856490033059 0.9311536022239916 0.93091175927859 0.933222978003143 0.9149060496849727 0.9160362176922248 0.9305511308223555 0.2418584984962376 1:0 2:0 3:6 4:14 5:9 6:0 7:0 8:0 9:0 10:5 11:16 12:12 13:16 14:10 15:0 16:0 17:0 18:11 19:13 20:0 21:6 22:16 23:4 24:0 25:0 26:14 27:9 28:0 29:0 30:13 31:11 32:0 33:0 34:12 35:10 36:0 37:0 38:9 39:14 40:0 41:0 42:8 43:15 44:3 45:0 46:9 47:12 48:0 49:0 50:1 51:13 52:15 53:10 54:15 55:10 56:0 57:0 58:0 59:1 60:10 61:12 62:10 63:1 64:0 
0.7566695150323339 0.9552857068187304 0.953398227272336 0.9521567869951877 0.9550926959164058 0.9362138465086641 0.9382160206769817 0.9521760953076943 0.2480232577462676 1:0 2:0 3:6 4:14 5:13 6:5 7:0 8:0 9:0 10:5 11:16 12:9 13:11 14:16 15:3 16:0 17:0 18:13 19:10 20:0 21:0 22:13 23:10 24:0 25:0 26:16 27:5 28:0 29:0 30:7 31:15 32:0 33:0 34:16 35:5 36:0 37:0 38:5 39:16 40:0 41:0 42:11 43:14 44:3 45:0 46:12 47:12 48:0 49:0 50:1 51:14 52:13 53:9 54:16 55:4 56:0 57:0 58:0 59:2 60:11 61:13 62:6 63:0 64:0 
0.6076941316013577 0.7676862015337005 0.7661905053586088 0.7648610080262068 0.7673730299811011 0.7520536040323544 0.7536611293128673 0.7650029783041306 0.1993396242359105 1:0 2:0 3:3 4:12 5:11 6:1 7:0 8:0 9:0 10:1 11:15 12:16 13:16 14:14 15:1 16:0 17:0 18:5 19:16 20:9 21:10 22:16 23:7 24:0 25:0 26:8 27:16 28:4 29:4 30:16 31:8 32:0 33:0 34:8 35:16 36:5 37:6 38:16 39:7 40:0 41:0 42:5 43:16 44:9 45:10 46:16 47:4 48:0 49:0 50:0 51:14 52:16 53:16 54:14 55:0 56:0 57:0 58:0 59:3 60:11 61:11 62:3 63:0 64:0 
0.7631379702638604 0.96343785830199 0.9611674440407513 0.9607924586388567 0.9632911732778232 0.9440435417306261 0.9461687947237792 0.9606961772371887 0.2497086200769786 1:0 2:0 3:5 4:13 5:15 6:10 7:1 8:0 9:0 10:2 11:15 12:15 13:10 14:16 15:10 16:0 17:0 18:12 19:15 20:3 21:0 22:9 23:16 24:0 25:2 26:16 27:6 28:0 29:0 30:4 31:16 32:4 33:3 34:16 35:5 36:0 37:0 38:4 39:16 40:4 41:0 42:14 43:13 44:1 45:0 46:7 47:16 48:0 49:0 50:4 51:16 52:14 53:9 54:15 55:11 56:0 57:0 58:0 59:3 60:11 61:12 62:10 63:1 64:0 
0.6713135706707857 0.8474255922877652 0.8457127542606488 0.846034690484714 0.8477101848885259 0.8311164497995557 0.8322731723768494 0.8452488140799675 0.2201855664206598 1:0 2:0 3:2 4:12 5:12 6:8 7:0 8:0 9:0 10:1 11:14 12:16 13:16 14:16 15:9 16:0 17:0 18:10 19:16 20:10 21:2 22:14 23:16 24:1 25:0 26:15 27:15 28:0 29:0 30:12 31:16 32:3 33:1 34:16 35:12 36:0 37:0 38:14 39:16 40:0 41:0 42:16 43:14 44:0 45:10 46:16 47:10 48:0 49:0 50:10 51:16 52:16 53:16 54:13 55:1 56:0 57:0 58:1 59:10 60:12 61:9 62:1 63:0 64:0 
0.788641764407531 0.9962873914517801 0.993610830425512 0.9933778843717332 0.9961020462102852 0.9765470700414129 0.9778192815006242 0.9931713768955929 0.2585191590905078 1:0 2:0 3:6 4:16 5:12 6:3 7:0 8:0 9:0 10:3 11:15 12:5 13:7 14:14 15:1 16:0 17:0 18:11 19:8 20:0 21:0 22:10 23:10 24:0 25:0 26:16 27:1 28:0 29:0 30:2 31:15 32:0 33:0 34:16 35:0 36:0 37:0 38:1 39:16 40:0 41:0 42:14 43:5 44:0 45:0 46:5 47:12 48:0 49:0 50:6 51:13 52:3 53:4 54:13 55:6 56:0 57:0 58:0 59:8 60:15 61:14 62:8 63:0 64:0 
0.79825001371798 1 1 1 1 0.9876884869468948 0.9897256568525783 1 0.2618617127770562 1:0 2:1 3:11 4:16 5:12 6:5 7:0 8:0 9:0 10:12 11:15 12:12 13:14 14:16 15:9 16:0 17:5 18:16 19:6 20:0 21:1 22:10 23:16 24:4 25:8 26:16 27:0 28:0 29:0 30:1 31:16 32:8 33:8 34:16 35:1 36:0 37:0 38:0 39:16 40:8 41:3 42:16 43:10 44:0 45:0 46:4 47:16 48:6 49:0 50:9 51:16 52:14 53:12 54:15 55:14 56:0 57:0 58:0 59:6 60:12 61:12 62:11 63:3 64:0 
0.7768843029017258 0.9810472715395469 0.9792203806981088 0.9782393761148527 0.9811162395978756 0.9617824536848482 0.9631330949574042 0.9785001379927897 0.2547679749029809 1:0 2:2 3:11 4:16 5:13 6:7 7:0 8:0 9:0 10:12 11:13 12:4 13:7 14:15 15:7 16:0 17:3 18:16 19:2 20:0 21:0 22:6 23:14 24:0 25:4 26:16 27:0 28:0 29:0 30:1 31:16 32:4 33:3 34:16 35:1 36:0 37:0 38:0 39:16 40:4 41:0 42:14 43:8 44:0 45:0 46:2 47:16 48:3 49:0 50:4 51:16 52:9 53:5 54:13 55:12 56:0 57:0 58:0 59:4 60:11 61:15 62:10 63:1 64:0 
0.8122396263752473 1 1 1 1 1 1 1 0.2658399880580834 1:0 2:0 3:3 4:14 5:9 6:1 7:0 8:0 9:0 10:0 11:14 12:9 13:12 14:12 15:0 16:0 17:0 18:4 19:13 20:0 21:0 22:15 23:2 24:0 25:0 26:7 27:11 28:0 29:0 30:11 31:7 32:0 33:0 34:8 35:10 36:0 37:0 38:10 39:8 40:0 41:0 42:4 43:13 44:0 45:0 46:13 47:4 48:0 49:0 50:0 51:15 52:5 53:6 54:15 55:0 56:0 57:0 58:0 59:3 60:14 61:14 62:3 63:0 64:0 
0.8015423610277723 1 1 1 1 0.9920425722749359 0.994338368640297 1 0.2628258382569298 1:0 2:3 3:11 4:16 5:12 6:6 7:0 8:0 9:1 10:15 11:14 12:8 13:12 14:16 15:8 16:0 17:4 18:16 19:5 20:0 21:0 22:9 23:16 24:2 25:2 26:16 27:8 28:0 29:0 30:2 31:16 32:4 33:0 34:16 35:8 36:0 37:0 38:1 39:16 40:4 41:0 42:14 43:9 44:0 45:0 46:5 47:16 48:3 49:0 50:10 51:16 52:10 53:9 54:15 55:13 56:0 57:0 58:0 59:8 60:12 61:12 62:10 63:1 64:0 
0.7772132700829315 0.9812603348324851 0.9790083811824301 0.9779086906897212 0.9812211288561156 0.9615563128416992 0.9632198518749433 0.977980611224882 0.2545234244426458 1:0 2:0 3:8 4:14 5:10 6:2 7:0 8:0 9:0 10:7 11:16 12:13 13:16 14:15 15:3 16:0 17:0 18:14 19:12 20:0 21:1 22:14 23:12 24:0 25:2 26:16 27:7 28:0 29:0 30:6 31:16 32:3 33:4 34:16 35:4 36:0 37:0 38:4 39:16 40:4 41:3 42:16 43:7 44:0 45:0 46:7 47:16 48:3 49:0 50:12 51:15 52:12 53:12 54:16 55:12 56:0 57:0 58:1 59:11 60:12 61:12 62:8 63:0 64:0 
0.8048334106308765 1 1 1 1 0.9962960603225088 0.9974868746739864 1 0.2638504830584849 1:0 2:0 3:5 4:12 5:12 6:8 7:0 8:0 9:0 10:8 11:16 12:16 13:16 14:16 15:12 16:0 17:0 18:15 19:15 20:4 21:2 22:13 23:16 24:3 25:4 26:16 27:10 28:0 29:0 30:8 31:16 32:8 33:4 34:16 35:8 36:0 37:0 38:10 39:16 40:5 41:4 42:16 43:11 44:1 45:8 46:16 47:14 48:0 49:0 50:15 51:16 52:16 53:16 54:15 55:3 56:0 57:0 58:3 59:11 60:12 61:9 62:2 63:0 64:0 
0.7608298193766165 0.9615977848240151 0.958985131006269 0.9582843660768897 0.9608104357659755 0.9422288509464393 0.9438276431266066 0.9589732346363136 0.2496491127495285 1:0 2:0 3:3 4:13 5:12 6:2 7:0 8:0 9:0 10:0 11:14 12:15 13:16 14:15 15:2 16:0 17:0 18:5 19:16 20:2 21:1 22:14 23:7 24:0 25:0 26:11 27:12 28:0 29:0 30:11 31:12 32:0 33:0 34:12 35:8 36:0 37:0 38:8 39:12 40:0 41:0 42:10 43:14 44:0 45:0 46:9 47:12 48:0 49:0 50:2 51:15 52:11 53:8 54:15 55:8 56:0 57:0 58:0 59:3 60:11 61:14 62:8 63:0 64:0 
0.7954935635531303 1 1 1 1 0.9846809802887021 0.9863086776278502 1 0.2603081536559572 1:0 2:0 3:1 4:12 5:15 6:7 7:0 8:0 9:0 10:1 11:13 12:15 13:11 14:16 15:5 16:0 17:0 18:10 19:13 20:1 21:0 22:8 23:14 24:0 25:0 26:16 27:5 28:0 29:0 30:4 31:16 32:1 33:4 34:16 35:1 36:0 37:0 38:1 39:16 40:4 41:1 42:16 43:5 44:0 45:0 46:5 47:16 48:0 49:0 50:9 51:15 52:6 53:7 54:15 55:9 56:0 57:0 58:0 59:8 60:15 61:14 62:8 63:0 64:0 
0.8029370216384483 1 1 1 1 0.9944300027210088 0.9962714741313865 1 0.2633397642390858 1:0 2:1 3:11 4:13 5:7 6:0 7:0 8:0 9:0 10:7 11:16 12:16 13:16 14:10 15:0 16:0 17:0 18:11 19:16 20:1 21:10 22:16 23:5 24:0 25:0 26:12 27:13 28:0 29:1 30:16 31:10 32:0 33:0 34:9 35:16 36:0 37:0 38:12 39:12 40:0 41:0 42:5 43:16 44:8 45:0 46:15 47:12 48:0 49:0 50:0 51:12 52:16 53:13 54:16 55:6 56:0 57:0 58:0 59:1 60:9 61:12 62:8 63:0 64:0 
0.796488244548734 1 1 1 1 0.9856614546404154 0.9876907414383607 1 0.2611609654832952 1:0 2:0 3:4 4:12 5:16 6:11 7:1 8:0 9:0 10:9 11:16 12:14 13:8 14:15 15:12 16:0 17:1 18:16 19:9 20:0 21:0 22:6 23:16 24:2 25:6 26:16 27:2 28:0 29:0 30:2 31:16 32:6 33:5 34:16 35:2 36:0 37:0 38:0 39:16 40:7 41:2 42:16 43:9 44:0 45:0 46:7 47:16 48:3 49:0 50:8 51:16 52:12 53:10 54:16 55:10 56:0 57:0 58:0 59:6 60:12 61:12 62:8 63:0 64:0 
0.8017645539192928 1 1 1 1 0.9919700752553942 0.9935690107742435 1 0.2622210600118647 1:0 2:0 3:5 4:12 5:12 6:9 7:1 8:0 9:0 10:7 11:16 12:16 13:16 14:16 15:13 16:1 17:2 18:16 19:16 20:14 21:10 22:14 23:16 24:6 25:6 26:16 27:13 28:0 29:0 30:8 31:16 32:8 33:8 34:16 35:10 36:0 37:1 38:14 39:16 40:6 41:3 42:16 43:15 44:5 45:12 46:16 47:15 48:1 49:0 50:11 51:16 52:16 53:16 54:15 55:3 56:0 57:0 58:0 59:8 60:12 61:11 62:3 63:0 64:0 
0.8149608961201782 1 1 1 1 1 1 1 0.2673184863251418 1:0 2:0 3:1 4:9 5:12 6:7 7:2 8:0 9:0 10:3 11:15 12:16 13:16 14:16 15:16 16:6 17:2 18:15 19:16 20:15 21:8 22:9 23:16 24:12 25:10 26:16 27:9 28:1 29:0 30:0 31:16 32:12 33:12 34:16 35:1 36:0 37:0 38:6 39:16 40:11 41:10 42:16 43:10 44:4 45:5 46:15 47:16 48:4 49:2 50:15 51:16 52:16 53:16 54:16 55:10 56:0 57:0 58:3 59:10 60:12 61:10 62:6 63:0 64:0 
0.803737361594442 1 1 1 1 0.9944510040155931 0.9967683398430696 1 0.262974971515641 1:0 2:0 3:2 4:13 5:15 6:14 7:3 8:0 9:0 10:0 11:14 12:11 13:4 14:8 15:13 16:0 17:0 18:6 19:14 20:0 21:0 22:1 23:16 24:0 25:0 26:12 27:7 28:0 29:0 30:4 31:15 32:0 33:0 34:16 35:3 36:0 37:0 38:9 39:11 40:0 41:0 42:16 43:2 44:0 45:4 46:16 47:3 48:0 49:0 50:13 51:8 52:8 53:15 54:6 55:0 56:0 57:0 58:3 59:14 60:12 61:3 62:0 63:0 64:0 
0.8141395976959303 1 1 1 1 1 1 1 0.266559220748044 1:0 2:1 3:10 4:14 5:16 6:12 7:5 8:0 9:0 10:11 11:16 12:7 13:4 14:9 15:15 16:6 17:4 18:16 19:9 20:0 21:0 22:0 23:9 24:12 25:10 26:10 27:0 28:0 29:0 30:0 31:8 32:12 33:12 34:8 35:0 36:0 37:0 38:0 39:12 40:9 41:11 42:10 43:0 44:0 45:0 46:8 47:15 48:2 49:4 50:16 51:8 52:6 53:12 54:15 55:3 56:0 57:0 58:5 59:13 60:14 61:10 62:2 63:0 64:0 
0.8122935972530353 1 1 1 1 1 1 1 0.2657870334242611 1:0 2:4 3:11 4:16 5:15 6:10 7:1 8:0 9:2 10:15 11:6 12:2 13:3 14:9 15:13 16:0 17:8 18:9 19:0 20:0 21:0 22:0 23:12 24:6 25:8 26:8 27:0 28:0 29:0 30:0 31:8 32:8 33:8 34:9 35:0 36:0 37:0 38:0 39:8 40:8 41:2 42:15 43:1 44:0 45:0 46:0 47:13 48:6 49:0 50:9 51:13 52:4 53:3 54:13 55:10 56:0 57:0 58:0 59:7 60:14 61:15 62:8 63:0 64:0 
0.6081133933670002 0.7673861885552533 0.7656344774178762 0.7659815250922672 0.7675388324953204 0.7527103562258201 0.7536311089861099 0.7657663419046231 0.199410586113412 1:0 2:0 3:3 4:11 5:12 6:6 7:0 8:0 9:0 10:1 11:15 12:16 13:16 14:16 15:2 16:0 17:0 18:6 19:16 20:10 21:9 22:16 23:6 24:0 25:0 26:8 27:16 28:5 29:5 30:16 31:8 32:0 33:0 34:8 35:16 36:7 37:6 38:16 39:8 40:0 41:0 42:3 43:16 44:12 45:12 46:16 47:5 48:0 49:0 50:0 51:12 52:16 53:16 54:14 55:0 56:0 57:0 58:0 59:1 60:11 61:11 62:3 63:0 64:0 
0.7755451916458794 0.9788388567973529 0.9766806485496589 0.976197822995039 0.9786179687460802 0.9596233701556292 0.9614576159356911 0.9757094565090449 0.2537361111373171 1:0 2:0 3:9 4:14 5:12 6:3 7:0 8:0 9:0 10:4 11:16 12:14 13:13 14:15 15:2 16:0 17:0 18:8 19:15 20:0 21:1 22:15 23:8 24:0 25:0 26:12 27:12 28:0 29:0 30:12 31:12 32:0 33:0 34:12 35:12 36:0 37:0 38:12 39:12 40:0 41:0 42:9 43:15 44:1 45:1 46:15 47:7 48:0 49:0 50:2 51:15 52:13 53:13 54:15 55:2 56:0 57:0 58:0 59:4 60:12 61:11 62:3 63:0 64:0 
0.7752935189023459 0.9800115803688972 0.9775260521389204 0.9767423650645063 0.9797976749564137 0.9600461319956873 0.9616984051696338 0.9770392790413353 0.2534768376554221 1:0 2:3 3:12 4:14 5:12 6:4 7:0 8:0 9:0 10:14 11:11 12:6 13:9 14:16 15:6 16:0 17:4 18:16 19:0 20:0 21:0 22:7 23:15 24:1 25:8 26:12 27:0 28:0 29:0 30:0 31:14 32:6 33:7 34:13 35:0 36:0 37:0 38:0 39:12 40:8 41:2 42:16 43:4 44:0 45:0 46:0 47:14 48:6 49:0 50:9 51:15 52:8 53:5 54:11 55:14 56:1 57:0 58:0 59:5 60:12 61:15 62:11 63:2 64:0 
0.6958250559152893 0.8789700806153621 0.8764514389236504 0.8764910658771751 0.8787598685663552 0.861416767080648 0.8628017093916399 0.8765574672030663 0.2273616336962351 1:0 2:0 3:9 4:16 5:10 6:1 7:0 8:0 9:0 10:4 11:16 12:8 13:13 14:13 15:1 16:0 17:0 18:10 19:11 20:0 21:1 22:15 23:7 24:0 25:0 26:12 27:8 28:0 29:0 30:10 31:11 32:0 33:0 34:12 35:9 36:0 37:0 38:8 39:12 40:0 41:0 42:7 43:14 44:0 45:0 46:10 47:12 48:0 49:0 50:1 51:15 52:11 53:8 54:15 55:6 56:0 57:0 58:0 59:3 60:11 61:14 62:8 63:0 64:0 
0.8022001827881419 1 1 1 1 0.9929811180064305 0.9946650936284193 1 0.2625398390302946 1:0 2:3 3:11 4:16 5:10 6:1 7:0 8:0 9:2 10:15 11:7 12:1 13:8 14:13 15:1 16:0 17:7 18:9 19:0 20:0 21:0 22:7 23:12 24:0 25:8 26:8 27:0 28:0 29:0 30:0 31:14 32:4 33:7 34:9 35:0 36:0 37:0 38:0 39:8 40:8 41:2 42:15 43:1 44:0 45:0 46:0 47:9 48:8 49:0 50:9 51:13 52:3 53:1 54:7 55:15 56:2 57:0 58:0 59:7 60:14 61:16 62:10 63:2 64:0 
0.813688780636647 1 1 1 1 1 1 1 0.2668043693657243 1:0 2:0 3:6 4:15 5:15 6:8 7:0 8:0 9:0 10:5 11:16 12:13 13:8 14:12 15:10 16:0 17:0 18:14 19:6 20:0 21:0 22:0 23:13 24:6 25:6 26:13 27:0 28:0 29:0 30:0 31:8 32:8 33:8 34:8 35:0 36:0 37:0 38:0 39:12 40:6 41:8 42:9 43:0 44:0 45:0 46:8 47:13 48:0 49:3 50:14 51:2 52:3 53:11 54:13 55:1 56:0 57:0 58:7 59:15 60:14 61:8 62:0 63:0 64:0 
0.8123369316669523 1 1 1 1 1 1 1 0.2655496204415461 1:0 2:6 3:14 4:11 5:12 6:10 7:1 8:0 9:1 10:15 11:13 12:12 13:6 14:12 15:14 16:1 17:6 18:14 19:0 20:0 21:0 22:0 23:13 24:7 25:8 26:11 27:0 28:0 29:0 30:0 31:8 32:8 33:8 34:10 35:0 36:0 37:0 38:0 39:13 40:7 41:4 42:15 43:3 44:0 45:0 46:6 47:15 48:2 49:0 50:10 51:15 52:5 53:8 54:15 55:6 56:0 57:0 58:0 59:8 60:15 61:13 62:5 63:0 64:0 
0.8151845490818966 1 1 1 1 1 1 1 0.2666980345943555 1:0 2:7 3:4 4:4 5:2 6:0 7:0 8:0 9:5 10:16 11:16 12:16 13:16 14:13 15:4 16:0 17:10 18:16 19:11 20:12 21:15 22:16 23:16 24:3 25:12 26:16 27:4 28:0 29:0 30:10 31:16 32:10 33:9 34:16 35:8 36:0 37:0 38:4 39:16 40:12 41:3 42:16 43:16 44:9 45:8 46:14 47:16 48:10 49:0 50:7 51:16 52:16 53:16 54:16 55:12 56:1 57:0 58:0 59:3 60:8 61:8 62:3 63:0 64:0 
0.8147951127311664 1 1 1 1 1 1 1 0.2672791093015278 1:0 2:0 3:6 4:15 5:12 6:6 7:0 8:0 9:0 10:0 11:15 12:10 13:9 14:16 15:1 16:0 17:0 18:4 19:16 20:0 21:0 22:16 23:4 24:0 25:0 26:4 27:16 28:0 29:0 30:16 31:4 32:0 33:0 34:2 35:16 36:2 37:2 38:16 39:1 40:0 41:0 42:0 43:14 44:6 45:4 46:15 47:0 48:0 49:0 50:0 51:7 52:15 53:12 54:11 55:0 56:0 57:0 58:0 59:0 60:9 61:15 62:3 63:0 64:0 
0.8152785550850331 1 1 1 1 1 1 1 0.2673159344693773 1:0 2:0 3:2 4:8 5:8 6:6 7:1 8:0 9:0 10:3 11:15 12:10 13:9 14:13 15:15 16:3 17:2 18:15 19:6 20:0 21:0 22:0 23:7 24:14 25:9 26:10 27:0 28:0 29:0 30:0 31:4 32:16 33:14 34:5 35:0 36:0 37:0 38:0 39:11 40:10 41:15 42:4 43:0 44:0 45:1 46:10 47:15 48:1 49:9 50:14 51:8 52:11 53:16 54:12 55:1 56:0 57:0 58:6 59:8 60:8 61:3 62:0 63:0 64:0 
0.8040814510577353 1 1 1 1 0.995767904361492 0.9969491579458454 1 0.2633425469232716 1:0 2:0 3:3 4:11 5:14 6:6 7:0 8:0 9:0 10:0 11:11 12:16 13:16 14:16 15:7 16:0 17:0 18:5 19:16 20:13 21:5 22:16 23:9 24:0 25:0 26:13 27:14 28:1 29:0 30:12 31:12 32:0 33:0 34:14 35:10 36:0 37:0 38:12 39:16 40:0 41:0 42:10 43:15 44:3 45:0 46:11 47:14 48:0 49:0 50:1 51:15 52:15 53:12 54:16 55:9 56:0 57:0 58:0 59:2 60:11 61:12 62:9 63:1 64:0 
0.771348275033903 0.9730436337672338 0.9712767296735607 0.9706091834719434 0.973598501383277 0.9537683074817507 0.9556562761142461 0.9709516773409109 0.25281436945652 1:0 2:0 3:1 4:10 5:15 6:14 7:4 8:0 9:0 10:1 11:13 12:15 13:8 14:12 15:13 16:0 17:0 18:8 19:15 20:1 21:0 22:6 23:16 24:0 25:0 26:15 27:8 28:0 29:0 30:4 31:16 32:4 33:4 34:16 35:4 36:0 37:0 38:4 39:16 40:3 41:2 42:16 43:5 44:0 45:0 46:8 47:15 48:0 49:0 50:12 51:15 52:9 53:12 54:16 55:6 56:0 57:0 58:1 59:8 60:15 61:11 62:4 63:0 64:0 
0.7684060162488346 0.9703689892732367 0.9678677643393361 0.967107674907726 0.9702283601052494 0.951010202019411 0.9524430902612323 0.9677185133190602 0.2513729524109832 1:0 2:0 3:5 4:12 5:16 6:9 7:0 8:0 9:0 10:2 11:15 12:11 13:8 14:15 15:7 16:0 17:0 18:11 19:14 20:1 21:0 22:11 23:12 24:0 25:0 26:16 27:8 28:0 29:0 30:8 31:12 32:0 33:0 34:12 35:11 36:0 37:0 38:8 39:16 40:0 41:0 42:10 43:12 44:0 45:0 46:11 47:15 48:0 49:0 50:7 51:16 52:9 53:12 54:16 55:5 56:0 57:0 58:0 59:8 60:14 61:11 62:3 63:0 64:0 
0.7673781236632562 0.9689438306896252 0.9662474782786189 0.9656546945354789 0.9687249954857351 0.9494647955734034 0.9514934387209371 0.9661999905378381 0.2510523706596644 1:0 2:2 3:11 4:15 5:12 6:3 7:0 8:0 9:0 10:10 11:15 12:10 13:15 14:14 15:1 16:0 17:0 18:15 19:10 20:0 21:3 22:16 23:8 24:0 25:0 26:16 27:8 28:0 29:0 30:10 31:14 32:0 33:0 34:16 35:8 36:0 37:0 38:8 39:16 40:0 41:0 42:13 43:13 44:0 45:0 46:11 47:15 48:0 49:0 50:5 51:16 52:13 53:13 54:16 55:8 56:0 57:0 58:0 59:6 60:12 61:12 62:8 63:0 64:0 
0.7872727092015355 0.9942021220868613 0.9918709207071684 0.9916121031860479 0.9936658577428161 0.9744042342941676 0.9764581106823328 0.9916524898565324 0.2576825321578327 1:0 2:0 3:1 4:11 5:15 6:11 7:1 8:0 9:0 10:0 11:12 12:10 13:4 14:11 15:9 16:0 17:0 18:5 19:14 20:1 21:0 22:4 23:12 24:0 25:0 26:10 27:8 28:0 29:0 30:5 31:12 32:0 33:0 34:12 35:5 36:0 37:0 38:10 39:9 40:0 41:0 42:12 43:5 44:0 45:1 46:15 47:3 48:0 49:0 50:8 51:11 52:4 53:13 54:9 55:0 56:0 57:0 58:1 59:11 60:15 61:9 62:0 63:0 64:0 
0.7550156450002914 0.9536594419847434 0.9523495390693421 0.9517480983835189 0.9540453063837604 0.9349348262226013 0.9366861648647542 0.9513963338585689 0.2478573011404643 1:0 2:0 3:1 4:10 5:16 6:10 7:1 8:0 9:0 10:0 11:13 12:14 13:8 14:15 15:9 16:0 17:0 18:12 19:16 20:3 21:0 22:6 23:15 24:0 25:0 26:16 27:10 28:0 29:0 30:4 31:16 32:0 33:0 34:16 35:8 36:0 37:0 38:5 39:16 40:0 41:0 42:15 43:7 44:0 45:0 46:12 47:11 48:0 49:0 50:9 51:15 52:8 53:12 54:15 55:3 56:0 57:0 58:0 59:9 60:14 61:11 62:3 63:0 64:0 
0.811183489959199 1 1 1 1 1 1 1 0.2654873952044708 1:0 2:0 3:2 4:11 5:16 6:10 7:1 8:0 9:0 10:3 11:14 12:10 13:4 14:13 15:11 16:0 17:0 18:15 19:14 20:0 21:0 22:2 23:16 24:2 25:4 26:16 27:8 28:0 29:0 30:0 31:12 32:4 33:4 34:13 35:1 36:0 37:0 38:0 39:15 40:4 41:4 42:15 43:0 44:0 45:0 46:7 47:14 48:0 49:0 50:14 51:9 52:4 53:8 54:16 55:5 56:0 57:0 58:3 59:12 60:16 61:11 62:4 63:0 64:0 
-0.9237252160192264 0.9475503795258269 0.94597856603155 0.9456310178098714 0.9479116866418783 0.9320740286898833 0.9334804300287788 0.9459521833405815 0.2756581316105995 1:0 2:0 3:0 4:1 5:14 6:0 7:0 8:0 9:0 10:0 11:0 12:7 13:13 14:0 15:0 16:0 17:0 18:0 19:0 20:9 21:8 22:0 23:0 24:0 25:0 26:0 27:0 28:12 29:8 30:0 31:0 32:0 33:0 34:0 35:0 36:12 37:8 38:0 39:0 40:0 41:0 42:0 43:0 44:12 45:5 46:0 47:0 48:0 49:0 50:0 51:0 52:13 53:4 54:0 55:0 56:0 57:0 58:0 59:0 60:13 61:2 62:0 63:0 64:0 
-1 1 1 1 1 1 1 1 0.352948661742519 1:0 2:0 3:9 4:8 5:0 6:0 7:0 8:0 9:0 10:1 11:16 12:12 13:0 14:0 15:0 16:0 17:0 18:7 19:16 20:16 21:0 22:0 23:0 24:0 25:0 26:1 27:4 28:16 29:0 30:0 31:0 32:0 33:0 34:0 35:0 36:16 37:4 38:0 39:0 40:0 41:0 42:0 43:0 44:13 45:6 46:0 47:0 48:0 49:0 50:0 51:3 52:13 53:12 54:8 55:3 56:0 57:0 58:0 59:12 60:12 61:12 62:12 63:4 64:0 
-0.4097035727717954 0.4196588458933632 0.4187893370076944 0.4179105231869861 0.4192727025194171 0.4129278541285084 0.4132981183374402 0.4182204613628585 0.1225684475478356 1:0 2:0 3:0 4:11 5:8 6:0 7:0 8:0 9:0 10:0 11:0 12:16 13:12 14:0 15:0 16:0 17:0 18:0 19:0 20:16 21:12 22:0 23:0 24:0 25:0 26:0 27:0 28:16 29:13 30:0 31:0 32:0 33:0 34:0 35:0 36:16 37:12 38:0 39:0 40:0 41:0 42:0 43:0 44:16 45:13 46:0 47:0 48:0 49:0 50:0 51:0 52:16 53:14 54:0 55:0 56:0 57:0 58:0 59:0 60:8 61:11 62:0 63:0 64:0 
-1 1 1 1 1 1 1 1 0.3372015824297476 1:0 2:0 3:0 4:7 5:9 6:0 7:0 8:0 9:0 10:0 11:0 12:14 13:8 14:0 15:0 16:0 17:0 18:0 19:0 20:11 21:8 22:0 23:0 24:0 25:0 26:0 27:0 28:11 29:8 30:0 31:0 32:0 33:0 34:0 35:0 36:12 37:8 38:0 39:0 40:0 41:0 42:0 43:0 44:12 45:8 46:0 47:0 48:0 49:0 50:0 51:2 52:13 53:11 54:5 55:0 56:0 57:0 58:0 59:11 60:15 61:12 62:6 63:0 64:0 
-0.5492341687097703 0.564098181066608 0.5630224870717974 0.5624221144461662 0.5638479382976382 0.5545572526105838 0.5551750898643154 0.5626566283542331 0.1639690476196942 1:0 2:0 3:0 4:6 5:13 6:0 7:0 8:0 9:0 10:0 11:0 12:12 13:11 14:0 15:0 16:0 17:0 18:0 19:0 20:16 21:8 22:0 23:0 24:0 25:0 26:0 27:0 28:12 29:11 30:0 31:0 32:0 33:0 34:0 35:0 36:12 37:12 38:0 39:0 40:0 41:0 42:0 43:0 44:12 45:12 46:0 47:0 48:0 49:0 50:0 51:0 52:12 53:12 54:0 55:0 56:0 57:0 58:0 59:0 60:8 61:8 62:0 63:0 64:0 
-1 1 1 1 1 1 1 1 0.3330918188170319 1:0 2:0 3:0 4:2 5:13 6:7 7:0 8:0 9:0 10:0 11:3 12:15 13:16 14:9 15:0 16:0 17:0 18:0 19:9 20:13 21:16 22:8 23:0 24:0 25:0 26:0 27:0 28:0 29:16 30:8 31:0 32:0 33:0 34:0 35:0 36:0 37:16 38:8 39:0 40:0 41:0 42:0 43:0 44:0 45:16 46:8 47:0 48:0 49:0 50:0 51:0 52:0 53:16 54:9 55:0 56:0 57:0 58:0 59:0 60:0 61:10 62:5 63:0 64:0 
-0.1119798367989898 0.1140979715961895 0.1140806940979827 0.1138384401995179 0.11436995415482 0.1135274223484497 0.1133804955617824 0.1146008146244668 0.03366085888598392 1:0 2:0 3:0 4:6 5:11 6:0 7:0 8:0 9:0 10:0 11:0 12:8 13:12 14:0 15:0 16:0 17:0 18:0 19:0 20:8 21:12 22:0 23:0 24:0 25:0 26:0 27:0 28:10 29:12 30:0 31:0 32:0 33:0 34:0 35:0 36:12 37:10 38:0 39:0 40:0 41:0 42:0 43:0 44:12 45:8 46:0 47:0 48:0 49:0 50:0 51:0 52:12 53:8 54:0 55:0 56:0 57:0 58:0 59:0 60:9 61:6 62:0 63:0 64:0 
-0.09488333033171932 0.09652832645697187 0.0964775179388787 0.09672616934885769 0.09664577284096638 0.09542738321543666 0.09582398097634745 0.09637014027570148 0.02755361782869772 1:0 2:0 3:0 4:5 5:11 6:0 7:0 8:0 9:0 10:0 11:0 12:8 13:12 14:0 15:0 16:0 17:0 18:0 19:0 20:11 21:9 22:0 23:0 24:0 25:0 26:0 27:0 28:12 29:8 30:0 31:0 32:0 33:0 34:0 35:0 36:12 37:8 38:0 39:0 40:0 41:0 42:0 43:0 44:12 45:8 46:0 47:0 48:0 49:0 50:0 51:0 52:12 53:8 54:0 55:0 56:0 57:0 58:0 59:0 60:9 61:6 62:0 63:0 64:0 
-1 1 1 1 1 1 1 1 0.35199480638004 1:0 2:0 3:0 4:0 5:10 6:9 7:0 8:0 9:0 10:0 11:1 12:12 13:16 14:8 15:0 16:0 17:0 18:0 19:11 20:11 21:9 22:8 23:0 24:0 25:0 26:0 27:2 28:0 29:8 30:8 31:0 32:0 33:0 34:0 35:0 36:0 37:8 38:8 39:0 40:0 41:0 42:0 43:0 44:0 45:8 46:8 47:0 48:0 49:0 50:0 51:0 52:0 53:8 54:9 55:0 56:0 57:0 58:0 59:0 60:0 61:5 62:11 63:0 64:0 
-1 1 1 1 1 1 1 1 0.3458500954156765 1:0 2:0 3:0 4:0 5:8 6:15 7:2 8:0 9:0 10:0 11:3 12:12 13:16 14:15 15:0 16:0 17:0 18:1 19:16 20:10 21:10 22:10 23:0 24:0 25:0 26:0 27:0 28:0 29:15 30:5 31:0 32:0 33:0 34:0 35:0 36:3 37:15 38:0 39:0 40:0 41:0 42:0 43:0 44:9 45:11 46:0 47:0 48:0 49:0 50:0 51:0 52:12 53:7 54:0 55:0 56:0 57:0 58:0 59:0 60:10 61:6 62:0 63:0 64:0 
-1 1 1 1 1 1 1 1 0.3369027068617755 1:0 2:0 3:0 4:0 5:12 6:9 7:0 8:0 9:0 10:0 11:3 12:11 13:16 14:11 15:0 16:0 17:0 18:0 19:9 20:15 21:16 22:8 23:0 24:0 25:0 26:0 27:0 28:2 29:16 30:5 31:0 32:0 33:0 34:0 35:0 36:4 37:16 38:3 39:0 40:0 41:0 42:0 43:0 44:8 45:15 46:0 47:0 48:0 49:0 50:0 51:0 52:11 53:12 54:0 55:0 56:0 57:0 58:0 59:0 60:10 61:5 62:0 63:0 64:0 
-1 1 1 1 1 1 1 1 0.3286657360965526 1:0 2:0 3:0 4:1 5:13 6:9 7:0 8:0 9:0 10:0 11:1 12:13 13:15 14:10 15:0 16:0 17:0 18:0 19:8 20:10 21:9 22:8 23:0 24:0 25:0 26:0 27:0 28:0 29:12 30:5 31:0 32:0 33:0 34:0 35:0 36:0 37:15 38:3 39:0 40:0 41:0 42:0 43:0 44:2 45:16 46:0 47:0 48:0 49:0 50:0 51:0 52:4 53:12 54:0 55:0 56:0 57:0 58:0 59:0 60:5 61:9 62:0 63:0 64:0 
-1 1 1 1 1 1 1 1 0.3465034561717969 1:0 2:0 3:0 4:0 5:13 6:5 7:0 8:0 9:0 10:0 11:0 12:7 13:16 14:5 15:0 16:0 17:0 18:0 19:2 20:16 21:16 22:0 23:0 24:0 25:0 26:0 27:2 28:14 29:13 30:0 31:0 32:0 33:0 34:0 35:0 36:12 37:11 38:0 39:0 40:0 41:0 42:0 43:0 44:12 45:8 46:0 47:0 48:0 49:0 50:0 51:1 52:14 53:12 54:0 55:0 56:0 57:0 58:0 59:5 60:16 61:14 62:2 63:0 64:0 
-0.9671822013949739 0.9927018504990704 0.9916244360273054 0.9912281298722267 0.99372143128263 0.9759914721547384 0.9775021850156725 0.990937897162753 0.2873813873835123 1:0 2:0 3:0 4:1 5:15 6:3 7:0 8:0 9:0 10:0 11:0 12:9 13:16 14:3 15:0 16:0 17:0 18:0 19:2 20:16 21:16 22:0 23:0 24:0 25:0 26:0 27:0 28:9 29:16 30:0 31:0 32:0 33:0 34:0 35:0 36:4 37:16 38:0 39:0 40:0 41:0 42:0 43:0 44:4 45:16 46:0 47:0 48:0 49:0 50:0 51:0 52:4 53:16 54:0 55:0 56:0 57:0 58:0 59:0 60:3 61:15 62:0 63:0 64:0 
-1 1 1 1 1 1 1 1 0.3515342050280246 1:0 2:0 3:5 4:10 5:0 6:0 7:0 8:0 9:0 10:0 11:13 12:12 13:0 14:0 15:0 16:0 17:0 18:0 19:4 20:12 21:0 22:0 23:0 24:0 25:0 26:0 27:4 28:12 29:0 30:0 31:0 32:0 33:0 34:0 35:1 36:12 37:0 38:0 39:0 40:0 41:0 42:0 43:0 44:12 45:0 46:0 47:0 48:0 49:0 50:0 51:0 52:13 53:9 54:13 55:2 56:0 57:0 58:2 59:13 60:10 61:5 62:0 63:0 64:0 
-0.7591677130279979 0.7792464170599249 0.7778091759484842 0.7773734578947367 0.778950924015668 0.7661801386468686 0.7676155177700078 0.7768528208870797 0.2265193462428159 1:0 2:0 3:0 4:8 5:7 6:0 7:0 8:0 9:0 10:0 11:0 12:12 13:6 14:0 15:0 16:0 17:0 18:0 19:0 20:12 21:8 22:0 23:0 24:0 25:0 26:0 27:0 28:8 29:8 30:0 31:0 32:0 33:0 34:0 35:0 36:8 37:8 38:0 39:0 40:0 41:0 42:0 43:0 44:8 45:8 46:0 47:0 48:0 49:0 50:0 51:0 52:8 53:10 54:0 55:0 56:0 57:0 58:0 59:0 60:3 61:11 62:0 63:0 64:0 
-0.4723779830611104 0.4843908409791097 0.4835315570168038 0.4830999541339733 0.4843850194420045 0.4759695468427721 0.4763846616365461 0.4833975698222017 0.1407597503937644 1:0 2:0 3:0 4:6 5:12 6:0 7:0 8:0 9:0 10:0 11:0 12:12 13:12 14:0 15:0 16:0 17:0 18:0 19:0 20:12 21:8 22:0 23:0 24:0 25:0 26:0 27:0 28:12 29:8 30:0 31:0 32:0 33:0 34:0 35:0 36:12 37:8 38:0 39:0 40:0 41:0 42:0 43:0 44:12 45:8 46:0 47:0 48:0 49:0 50:0 51:0 52:12 53:12 54:0 55:0 56:0 57:0 58:0 59:0 60:7 61:9 62:0 63:0 64:0 
-0.9717432021366821 0.9966113353884669 0.9951709660835931 0.9941545026211601 0.9966634197410763 0.9800625191726129 0.9824347299329927 0.994522186687015 0.2895982639882585 1:0 2:0 3:0 4:4 5:13 6:1 7:0 8:0 9:0 10:0 11:0 12:8 13:16 14:3 15:0 16:0 17:0 18:0 19:0 20:8 21:16 22:0 23:0 24:0 25:0 26:0 27:0 28:10 29:16 30:0 31:0 32:0 33:0 34:0 35:0 36:12 37:14 38:0 39:0 40:0 41:0 42:0 43:0 44:14 45:12 46:0 47:0 48:0 49:0 50:0 51:2 52:16 53:10 54:0 55:0 56:0 57:0 58:0 59:0 60:11 61:5 62:0 63:0 64:0 
-1 1 1 1 1 1 1 1 0.3536985894587902 1:0 2:0 3:12 4:6 5:0 6:0 7:0 8:0 9:0 10:9 11:16 12:8 13:0 14:0 15:0 16:0 17:2 18:16 19:16 20:11 21:0 22:0 23:0 24:0 25:0 26:3 27:13 28:12 29:0 30:0 31:0 32:0 33:0 34:0 35:12 36:15 37:0 38:0 39:0 40:0 41:0 42:0 43:9 44:16 45:0 46:0 47:0 48:0 49:0 50:11 51:14 52:16 53:13 54:16 55:15 56:2 57:0 58:11 59:12 60:12 61:12 62:12 63:8 64:0 
-1 1 1 1 1 1 1 1 0.3287285889998159 1:0 2:0 3:0 4:8 5:11 6:0 7:0 8:0 9:0 10:0 11:8 12:16 13:16 14:0 15:0 16:0 17:0 18:0 19:15 20:14 21:16 22:0 23:0 24:0 25:0 26:0 27:0 28:12 29:13 30:0 31:0 32:0 33:0 34:0 35:0 36:12 37:12 38:0 39:0 40:0 41:0 42:0 43:0 44:12 45:12 46:0 47:0 48:0 49:0 50:4 51:12 52:15 53:15 54:16 55:7 56:0 57:0 58:7 59:12 60:12 61:12 62:8 63:3 64:0 
-1 1 1 1 1 1 1 1 0.3325328422256325 1:0 2:0 3:0 4:3 5:15 6:1 7:0 8:0 9:0 10:0 11:0 12:14 13:16 14:0 15:0 16:0 17:0 18:0 19:0 20:2 21:13 22:0 23:0 24:0 25:0 26:0 27:0 28:0 29:12 30:0 31:0 32:0 33:0 34:0 35:0 36:0 37:12 38:0 39:0 40:0 41:0 42:0 43:0 44:2 45:12 46:0 47:0 48:0 49:0 50:0 51:0 52:4 53:12 54:0 55:0 56:0 57:0 58:0 59:0 60:3 61:11 62:0 63:0 64:0 
-0.7324857924300784 0.7518110346198403 0.750731982881456 0.7498956874081035 0.7514745992915954 0.7390214153746065 0.7404927419311367 0.7499250579803346 0.2182619815656154 1:0 2:0 3:0 4:6 5:11 6:0 7:0 8:0 9:0 10:0 11:0 12:13 13:12 14:0 15:0 16:0 17:0 18:0 19:0 20:8 21:12 22:0 23:0 24:0 25:0 26:0 27:0 28:8 29:12 30:0 31:0 32:0 33:0 34:0 35:0 36:8 37:12 38:0 39:0 40:0 41:0 42:0 43:0 44:8 45:12 46:0 47:0 48:0 49:0 50:0 51:0 52:8 53:12 54:0 55:0 56:0 57:0 58:0 59:0 60:5 61:12 62:0 63:0 64:0 
-0.3182806688248762 0.3266721716957565 0.3264650897652822 0.327060687597687 0.3270500935037424 0.3207308611309453 0.3217513941824462 0.3257759963589812 0.09495443559469875 1:0 2:0 3:0 4:8 5:10 6:0 7:0 8:0 9:0 10:0 11:0 12:16 13:14 14:0 15:0 16:0 17:0 18:0 19:0 20:16 21:12 22:0 23:0 24:0 25:0 26:0 27:0 28:16 29:12 30:0 31:0 32:0 33:0 34:0 35:0 36:16 37:13 38:0 39:0 40:0 41:0 42:0 43:0 44:16 45:16 46:0 47:0 48:0 49:0 50:0 51:0 52:14 53:16 54:0 55:0 56:0 57:0 58:0 59:0 60:8 61:11 62:0 63:0 64:0 
-0.3479592467521767 0.3568253968768434 0.3559550450901904 0.3563400554654249 0.3568484624811291 0.3511096888475373 0.350907579204672 0.3561129994104009 0.1042003626545465 1:0 2:0 3:0 4:11 5:3 6:0 7:0 8:0 9:0 10:0 11:0 12:10 13:8 14:0 15:0 16:0 17:0 18:0 19:0 20:8 21:8 22:0 23:0 24:0 25:0 26:0 27:0 28:8 29:8 30:0 31:0 32:0 33:0 34:0 35:0 36:6 37:11 38:0 39:0 40:0 41:0 42:0 43:0 44:4 45:12 46:0 47:0 48:0 49:0 50:0 51:0 52:6 53:11 54:0 55:0 56:0 57:0 58:0 59:0 60:5 61:9 62:0 63:0 64:0 
-1 1 1 1 1 1 1 1 0.3288971146141341 1:0 2:0 3:2 4:12 5:11 6:0 7:0 8:0 9:0 10:0 11:10 12:16 13:16 14:0 15:0 16:0 17:0 18:0 19:14 20:16 21:16 22:0 23:0 24:0 25:0 26:0 27:1 28:8 29:16 30:0 31:0 32:0 33:0 34:0 35:0 36:8 37:16 38:1 39:0 40:0 41:0 42:0 43:0 44:8 45:16 46:4 47:0 48:0 49:0 50:5 51:14 52:16 53:16 54:16 55:6 56:0 57:0 58:5 59:12 60:12 61:12 62:12 63:4 64:0 
-1 1 1 1 1 1 1 1 0.3537951310261307 1:0 2:0 3:0 4:1 5:13 6:7 7:0 8:0 9:0 10:0 11:3 12:14 13:16 14:6 15:0 16:0 17:0 18:0 19:5 20:6 21:15 22:3 23:0 24:0 25:0 26:0 27:0 28:3 29:15 30:0 31:0 32:0 33:0 34:0 35:0 36:6 37:11 38:0 39:0 40:0 41:0 42:0 43:0 44:10 45:8 46:0 47:0 48:0 49:0 50:2 51:4 52:13 53:7 54:8 55:7 56:0 57:0 58:15 59:13 60:12 61:12 62:12 63:10 64:0 
-0.8819548076071861 0.9058217641877923 0.9049778778511625 0.9043304603188518 0.9064990167426861 0.889752442632295 0.8915835979340283 0.9043121250037429 0.2608333052693423 1:0 2:0 3:0 4:1 5:13 6:3 7:0 8:0 9:0 10:0 11:1 12:13 13:16 14:4 15:0 16:0 17:0 18:0 19:2 20:10 21:16 22:4 23:0 24:0 25:0 26:0 27:0 28:0 29:16 30:3 31:0 32:0 33:0 34:0 35:0 36:3 37:16 38:0 39:0 40:0 41:0 42:0 43:0 44:4 45:16 46:0 47:0 48:0 49:0 50:0 51:0 52:5 53:12 54:0 55:0 56:0 57:0 58:0 59:0 60:5 61:9 62:0 63:0 64:0 
-0.4374033921343561 0.4479546317048342 0.4479273601041989 0.4467435780240435 0.4476749219515341 0.4413260424494442 0.4412378661126394 0.4466961989739137 0.1301431673887976 1:0 2:0 3:0 4:3 5:13 6:0 7:0 8:0 9:0 10:0 11:0 12:7 13:12 14:0 15:0 16:0 17:0 18:0 19:0 20:8 21:12 22:0 23:0 24:0 25:0 26:0 27:0 28:10 29:11 30:0 31:0 32:0 33:0 34:0 35:0 36:12 37:8 38:0 39:0 40:0 41:0 42:0 43:0 44:12 45:8 46:0 47:0 48:0 49:0 50:0 51:0 52:16 53:5 54:0 55:0 56:0 57:0 58:0 59:0 60:10 61:6 62:0 63:0 64:0 
-1 1 1 1 1 1 1 1 0.3537582797977938 1:0 2:0 3:0 4:4 5:11 6:0 7:0 8:0 9:0 10:0 11:2 12:13 13:12 14:0 15:0 16:0 17:0 18:0 19:5 20:10 21:14 22:0 23:0 24:0 25:0 26:0 27:0 28:0 29:16 30:0 31:0 32:0 33:0 34:0 35:0 36:0 37:16 38:0 39:0 40:0 41:0 42:0 43:0 44:0 45:16 46:3 47:0 48:0 49:0 50:0 51:4 52:7 53:16 54:13 55:5 56:0 57:0 58:7 59:13 60:10 61:8 62:8 63:1 64:0 
-1 1 1 1 1 1 1 1 0.3370920947617445 1:0 2:0 3:0 4:1 5:13 6:3 7:0 8:0 9:0 10:0 11:0 12:6 13:16 14:4 15:0 16:0 17:0 18:0 19:0 20:13 21:16 22:4 23:0 24:0 25:0 26:0 27:4 28:16 29:16 30:4 31:0 32:0 33:0 34:0 35:0 36:6 37:16 38:4 39:0 40:0 41:0 42:0 43:0 44:4 45:16 46:4 47:0 48:0 49:0 50:0 51:0 52:4 53:16 54:4 55:0 56:0 57:0 58:0 59:0 60:2 61:12 62:2 63:0 64:0 
-0.8315538972359454 0.8605602461684179 0.8582335869620921 0.8575834601785238 0.860261881715313 0.8414290313498707 0.8433915001355443 0.8579444914345477 0.2479994375687616 1:0 2:0 3:0 4:3 5:14 6:2 7:0 8:0 9:0 10:0 11:2 12:15 13:16 14:4 15:0 16:0 17:0 18:0 19:5 20:13 21:16 22:4 23:0 24:0 25:0 26:0 27:0 28:0 29:16 30:4 31:0 32:0 33:0 34:0 35:0 36:0 37:16 38:4 39:0 40:0 41:0 42:0 43:0 44:0 45:16 46:4 47:0 48:0 49:0 50:0 51:0 52:0 53:16 54:6 55:0 56:0 57:0 58:0 59:0 60:0 61:11 62:5 63:0 64:0 
-0.8474530989764341 0.868927534340621 0.8672190843527724 0.8669976355375861 0.8691281576109547 0.8545986806660703 0.8563303713510931 0.8668436328157436 0.2538060008266539 1:0 2:0 3:0 4:0 5:13 6:3 7:0 8:0 9:0 10:0 11:0 12:8 13:16 14:4 15:0 16:0 17:0 18:0 19:3 20:14 21:16 22:3 23:0 24:0 25:0 26:0 27:0 28:0 29:16 30:0 31:0 32:0 33:0 34:0 35:0 36:3 37:16 38:0 39:0 40:0 41:0 42:0 43:0 44:4 45:16 46:0 47:0 48:0 49:0 50:0 51:0 52:0 53:16 54:0 55:0 56:0 57:0 58:0 59:0 60:3 61:13 62:0 63:0 64:0 
-1 1 1 1 1 1 1 1 0.3510431016915133 1:0 2:0 3:1 4:14 5:3 6:0 7:0 8:0 9:0 10:0 11:7 12:16 13:4 14:0 15:0 16:0 17:0 18:0 19:15 20:16 21:4 22:0 23:0 24:0 25:0 26:0 27:3 28:16 29:8 30:0 31:0 32:0 33:0 34:0 35:0 36:16 37:8 38:0 39:0 40:0 41:0 42:0 43:0 44:16 45:8 46:0 47:0 48:0 49:0 50:0 51:5 52:16 53:12 54:11 55:0 56:0 57:0 58:0 59:8 60:14 61:12 62:9 63:0 64:0 
-0.6178679906727094 0.6337832169742875 0.6323479680438027 0.6322766264167266 0.6339206094682641 0.6236614390465138 0.6244253663638381 0.6328200124993775 0.1843620273528861 1:0 2:0 3:0 4:11 5:8 6:0 7:0 8:0 9:0 10:0 11:0 12:16 13:12 14:0 15:0 16:0 17:0 18:0 19:0 20:16 21:12 22:0 23:0 24:0 25:0 26:0 27:3 28:16 29:10 30:0 31:0 32:0 33:0 34:0 35:0 36:16 37:12 38:0 39:0 40:0 41:0 42:0 43:0 44:15 45:13 46:0 47:0 48:0 49:0 50:0 51:0 52:12 53:16 54:2 55:0 56:0 57:0 58:0 59:0 60:6 61:11 62:0 63:0 64:0 
-1 1 1 1 1 1 1 1 0.3403793835487313 1:0 2:0 3:0 4:9 5:7 6:0 7:0 8:0 9:0 10:0 11:5 12:16 13:8 14:0 15:0 16:0 17:0 18:0 19:3 20:11 21:8 22:0 23:0 24:0 25:0 26:0 27:0 28:11 29:8 30:0 31:0 32:0 33:0 34:0 35:0 36:12 37:6 38:0 39:0 40:0 41:0 42:0 43:0 44:12 45:4 46:0 47:0 48:0 49:0 50:1 51:4 52:16 53:7 54:8 55:3 56:0 57:0 58:7 59:16 60:14 61:12 62:12 63:5 64:0 
-0.7314058525443176 0.7500208612549462 0.7487940876465233 0.7480261884932264 0.7500897039797737 0.7373403705064046 0.7390007235669607 0.7483705866466293 0.2183009098885296 1:0 2:0 3:0 4:11 5:5 6:0 7:0 8:0 9:0 10:0 11:0 12:9 13:8 14:0 15:0 16:0 17:0 18:0 19:0 20:8 21:8 22:0 23:0 24:0 25:0 26:0 27:0 28:9 29:9 30:0 31:0 32:0 33:0 34:0 35:0 36:7 37:12 38:0 39:0 40:0 41:0 42:0 43:0 44:8 45:12 46:0 47:0 48:0 49:0 50:0 51:0 52:11 53:8 54:0 55:0 56:0 57:0 58:0 59:0 60:7 61:7 62:0 63:0 64:0 
-1 1 1 1 1 1 1 1 0.3492473356667415 1:0 2:0 3:1 4:14 5:0 6:0 7:0 8:0 9:0 10:1 11:13 12:16 13:0 14:0 15:0 16:0 17:0 18:1 19:7 20:16 21:0 22:0 23:0 24:0 25:0 26:0 27:0 28:16 29:0 30:0 31:0 32:0 33:0 34:0 35:0 36:15 37:1 38:0 39:0 40:0 41:0 42:0 43:0 44:13 45:3 46:0 47:0 48:0 49:0 50:0 51:4 52:13 53:8 54:8 55:7 56:0 57:2 58:16 59:12 60:12 61:12 62:8 63:10 64:1 
-0.7328856707893702 0.7519828195909479 0.7504472943116913 0.749058649413416 0.7502337527442664 0.7386663513573377 0.7402647438445596 0.7496167254667038 0.217768857517154 1:0 2:0 3:0 4:11 5:4 6:0 7:0 8:0 9:0 10:0 11:0 12:9 13:10 14:0 15:0 16:0 17:0 18:0 19:0 20:5 21:12 22:0 23:0 24:0 25:0 26:0 27:0 28:4 29:12 30:0 31:0 32:0 33:0 34:0 35:0 36:4 37:12 38:0 39:0 40:0 41:0 42:0 43:0 44:4 45:12 46:0 47:0 48:0 49:0 50:0 51:0 52:4 53:12 54:0 55:0 56:0 57:0 58:0 59:0 60:3 61:11 62:0 63:0 64:0 
-0.9679820561604684 0.9923164247750604 0.9906934685876714 0.9903328506810348 0.9922756653803335 0.9757884365308777 0.9774462811493954 0.9899595473475017 0.2883673676605811 1:0 2:0 3:0 4:14 5:4 6:0 7:0 8:0 9:0 10:0 11:0 12:16 13:8 14:0 15:0 16:0 17:0 18:0 19:0 20:12 21:9 22:0 23:0 24:0 25:0 26:0 27:0 28:12 29:12 30:0 31:0 32:0 33:0 34:0 35:0 36:8 37:12 38:0 39:0 40:0 41:0 42:0 43:0 44:8 45:14 46:0 47:0 48:0 49:0 50:0 51:0 52:8 53:16 54:0 55:0 56:0 57:0 58:0 59:0 60:4 61:11 62:0 63:0 64:0 
-0.03973438866236657 0.04039210078267658 0.04044003002112563 0.04103444132340292 0.04109463349730844 0.03967589628271496 0.04006393597091255 0.04016064650096043 0.01152799007196611 1:0 2:0 3:0 4:9 5:9 6:0 7:0 8:0 9:0 10:0 11:0 12:12 13:12 14:0 15:0 16:0 17:0 18:0 19:0 20:12 21:12 22:0 23:0 24:0 25:0 26:0 27:0 28:12 29:12 30:0 31:0 32:0 33:0 34:0 35:0 36:12 37:12 38:0 39:0 40:0 41:0 42:0 43:0 44:12 45:12 46:0 47:0 48:0 49:0 50:0 51:0 52:12 53:12 54:0 55:0 56:0 57:0 58:0 59:0 60:9 61:7 62:0 63:0 64:0 
-1 1 1 1 1 1 1 1 0.3487653028048478 1:0 2:0 3:0 4:2 5:12 6:4 7:0 8:0 9:0 10:0 11:0 12:10 13:16 14:8 15:0 16:0 17:0 18:0 19:2 20:16 21:16 22:7 23:0 24:0 25:0 26:0 27:7 28:16 29:16 30:4 31:0 32:0 33:0 34:0 35:0 36:13 37:16 38:4 39:0 40:0 41:0 42:0 43:0 44:13 45:16 46:2 47:0 48:0 49:0 50:0 51:2 52:16 53:15 54:0 55:0 56:0 57:0 58:0 59:0 60:11 61:6 62:0 63:0 64:0 
-0.893875676977957 0.9167659850210275 0.9146168119133389 0.9144058889586004 0.9161789748370848 0.9019224278821372 0.9032310553193079 0.9149477630302604 0.2668278596596788 1:0 2:0 3:0 4:11 5:8 6:0 7:0 8:0 9:0 10:0 11:0 12:16 13:15 14:0 15:0 16:0 17:0 18:0 19:0 20:16 21:16 22:0 23:0 24:0 25:0 26:0 27:0 28:13 29:16 30:0 31:0 32:0 33:0 34:0 35:0 36:12 37:16 38:0 39:0 40:0 41:0 42:0 43:0 44:12 45:16 46:0 47:0 48:0 49:0 50:0 51:0 52:13 53:16 54:0 55:0 56:0 57:0 58:0 59:0 60:8 61:11 62:0 63:0 64:0 
-0.2804733967770001 0.2865766698571683 0.2869958600670935 0.287468132924017 0.2884756583613449 0.2828065779369786 0.2832625668630487 0.2871204448740241 0.08371769139313077 1:0 2:0 3:0 4:11 5:6 6:0 7:0 8:0 9:0 10:0 11:0 12:10 13:8 14:0 15:0 16:0 17:0 18:0 19:0 20:8 21:12 22:0 23:0 24:0 25:0 26:0 27:0 28:4 29:12 30:0 31:0 32:0 33:0 34:0 35:0 36:4 37:12 38:0 39:0 40:0 41:0 42:0 43:0 44:4 45:12 46:0 47:0 48:0 49:0 50:0 51:0 52:4 53:12 54:0 55:0 56:0 57:0 58:0 59:0 60:4 61:11 62:0 63:0 64:0 
-1 1 1 1 1 1 1 1 0.3066374063237684 1:0 2:0 3:0 4:9 5:10 6:0 7:0 8:0 9:0 10:0 11:2 12:16 13:16 14:0 15:0 16:0 17:0 18:0 19:2 20:11 21:16 22:2 23:0 24:0 25:0 26:0 27:0 28:0 29:16 30:4 31:0 32:0 33:0 34:0 35:0 36:0 37:16 38:5 39:0 40:0 41:0 42:0 43:0 44:0 45:16 46:7 47:0 48:0 49:0 50:0 51:0 52:0 53:16 54:4 55:0 56:0 57:0 58:0 59:0 60:0 61:13 62:3 63:0 64:0 
-1 1 1 1 1 1 1 1 0.3537730980700741 1:0 2:0 3:5 4:13 5:0 6:0 7:0 8:0 9:0 10:0 11:13 12:16 13:2 14:0 15:0 16:0 17:0 18:8 19:16 20:16 21:6 22:0 23:0 24:0 25:0 26:16 27:13 28:16 29:10 30:0 31:0 32:0 33:0 34:3 35:1 36:13 37:12 38:0 39:0 40:0 41:0 42:0 43:1 44:13 45:14 46:13 47:13 48:0 49:0 50:6 51:16 52:16 53:16 54:15 55:11 56:0 57:0 58:8 59:12 60:8 61:4 62:0 63:0 64:0 
-0.5197003883752901 0.533138103706677 0.531904634802624 0.5317594387285337 0.5329492989235305 0.5236987031992169 0.5247405971915247 0.5321784911125477 0.1549471331825361 1:0 2:0 3:0 4:6 5:12 6:0 7:0 8:0 9:0 10:0 11:0 12:11 13:16 14:0 15:0 16:0 17:0 18:0 19:0 20:12 21:12 22:0 23:0 24:0 25:0 26:0 27:0 28:12 29:12 30:0 31:0 32:0 33:0 34:0 35:0 36:14 37:12 38:0 39:0 40:0 41:0 42:0 43:0 44:16 45:12 46:0 47:0 48:0 49:0 50:0 51:0 52:16 53:12 54:0 55:0 56:0 57:0 58:0 59:0 60:8 61:8 62:0 63:0 64:0 
-0.2966157272636705 0.3052412329754421 0.3042221788327528 0.3043375188943541 0.3052083274398097 0.2984789815424168 0.299583731991383 0.3042597956770881 0.08879840393811167 1:0 2:0 3:0 4:3 5:13 6:0 7:0 8:0 9:0 10:0 11:0 12:8 13:12 14:0 15:0 16:0 17:0 18:0 19:0 20:8 21:12 22:0 23:0 24:0 25:0 26:0 27:0 28:8 29:10 30:0 31:0 32:0 33:0 34:0 35:0 36:12 37:8 38:0 39:0 40:0 41:0 42:0 43:0 44:12 45:8 46:0 47:0 48:0 49:0 50:0 51:0 52:12 53:7 54:0 55:0 56:0 57:0 58:0 59:0 60:10 61:7 62:0 63:0 64:0 
-1 1 1 1 1 1 1 1 0.3429519940547218 1:0 2:0 3:0 4:0 5:9 6:11 7:0 8:0 9:0 10:0 11:0 12:9 13:16 14:9 15:0 16:0 17:0 18:0 19:5 20:14 21:9 22:8 23:0 24:0 25:0 26:0 27:6 28:3 29:10 30:8 31:0 32:0 33:0 34:0 35:0 36:0 37:12 38:4 39:0 40:0 41:0 42:0 43:0 44:0 45:12 46:4 47:0 48:0 49:0 50:0 51:0 52:0 53:13 54:4 55:0 56:0 57:0 58:0 59:0 60:0 61:12 62:2 63:0 64:0 
-1 1 1 1 1 1 1 1 0.3471102360057474 1:0 2:0 3:0 4:12 5:3 6:0 7:0 8:0 9:0 10:0 11:2 12:14 13:4 14:0 15:0 16:0 17:0 18:0 19:0 20:8 21:7 22:0 23:0 24:0 25:0 26:0 27:0 28:8 29:8 30:0 31:0 32:0 33:0 34:0 35:0 36:8 37:8 38:0 39:0 40:0 41:0 42:0 43:0 44:8 45:8 46:0 47:0 48:0 49:0 50:0 51:0 52:8 53:8 54:0 55:0 56:0 57:0 58:0 59:14 60:16 61:16 62:14 63:0 64:0 
-1 1 1 1 1 1 1 1 0.3539517603359813 1:0 2:4 3:14 4:3 5:0 6:0 7:0 8:0 9:0 10:12 11:16 12:7 13:0 14:0 15:0 16:0 17:0 18:9 19:15 20:9 21:0 22:0 23:0 24:0 25:0 26:0 27:11 28:12 29:0 30:0 31:0 32:0 33:0 34:0 35:8 36:14 37:0 38:0 39:0 40:0 41:0 42:0 43:6 44:16 45:0 46:4 47:5 48:0 49:0 50:0 51:9 52:16 53:16 54:16 55:13 56:0 57:0 58:1 59:13 60:11 61:6 62:2 63:0 64:0 
-1 1 1 1 1 1 1 1 0.3500703130027557 1:0 2:0 3:1 4:10 5:6 6:0 7:0 8:0 9:0 10:0 11:11 12:16 13:4 14:0 15:0 16:0 17:0 18:0 19:1 20:10 21:5 22:0 23:0 24:0 25:0 26:0 27:0 28:8 29:8 30:0 31:0 32:0 33:0 34:0 35:0 36:8 37:8 38:0 39:0 40:0 41:0 42:0 43:0 44:8 45:8 46:0 47:0 48:0 49:0 50:0 51:0 52:8 53:10 54:2 55:0 56:0 57:0 58:0 59:0 60:14 61:12 62:9 63:0 64:0 
-1 1 1 1 1 1 1 1 0.3396440425208048 1:0 2:0 3:2 4:14 5:2 6:0 7:0 8:0 9:0 10:0 11:12 12:16 13:4 14:0 15:0 16:0 17:0 18:0 19:10 20:13 21:4 22:0 23:0 24:0 25:0 26:0 27:0 28:12 29:4 30:0 31:0 32:0 33:0 34:0 35:0 36:12 37:4 38:0 39:0 40:0 41:0 42:0 43:0 44:12 45:4 46:0 47:0 48:0 49:0 50:1 51:4 52:14 53:10 54:10 55:5 56:0 57:0 58:7 59:13 60:11 61:8 62:8 63:3 64:0 
-1 1 1 1 1 1 1 1 0.350744533112954 1:0 2:0 3:2 4:13 5:4 6:0 7:0 8:0 9:0 10:0 11:14 12:13 13:4 14:0 15:0 16:0 17:0 18:0 19:2 20:12 21:4 22:0 23:0 24:0 25:0 26:0 27:0 28:12 29:4 30:0 31:0 32:0 33:0 34:0 35:0 36:12 37:4 38:0 39:0 40:0 41:0 42:0 43:0 44:12 45:4 46:0 47:0 48:0 49:0 50:0 51:0 52:12 53:3 54:0 55:0 56:0 57:0 58:7 59:16 60:16 61:16 62:16 63:7 64:0 
-0.9702804490616214 -0.7839414256647957 0.9964997745915828 0.9960322153851953 0.9989484553999777 0.9773584188140813 0.9784283141905485 0.9962839972891545 0.2545722450030566 1:0 2:0 3:4 4:11 5:16 6:10 7:0 8:0 9:0 10:5 11:16 12:10 13:6 14:16 15:3 16:0 17:0 18:15 19:8 20:0 21:5 22:16 23:2 24:0 25:0 26:3 27:0 28:1 29:13 30:10 31:0 32:0 33:0 34:0 35:1 36:13 37:13 38:1 39:0 40:0 41:0 42:3 43:14 44:13 45:1 46:0 47:0 48:0 49:2 50:15 51:16 52:10 53:12 54:12 55:16 56:5 57:5 58:16 59:13 60:12 61:8 62:8 63:5 64:0 
-0.9713332960123722 -0.7848077537215213 0.998047912030272 0.996356999149876 0.9999993280450629 0.9785322061396617 0.979777907237384 0.9972413352313708 0.2548778179063618 1:0 2:5 3:14 4:16 5:12 6:1 7:0 8:0 9:5 10:16 11:11 12:8 13:14 14:10 15:0 16:0 17:12 18:12 19:0 20:0 21:10 22:12 23:0 24:0 25:2 26:1 27:0 28:3 29:16 30:6 31:0 32:0 33:0 34:0 35:1 36:13 37:13 38:0 39:0 40:0 41:0 42:3 43:15 44:13 45:1 46:0 47:0 48:0 49:4 50:15 51:16 52:12 53:12 54:12 55:12 56:8 57:9 58:15 59:12 60:12 61:12 62:9 63:11 64:6 
-0.9710015811941106 -0.7847291692530928 0.997566636240753 0.9964445605771888 1 0.9787942936945007 0.9793515732731489 0.9972170349945321 0.2548242873198266 1:0 2:6 3:15 4:14 5:6 6:0 7:0 8:0 9:3 10:13 11:1 12:0 13:14 14:1 15:0 16:0 17:1 18:4 19:0 20:0 21:12 22:2 23:0 24:0 25:0 26:0 27:0 28:1 29:14 30:0 31:0 32:0 33:0 34:0 35:0 36:8 37:8 38:0 39:0 40:0 41:0 42:0 43:3 44:13 45:0 46:0 47:0 48:0 49:0 50:3 51:15 52:8 53:8 54:11 55:13 56:5 57:0 58:13 59:12 60:8 61:6 62:4 63:1 64:0 
-0.9706625251598371 -0.784895184715876 0.9974638417125014 0.9971040371744906 0.9999996696985243 0.9786132324092781 0.9798646750574508 0.9977765932756382 0.2548460337056716 1:0 2:4 3:8 4:6 5:0 6:0 7:0 8:0 9:0 10:14 11:10 12:14 13:7 14:0 15:0 16:0 17:0 18:0 19:1 20:14 21:7 22:0 23:0 24:0 25:0 26:1 27:13 28:12 29:0 30:0 31:0 32:0 33:0 34:12 35:13 36:1 37:0 38:0 39:0 40:0 41:9 42:13 43:1 44:0 45:0 46:0 47:1 48:2 49:15 50:13 51:10 52:12 53:12 54:15 55:16 56:14 57:2 58:8 59:8 60:8 61:5 62:4 63:2 64:0 
-0.970671223995046 -0.7848104387659368 0.9975585855644432 0.9963243461938243 0.9999998981724237 0.9784801789578476 0.979397970828236 0.9970692560882641 0.2549052187829614 1:0 2:5 3:13 4:9 5:0 6:0 7:0 8:0 9:0 10:15 11:14 12:16 13:3 14:0 15:0 16:0 17:0 18:0 19:0 20:16 21:8 22:0 23:0 24:0 25:0 26:0 27:0 28:16 29:8 30:0 31:0 32:0 33:0 34:0 35:3 36:16 37:4 38:0 39:0 40:0 41:1 42:10 43:14 44:16 45:13 46:12 47:12 48:6 49:11 50:16 51:16 52:11 53:10 54:12 55:12 56:8 57:6 58:12 59:8 60:0 61:0 62:0 63:0 64:0 
-0.9555236372532134 -0.7724811660494764 0.9819221871875309 0.9810244946083163 0.9845290227063537 0.9631829650017758 0.9641488096771496 0.9814758728105368 0.2506430825246942 1:0 2:0 3:1 4:12 5:14 6:2 7:0 8:0 9:0 10:0 11:13 12:15 13:16 14:4 15:0 16:0 17:0 18:0 19:7 20:7 21:16 22:4 23:0 24:0 25:0 26:0 27:0 28:10 29:15 30:0 31:0 32:0 33:0 34:0 35:3 36:16 37:8 38:0 39:7 40:2 41:0 42:1 43:14 44:16 45:10 46:13 47:16 48:4 49:2 50:15 51:16 52:16 53:15 54:11 55:5 56:0 57:4 58:12 59:5 60:3 61:0 62:0 63:0 64:0 
-0.9703270238556919 -0.7844511432993142 0.9971924672850255 0.9967334751747 0.999597619841129 0.9780997439693224 0.9792727124507018 0.9972095096593191 0.2546710326070197 1:0 2:1 3:10 4:13 5:3 6:0 7:0 8:0 9:0 10:15 11:16 12:15 13:13 14:0 15:0 16:0 17:0 18:7 19:3 20:12 21:16 22:0 23:0 24:0 25:0 26:0 27:1 28:15 29:11 30:0 31:0 32:0 33:0 34:0 35:9 36:16 37:4 38:0 39:0 40:0 41:0 42:6 43:16 44:13 45:4 46:6 47:8 48:1 49:4 50:16 51:16 52:16 53:16 54:16 55:16 56:6 57:3 58:12 59:10 60:8 61:4 62:4 63:4 64:0 
-0.9707222966588944 -0.7846541661646658 0.9974814368131063 0.9961134429109159 0.9999998052300559 0.9786627670708183 0.9792938778806265 0.9975103944580289 0.2547668675759207 1:0 2:1 3:8 4:13 5:5 6:0 7:0 8:0 9:0 10:10 11:16 12:16 13:14 14:0 15:0 16:0 17:0 18:2 19:3 20:8 21:16 22:0 23:0 24:0 25:0 26:0 27:0 28:8 29:16 30:0 31:0 32:0 33:0 34:0 35:0 36:11 37:14 38:0 39:0 40:0 41:0 42:1 43:8 44:16 45:9 46:2 47:2 48:0 49:0 50:11 51:16 52:16 53:16 54:16 55:12 56:0 57:0 58:8 59:11 60:5 61:8 62:9 63:2 64:0 
-0.9709813181579023 -0.7848044015482337 0.9975289549713945 0.9966073928955903 1 0.9783684375218036 0.9791932291819267 0.9968389289906597 0.2548243610705392 1:0 2:0 3:3 4:13 5:15 6:2 7:0 8:0 9:0 10:0 11:10 12:3 13:9 14:4 15:0 16:0 17:0 18:0 19:0 20:0 21:14 22:2 23:0 24:0 25:0 26:0 27:0 28:8 29:8 30:0 31:0 32:0 33:0 34:0 35:2 36:14 37:1 38:0 39:0 40:0 41:0 42:0 43:10 44:6 45:0 46:0 47:0 48:0 49:0 50:0 51:16 52:0 53:0 54:0 55:0 56:0 57:0 58:0 59:9 60:15 61:16 62:14 63:0 64:0 
-0.9714659069457239 -0.7843901750301998 0.9975082097495829 0.9970769235112651 0.9999429199926537 0.9784765327480773 0.9796104338784521 0.997083720885089 0.2548190011587439 1:0 2:0 3:13 4:15 5:8 6:0 7:0 8:0 9:0 10:7 11:14 12:7 13:16 14:2 15:0 16:0 17:0 18:1 19:2 20:4 21:16 22:1 23:0 24:0 25:0 26:0 27:0 28:10 29:13 30:0 31:0 32:0 33:0 34:0 35:2 36:16 37:6 38:0 39:0 40:0 41:0 42:0 43:10 44:13 45:0 46:4 47:2 48:0 49:0 50:1 51:16 52:14 53:15 54:16 55:6 56:0 57:0 58:1 59:13 60:10 61:6 62:1 63:0 64:0 
-0.971465438711586 -0.7845901984909037 0.9976165570355928 0.9971401871678379 0.9999999999986413 0.9785253623481451 0.9793581204945273 0.9977637785655218 0.2548352850155571 1:0 2:3 3:12 4:5 5:0 6:0 7:0 8:0 9:3 10:15 11:16 12:16 13:4 14:0 15:0 16:0 17:11 18:16 19:15 20:16 21:8 22:0 23:0 24:0 25:5 26:10 27:8 28:16 29:8 30:0 31:0 32:0 33:0 34:0 35:11 36:16 37:5 38:0 39:4 40:1 41:0 42:4 43:16 44:16 45:15 46:16 47:16 48:11 49:0 50:12 51:16 52:16 53:16 54:15 55:12 56:6 57:0 58:5 59:11 60:7 61:2 62:0 63:0 64:0 
-0.9691381048537915 -0.7834332177546479 0.9957593952338005 0.9946364313451116 0.9980551480009867 0.9766797222122962 0.9780981852297923 0.9959862878763166 0.2543731131996378 1:0 2:0 3:2 4:8 5:7 6:0 7:0 8:0 9:0 10:0 11:13 12:9 13:12 14:7 15:0 16:0 17:0 18:0 19:0 20:1 21:14 22:4 23:0 24:0 25:0 26:0 27:0 28:10 29:10 30:0 31:0 32:0 33:0 34:1 35:12 36:10 37:0 38:0 39:0 40:0 41:1 42:13 43:8 44:0 45:0 46:0 47:0 48:0 49:13 50:15 51:12 52:12 53:15 54:16 55:16 56:12 57:7 58:7 59:4 60:4 61:2 62:0 63:1 64:2 
-0.971416999267207 -0.7847845031433062 0.9973242427279722 0.9969447288476405 0.9999999992470533 0.9782908300359168 0.9793445923210785 0.9976343380575587 0.2548107653716798 1:1 2:10 3:12 4:11 5:1 6:0 7:0 8:0 9:8 10:16 11:16 12:16 13:12 14:0 15:0 16:0 17:1 18:6 19:4 20:16 21:16 22:0 23:0 24:0 25:0 26:0 27:6 28:16 29:14 30:0 31:0 32:0 33:0 34:2 35:15 36:16 37:6 38:0 39:0 40:0 41:2 42:13 43:16 44:15 45:6 46:4 47:4 48:0 49:8 50:16 51:16 52:16 53:16 54:16 55:16 56:7 57:1 58:8 59:8 60:8 61:11 62:12 63:12 64:3 
-0.9712883272021912 -0.7847589763041425 0.9976960141009252 0.996981968403978 0.9999999994828361 0.9783354023060593 0.979750680850402 0.9976543385432201 0.2548015744623889 1:0 2:0 3:1 4:10 5:14 6:14 7:1 8:0 9:0 10:0 11:1 12:9 13:10 14:16 15:2 16:0 17:0 18:0 19:0 20:1 21:14 22:9 23:0 24:0 25:0 26:0 27:1 28:13 29:13 30:1 31:0 32:0 33:0 34:0 35:10 36:13 37:1 38:0 39:0 40:0 41:0 42:9 43:15 44:3 45:0 46:0 47:0 48:0 49:2 50:16 51:9 52:8 53:11 54:13 55:13 56:2 57:2 58:13 59:15 60:12 61:9 62:7 63:7 64:1 
-0.9700076009266789 -0.783670758259894 0.9962030845636691 0.995422475490184 0.9986464479899245 0.9771597129321582 0.9777625053369164 0.9958889467001264 0.2544203632723266 1:0 2:0 3:2 4:11 5:16 6:12 7:0 8:0 9:0 10:0 11:13 12:11 13:5 14:16 15:3 16:0 17:0 18:0 19:3 20:0 21:6 22:14 23:0 24:0 25:0 26:0 27:0 28:1 29:15 30:6 31:0 32:0 33:0 34:0 35:0 36:12 37:12 38:0 39:0 40:0 41:0 42:0 43:10 44:13 45:1 46:0 47:0 48:0 49:0 50:10 51:16 52:9 53:12 54:12 55:12 56:2 57:2 58:14 59:12 60:10 61:8 62:8 63:8 64:0 
-0.9710677546159381 -0.7847519419100795 0.9976980571069546 0.996925672002218 0.9998281936714331 0.9786443737086593 0.9797166953269084 0.9969347850097559 0.2545827784527381 1:0 2:1 3:7 4:8 5:5 6:0 7:0 8:0 9:0 10:14 11:14 12:12 13:16 14:5 15:0 16:0 17:0 18:2 19:0 20:0 21:12 22:8 23:0 24:0 25:0 26:0 27:0 28:2 29:15 30:6 31:0 32:0 33:0 34:0 35:3 36:14 37:10 38:0 39:0 40:0 41:0 42:8 43:16 44:10 45:3 46:4 47:4 48:2 49:13 50:16 51:16 52:16 53:16 54:16 55:16 56:13 57:6 58:8 59:5 60:4 61:0 62:0 63:0 64:0 
-0.9705809768126351 -0.7846743253435839 0.9975339451697667 0.9966140789640325 0.9999999999993823 0.9785624782062442 0.9789230791073122 0.9977476080597015 0.2548401503889361 1:0 2:0 3:3 4:11 5:16 6:8 7:0 8:0 9:0 10:2 11:15 12:11 13:5 14:16 15:2 16:0 17:0 18:1 19:5 20:0 21:0 22:14 23:4 24:0 25:0 26:0 27:0 28:0 29:1 30:16 31:4 32:0 33:0 34:0 35:0 36:0 37:6 38:14 39:0 40:0 41:0 42:0 43:0 44:3 45:15 46:6 47:0 48:0 49:0 50:3 51:9 52:15 53:16 54:12 55:11 56:0 57:0 58:14 59:13 60:12 61:8 62:8 63:7 64:0 
-0.9715026135598956 -0.7846904845162929 0.9975858265676522 0.9971266252110855 0.9999999652477892 0.9785228096520769 0.9793484807770995 0.9977684923621255 0.2548322413676095 1:0 2:0 3:0 4:8 5:13 6:14 7:4 8:0 9:0 10:0 11:7 12:16 13:11 14:14 15:12 16:0 17:0 18:0 19:15 20:11 21:3 22:16 23:8 24:0 25:0 26:0 27:3 28:6 29:15 30:13 31:1 32:0 33:0 34:0 35:6 36:16 37:13 38:1 39:0 40:0 41:0 42:6 43:16 44:10 45:5 46:4 47:6 48:0 49:0 50:15 51:16 52:15 53:16 54:16 55:15 56:0 57:0 58:11 59:12 60:9 61:5 62:2 63:0 64:0 
-0.9707399872687285 -0.7848994570671389 0.9975497958710665 0.9964489843858685 0.9999901996582127 0.9784342824324471 0.9793559304894534 0.9971421007033263 0.2544418408307442 1:0 2:0 3:1 4:12 5:16 6:6 7:0 8:0 9:0 10:0 11:6 12:13 13:6 14:16 15:0 16:0 17:0 18:0 19:0 20:0 21:1 22:16 23:0 24:0 25:0 26:0 27:0 28:0 29:5 30:15 31:0 32:0 33:0 34:0 35:0 36:2 37:14 38:8 39:0 40:0 41:0 42:0 43:3 44:15 45:10 46:0 47:0 48:0 49:0 50:3 51:15 52:15 53:8 54:4 55:1 56:0 57:0 58:6 59:12 60:12 61:12 62:13 63:7 64:0 
-0.9701271945608068 -0.7842609579484433 0.996720907129497 0.9963860292367372 0.9992767461030336 0.9778229164055245 0.9786290497131747 0.9965802053322815 0.2546634238502148 1:0 2:1 3:8 4:15 5:14 6:2 7:0 8:0 9:0 10:11 11:14 12:6 13:16 14:4 15:0 16:0 17:0 18:7 19:3 20:3 21:16 22:2 23:0 24:0 25:0 26:0 27:0 28:11 29:12 30:0 31:0 32:0 33:0 34:0 35:8 36:15 37:2 38:0 39:0 40:0 41:0 42:4 43:16 44:3 45:1 46:4 47:6 48:1 49:1 50:14 51:16 52:16 53:16 54:16 55:14 56:3 57:3 58:14 59:7 60:4 61:3 62:0 63:0 64:0 
-0.9555426964454516 -0.7723620512202458 0.981914220096027 0.9810193029830503 0.9843395407982904 0.9637937538773178 0.963602716536631 0.9820921008181239 0.2508906227691413 1:0 2:0 3:1 4:12 5:12 6:1 7:0 8:0 9:0 10:1 11:15 12:16 13:16 14:7 15:0 16:0 17:0 18:1 19:10 20:7 21:16 22:6 23:0 24:0 25:0 26:0 27:0 28:12 29:15 30:1 31:0 32:0 33:0 34:0 35:8 36:16 37:7 38:0 39:0 40:0 41:0 42:6 43:16 44:13 45:9 46:13 47:15 48:4 49:4 50:16 51:16 52:16 53:16 54:12 55:12 56:2 57:3 58:12 59:11 60:6 61:1 62:0 63:0 64:0 
-0.9697814683370576 -0.7834471055443567 0.9958311204339485 0.9954116372590716 0.9983478974031859 0.9767789925634343 0.977656929265154 0.9960457254098696 0.2543923371057059 1:0 2:0 3:1 4:9 5:6 6:0 7:0 8:0 9:0 10:2 11:14 12:15 13:14 14:0 15:0 16:0 17:0 18:1 19:7 20:10 21:12 22:0 23:0 24:0 25:0 26:0 27:1 28:15 29:6 30:0 31:0 32:0 33:0 34:1 35:13 36:13 37:0 38:0 39:0 40:0 41:1 42:13 43:13 44:1 45:0 46:3 47:4 48:2 49:13 50:16 51:13 52:15 53:16 54:16 55:16 56:14 57:8 58:10 59:8 60:5 61:4 62:0 63:0 64:0 
-0.9710955735635231 -0.7845302708831886 0.9978073558907555 0.9968824942074327 0.9999999999807696 0.9782480811285413 0.9796183525100312 0.996982766460528 0.2547589114659946 1:0 2:2 3:7 4:8 5:7 6:1 7:0 8:0 9:3 10:15 11:13 12:8 13:13 14:11 15:0 16:0 17:1 18:4 19:0 20:0 21:11 22:10 23:0 24:0 25:0 26:0 27:0 28:7 29:15 30:1 31:0 32:0 33:0 34:0 35:10 36:15 37:3 38:0 39:0 40:0 41:1 42:13 43:13 44:2 45:0 46:0 47:0 48:0 49:15 50:16 51:16 52:16 53:16 54:15 55:12 56:9 57:3 58:4 59:4 60:4 61:4 62:4 63:6 64:7 
-0.9705147647435441 -0.7844918625872986 0.9970400510370572 0.9958613684737418 0.9993569942073752 0.9776564442382869 0.97883422856834 0.9972570358118009 0.2546411739638636 1:0 2:0 3:8 4:15 5:12 6:1 7:0 8:0 9:0 10:10 11:15 12:9 13:15 14:8 15:0 16:0 17:0 18:14 19:8 20:2 21:16 22:6 23:0 24:0 25:0 26:4 27:1 28:10 29:14 30:0 31:0 32:0 33:0 34:0 35:6 36:16 37:5 38:0 39:0 40:0 41:0 42:6 43:16 44:10 45:0 46:0 47:0 48:0 49:4 50:16 51:16 52:12 53:12 54:14 55:16 56:5 57:5 58:14 59:12 60:11 61:8 62:8 63:8 64:3 
-0.9707099058954067 -0.7847748660544708 0.9971248659722487 0.9971321828060103 0.9999998790567475 0.9785826596625276 0.9794018409628631 0.9974611652764974 0.254824538616548 1:0 2:6 3:15 4:15 5:6 6:0 7:0 8:0 9:0 10:12 11:5 12:4 13:15 14:0 15:0 16:0 17:0 18:5 19:1 20:1 21:16 22:0 23:0 24:0 25:0 26:0 27:0 28:8 29:10 30:0 31:0 32:0 33:0 34:0 35:3 36:15 37:2 38:0 39:0 40:0 41:0 42:3 43:15 44:5 45:0 46:0 47:0 48:0 49:3 50:15 51:10 52:4 53:4 54:4 55:4 56:2 57:11 58:13 59:12 60:12 61:12 62:12 63:12 64:8 
-0.9711778176646038 -0.7845735371960993 0.9973227237590295 0.9968848434979865 0.9996798641540492 0.978250409487655 0.9792042989063159 0.9970214319034584 0.2547666879600793 1:0 2:0 3:1 4:12 5:13 6:1 7:0 8:0 9:0 10:0 11:4 12:6 13:12 14:4 15:0 16:0 17:0 18:0 19:0 20:0 21:12 22:4 23:0 24:0 25:0 26:0 27:0 28:2 29:15 30:0 31:0 32:0 33:0 34:0 35:0 36:12 37:7 38:0 39:0 40:0 41:0 42:0 43:8 44:12 45:0 46:0 47:0 48:0 49:0 50:5 51:15 52:5 53:6 54:8 55:6 56:0 57:0 58:11 59:14 60:12 61:11 62:8 63:5 64:0 
-0.971524729007931 -0.7847840722095741 0.997494425385532 0.9971346217063822 0.9999999999999907 0.9784276353213649 0.9793486038211235 0.9977307834888722 0.2548355642368348 1:0 2:1 3:11 4:12 5:11 6:5 7:0 8:0 9:0 10:4 11:16 12:16 13:16 14:16 15:5 16:0 17:0 18:1 19:8 20:5 21:10 22:16 23:11 24:0 25:0 26:6 27:15 28:16 29:16 30:15 31:3 32:0 33:0 34:12 35:16 36:13 37:7 38:1 39:0 40:0 41:0 42:12 43:16 44:5 45:2 46:2 47:3 48:0 49:0 50:15 51:16 52:16 53:16 54:16 55:16 56:0 57:0 58:11 59:10 60:8 61:12 62:12 63:8 64:0 
-0.9687782315037907 -0.7825978923096354 0.9947597320687338 0.9943252290327801 0.997112438231357 0.9756620739816918 0.9765531973464996 0.9946312774079562 0.253406299165485 1:0 2:0 3:8 4:14 5:15 6:6 7:0 8:0 9:0 10:7 11:15 12:6 13:10 14:14 15:0 16:0 17:0 18:1 19:1 20:0 21:12 22:10 23:0 24:0 25:0 26:0 27:0 28:6 29:16 30:2 31:0 32:0 33:0 34:0 35:6 36:16 37:6 38:0 39:0 40:0 41:0 42:6 43:16 44:6 45:0 46:0 47:0 48:0 49:6 50:16 51:15 52:12 53:12 54:12 55:11 56:8 57:10 58:12 59:10 60:8 61:8 62:8 63:9 64:8 
-0.9714768111061696 -0.784818928020664 0.9975247648165374 0.9964095546884723 0.9999567228638817 0.9783765707886738 0.9792966804696097 0.9975793936633105 0.25477697227371 1:0 2:0 3:5 4:13 5:15 6:9 7:0 8:0 9:0 10:2 11:16 12:12 13:9 14:16 15:5 16:0 17:0 18:2 19:11 20:1 21:0 22:16 23:8 24:0 25:0 26:0 27:0 28:0 29:6 30:16 31:3 32:0 33:0 34:0 35:0 36:3 37:15 38:11 39:0 40:0 41:0 42:0 43:8 44:16 45:13 46:1 47:0 48:0 49:1 50:13 51:16 52:16 53:16 54:16 55:15 56:3 57:2 58:12 59:12 60:9 61:8 62:8 63:8 64:1 
-0.9700776537920123 -0.7843898463308667 0.9964709677213137 0.9963070201861474 0.9992864706779161 0.9776707282036149 0.9790118747430295 0.9967849066426546 0.2545621448838181 1:0 2:0 3:1 4:12 5:15 6:3 7:0 8:0 9:0 10:0 11:8 12:15 13:14 14:11 15:0 16:0 17:0 18:0 19:2 20:3 21:15 22:8 23:0 24:0 25:0 26:0 27:0 28:11 29:15 30:1 31:0 32:0 33:0 34:0 35:9 36:15 37:3 38:0 39:0 40:0 41:0 42:5 43:16 44:6 45:0 46:0 47:0 48:0 49:0 50:14 51:16 52:16 53:16 54:12 55:8 56:0 57:0 58:12 59:11 60:5 61:6 62:9 63:10 64:0 
-0.9672962434910261 -0.7820685305484245 0.9941786573667828 0.9928052880007564 0.9963759211970575 0.9749441944522714 0.9757384168713797 0.9941219712968364 0.2539051465833931 1:0 2:0 3:7 4:15 5:13 6:3 7:0 8:0 9:0 10:0 11:16 12:11 13:13 14:13 15:0 16:0 17:0 18:0 19:7 20:2 21:10 22:13 23:0 24:0 25:0 26:0 27:0 28:6 29:16 30:7 31:0 32:0 33:0 34:0 35:5 36:16 37:10 38:0 39:0 40:0 41:0 42:3 43:15 44:10 45:0 46:0 47:0 48:0 49:3 50:15 51:16 52:12 53:14 54:16 55:16 56:7 57:5 58:12 59:12 60:9 61:8 62:8 63:4 64:1 
-0.9708155636674927 -0.7845456212248828 0.9973215464185832 0.99608747426355 0.999961693164685 0.9781662464694989 0.9790912483108006 0.997542084522011 0.2547700397055639 1:0 2:0 3:9 4:15 5:6 6:0 7:0 8:0 9:0 10:6 11:16 12:13 13:15 14:0 15:0 16:0 17:0 18:14 19:10 20:6 21:16 22:0 23:0 24:0 25:0 26:5 27:1 28:10 29:14 30:0 31:0 32:0 33:0 34:0 35:6 36:16 37:6 38:0 39:0 40:0 41:0 42:4 43:16 44:10 45:4 46:5 47:11 48:0 49:0 50:8 51:16 52:16 53:16 54:16 55:12 56:0 57:0 58:6 59:10 60:0 61:2 62:4 63:0 64:0 
-0.9714204870266481 -0.7850113997977044 0.9972754475097541 0.9971329548707217 0.9999999999999971 0.9785253447428195 0.9793481420061172 0.9977708343873066 0.254771582009844 1:0 2:0 3:6 4:15 5:12 6:1 7:0 8:0 9:0 10:4 11:16 12:7 13:13 14:10 15:0 16:0 17:0 18:1 19:2 20:0 21:6 22:15 23:0 24:0 25:0 26:0 27:0 28:0 29:4 30:16 31:0 32:0 33:0 34:6 35:7 36:2 37:11 38:12 39:0 40:0 41:4 42:16 43:16 44:16 45:16 46:5 47:0 48:0 49:0 50:8 51:12 52:10 53:13 54:15 55:8 56:1 57:0 58:0 59:0 60:0 61:0 62:6 63:13 64:3 
-0.9707298118053178 -0.784759742555482 0.9971045724289863 0.996629330580283 0.9999999998302003 0.9788003711680426 0.979335522645576 0.9977738850382307 0.2547717975327932 1:0 2:0 3:9 4:14 5:2 6:0 7:0 8:0 9:0 10:12 11:16 12:15 13:9 14:0 15:0 16:0 17:0 18:6 19:3 20:13 21:10 22:0 23:0 24:0 25:0 26:0 27:2 28:16 29:7 30:0 31:0 32:0 33:0 34:0 35:11 36:15 37:3 38:9 39:15 40:3 41:0 42:6 43:16 44:14 45:16 46:15 47:10 48:1 49:2 50:15 51:16 52:14 53:6 54:1 55:0 56:0 57:3 58:12 59:6 60:0 61:0 62:0 63:0 64:0 
-0.9707004818851475 -0.7846733376439734 0.9975593534527528 0.9966285951018948 0.9999999916588753 0.9785123271625021 0.979319019690519 0.9968106571350371 0.2544400241603176 1:0 2:0 3:2 4:12 5:12 6:1 7:0 8:0 9:0 10:0 11:16 12:14 13:16 14:4 15:0 16:0 17:0 18:0 19:1 20:11 21:14 22:0 23:0 24:0 25:0 26:0 27:4 28:16 29:4 30:0 31:0 32:0 33:0 34:0 35:14 36:10 37:0 38:0 39:0 40:0 41:0 42:6 43:16 44:13 45:6 46:0 47:0 48:0 49:0 50:12 51:15 52:12 53:16 54:13 55:15 56:0 57:0 58:12 59:4 60:0 61:5 62:12 63:5 64:0 
-0.9706729941490512 -0.7847717021131928 0.9978823825599776 0.996636113751139 0.9999996292205637 0.978976312181262 0.9793257346783676 0.9972586361097682 0.2548310091070987 1:0 2:0 3:6 4:13 5:16 6:9 7:0 8:0 9:0 10:13 11:14 12:7 13:11 14:11 15:0 16:0 17:0 18:3 19:0 20:2 21:15 22:4 23:0 24:0 25:0 26:0 27:0 28:11 29:11 30:0 31:0 32:0 33:0 34:0 35:7 36:15 37:1 38:0 39:3 40:2 41:0 42:6 43:16 44:8 45:11 46:15 47:16 48:9 49:5 50:16 51:16 52:15 53:9 54:4 55:0 56:0 57:10 58:11 59:5 60:0 61:0 62:0 63:0 64:0 
-0.9706209970305003 -0.7848380781315567 0.9978224688600837 0.996371636593119 0.9999999792702507 0.9784856007245248 0.9794635770222879 0.9977662939360954 0.2548454962675375 1:1 2:8 3:12 4:11 5:3 6:0 7:0 8:0 9:13 10:11 11:5 12:8 13:14 14:0 15:0 16:0 17:11 18:2 19:0 20:4 21:15 22:0 23:0 24:0 25:0 26:0 27:0 28:11 29:8 30:0 31:0 32:0 33:0 34:0 35:6 36:15 37:1 38:0 39:0 40:0 41:0 42:6 43:15 44:3 45:0 46:4 47:4 48:3 49:6 50:16 51:13 52:14 53:16 54:16 55:16 56:13 57:8 58:12 59:8 60:4 61:1 62:0 63:0 64:0 
-0.9708824247377429 -0.7848325454341653 0.9975453862214202 0.9962124999093149 0.9999816627246183 0.9783526644919978 0.9793510369763696 0.9977128647767908 0.2547683361175535 1:0 2:0 3:6 4:15 5:14 6:3 7:0 8:0 9:0 10:0 11:6 12:1 13:6 14:8 15:0 16:0 17:0 18:0 19:0 20:0 21:4 22:8 23:0 24:0 25:0 26:0 27:0 28:0 29:9 30:7 31:0 32:0 33:0 34:0 35:0 36:1 37:14 38:1 39:0 40:0 41:0 42:0 43:1 44:13 45:6 46:0 47:0 48:0 49:0 50:4 51:13 52:6 53:0 54:0 55:0 56:0 57:4 58:16 59:13 60:12 61:16 62:16 63:16 64:3 
-0.9695196597451825 -0.7835123673933134 0.9962152591927936 0.9950585515585068 0.9986661025210135 0.9773938566918368 0.9784527659869532 0.9964030674748693 0.2544772176648429 1:0 2:0 3:3 4:13 5:14 6:3 7:0 8:0 9:0 10:0 11:14 12:9 13:10 14:10 15:0 16:0 17:0 18:0 19:6 20:0 21:14 22:6 23:0 24:0 25:0 26:0 27:0 28:8 29:14 30:0 31:0 32:0 33:0 34:0 35:3 36:16 37:4 38:0 39:0 40:0 41:0 42:0 43:14 44:8 45:0 46:0 47:3 48:0 49:0 50:8 51:16 52:15 53:12 54:16 55:15 56:0 57:0 58:13 59:7 60:4 61:4 62:4 63:0 64:0 
-0.9713051246539094 -0.7846544505645723 0.9968783461781829 0.9969140142216465 0.9999880756360331 0.9788497106878592 0.9791324579703873 0.9975616902949174 0.2547773082147767 1:0 2:0 3:3 4:14 5:15 6:3 7:0 8:0 9:0 10:0 11:12 12:11 13:11 14:8 15:0 16:0 17:0 18:0 19:5 20:1 21:11 22:8 23:0 24:0 25:0 26:0 27:0 28:3 29:16 30:2 31:0 32:0 33:0 34:0 35:0 36:12 37:9 38:0 39:0 40:0 41:0 42:0 43:4 44:15 45:1 46:0 47:0 48:0 49:0 50:0 51:12 52:15 53:6 54:8 55:0 56:0 57:0 58:0 59:11 60:8 61:14 62:10 63:0 64:0 
-0.9705116275335803 -0.7844219990795949 0.9975345398044753 0.9966097219852738 0.9993486020128045 0.9780222884837163 0.9783816576663654 0.9972264164930442 0.254634574102327 1:0 2:6 3:14 4:15 5:6 6:0 7:0 8:0 9:0 10:14 11:7 12:10 13:11 14:0 15:0 16:0 17:0 18:5 19:2 20:14 21:5 22:0 23:0 24:0 25:0 26:0 27:6 28:12 29:0 30:0 31:0 32:0 33:0 34:0 35:14 36:4 37:0 38:0 39:0 40:0 41:0 42:8 43:12 44:0 45:0 46:0 47:0 48:0 49:1 50:15 51:11 52:8 53:8 54:8 55:11 56:3 57:4 58:15 59:12 60:9 61:8 62:8 63:8 64:1 
-0.971169999543985 -0.7848554342508597 0.997060454954492 0.9970816781835729 0.999954086371887 0.9784756552701575 0.9792803874828377 0.9975226372006084 0.2547708030749335 1:0 2:3 3:14 4:16 5:8 6:0 7:0 8:0 9:0 10:13 11:10 12:7 13:16 14:0 15:0 16:0 17:0 18:2 19:0 20:10 21:12 22:0 23:0 24:0 25:0 26:0 27:3 28:16 29:4 30:0 31:0 32:0 33:0 34:1 35:13 36:9 37:0 38:0 39:0 40:0 41:0 42:10 43:13 44:3 45:7 46:11 47:12 48:5 49:5 50:16 51:15 52:16 53:13 54:9 55:8 56:3 57:6 58:14 59:8 60:2 61:0 62:0 63:0 64:0 
-0.9706551663052544 -0.7846844979193844 0.9980368848541877 0.9971190353909725 1 0.9783464505641444 0.9793526001390048 0.9972531346875549 0.2548438503829384 1:0 2:3 3:11 4:16 5:16 6:11 7:1 8:0 9:0 10:14 11:6 12:0 13:0 14:11 15:7 16:0 17:1 18:6 19:0 20:0 21:0 22:10 23:7 24:0 25:0 26:0 27:0 28:0 29:4 30:15 31:1 32:0 33:0 34:0 35:0 36:3 37:14 38:3 39:0 40:0 41:0 42:0 43:6 44:15 45:3 46:0 47:0 48:0 49:1 50:11 51:13 52:2 53:0 54:0 55:0 56:0 57:7 58:16 59:16 60:16 61:16 62:16 63:16 64:7 
-0.9713461894730314 -0.7849499885889554 0.9975472830185081 0.9971326012819286 0.9999999944112565 0.9788009096172696 0.979357876987255 0.9974438736015225 0.2548299864707232 1:0 2:0 3:5 4:11 5:9 6:1 7:0 8:0 9:0 10:1 11:16 12:13 13:15 14:9 15:0 16:0 17:0 18:3 19:15 20:0 21:11 22:11 23:0 24:0 25:0 26:0 27:0 28:6 29:16 30:4 31:0 32:0 33:0 34:0 35:7 36:16 37:7 38:4 39:8 40:7 41:0 42:10 43:16 44:16 45:16 46:16 47:14 48:9 49:10 50:16 51:14 52:9 53:4 54:0 55:0 56:0 57:7 58:6 59:0 60:0 61:0 62:0 63:0 64:0 
-0.9706231952809272 -0.7847749508380385 0.9978572540692815 0.9966341673507167 0.9999999566654308 0.9785487901012259 0.979223650939528 0.9975500825518667 0.2547715818004992 1:0 2:6 3:14 4:16 5:11 6:3 7:0 8:0 9:4 10:15 11:7 12:4 13:12 14:11 15:0 16:0 17:0 18:0 19:0 20:0 21:4 22:12 23:0 24:0 25:0 26:0 27:0 28:0 29:8 30:12 31:0 32:0 33:0 34:0 35:0 36:0 37:14 38:7 39:0 40:0 41:3 42:15 43:14 44:12 45:14 46:1 47:0 48:0 49:12 50:13 51:15 52:16 53:16 54:11 55:5 56:2 57:5 58:12 59:10 60:2 61:3 62:10 63:15 64:9 
-0.9714196828112051 -0.7848136397688671 0.9978186191419892 0.9966383958049188 0.9999999999998718 0.9783807062247161 0.9793365907906637 0.9977514268855855 0.2548463870584843 1:0 2:0 3:6 4:12 5:12 6:8 7:0 8:0 9:0 10:5 11:16 12:16 13:16 14:16 15:6 16:0 17:1 18:15 19:16 20:10 21:10 22:16 23:8 24:0 25:0 26:11 27:9 28:1 29:14 30:16 31:5 32:0 33:0 34:0 35:8 36:15 37:16 38:15 39:0 40:0 41:0 42:10 43:16 44:16 45:16 46:16 47:6 48:0 49:3 50:16 51:16 52:13 53:7 54:16 55:16 56:3 57:1 58:11 59:8 60:0 61:0 62:5 63:11 64:1 
-0.9713085833222019 -0.7845105650295914 0.9979886811627586 0.9970316601418032 0.9998870158316322 0.978386526141413 0.9787840968860562 0.9975205765599625 0.2548094112770654 1:0 2:0 3:0 4:9 5:16 6:12 7:0 8:0 9:0 10:0 11:3 12:15 13:7 14:16 15:0 16:0 17:0 18:0 19:0 20:1 21:11 22:10 23:0 24:0 25:0 26:0 27:0 28:7 29:14 30:1 31:0 32:0 33:0 34:0 35:3 36:16 37:3 38:0 39:0 40:0 41:0 42:0 43:12 44:8 45:0 46:0 47:0 48:0 49:0 50:3 51:16 52:9 53:8 54:9 55:2 56:0 57:0 58:3 59:14 60:12 61:12 62:11 63:2 64:0 
-0.9713627913201934 -0.7847931663764272 0.997487257622776 0.9970737810269733 0.999997427097377 0.9783036113148896 0.9796010352567659 0.9975436933768507 0.2546081012068429 1:0 2:3 3:13 4:15 5:8 6:0 7:0 8:0 9:0 10:9 11:12 12:9 13:16 14:4 15:0 16:0 17:0 18:0 19:0 20:4 21:16 22:6 23:0 24:0 25:0 26:0 27:8 28:16 29:13 30:0 31:0 32:0 33:0 34:8 35:16 36:9 37:0 38:0 39:0 40:0 41:0 42:15 43:11 44:4 45:3 46:5 47:9 48:0 49:0 50:16 51:16 52:16 53:16 54:16 55:15 56:0 57:0 58:11 59:7 60:2 61:4 62:7 63:2 64:0 
-0.9707953675193102 -0.7846884464440742 0.9975505376029813 0.9964404186797077 1 0.9783538281648604 0.9798710181400132 0.9974559387620726 0.2547837012654037 1:0 2:6 3:11 4:9 5:0 6:0 7:0 8:0 9:7 10:16 11:16 12:16 13:3 14:0 15:0 16:0 17:3 18:8 19:13 20:16 21:1 22:0 23:0 24:0 25:0 26:2 27:16 28:13 29:0 30:0 31:0 32:0 33:0 34:10 35:16 36:6 37:0 38:0 39:0 40:0 41:2 42:16 43:12 44:0 45:1 46:5 47:10 48:3 49:7 50:16 51:16 52:16 53:16 54:16 55:16 56:7 57:1 58:10 59:12 60:12 61:11 62:8 63:3 64:0 
-0.9707050105463914 -0.7849355742922327 0.9975496204939354 0.9971147450711904 0.9999983096735656 0.9784317093776004 0.9793430643949443 0.9967976137222773 0.2548337257601214 1:0 2:4 3:11 4:14 5:16 6:11 7:1 8:0 9:3 10:16 11:10 12:6 13:5 14:14 15:8 16:0 17:0 18:3 19:0 20:0 21:0 22:13 23:8 24:0 25:0 26:0 27:0 28:4 29:14 30:15 31:2 32:0 33:0 34:0 35:9 36:16 37:9 38:1 39:0 40:0 41:0 42:8 43:15 44:4 45:0 46:0 47:0 48:0 49:3 50:16 51:14 52:14 53:13 54:12 55:11 56:4 57:5 58:14 59:9 60:7 61:7 62:8 63:12 64:3 
-0.9707284779352744 -0.7844280296333664 0.9975532140964013 0.9966331645732495 0.9999913348662024 0.9790671678793911 0.9793285803182811 0.9977657181240382 0.2549058499845428 1:0 2:1 3:9 4:15 5:11 6:0 7:0 8:0 9:0 10:11 11:13 12:5 13:16 14:3 15:0 16:0 17:0 18:12 19:2 20:0 21:13 22:4 23:0 24:0 25:0 26:0 27:0 28:0 29:13 30:4 31:0 32:0 33:0 34:0 35:0 36:4 37:16 38:2 39:0 40:0 41:0 42:0 43:2 44:13 45:9 46:0 47:0 48:0 49:0 50:8 51:15 52:15 53:9 54:8 55:7 56:0 57:2 58:13 59:15 60:12 61:12 62:12 63:12 64:2 
-0.9703493105556411 -0.7844986801131391 0.997042475946658 0.9961258757401867 0.9993982481244315 0.9779537153337716 0.9790156056133532 0.9967129259893053 0.2546410663067705 1:0 2:12 3:16 4:11 5:2 6:0 7:0 8:0 9:1 10:15 11:9 12:13 13:11 14:0 15:0 16:0 17:0 18:1 19:0 20:10 21:11 22:0 23:0 24:0 25:0 26:0 27:6 28:16 29:5 30:0 31:0 32:0 33:0 34:6 35:16 36:9 37:0 38:0 39:0 40:0 41:0 42:14 43:8 44:0 45:0 46:0 47:8 48:1 49:1 50:16 51:13 52:8 53:8 54:11 55:16 56:2 57:2 58:13 59:10 60:12 61:12 62:11 63:4 64:0 
-0.9710497425580848 -0.7846902912972959 0.9975461726081593 0.997103848868681 0.9999999921539854 0.9783984015772521 0.9795808116626158 0.9972919604756145 0.2547637294679162 1:0 2:1 3:9 4:15 5:14 6:3 7:0 8:0 9:0 10:10 11:13 12:5 13:12 14:8 15:0 16:0 17:0 18:16 19:4 20:0 21:11 22:8 23:0 24:0 25:0 26:4 27:0 28:2 29:16 30:4 31:0 32:0 33:0 34:0 35:0 36:12 37:12 38:0 39:0 40:0 41:0 42:12 43:16 44:13 45:1 46:0 47:4 48:0 49:0 50:10 51:13 52:15 53:6 54:10 55:15 56:0 57:0 58:0 59:0 60:7 61:13 62:12 63:3 64:0 
-0.9710064623431235 -0.7847608430179188 0.9975492322406772 0.9967672349212078 0.9999999996452557 0.9783655422618516 0.9793447767787516 0.9972185274433288 0.2546218100015813 1:0 2:0 3:9 4:13 5:16 6:12 7:1 8:0 9:0 10:3 11:16 12:12 13:9 14:16 15:7 16:0 17:0 18:0 19:4 20:0 21:0 22:16 23:10 24:0 25:0 26:0 27:0 28:0 29:6 30:16 31:4 32:0 33:0 34:0 35:0 36:3 37:15 38:12 39:0 40:0 41:1 42:10 43:15 44:16 45:13 46:1 47:12 48:11 49:10 50:16 51:16 52:15 53:16 54:13 55:16 56:6 57:8 58:12 59:6 60:1 61:7 62:12 63:6 64:0 
-0.9715233188106136 -0.7849501836329116 0.9976383354470824 0.9971401523689873 1 0.9784091595592406 0.9798712306606274 0.9977360307618728 0.2547707281683196 1:0 2:0 3:1 4:10 5:14 6:15 7:6 8:0 9:0 10:0 11:5 12:11 13:6 14:8 15:16 16:0 17:0 18:0 19:0 20:0 21:0 22:6 23:15 24:0 25:0 26:0 27:0 28:0 29:3 30:15 31:8 32:0 33:0 34:0 35:0 36:3 37:15 38:10 39:0 40:0 41:0 42:7 43:10 44:15 45:10 46:0 47:2 48:0 49:0 50:15 51:16 52:15 53:6 54:13 55:11 56:0 57:0 58:0 59:1 60:10 61:15 62:11 63:2 64:0 
-0.9320327465111673 -0.7533274592414337 -0.9600063305415882 0.9566777471851933 0.9598657830364485 0.9389420765983832 0.9398637361715966 0.9567696753000157 0.2447487829598196 1:0 2:2 3:11 4:15 5:14 6:6 7:0 8:0 9:0 10:2 11:12 12:15 13:16 14:11 15:0 16:0 17:0 18:0 19:6 20:16 21:16 22:10 23:2 24:0 25:0 26:0 27:1 28:9 29:12 30:15 31:14 32:0 33:0 34:0 35:0 36:0 37:1 38:12 39:15 40:0 41:0 42:0 43:0 44:3 45:13 46:16 47:5 48:0 49:0 50:7 51:12 52:16 53:14 54:4 55:0 56:0 57:0 58:13 59:13 60:7 61:1 62:0 63:0 64:0 
-0.9731389461797014 -0.7870056293350708 -1 0.998761825471538 1 0.98094330366164 0.9819201672230878 0.9992741113426998 0.2555041821683638 1:0 2:2 3:12 4:12 5:15 6:11 7:0 8:0 9:0 10:2 11:12 12:15 13:16 14:6 15:0 16:0 17:0 18:0 19:2 20:15 21:12 22:0 23:0 24:0 25:0 26:0 27:9 28:16 29:16 30:10 31:1 32:0 33:0 34:0 35:6 36:10 37:10 38:16 39:7 40:0 41:0 42:0 43:0 44:0 45:4 46:16 47:7 48:0 49:0 50:5 51:12 52:11 53:15 54:14 55:1 56:0 57:0 58:3 59:14 60:15 61:10 62:1 63:0 64:0 
-0.9732477637695943 -0.7869797324668338 -1 0.9994439086049622 1 0.9808700386560405 0.9821079551805206 0.9999999780055748 0.2554880887986176 1:0 2:0 3:12 4:13 5:14 6:4 7:0 8:0 9:0 10:0 11:1 12:0 13:8 14:6 15:0 16:0 17:0 18:0 19:0 20:4 21:13 22:0 23:0 24:0 25:0 26:0 27:3 28:15 29:8 30:3 31:0 32:0 33:0 34:0 35:4 36:8 37:8 38:13 39:4 40:0 41:0 42:0 43:0 44:0 45:0 46:4 47:8 48:0 49:0 50:1 51:0 52:0 53:3 54:12 55:5 56:0 57:0 58:6 59:14 60:14 61:11 62:4 63:0 64:0 
-0.9729742634871844 -0.7866147089325815 -1 0.9992225010638133 1 0.9805819012724633 0.9813836783566662 0.9993593149502673 0.2551092560873149 1:0 2:0 3:2 4:13 5:16 6:11 7:2 8:0 9:0 10:0 11:1 12:5 13:5 14:15 15:6 16:0 17:0 18:0 19:0 20:1 21:13 22:10 23:0 24:0 25:0 26:0 27:0 28:3 29:16 30:6 31:0 32:0 33:0 34:0 35:0 36:0 37:5 38:15 39:10 40:0 41:0 42:0 43:0 44:0 45:0 46:2 47:16 48:2 49:1 50:7 51:4 52:5 53:9 54:15 55:10 56:0 57:1 58:11 59:16 60:14 61:10 62:4 63:0 64:0 
-0.9731959440480668 -0.7870989201072673 -1 0.9989426495271045 1 0.9804667591252879 0.9813288273538654 0.9993725261144941 0.2552783040559242 1:0 2:0 3:8 4:13 5:15 6:6 7:0 8:0 9:0 10:5 11:16 12:9 13:11 14:16 15:0 16:0 17:0 18:9 19:9 20:2 21:13 22:13 23:0 24:0 25:0 26:0 27:0 28:3 29:13 30:16 31:4 32:0 33:0 34:0 35:0 36:0 37:0 38:13 39:11 40:0 41:0 42:0 43:0 44:0 45:0 46:13 47:10 48:0 49:0 50:5 51:10 52:8 53:12 54:16 55:4 56:0 57:0 58:3 59:12 60:15 61:11 62:4 63:0 64:0 
-0.972925163741552 -0.7873287051362692 -1 0.9999978169601769 1 0.9811871068871004 0.9816110164319799 0.9999918027693981 0.2555490938658334 1:0 2:0 3:0 4:0 5:6 6:15 7:5 8:0 9:0 10:0 11:0 12:3 13:16 14:16 15:12 16:0 17:0 18:0 19:0 20:0 21:11 22:16 23:6 24:0 25:0 26:0 27:0 28:8 29:16 30:16 31:3 32:0 33:0 34:0 35:0 36:1 37:4 38:14 39:8 40:0 41:0 42:3 43:5 44:0 45:3 46:16 47:7 48:0 49:0 50:11 51:14 52:9 53:15 54:13 55:1 56:0 57:0 58:4 59:12 60:13 61:10 62:1 63:0 64:0 
-0.9725852193980146 -0.7856284840366616 -1 0.9981049536690945 1 0.9804119143231338 0.9806247754806329 0.9985013182169389 0.2556561764379057 1:0 2:0 3:0 4:4 5:14 6:10 7:0 8:0 9:0 10:0 11:0 12:11 13:10 14:16 15:3 16:0 17:0 18:0 19:0 20:0 21:10 22:15 23:1 24:0 25:0 26:0 27:0 28:12 29:16 30:15 31:1 32:0 33:0 34:0 35:0 36:7 37:4 38:16 39:4 40:0 41:0 42:0 43:0 44:0 45:6 46:15 47:1 48:0 49:0 50:0 51:7 52:12 53:15 54:6 55:0 56:0 57:0 58:2 59:14 60:10 61:2 62:0 63:0 64:0 
-0.9727482184116077 -0.786158517475287 -1 0.9984655034603704 1 0.980163835759872 0.9807234817622049 0.998561881294872 0.2552947896114341 1:0 2:0 3:7 4:12 5:14 6:8 7:0 8:0 9:0 10:3 11:16 12:15 13:13 14:16 15:3 16:0 17:0 18:0 19:4 20:6 21:12 22:16 23:4 24:0 25:0 26:0 27:14 28:16 29:16 30:14 31:0 32:0 33:0 34:0 35:5 36:8 37:12 38:16 39:3 40:0 41:0 42:0 43:7 44:1 45:11 46:16 47:3 48:0 49:0 50:3 51:16 52:16 53:16 54:10 55:0 56:0 57:0 58:0 59:9 60:12 61:6 62:0 63:0 64:0 
-0.9731791684916833 -0.7864649482172533 -1 0.9988409245783831 1 0.9805629527432739 0.9813319654274461 0.9995082839273151 0.2554341191406164 1:0 2:0 3:0 4:9 5:15 6:2 7:0 8:0 9:0 10:0 11:6 12:10 13:14 14:2 15:0 16:0 17:0 18:0 19:0 20:4 21:14 22:6 23:0 24:0 25:0 26:0 27:0 28:0 29:6 30:11 31:8 32:0 33:0 34:0 35:0 36:0 37:0 38:6 39:10 40:0 41:0 42:0 43:0 44:0 45:3 46:14 47:2 48:0 49:0 50:10 51:4 52:4 53:15 54:6 55:0 56:0 57:0 58:3 59:14 60:13 61:4 62:0 63:0 64:0 
-0.9338190156425764 -0.75463339405793 -0.9614370596930378 0.9586542397373053 0.9616136490904081 0.9406440193491737 0.9419770296365011 0.958624936693488 0.2451511079709272 1:0 2:2 3:10 4:14 5:15 6:6 7:0 8:0 9:0 10:5 11:12 12:9 13:16 14:10 15:0 16:0 17:0 18:0 19:2 20:14 21:16 22:12 23:3 24:0 25:0 26:0 27:4 28:12 29:12 30:14 31:12 32:0 33:0 34:0 35:0 36:0 37:1 38:14 39:10 40:0 41:0 42:0 43:0 44:4 45:14 46:13 47:1 48:0 49:0 50:5 51:10 52:16 53:11 54:1 55:0 56:0 57:0 58:10 59:11 60:4 61:0 62:0 63:0 64:0 
-0.9719570452394855 -0.7859097224619321 -1 0.9985206432530397 1 0.979867256110335 0.9807825676785207 0.9984639435767637 0.2552816131360779 1:0 2:3 3:10 4:13 5:14 6:6 7:0 8:0 9:0 10:7 11:16 12:15 13:16 14:12 15:0 16:0 17:0 18:0 19:1 20:13 21:16 22:7 23:0 24:0 25:0 26:0 27:14 28:16 29:16 30:10 31:1 32:0 33:0 34:0 35:11 36:12 37:13 38:16 39:8 40:0 41:0 42:0 43:0 44:4 45:13 46:16 47:6 48:0 49:0 50:0 51:12 52:16 53:16 54:8 55:0 56:0 57:0 58:0 59:11 60:10 61:2 62:0 63:0 64:0 
-0.9723534332000912 -0.7861256898727814 -1 0.9987077053836982 1 0.9801941594347587 0.9814417813310456 0.9989978141367237 0.2553772146404533 1:0 2:6 3:12 4:12 5:13 6:16 7:8 8:0 9:0 10:2 11:4 12:4 13:10 14:15 15:3 16:0 17:0 18:0 19:0 20:7 21:15 22:3 23:0 24:0 25:0 26:0 27:1 28:13 29:15 30:10 31:0 32:0 33:0 34:0 35:0 36:0 37:1 38:14 39:6 40:0 41:0 42:0 43:0 44:0 45:0 46:12 47:7 48:0 49:0 50:5 51:9 52:4 53:10 54:15 55:1 56:0 57:0 58:3 59:11 60:16 61:11 62:2 63:0 64:0 
-0.9726352518343172 -0.7861499106143175 -1 0.9986115296209582 1 0.9800059260317482 0.9812393323608409 0.9986856350158166 0.2553562079030796 1:0 2:0 3:1 4:10 5:14 6:9 7:0 8:0 9:0 10:0 11:14 12:16 13:13 14:16 15:4 16:0 17:0 18:0 19:5 20:4 21:10 22:16 23:3 24:0 25:0 26:0 27:1 28:13 29:16 30:11 31:0 32:0 33:0 34:0 35:2 36:14 37:16 38:15 39:1 40:0 41:0 42:0 43:0 44:0 45:5 46:16 47:4 48:0 49:0 50:2 51:11 52:12 53:15 54:16 55:2 56:0 57:0 58:2 59:12 60:12 61:10 62:4 63:0 64:0 
-0.9737957676845055 -0.7869530690029398 -1 0.9999993506747136 1 0.9807958340934939 0.9816123453080207 0.9999984525408465 0.2555493872104497 1:0 2:2 3:9 4:12 5:16 6:14 7:1 8:0 9:0 10:9 11:10 12:5 13:3 14:15 15:4 16:0 17:0 18:0 19:0 20:4 21:14 22:10 23:0 24:0 25:0 26:0 27:5 28:16 29:16 30:15 31:6 32:0 33:0 34:0 35:1 36:3 37:0 38:6 39:12 40:0 41:0 42:0 43:0 44:1 45:8 46:15 47:5 48:0 49:0 50:1 51:8 52:15 53:12 54:3 55:0 56:0 57:0 58:7 59:12 60:4 61:0 62:0 63:0 64:0 
-0.9730747538565369 -0.7860463528570203 -1 0.9987538170202659 1 0.9801946230560065 0.9813764291280053 0.9991890243186806 0.2553800413645929 1:0 2:4 3:14 4:12 5:12 6:12 7:0 8:0 9:0 10:4 11:14 12:7 13:14 14:10 15:0 16:0 17:0 18:0 19:7 20:5 21:14 22:1 23:0 24:0 25:0 26:0 27:0 28:14 29:16 30:10 31:0 32:0 33:0 34:0 35:0 36:7 37:4 38:13 39:6 40:0 41:0 42:3 43:9 44:0 45:0 46:13 47:5 48:0 49:0 50:4 51:14 52:4 53:9 54:13 55:0 56:0 57:0 58:0 59:9 60:16 61:11 62:1 63:0 64:0 
-0.9729213505413818 -0.786679107244273 -1 1 1 0.9807583917660113 0.9820620182111702 0.9999999999999158 0.2559522164080353 1:0 2:0 3:0 4:1 5:6 6:8 7:8 8:2 9:0 10:0 11:0 12:9 13:16 14:12 15:15 16:14 17:0 18:0 19:0 20:0 21:2 22:8 23:15 24:10 25:0 26:0 27:0 28:0 29:11 30:16 31:16 32:3 33:0 34:0 35:0 36:0 37:1 38:4 39:12 40:12 41:2 42:0 43:0 44:0 45:1 46:6 47:15 48:10 49:14 50:13 51:12 52:16 53:16 54:16 55:9 56:1 57:4 58:8 59:8 60:7 61:4 62:1 63:0 64:0 
-0.9527135132379339 -0.7707490142662246 -0.9810023856079499 0.9783438676427404 0.9814616633646162 0.9603435006091573 0.9614461344642379 0.9783898351036528 0.2497249910004876 1:0 2:0 3:6 4:13 5:16 6:11 7:1 8:0 9:0 10:0 11:6 12:8 13:7 14:16 15:7 16:0 17:0 18:0 19:0 20:0 21:6 22:16 23:2 24:0 25:0 26:0 27:0 28:14 29:16 30:14 31:2 32:0 33:0 34:0 35:0 36:7 37:8 38:14 39:8 40:0 41:0 42:0 43:0 44:0 45:3 46:15 47:6 48:0 49:0 50:7 51:14 52:9 53:15 54:12 55:0 56:0 57:0 58:3 59:13 60:14 61:8 62:0 63:0 64:0 
-0.9719040112305627 -0.7864201907184759 -1 0.9980147829888498 1 0.980182050270939 0.9806258658288948 0.9984147577530619 0.2556278527892068 1:0 2:0 3:10 4:12 5:12 6:15 7:8 8:0 9:0 10:1 11:12 12:12 13:16 14:16 15:9 16:0 17:0 18:0 19:1 20:13 21:16 22:14 23:2 24:0 25:0 26:0 27:8 28:16 29:16 30:16 31:16 32:4 33:0 34:0 35:1 36:4 37:0 38:2 39:16 40:7 41:1 42:5 43:0 44:0 45:1 46:12 47:15 48:2 49:6 50:16 51:10 52:10 53:15 54:15 55:6 56:0 57:0 58:8 59:12 60:12 61:10 62:2 63:0 64:0 
-0.9653323482365151 -0.780470694454887 -0.9940875247913805 0.9907995409826148 0.993619967212414 0.9729492372868276 0.9740682990627818 0.9912356004432487 0.25338963348976 1:0 2:0 3:2 4:14 5:14 6:3 7:0 8:0 9:0 10:0 11:2 12:7 13:11 14:10 15:0 16:0 17:0 18:0 19:0 20:0 21:10 22:9 23:0 24:0 25:0 26:0 27:0 28:7 29:16 30:4 31:0 32:0 33:0 34:0 35:0 36:6 37:10 38:15 39:1 40:0 41:0 42:0 43:0 44:0 45:0 46:14 47:4 48:0 49:0 50:2 51:10 52:4 53:8 54:15 55:1 56:0 57:0 58:1 59:10 60:16 61:11 62:3 63:0 64:0 
-0.9606715721330172 -0.7766735716175057 -0.9898939763603972 0.9865588174881627 0.9897798346983278 0.9685004932958966 0.9688801018094889 0.9865345137890046 0.2520612005441745 1:0 2:0 3:5 4:14 5:14 6:2 7:0 8:0 9:0 10:0 11:15 12:7 13:14 14:4 15:0 16:0 17:0 18:0 19:0 20:7 21:16 22:3 23:0 24:0 25:0 26:0 27:3 28:15 29:11 30:14 31:1 32:0 33:0 34:0 35:0 36:0 37:0 38:14 39:4 40:0 41:0 42:0 43:2 44:0 45:1 46:15 47:4 48:0 49:0 50:5 51:14 52:5 53:15 54:10 55:0 56:0 57:0 58:0 59:9 60:15 61:9 62:0 63:0 64:0 
-0.9727934848335357 -0.7870783870761779 -1 0.9991050241180656 1 0.9808584905745316 0.9818359157903025 0.9990903071074341 0.2555919437304822 1:0 2:0 3:1 4:9 5:12 6:7 7:0 8:0 9:0 10:0 11:11 12:16 13:16 14:16 15:0 16:0 17:0 18:0 19:5 20:13 21:16 22:14 23:1 24:0 25:0 26:0 27:0 28:14 29:16 30:16 31:15 32:1 33:0 34:0 35:0 36:5 37:9 38:16 39:16 40:2 41:0 42:2 43:0 44:1 45:13 46:16 47:9 48:0 49:2 50:16 51:16 52:16 53:16 54:10 55:0 56:0 57:1 58:11 59:12 60:12 61:6 62:0 63:0 64:0 
-0.9732900447885534 -0.7863786336542682 -1 0.9999999999963618 1 0.9806926032417661 0.9816346851275831 0.9999999998117889 0.2550598188769122 1:0 2:7 3:13 4:16 5:16 6:15 7:9 8:0 9:0 10:10 11:6 12:4 13:5 14:13 15:14 16:0 17:0 18:0 19:0 20:1 21:13 22:12 23:2 24:0 25:0 26:0 27:0 28:3 29:15 30:15 31:11 32:3 33:0 34:0 35:0 36:0 37:0 38:4 39:10 40:12 41:0 42:0 43:0 44:0 45:0 46:0 47:10 48:11 49:9 50:5 51:4 52:5 53:8 54:14 55:13 56:1 57:8 58:14 59:16 60:12 61:11 62:6 63:0 64:0 
-0.9734136316603125 -0.7871800314143296 -1 0.9999997042973623 1 0.9808597843646473 0.9821291602500705 0.9999994152376249 0.2559132232505069 1:0 2:0 3:4 4:10 5:10 6:6 7:0 8:0 9:0 10:6 11:15 12:9 13:9 14:14 15:8 16:0 17:0 18:0 19:0 20:1 21:5 22:13 23:8 24:0 25:0 26:0 27:0 28:9 29:15 30:15 31:14 32:3 33:0 34:0 35:0 36:0 37:0 38:0 39:8 40:14 41:0 42:0 43:0 44:0 45:0 46:0 47:10 48:12 49:12 50:9 51:8 52:8 53:12 54:15 55:12 56:3 57:4 58:8 59:9 60:8 61:7 62:3 63:0 64:0 
-0.9731432546177549 -0.7865885060773573 -1 0.9999999999969278 1 0.9809356445206288 0.9822302529278322 0.999999999988421 0.255575992476941 1:0 2:0 3:1 4:8 5:14 6:16 7:9 8:0 9:0 10:0 11:8 12:15 13:7 14:5 15:16 16:4 17:0 18:0 19:0 20:1 21:0 22:6 23:16 24:3 25:0 26:0 27:0 28:0 29:10 30:16 31:8 32:0 33:0 34:0 35:0 36:0 37:9 38:14 39:14 40:1 41:0 42:0 43:0 44:0 45:0 46:1 47:16 48:4 49:2 50:12 51:10 52:8 53:8 54:11 55:16 56:2 57:1 58:8 59:12 60:14 61:15 62:11 63:4 64:0 
-0.9731352058965443 -0.7869177700438417 -1 0.999995597875722 1 0.9813337092249029 0.9821784416521258 0.99998699397465 0.2555348751382823 1:0 2:1 3:12 4:16 5:13 6:5 7:0 8:0 9:0 10:7 11:13 12:1 13:5 14:15 15:4 16:0 17:0 18:2 19:8 20:0 21:1 22:14 23:5 24:0 25:0 26:0 27:0 28:3 29:16 30:16 31:9 32:0 33:0 34:0 35:0 36:0 37:3 38:2 39:14 40:5 41:0 42:0 43:0 44:0 45:0 46:0 47:10 48:8 49:5 50:7 51:4 52:4 53:6 54:12 55:14 56:2 57:3 58:13 59:16 60:15 61:12 62:7 63:1 64:0 
-0.9579467033052647 -0.7741917396561496 -0.9861431023711384 0.9831585726234063 0.9862546148028725 0.964853786985478 0.966291188626861 0.9830827039952437 0.2513576941974801 1:0 2:0 3:7 4:15 5:13 6:3 7:0 8:0 9:0 10:0 11:11 12:5 13:10 14:8 15:0 16:0 17:0 18:0 19:0 20:3 21:14 22:5 23:0 24:0 25:0 26:0 27:2 28:16 29:16 30:9 31:0 32:0 33:0 34:0 35:0 36:0 37:2 38:15 39:3 40:0 41:0 42:0 43:0 44:0 45:0 46:13 47:4 48:0 49:0 50:1 51:6 52:4 53:11 54:13 55:0 56:0 57:0 58:2 59:14 60:14 61:9 62:1 63:0 64:0 
-0.9723895614736549 -0.7864028276399828 -1 0.998949510832974 1 0.9798841069559471 0.9807206340328909 0.9984158482531602 0.2556419632305815 1:0 2:3 3:11 4:16 5:16 6:12 7:5 8:0 9:0 10:6 11:12 12:8 13:8 14:14 15:16 16:0 17:0 18:0 19:2 20:8 21:14 22:16 23:10 24:0 25:0 26:0 27:8 28:16 29:16 30:16 31:13 32:0 33:0 34:0 35:0 36:0 37:0 38:5 39:16 40:4 41:0 42:0 43:0 44:0 45:1 46:10 47:15 48:2 49:3 50:15 51:8 52:10 53:15 54:15 55:5 56:0 57:1 58:11 59:14 60:12 61:8 62:2 63:0 64:0 
-0.9733079683466876 -0.7872912127273938 -1 0.99941275412894 1 0.9811475256248939 0.9821477414574223 0.9999484560123941 0.255556403247883 1:0 2:4 3:14 4:16 5:14 6:6 7:0 8:0 9:0 10:3 11:4 12:0 13:5 14:16 15:0 16:0 17:0 18:0 19:0 20:3 21:13 22:9 23:0 24:0 25:0 26:3 27:13 28:16 29:16 30:8 31:1 32:0 33:0 34:3 35:7 36:4 37:4 38:11 39:10 40:0 41:0 42:0 43:0 44:0 45:0 46:8 47:10 48:0 49:0 50:5 51:2 52:4 53:11 54:13 55:2 56:0 57:0 58:7 59:16 60:13 61:8 62:1 63:0 64:0 
-0.9683724992272433 -0.7826778511054235 -0.9972391120188008 0.9941571425823343 0.9976264642993629 0.9759875790885782 0.9766497524258551 0.9949014913332872 0.2542114766328238 1:0 2:0 3:3 4:13 5:16 6:7 7:0 8:0 9:0 10:0 11:3 12:7 13:9 14:14 15:0 16:0 17:0 18:0 19:0 20:2 21:15 22:10 23:0 24:0 25:0 26:0 27:0 28:12 29:13 30:16 31:4 32:0 33:0 34:0 35:0 36:0 37:0 38:12 39:8 40:0 41:0 42:0 43:2 44:0 45:3 46:16 47:3 48:0 49:0 50:7 51:13 52:6 53:15 54:10 55:0 56:0 57:0 58:2 59:14 60:14 61:7 62:0 63:0 64:0 
-0.9729146147359922 -0.7869677886839966 -1 0.9999999993827571 1 0.9815203404553333 0.9820811949084309 0.9999999988409992 0.2556997608494144 1:0 2:0 3:0 4:3 5:13 6:14 7:3 8:0 9:0 10:0 11:1 12:15 13:15 14:16 15:8 16:0 17:0 18:0 19:0 20:9 21:7 22:16 23:7 24:0 25:0 26:0 27:0 28:0 29:15 30:16 31:7 32:0 33:0 34:0 35:0 36:0 37:11 38:14 39:15 40:0 41:0 42:15 43:8 44:0 45:1 46:14 47:14 48:0 49:0 50:12 51:16 52:12 53:14 54:16 55:6 56:0 57:0 58:1 59:9 60:12 61:12 62:5 63:0 64:0 
-0.9661749074145266 -0.7812297319416254 -0.9951234902385697 0.9921579969136803 0.9954794748735221 0.9737520789628059 0.9751982068686997 0.9924429426849407 0.2541439942143245 1:0 2:0 3:10 4:13 5:14 6:6 7:0 8:0 9:0 10:7 11:16 12:13 13:16 14:16 15:0 16:0 17:0 18:4 19:10 20:10 21:16 22:9 23:0 24:0 25:0 26:5 27:14 28:16 29:16 30:7 31:1 32:0 33:0 34:11 35:16 36:12 37:14 38:16 39:12 40:0 41:0 42:1 43:2 44:0 45:3 46:14 47:16 48:0 49:0 50:13 51:15 52:15 53:16 54:16 55:6 56:0 57:0 58:9 59:12 60:12 61:8 62:2 63:0 64:0 
-0.9564368140253843 -0.7727642935041371 -0.9848875945413705 0.9816816697882357 0.9850231421912619 0.9638094827188813 0.9648495730826988 0.9821870589078701 0.2510150823192805 1:0 2:0 3:2 4:11 5:16 6:8 7:0 8:0 9:0 10:0 11:7 12:12 13:10 14:15 15:0 16:0 17:0 18:0 19:0 20:0 21:8 22:14 23:0 24:0 25:0 26:0 27:0 28:11 29:16 30:10 31:0 32:0 33:0 34:0 35:0 36:6 37:9 38:16 39:3 40:0 41:0 42:4 43:11 44:0 45:1 46:16 47:5 48:0 49:0 50:4 51:16 52:8 53:14 54:14 55:1 56:0 57:0 58:0 59:12 60:14 61:9 62:1 63:0 64:0 
-0.9727468823228123 -0.7865276748706178 -1 0.9989000937812177 1 0.980633348168642 0.981520892145231 0.9989321416315202 0.2558069044814252 1:0 2:0 3:1 4:11 5:15 6:9 7:0 8:0 9:0 10:0 11:13 12:12 13:5 14:15 15:4 16:0 17:0 18:0 19:2 20:0 21:1 22:14 23:7 24:0 25:0 26:0 27:0 28:0 29:11 30:16 31:2 32:0 33:0 34:0 35:0 36:0 37:3 38:13 39:9 40:0 41:0 42:0 43:0 44:0 45:0 46:9 47:12 48:0 49:0 50:5 51:5 52:7 53:12 54:16 55:4 56:0 57:0 58:8 59:15 60:12 61:9 62:2 63:0 64:0 
-0.9734780976383535 -0.7866606651395402 -1 0.9999764446147816 1 0.9814791098931297 0.9821164921978323 0.9999165765504512 0.2554651330282231 1:0 2:0 3:7 4:15 5:6 6:0 7:0 8:0 9:0 10:2 11:16 12:16 13:12 14:0 15:0 16:0 17:0 18:2 19:13 20:16 21:13 22:1 23:0 24:0 25:0 26:0 27:2 28:15 29:16 30:13 31:1 32:0 33:0 34:0 35:0 36:0 37:5 38:16 39:4 40:0 41:0 42:0 43:0 44:1 45:13 46:15 47:1 48:0 49:0 50:2 51:12 52:15 53:16 54:6 55:0 56:0 57:0 58:2 59:12 60:10 61:3 62:0 63:0 64:0 
-0.9733526884500463 -0.78669135209934 -1 0.9999990291961649 1 0.9806893807161124 0.9817239250786829 0.9999981286684867 0.2560474684854072 1:0 2:2 3:12 4:13 5:16 6:16 7:16 8:6 9:0 10:2 11:16 12:10 13:13 14:16 15:12 16:3 17:0 18:0 19:3 20:6 21:16 22:10 23:0 24:0 25:0 26:0 27:0 28:15 29:16 30:9 31:0 32:0 33:0 34:0 35:0 36:2 37:8 38:16 39:2 40:0 41:2 42:2 43:0 44:0 45:5 46:16 47:3 48:0 49:7 50:16 51:9 52:9 53:15 54:12 55:0 56:0 57:0 58:7 59:13 60:13 61:8 62:1 63:0 64:0 
-0.9735005832263294 -0.7866522876385862 -1 0.9994251821542208 1 0.9811962341013728 0.9820033349769907 0.9994969630487429 0.2554621926497084 1:0 2:2 3:12 4:14 5:14 6:0 7:0 8:0 9:0 10:0 11:7 12:15 13:13 14:0 15:0 16:0 17:0 18:1 19:13 20:16 21:9 22:7 23:1 24:0 25:0 26:3 27:15 28:12 29:12 30:14 31:11 32:0 33:0 34:0 35:0 36:0 37:3 38:15 39:8 40:0 41:0 42:0 43:0 44:4 45:15 46:10 47:0 48:0 49:0 50:3 51:9 52:15 53:6 54:0 55:0 56:0 57:0 58:9 59:12 60:3 61:0 62:0 63:0 64:0 
-0.9720418968280414 -0.7861221982115326 -1 0.9976846656391932 1 0.9792663854114164 0.9805722409421166 0.9979194454633629 0.255515648911274 1:0 2:0 3:0 4:10 5:16 6:9 7:0 8:0 9:0 10:0 11:3 12:10 13:1 14:15 15:3 16:0 17:0 18:0 19:0 20:0 21:4 22:14 23:0 24:0 25:0 26:0 27:0 28:3 29:15 30:16 31:10 32:0 33:0 34:0 35:0 36:3 37:4 38:1 39:13 40:4 41:1 42:2 43:0 44:0 45:0 46:1 47:15 48:2 49:3 50:14 51:2 52:1 53:6 54:15 55:6 56:0 57:0 58:7 59:15 60:15 61:10 62:4 63:0 64:0 
-0.9714048791082284 -0.7855879795316001 -1 0.997765193637016 1 0.9793998007138035 0.9805035898346653 0.9979409736351392 0.2550726043158347 1:0 2:0 3:1 4:12 5:16 6:12 7:1 8:0 9:0 10:0 11:2 12:5 13:0 14:9 15:4 16:0 17:0 18:0 19:0 20:0 21:3 22:14 23:2 24:0 25:0 26:0 27:0 28:8 29:16 30:12 31:1 32:0 33:0 34:0 35:0 36:1 37:1 38:8 39:11 40:0 41:0 42:0 43:0 44:0 45:0 46:6 47:10 48:0 49:0 50:9 51:3 52:0 53:5 54:14 55:2 56:0 57:0 58:3 59:14 60:16 61:10 62:2 63:0 64:0 
-0.9736710609931133 -0.7866448546856485 -1 0.9994745891178262 1 0.9813089610171618 0.9815208009892382 1 0.2560328487007212 1:0 2:0 3:3 4:12 5:13 6:1 7:0 8:0 9:0 10:0 11:8 12:13 13:16 14:2 15:0 16:0 17:0 18:0 19:1 20:14 21:14 22:1 23:0 24:0 25:0 26:0 27:7 28:15 29:14 30:11 31:0 32:0 33:0 34:0 35:0 36:0 37:9 38:11 39:0 40:0 41:0 42:0 43:0 44:1 45:14 46:6 47:0 48:0 49:0 50:0 51:4 52:11 53:13 54:0 55:0 56:0 57:0 58:0 59:9 60:12 61:3 62:0 63:0 64:0 
-0.9737197877937854 -0.7866178437563022 -1 0.9994785127515343 1 0.9812147712893113 0.9815233993657497 0.9999999965105864 0.2554675794363714 1:0 2:0 3:3 4:16 5:13 6:16 7:10 8:0 9:0 10:0 11:0 12:5 13:11 14:16 15:6 16:0 17:0 18:0 19:0 20:3 21:15 22:10 23:0 24:0 25:0 26:0 27:2 28:15 29:16 30:3 31:0 32:0 33:0 34:0 35:3 36:9 37:11 38:11 39:0 40:0 41:0 42:5 43:1 44:0 45:8 46:12 47:0 48:0 49:0 50:11 51:12 52:7 53:13 54:10 55:0 56:0 57:0 58:1 59:11 60:15 61:10 62:1 63:0 64:0 
-0.9733696902291942 -0.7872540629121288 -1 0.9993695418312596 1 0.980857014663963 0.9820116999421321 0.9998421155888801 0.2554490663978486 1:0 2:0 3:3 4:14 5:15 6:6 7:0 8:0 9:0 10:0 11:7 12:10 13:5 14:12 15:0 16:0 17:0 18:0 19:1 20:2 21:10 22:11 23:0 24:0 25:0 26:0 27:0 28:8 29:14 30:14 31:8 32:0 33:0 34:2 35:0 36:1 37:0 38:2 39:15 40:0 41:0 42:16 43:1 44:0 45:0 46:4 47:14 48:0 49:0 50:10 51:10 52:2 53:5 54:13 55:5 56:0 57:0 58:1 59:10 60:16 61:13 62:5 63:0 64:0 
-0.9735345198695987 -0.7868215826219903 -1 0.9999988235965254 1 0.9807912017702168 0.9817363161551916 0.999997470594901 0.2556962115441563 1:0 2:0 3:8 4:14 5:15 6:5 7:0 8:0 9:0 10:7 11:15 12:6 13:13 14:11 15:0 16:0 17:0 18:0 19:1 20:6 21:16 22:3 23:0 24:0 25:0 26:0 27:4 28:16 29:15 30:12 31:8 32:0 33:0 34:0 35:3 36:12 37:10 38:8 39:16 40:4 41:0 42:0 43:0 44:0 45:1 46:10 47:15 48:2 49:2 50:7 51:7 52:10 53:16 54:14 55:3 56:0 57:2 58:14 59:14 60:11 61:5 62:0 63:0 64:0 
-0.9732989630270994 -0.7867715863609125 -1 1 1 0.9808313802546004 0.9820932141371616 1 0.2558981560242196 1:0 2:8 3:16 4:16 5:13 6:8 7:1 8:0 9:0 10:1 11:0 12:0 13:4 14:11 15:13 16:0 17:0 18:0 19:0 20:0 21:1 22:8 23:13 24:0 25:0 26:1 27:7 28:11 29:16 30:11 31:1 32:0 33:0 34:2 35:11 36:12 37:12 38:15 39:12 40:1 41:0 42:0 43:0 44:0 45:0 46:0 47:14 48:4 49:1 50:3 51:0 52:2 53:6 54:12 55:12 56:1 57:3 58:14 59:16 60:15 61:11 62:6 63:0 64:0 
-0.9732170627254861 -0.7870893287357567 -1 0.9991187088414023 1 0.9809302398203319 0.9816433960618043 0.9992034392569609 0.2558388255674228 1:0 2:0 3:4 4:11 5:16 6:11 7:0 8:0 9:0 10:0 11:14 12:8 13:5 14:16 15:2 16:0 17:0 18:0 19:0 20:1 21:13 22:16 23:4 24:0 25:0 26:0 27:0 28:2 29:10 30:8 31:14 32:0 33:0 34:0 35:0 36:0 37:0 38:5 39:14 40:0 41:0 42:4 43:0 44:0 45:1 46:13 47:8 48:0 49:0 50:14 51:8 52:6 53:14 54:10 55:0 56:0 57:0 58:3 59:14 60:13 61:5 62:0 63:0 64:0 
-0.9696925876818161 -0.784046912394455 -0.9986885043840185 0.9953162854633543 0.9988573942853407 0.9770813331114855 0.9785109835735963 0.9958151272650951 0.2550914884695965 1:0 2:1 3:11 4:16 5:13 6:1 7:0 8:0 9:0 10:5 11:10 12:4 13:14 14:4 15:0 16:0 17:0 18:0 19:0 20:6 21:16 22:5 23:0 24:0 25:0 26:0 27:0 28:10 29:10 30:15 31:4 32:0 33:0 34:0 35:0 36:0 37:0 38:9 39:10 40:0 41:0 42:0 43:0 44:0 45:0 46:11 47:9 48:0 49:0 50:6 51:6 52:5 53:12 54:14 55:2 56:0 57:0 58:6 59:15 60:13 61:9 62:1 63:0 64:0 
-0.9665558209789739 -0.7816120294017809 -0.9952756669853041 0.9919014803936991 0.99509958165692 0.9739057371585343 0.9745225011917317 0.992297138570462 0.2540772477464561 1:0 2:1 3:9 4:14 5:12 6:6 7:0 8:0 9:0 10:13 11:16 12:14 13:16 14:15 15:0 16:0 17:0 18:9 19:7 20:10 21:16 22:9 23:0 24:0 25:0 26:0 27:12 28:16 29:15 30:7 31:1 32:0 33:0 34:0 35:15 36:16 37:16 38:16 39:13 40:0 41:0 42:0 43:0 44:0 45:8 46:16 47:15 48:0 49:0 50:9 51:16 52:16 53:16 54:15 55:6 56:0 57:0 58:6 59:12 60:12 61:7 62:2 63:0 64:0 
-0.9729517034188255 -0.7871048832904337 -1 0.9993051508957478 1 0.981363037914938 0.9814031062756097 0.9993073964453052 0.2555559797689677 1:0 2:0 3:7 4:16 5:14 6:14 7:2 8:0 9:0 10:0 11:0 12:10 13:16 14:8 15:0 16:0 17:0 18:0 19:0 20:12 21:16 22:13 23:3 24:0 25:0 26:0 27:0 28:2 29:4 30:9 31:12 32:0 33:0 34:0 35:0 36:0 37:0 38:8 39:11 40:0 41:0 42:0 43:0 44:0 45:3 46:15 47:4 48:0 49:0 50:11 51:10 52:8 53:15 54:6 55:0 56:0 57:0 58:8 59:15 60:11 61:4 62:0 63:0 64:0 
-0.973108164392798 -0.7873216132483318 -1 0.9999999999682565 1 0.9806970982431656 0.9820970439168165 0.9999999997345403 0.2554780492132053 1:0 2:8 3:12 4:12 5:10 6:8 7:8 8:4 9:0 10:10 11:16 12:12 13:12 14:16 15:16 16:10 17:0 18:3 19:11 20:0 21:6 22:16 23:15 24:2 25:0 26:0 27:0 28:0 29:5 30:12 31:15 32:12 33:0 34:0 35:0 36:0 37:0 38:0 39:11 40:14 41:3 42:10 43:0 44:1 45:6 46:14 47:16 48:6 49:14 50:16 51:13 52:16 53:16 54:12 55:3 56:0 57:7 58:12 59:11 60:7 61:2 62:0 63:0 64:0 
-0.9727018877703125 -0.7870833679073637 -1 0.9992045750633011 1 0.9805868726973908 0.9819229097032262 0.9993726224651986 0.2554916245337215 1:0 2:0 3:4 4:10 5:12 6:6 7:0 8:0 9:0 10:3 11:16 12:16 13:16 14:16 15:0 16:0 17:0 18:0 19:7 20:14 21:16 22:12 23:0 24:0 25:0 26:0 27:4 28:16 29:16 30:6 31:0 32:0 33:0 34:0 35:0 36:10 37:16 38:15 39:2 40:0 41:0 42:0 43:8 44:11 45:11 46:16 47:8 48:0 49:0 50:7 51:16 52:16 53:16 54:16 55:4 56:0 57:0 58:3 59:12 60:12 61:9 62:2 63:0 64:0 
-0.9731007872500599 -0.7867669328609956 -1 0.9999998598164377 1 0.9808895016024478 0.9821758916729334 0.9999998181087432 0.2560431593989007 1:0 2:0 3:4 4:13 5:16 6:13 7:3 8:0 9:0 10:0 11:15 12:7 13:4 14:10 15:11 16:0 17:0 18:0 19:2 20:0 21:2 22:13 23:7 24:0 25:0 26:0 27:0 28:8 29:15 30:12 31:0 32:0 33:0 34:0 35:0 36:9 37:9 38:15 39:6 40:0 41:0 42:8 43:2 44:0 45:0 46:5 47:12 48:0 49:0 50:9 51:14 52:5 53:4 54:11 55:11 56:0 57:0 58:0 59:7 60:14 61:14 62:11 63:1 64:0 
-0.969778747072673 -0.7846705429847545 -0.9990190038811945 0.9956421607088106 0.9990888569853662 0.9775285811812343 0.9787659552426777 0.9961032073550355 0.2550856907656881 1:0 2:1 3:9 4:15 5:12 6:1 7:0 8:0 9:0 10:6 11:13 12:4 13:12 14:7 15:0 16:0 17:0 18:0 19:1 20:0 21:8 22:8 23:0 24:0 25:0 26:0 27:0 28:7 29:14 30:7 31:0 32:0 33:0 34:0 35:0 36:11 37:11 38:15 39:3 40:0 41:0 42:0 43:0 44:0 45:0 46:13 47:7 48:0 49:0 50:7 51:12 52:5 53:12 54:13 55:1 56:0 57:0 58:2 59:14 60:14 61:8 62:1 63:0 64:0 
-0.9572076031858816 -0.7739491183526802 -0.9862432133095732 0.9832366935450908 0.9864532198155394 0.96492664939227 0.9663718893700148 0.9833738786850004 0.2510458727101834 1:0 2:0 3:1 4:12 5:15 6:7 7:0 8:0 9:0 10:0 11:5 12:9 13:5 14:16 15:0 16:0 17:0 18:0 19:0 20:0 21:4 22:15 23:0 24:0 25:0 26:0 27:0 28:3 29:13 30:11 31:0 32:0 33:0 34:0 35:0 36:5 37:10 38:16 39:2 40:0 41:0 42:0 43:4 44:0 45:2 46:16 47:1 48:0 49:0 50:2 51:16 52:5 53:10 54:11 55:0 56:0 57:0 58:0 59:8 60:14 61:12 62:1 63:0 64:0 
